3000 128
<pad> 0.000000 0.000000 0.000000 0.000000 0.000000 0.000000 0.000000 0.000000 0.000000 0.000000 0.000000 0.000000 0.000000 0.000000 0.000000 0.000000 0.000000 0.000000 0.000000 0.000000 0.000000 0.000000 0.000000 0.000000 0.000000 0.000000 0.000000 0.000000 0.000000 0.000000 0.000000 0.000000 0.000000 0.000000 0.000000 0.000000 0.000000 0.000000 0.000000 0.000000 0.000000 0.000000 0.000000 0.000000 0.000000 0.000000 0.000000 0.000000 0.000000 0.000000 0.000000 0.000000 0.000000 0.000000 0.000000 0.000000 0.000000 0.000000 0.000000 0.000000 0.000000 0.000000 0.000000 0.000000 0.000000 0.000000 0.000000 0.000000 0.000000 0.000000 0.000000 0.000000 0.000000 0.000000 0.000000 0.000000 0.000000 0.000000 0.000000 0.000000 0.000000 0.000000 0.000000 0.000000 0.000000 0.000000 0.000000 0.000000 0.000000 0.000000 0.000000 0.000000 0.000000 0.000000 0.000000 0.000000 0.000000 0.000000 0.000000 0.000000 0.000000 0.000000 0.000000 0.000000 0.000000 0.000000 0.000000 0.000000 0.000000 0.000000 0.000000 0.000000 0.000000 0.000000 0.000000 0.000000 0.000000 0.000000 0.000000 0.000000 0.000000 0.000000 0.000000 0.000000 0.000000 0.000000 0.000000 0.000000
<start> -1.766366 0.769080 -0.705105 0.635167 2.474595 -0.322716 -0.130654 1.987642 -0.147315 0.621813 -0.554534 0.094301 -0.924228 0.251485 0.628449 2.202026 0.738336 -0.375054 0.710922 -1.512009 0.333058 -0.952932 0.341949 -0.155276 0.008064 -0.582660 -0.647225 0.122530 0.611671 0.030056 -1.554276 1.033651 1.495903 -0.574261 -0.588327 -0.027992 0.248616 -0.896211 -0.538464 1.045082 1.694123 -1.071426 0.708871 0.174046 1.491145 -1.412063 1.423319 -0.762518 -0.668270 0.513552 0.876158 -0.215196 -0.358289 -0.829015 -0.358717 -0.245587 0.599235 1.570105 0.612679 -0.181976 -0.443212 0.878707 2.222517 -0.167678 -1.077640 0.242657 -0.709403 -0.104003 0.220391 0.210666 -0.195270 0.068303 -0.351912 -2.309193 -1.059238 -0.165102 -0.107714 -0.812573 -0.552074 1.902060 -1.122915 0.906434 0.421381 -0.438007 0.077299 1.638195 -1.220194 -1.808909 0.349377 -0.517060 0.821920 0.304449 -1.216606 1.372446 0.011358 -1.469112 0.056519 -0.751436 -1.562635 0.994519 0.788622 -1.281118 -1.322084 0.851550 0.735547 1.107611 0.171683 1.189309 -0.588211 1.351022 -0.049595 1.600372 0.186339 0.736879 0.874205 0.507643 -1.369224 -0.227642 -0.588133 -1.439544 0.502210 -0.398741 -0.383702 0.859413 2.894414 -0.323661 0.276771 -0.665983
<end> -0.171742 0.178959 1.267858 -0.996996 -3.490469 0.114437 -1.415457 -1.011410 0.247137 0.489589 -0.432649 -0.201032 1.194181 -0.236186 0.022191 -0.584954 -0.475186 -2.548766 -1.865575 -1.559326 0.580987 -0.975251 0.420642 -1.926874 -0.706410 -0.145501 -0.236415 0.196933 -0.559315 0.104298 -0.110281 -1.953194 -1.060655 0.273309 0.358394 0.416368 2.297996 -0.517858 -1.362087 0.549215 0.009062 0.774891 0.920819 0.354447 -0.574716 -0.589201 1.189598 0.164676 0.092863 1.664835 -0.291105 0.190210 -1.192506 0.324981 1.469831 0.366939 -0.336259 -1.225669 -0.499118 0.718124 -0.423209 0.564623 0.512306 0.414778 1.253324 0.521782 -0.259913 0.132970 -0.983968 -0.607962 1.101486 0.992796 -1.779256 -0.248755 1.641936 -0.305962 1.502908 -0.855376 0.665363 -2.550421 0.186528 0.685407 0.347059 1.869993 0.737107 -1.069751 -0.495026 -0.326759 -1.990556 -0.987436 0.123931 -0.168571 -0.993344 -0.046513 0.503681 1.472416 0.779110 -1.849840 0.189115 0.355942 -0.480031 0.795376 1.191483 0.203409 1.215706 1.426078 -1.258869 -0.464561 0.190512 -0.381996 -0.913557 -0.294286 0.800572 -1.092540 0.833528 0.121397 -0.307311 -0.126673 1.202011 0.358521 -0.803779 -0.143204 -0.336069 1.651124 -0.283462 -0.766858 -1.183604 0.553377
<unk> 1.205099 1.989800 -0.370758 -0.807528 0.778285 -2.277354 1.206563 -0.563388 0.129452 -0.684274 -1.247623 -0.555147 -1.014218 -0.424959 -0.570157 -0.547172 0.685229 -0.519250 0.814884 -0.958027 0.692986 1.064011 -1.836677 0.316972 -0.447312 1.810657 -1.944069 -0.212448 -0.644100 1.360754 -0.851544 -0.065627 -0.608245 0.308651 -0.125221 0.574859 0.820010 -1.508342 1.138419 0.023354 1.649301 0.887054 0.827181 -0.214886 -1.812703 -1.151794 0.019912 -1.001951 1.261354 -0.391231 -1.021563 0.333260 1.207377 0.178497 0.327294 -1.506352 1.153899 -0.314151 -0.586368 -0.007370 0.821793 0.197134 -2.209602 -0.082307 1.212372 -1.303143 0.738677 0.946370 -1.075975 0.415104 0.053082 0.166657 -1.013339 0.266431 -0.540799 -0.212531 -0.258551 -1.711148 0.462392 -0.476511 0.749022 0.976716 1.488281 1.676615 -0.056835 0.210472 0.211212 0.597273 -2.744158 0.958536 0.096205 -0.107367 -0.827381 0.685275 -0.574030 0.475645 -0.135743 -0.300828 0.414223 0.494560 -0.390628 -1.516922 -0.133822 -0.759867 0.587790 -1.264097 -0.340693 1.281499 0.701669 0.534390 0.329435 -0.764272 -1.560828 -0.165567 1.453036 1.401213 -1.894648 0.080000 -1.862686 0.746732 -0.315907 2.112716 -0.971029 -0.399297 1.050735 -0.180511 0.258911 0.752201
the -0.152022 0.969390 0.490415 -0.731360 -0.651207 -1.039531 0.617935 1.077999 -0.521412 0.338172 -0.564977 -0.197112 1.434920 0.650787 0.945261 0.941055 0.580841 -0.733894 -0.919507 -0.866787 0.426823 1.976942 -0.389751 -0.746973 0.945766 -0.451971 0.712157 -0.392516 0.677245 -0.911844 -1.457328 -0.350576 -1.084828 0.989985 1.241270 -0.511317 -0.637845 1.820923 1.452697 0.874464 -0.588898 0.610240 0.295489 -2.002348 0.749453 -1.650042 -0.448050 -1.156402 -0.463296 -1.585258 1.092478 1.064283 0.602196 1.307756 0.967145 0.035883 -0.650350 1.427697 0.553311 0.039352 1.030409 -0.648765 0.276409 -0.400188 -0.999101 1.022400 -1.117171 1.163568 0.852791 0.236877 -2.629998 0.160546 -0.013759 -0.288395 0.408116 -0.205041 -1.605476 1.139311 -2.146686 -0.731374 -1.379256 -0.366542 -0.869052 0.369967 1.011031 1.619683 0.751435 -0.273853 -2.139973 1.145473 -0.209256 1.383455 -0.141272 -0.698332 -1.543741 -0.824700 -0.511441 0.680745 0.652272 0.248251 -1.838182 -0.297819 0.026407 1.205433 -0.888041 -2.750014 0.115859 -0.770901 0.115754 0.630919 0.764863 -1.052741 -0.320173 0.175482 0.305368 1.097104 0.810364 0.690392 -0.568748 0.721015 0.429489 1.001441 -1.754490 -0.210865 1.278571 -0.289161 -0.645386 -0.572217
and 1.121999 -1.307788 0.083977 -0.362677 0.636591 0.892910 1.392389 0.809684 0.360732 -1.238737 0.208308 1.880836 -0.666026 0.264589 0.070859 -0.390289 -0.528657 -0.031744 -2.096489 0.815935 1.890485 -0.535825 -0.539602 0.227004 0.268844 0.527014 1.628022 -1.242436 -0.309814 0.392382 0.002471 0.134460 -0.712285 0.406232 0.477383 -1.073835 0.434217 -1.136701 -0.534146 0.086812 -0.522046 -0.708147 0.746945 0.398327 -0.317255 0.255468 0.762796 -1.445650 0.337498 0.002556 -0.422274 -1.189263 1.005840 -0.546494 -1.033190 -1.562703 0.875020 -0.510987 -0.865117 0.941931 3.053477 0.104382 -0.421208 -1.307405 -0.591147 1.171447 -1.950081 -2.220999 1.154677 -0.152509 0.495314 0.930188 0.491320 -1.702892 -2.071889 0.782963 1.619518 -2.001721 1.055916 -0.097604 0.100313 -0.698335 -0.693149 1.300121 0.539180 -1.135983 -1.274625 0.979278 0.132026 -0.362276 -2.282130 0.425176 -1.023316 0.328550 0.144430 -0.634333 -1.143875 -0.736212 -1.976857 -0.449206 0.231091 -0.205271 -0.111134 0.579241 1.203589 0.762869 0.260333 -1.298475 -1.057118 -0.929868 1.213213 0.484854 1.652162 -0.337123 0.128576 -1.015848 0.478328 -0.786749 -1.253631 -1.047794 -0.768421 0.281581 1.702623 -0.680097 0.507156 -0.576634 -0.501865 -0.231519
of -1.025256 1.938621 -0.554876 0.672579 0.545614 0.868200 -0.247762 0.406181 0.393912 0.498669 0.979127 -0.043612 0.301035 0.317005 -0.944259 1.521881 -1.245658 0.191376 0.208890 1.146026 -1.366236 -0.077484 1.058949 1.215655 -1.293323 0.472442 1.418096 -0.494710 -1.119149 -0.899894 0.474555 0.622257 0.665436 0.083127 0.366807 1.930925 -0.510853 -1.830381 -1.291214 -0.953106 0.525099 -0.991650 0.517527 0.119827 -1.081456 0.271892 -0.024498 0.104948 0.522541 -2.083080 -0.625210 0.244286 -1.510359 0.992197 -0.149392 0.567954 -0.340428 0.449483 -0.195316 -0.214127 0.319293 0.547011 -0.552510 1.691180 -0.779946 0.238346 -0.581557 0.079992 0.559022 1.261320 0.617135 3.073202 -1.915668 1.811097 0.051463 0.867006 0.103123 0.528118 -0.345232 -0.049476 0.743759 0.320845 1.029793 -0.853115 -0.373533 0.792478 0.989578 0.940672 1.008119 0.207025 1.069448 -1.132717 -1.268240 -0.459891 -1.399483 -0.730623 0.575581 1.644350 -0.637854 -0.713406 0.215090 0.608161 2.069170 -0.922568 -0.602388 2.494153 0.781663 2.082069 -0.090845 0.183779 0.294075 -0.430506 0.836535 -0.844859 1.194655 -2.151229 0.275747 -0.639846 0.129577 -0.588299 -1.167481 0.422201 0.991468 -0.955413 -1.498601 -1.465976 0.921502 0.499450
to 1.630592 -2.245282 -0.648798 0.245239 0.974669 -2.198476 0.016748 1.726498 -0.212653 -1.439524 -0.417780 0.560724 1.480831 0.881970 0.045204 -0.069284 -1.288174 0.316582 0.142560 -0.534342 -0.459224 1.007990 1.269160 -2.035091 0.234119 0.018811 0.651133 -0.848812 -1.210636 0.056231 1.028753 -0.352145 -0.586323 1.088292 -0.133925 -0.977908 0.386438 1.251560 -0.483332 0.760783 -1.001002 -0.018644 0.234304 0.716421 -0.985230 -0.775850 0.126108 -1.288532 0.142929 0.665702 -0.078933 0.312146 0.374891 -0.256742 0.368761 -0.012178 -1.352545 -1.691390 -0.165780 1.191864 0.870172 0.625456 -1.855662 0.316108 -0.780255 0.010233 0.349672 0.501324 0.410856 1.376314 1.251415 0.934414 -0.972498 0.530498 0.442714 -0.473153 -1.353631 1.328778 -0.886950 0.805618 -1.392881 1.093781 -1.606260 0.292371 -0.060996 0.051439 0.037988 1.066584 -2.316749 -2.020255 -0.266343 -0.592252 1.108722 -1.151445 -0.283532 0.241706 -1.018682 -2.198641 0.357786 -0.617325 0.433627 -1.638545 0.387467 -0.069524 -1.712100 -1.843323 0.314287 -2.264347 -1.441074 0.022266 -0.449521 2.320587 -0.681864 -1.393752 1.857025 0.134199 -1.660515 -0.694054 -0.511955 0.957511 0.910570 -1.651011 -0.593062 -0.823058 -0.082268 -1.566562 -1.142725 -0.487300
a -1.594948 -1.120057 -0.378994 -1.165720 -0.484000 -1.411193 0.498527 0.406403 1.100991 -0.197918 1.081924 -0.199988 0.856687 0.129592 0.643402 2.580843 -0.779015 -0.186095 -0.613029 0.527342 -1.144470 -0.104465 -0.932606 -1.363260 -1.537161 0.784694 -1.562507 0.240709 -1.607191 1.025464 -1.070623 1.548127 1.133118 0.482056 0.134999 -0.147100 -0.437433 -0.000571 0.285599 -1.979673 -0.108041 -0.640493 -2.022658 0.062466 -0.610759 -0.264813 -0.627516 0.913357 -0.485958 1.248482 2.598765 -0.642413 1.223333 -2.300521 1.230999 0.648178 0.087732 0.366807 1.702774 0.071875 0.540595 1.028946 -1.698913 -1.356038 -0.034587 -1.125622 0.611990 -0.456276 1.001874 -1.392954 0.103330 0.859605 -0.403267 0.581382 -0.245405 2.112331 -2.202046 -0.006688 -3.029224 0.664079 -0.140526 -0.256515 -0.296642 -0.654464 0.134562 0.859786 0.001085 1.088978 0.182863 -2.286100 0.303755 -0.729788 -0.043828 -0.716829 -1.117497 -0.229917 -1.148479 0.127228 -1.066792 -0.897129 1.102732 0.944216 0.112535 1.277475 -0.642010 -1.580691 -1.951873 0.952595 -0.059337 2.776474 0.739912 1.227968 0.000882 0.461842 0.115083 0.584284 -0.028867 2.411713 -0.117907 -0.254570 0.386082 -0.270562 -0.797204 0.968580 -0.035475 -0.525743 -1.445968 -0.923913
in -2.278488 1.187834 0.265267 0.058563 -2.071752 0.014054 2.640271 0.930198 -0.532248 -0.470971 1.023479 -0.980006 1.829998 1.783392 -0.172082 0.468667 0.241633 -0.384291 -0.990494 -1.268674 0.644120 0.503467 -0.723142 -0.444680 0.997633 0.488570 -0.949265 -0.118018 -1.666504 -0.243844 0.912414 -0.465072 2.542033 1.632634 -0.380729 -0.810153 -0.287635 0.673664 -1.709893 -0.267975 -0.077818 1.881553 -1.869519 0.765828 -1.957111 -0.817648 -0.799068 0.322828 -0.740295 -0.084605 0.716378 1.704087 1.641614 -0.505461 -1.026444 -0.899823 1.379917 -1.398519 -1.713795 -0.381807 1.153936 -0.368671 0.811505 -0.060191 0.287412 1.804676 -1.242820 0.268997 0.125077 -0.408702 -0.683854 0.793329 1.438216 2.782021 -0.730611 -1.189801 2.601392 -0.008915 0.955291 0.405103 -0.282436 0.698217 -0.414101 -0.314192 0.852056 -1.076224 -0.439664 -0.119732 1.517471 1.260507 0.265555 1.316595 1.633659 1.105868 -1.946288 1.223838 -0.493869 1.209147 -1.826406 0.404775 0.746837 -0.671037 1.213162 1.353352 0.861409 1.135397 -0.416827 -0.819828 -0.868714 0.420487 0.389114 -0.243517 0.664919 -0.008551 0.531408 -0.646905 0.518756 0.433512 1.392524 0.781635 -0.872086 -0.153069 -2.128249 0.291471 -0.782160 1.024580 1.170072 0.680968
i -0.660465 0.996556 0.401854 0.341511 1.897702 -0.384864 -0.019514 -0.510753 -0.448012 -0.085020 -0.515249 -1.374872 -0.760229 0.666346 -0.775503 -1.174088 0.104050 -0.324853 -0.065652 -1.425291 -0.781866 0.331494 -0.556727 0.544057 -1.664607 0.579971 0.555941 -0.570328 1.628069 -1.379551 -2.181575 0.504422 1.363147 -0.012340 -0.266144 0.683790 -0.035729 -0.112031 -0.409906 0.607635 0.132700 0.598917 -0.707775 0.826456 0.324767 0.495127 1.418946 0.907849 0.378962 -0.936911 0.161688 0.078976 1.814310 0.265952 -0.597159 1.479253 -0.034864 0.091507 0.627054 0.245458 -1.835811 0.278616 -1.037535 1.099076 -0.125227 -0.300378 -0.350227 1.542462 0.326470 -0.761909 -2.120158 1.342891 0.082289 1.454441 0.145645 1.039607 -1.693487 -2.366500 0.061489 -2.335524 2.773532 0.722827 1.089299 -0.106983 0.731695 -0.152030 -2.059335 -0.146260 -0.453252 0.653162 -0.266706 0.289305 -0.109534 -0.734576 0.279209 0.551223 -0.612860 0.250687 1.293209 -0.352651 -1.306266 -1.846026 -0.133811 -0.879385 0.125207 0.225519 -0.344942 0.139284 -1.327467 -0.374841 -2.300371 1.742281 -0.601802 -1.745056 -1.296628 0.059734 0.533099 1.803226 -1.050250 0.287873 0.368996 0.114260 -0.425418 -0.993814 -0.461525 -0.427451 1.431182 -0.663015
he 0.555436 -0.499289 0.401052 -0.502805 0.937451 0.631875 -0.714668 1.758026 0.433254 0.567685 -2.656464 -0.827276 0.315778 1.003454 0.963318 0.112650 0.069832 -1.547825 -0.794872 -1.204230 0.186780 -0.476437 0.449005 -0.696219 0.856798 -0.125633 -0.264688 0.674309 -1.898652 1.100808 1.432063 1.306529 0.953515 -1.095080 -1.106025 2.282098 0.030733 0.997117 -0.064168 -1.759653 -0.064059 -0.906844 0.340104 1.228730 -0.156110 -0.224430 -0.073831 0.424577 0.062257 0.722245 0.107397 -0.863744 0.983397 -0.361610 0.496425 -1.380377 -0.336143 -0.498428 -0.484378 1.175686 -1.051242 1.180095 1.375819 -0.078557 -0.332932 -0.900358 0.213096 0.744316 0.940652 2.096242 -0.306271 -0.240555 0.992847 1.653089 -0.654480 -1.168780 0.982286 1.451029 1.438281 -0.461664 -0.357559 1.125493 -0.591780 -1.236041 -0.817381 1.494828 0.662067 2.346929 0.351840 0.541476 -1.739634 -0.308302 0.269755 0.298592 -0.468364 -0.640519 0.397245 -1.168765 -0.669692 -0.879719 -0.273157 -0.244566 0.977615 -0.686187 0.019131 1.516917 -1.177065 0.614860 0.316217 0.395733 -0.031976 2.431273 0.280654 -0.154456 0.053721 -0.160029 -0.759029 2.151915 0.629894 0.550930 0.925800 -0.100952 0.815868 1.266361 1.444743 1.427348 2.468731 1.018095
that 1.864713 -0.968751 -0.257187 -0.721042 0.778525 -0.606340 -1.603997 -0.435305 -0.796631 0.510886 1.324553 -0.118357 0.079720 -0.316978 0.594766 0.814033 -0.284198 -0.643067 2.164330 -0.786423 0.477362 -0.221175 0.141843 0.210260 0.243159 -0.248537 -0.541622 -0.584678 0.156434 -0.779136 -0.539094 -0.447017 0.536572 0.264515 0.091150 -0.564851 0.041768 1.006572 0.130513 -0.947299 -0.548534 -0.276717 -0.041513 0.104874 0.856455 -1.430957 1.305553 0.996478 2.425270 0.412475 -0.638396 0.387133 -0.949251 -0.044572 -0.558760 0.377359 1.127080 0.924770 -0.351555 0.701421 -0.727788 -0.089322 -0.468427 -0.508851 1.478235 -0.632300 -0.145261 0.806863 0.066293 1.166251 1.367033 0.655912 -3.210975 -0.765170 -0.223502 1.235882 0.160808 0.760874 -1.028441 0.716068 -2.278542 0.588561 3.123575 0.650716 0.300894 0.662703 -1.264685 -1.704409 -1.179983 -0.493447 -0.567643 1.553933 -0.086553 0.305882 0.012023 0.418977 0.127318 -0.116751 0.104555 -0.286506 -0.645508 -0.582919 -1.197099 1.625593 0.542804 2.414144 1.023640 -0.565585 -0.901707 -0.371608 -0.285207 0.157409 -0.189068 1.241648 -2.594241 0.030161 -0.114861 1.349644 -1.528975 1.326277 1.026418 -0.950619 0.420647 -0.219168 -0.259452 -0.653647 2.424946 -0.099903
his -0.931887 2.012975 -0.804872 -0.972930 -0.301086 -1.247057 -1.040396 0.578178 1.221123 0.011384 -1.575827 -0.880928 -0.788815 0.941184 2.096491 2.274414 -0.435914 0.184010 -1.174478 0.342596 -0.825522 1.301941 1.098999 0.481992 0.111222 -1.041595 -1.043086 1.265133 0.529125 -0.310382 -1.144825 0.882602 -0.409737 0.092339 -1.910013 0.234581 0.752101 -1.047750 -0.440996 -0.227320 -0.457851 -1.259269 1.354488 1.434819 0.830176 0.884843 1.030415 -0.787336 0.055573 0.583714 -0.367187 0.795494 0.088328 -0.836351 0.613027 0.922218 -1.207291 0.413859 0.799309 -0.344444 -1.416590 -0.107708 0.481777 2.120138 0.803615 0.105100 -0.360585 0.032564 -1.131245 1.414629 -0.123391 -1.018030 0.542130 1.484730 -1.458518 -0.035768 -0.117018 -0.539589 0.889310 -0.545174 -0.885787 -1.897208 -0.957589 0.290842 -0.506501 0.993509 -0.771429 0.460635 -0.383422 -0.054739 -0.861022 -0.321016 0.525619 -1.159440 -0.053848 -0.451304 0.256789 -1.304394 -1.720821 1.449807 -0.086805 2.056059 -0.914345 0.904168 0.086711 -0.452503 -1.517579 0.600082 0.243705 0.012293 1.175743 -0.178096 1.603906 0.915125 0.676324 0.624087 -0.107775 -0.392969 -1.411014 0.530820 -1.892106 2.062109 0.476549 0.033201 -0.046549 -0.175281 -0.630892 -0.361435
was 1.299188 1.547878 1.164533 -0.256017 -0.696874 1.138061 0.694557 -1.830404 0.178771 0.973086 -0.572917 -0.791853 0.315404 -0.784230 -0.541728 0.618237 -0.438052 -1.568734 0.073806 1.014166 0.320318 2.186052 0.865240 0.648301 -1.096661 1.681819 -0.988314 -0.300125 -0.013117 -1.680862 0.128585 0.302969 0.061097 -0.756170 2.274408 1.650266 -1.293758 -1.462036 1.182010 0.138647 1.060150 -0.308154 1.159637 -1.068477 -0.515165 -0.015370 0.455131 -0.144335 -1.245504 0.973368 0.827428 -0.260680 -0.790177 0.377122 0.660262 -0.498412 2.617155 -1.023531 0.765657 -1.451671 0.300761 0.369280 -0.204544 0.616225 0.619675 1.759548 -1.763045 -0.005370 0.676151 0.247179 0.184563 1.268057 0.730989 0.039734 -0.122532 1.894395 2.002011 1.164604 0.774720 -0.769260 0.776393 0.559897 -1.177611 0.540722 0.661457 0.663715 0.120605 -0.964733 0.745032 -0.145886 -0.022660 0.302788 0.713550 -1.721692 -0.077712 0.691476 1.437557 -0.943687 -0.285526 0.345098 0.104791 1.136242 -3.483024 -0.175115 1.640873 1.464844 0.913646 -0.333524 -0.078687 -0.979367 0.055586 0.955119 0.307725 1.356964 -0.320039 -0.195550 -0.087301 -0.818861 -0.776637 0.763816 -0.141166 -0.958959 0.359507 1.683908 1.774510 0.457117 -0.305490 -1.120872
it -0.041117 0.359193 1.828355 0.537550 -0.605341 0.087281 -0.164734 1.392476 -0.360463 0.052506 -1.313078 0.398719 0.987285 -0.146965 -0.491228 -0.376012 1.254891 -1.300010 0.807775 0.569909 -1.340986 -2.241535 1.423498 0.623177 -1.637109 -0.038771 -1.585019 -2.695717 1.369230 1.128977 1.232586 0.185360 -0.369299 0.070964 0.067635 0.155555 -0.069645 1.478946 -0.524134 -0.837007 -0.525963 2.053887 -0.445051 -0.647435 0.130664 0.585347 -0.770185 0.579821 1.543628 -1.576681 -0.529701 -1.304127 0.597356 0.446262 -0.378577 -0.618500 0.214768 -0.360494 -1.142801 -0.379581 0.623843 -0.393929 1.014646 -0.201213 -0.040329 0.228864 0.267562 0.753143 1.485202 -0.194014 0.721209 -0.582344 0.911362 0.765103 -1.489778 0.971674 -1.059252 -0.650091 -0.071720 -1.203749 1.036508 0.436344 0.616583 0.297416 -0.185642 0.215882 -1.027063 -2.091763 0.233403 2.309799 0.055609 -0.638116 1.395790 1.393838 0.414738 1.208123 1.864796 0.761295 0.898810 -0.754137 1.348659 -0.554364 -0.096188 0.779611 0.759050 -0.536486 0.970716 0.439109 -0.973873 -1.812760 0.144637 1.075932 -0.370010 -1.334668 0.558796 -1.276258 -1.536500 0.679689 -1.017880 -0.214584 -0.420017 -0.022583 -1.084218 -1.457052 1.378123 -1.644708 0.513214 -0.723131
you -0.205985 0.216050 0.653251 0.427514 0.515079 1.445421 0.768714 0.151307 0.663763 -0.294423 0.878603 -0.100839 -0.641561 -0.988618 -0.092630 0.654249 -0.732784 -0.501014 1.247849 0.655909 0.569666 0.644444 0.194920 0.042085 -0.181958 -0.292894 1.352257 1.152140 1.488022 0.262913 -0.345662 0.270090 -0.278228 -1.656017 -1.201460 0.009735 0.869980 -1.254923 0.823569 -0.986618 1.618626 0.520467 -0.757728 -0.631355 -0.598956 -0.171605 -0.056854 0.082927 -1.559172 -0.414556 1.289331 0.065459 -0.797088 -0.844896 -0.123187 -0.236022 -0.462175 1.738343 -0.033165 -0.932363 0.108830 -0.823851 -0.764780 0.650354 2.052250 0.152836 -0.471678 -0.069358 0.863214 -0.751553 -0.151374 0.865969 -0.936103 -0.424027 -0.282921 -0.699863 -0.972401 1.016493 -1.124263 -0.522979 0.561008 0.579863 -0.118524 -0.222738 -0.842715 -1.072575 0.349230 0.937908 1.098757 -0.134645 1.656540 1.140596 -0.765831 -1.664237 1.172877 1.331068 1.426660 1.669558 1.056105 -0.749662 -0.536567 -0.343879 -1.586862 0.456138 -0.970927 -0.644200 1.688484 0.135719 0.024294 1.168613 -1.040295 2.016073 -0.096548 -0.827884 0.158140 0.554072 0.567544 0.816808 1.478008 -0.642229 -0.030516 0.431722 -0.549943 -0.394524 1.323470 0.706368 0.554005 0.409031
with -0.725847 1.481568 -0.394821 0.988960 -2.060210 -1.522482 1.017031 -0.695800 0.549852 0.427389 0.520487 0.251301 -2.035612 -0.869381 -0.250058 0.458375 1.377713 0.176288 -1.112415 -0.430128 0.735766 -0.729987 -0.675464 0.676660 -0.619664 -0.333895 1.112096 -0.182329 -0.106276 2.139296 0.202195 -0.927017 0.660748 -0.111065 -0.314549 2.288806 0.287030 1.041638 -0.659345 0.942403 -2.297539 0.625948 0.003856 -0.938603 1.996565 1.627156 1.152766 -0.069537 0.004454 -2.318601 -0.097544 -0.839955 0.137328 -0.676866 0.553817 -0.186195 1.038500 -0.373191 0.175901 1.241144 -0.209096 0.790595 0.348977 -1.340853 -0.782928 -0.274717 0.325145 0.461849 -0.791814 -0.913753 -0.823960 0.426107 -1.045259 0.187839 -0.462165 -0.606511 0.237647 1.034097 0.386289 -0.200812 2.064657 0.878306 0.504214 -0.675440 -0.458445 -1.049615 0.004136 -0.164632 -0.113954 -0.056518 1.088955 -0.131723 1.901453 -1.172907 -0.058168 0.206122 -0.473479 1.317191 0.968237 -1.430628 -0.321501 -0.945670 -1.051952 0.362675 -1.044162 1.295297 1.799870 -0.828141 -1.294476 0.139100 -0.992407 -1.210264 0.128451 0.634272 -0.093205 0.430329 0.657689 -0.055947 0.705456 0.407344 0.188567 0.591019 0.767564 -0.046035 -1.913868 0.347903 -2.235744 -0.198418
is -0.207041 -0.921452 0.222401 1.111061 0.215031 0.131701 0.815180 -2.394491 1.489901 0.930065 -0.342144 -0.564790 -0.438943 -1.372072 -2.058074 0.003310 0.246886 0.496810 0.651908 2.050759 0.696409 -0.594066 -2.886832 0.988269 1.736395 -1.197657 -0.174951 0.448648 2.026377 1.319037 1.575346 -0.686997 -0.884752 -0.274410 0.040374 -0.129089 -0.859727 -0.726708 -0.789481 1.014335 -1.252751 -1.035067 -1.087443 -0.467760 -2.290846 -0.960172 0.024280 0.273047 -0.507057 0.656309 -0.503379 -1.742798 0.481928 2.500537 -0.508275 0.145072 -1.282774 -1.382389 -1.710304 1.398357 -0.612919 -1.151857 0.703467 -0.436497 -0.907902 -0.982272 -0.178800 -1.094357 -0.833305 0.908258 -2.154824 -0.498319 -0.629099 0.166794 0.106273 0.033576 -2.061918 -0.774913 -1.887545 -1.328922 1.069771 -1.567880 0.740698 -0.355229 -1.826022 -2.019962 -0.460074 -1.789921 -0.633191 0.812445 0.194902 0.478358 0.139965 -0.168158 -0.443279 1.929356 -0.914333 1.262602 0.238292 0.008186 0.479241 -1.789456 0.624101 1.176136 1.878025 -0.005881 0.540245 1.034372 -0.741820 -0.708106 1.678877 -1.914610 0.863678 -0.405839 0.505671 -0.455443 -1.455281 1.498455 0.365066 0.083591 0.518722 -0.010107 0.964344 -0.222839 0.351442 -0.121239 1.084921 0.115670
as 0.628983 0.614856 0.346999 0.296267 0.469681 -0.082283 -1.165731 0.143169 -0.021579 1.775953 -0.637538 0.228982 -0.443037 0.071024 0.219983 1.783280 -1.251070 -0.478420 -0.441039 1.506610 -0.353347 -0.504714 -1.174493 0.163319 0.320683 0.337267 1.074248 0.710827 -1.796793 0.069918 -0.440823 0.587386 0.766145 0.261919 -1.085589 0.812342 -2.067065 1.150751 1.083396 0.904103 -0.139384 0.554473 0.143842 -1.084064 0.242448 -0.626396 -0.686460 0.282796 -0.080320 -0.264344 0.374352 0.445646 1.376923 -0.266367 0.213140 -0.980858 -0.394162 -2.501541 0.955590 0.222182 -0.650150 -0.738597 -0.714085 1.803313 1.338568 0.965343 -0.030280 0.517289 1.165312 2.227702 -2.293916 0.297881 1.065756 0.254552 1.358607 0.392052 1.344922 -1.494226 -0.028097 0.115590 1.509973 1.042738 -0.163931 0.171290 -1.339265 0.439107 -0.191735 -2.170400 -0.352268 0.024975 1.007722 -2.813704 -1.412837 -0.381895 -1.174201 -1.302139 1.576618 -0.026201 -0.018120 1.722511 -0.343743 -0.239127 1.121060 0.666708 -1.363344 2.194975 -1.685091 -0.729543 -0.715279 -0.135655 -0.114758 -1.182222 -1.682093 -0.451136 -1.063879 0.548915 -0.481059 0.004515 0.753777 -0.147872 0.655003 -1.865737 0.394869 -0.417229 -0.942896 1.438949 0.127986 0.177270
not -0.115249 -1.365724 1.855353 1.399940 -0.772383 0.937593 -1.390062 -0.798414 -0.179578 1.679466 0.680135 1.445969 -1.625669 0.422298 -0.066223 0.717219 0.523997 0.782255 1.655410 -1.985904 -0.509034 1.294370 1.051474 0.058096 -1.663976 -1.157833 0.663356 -0.103077 0.457675 -0.063077 -0.886319 1.562688 0.976641 0.574001 -0.009570 -1.648940 -0.207577 1.202075 -0.393618 0.215905 -1.150346 1.090949 0.813381 0.460314 0.291815 0.598582 -0.020586 1.233272 1.232170 -0.057437 -0.622040 0.433607 1.668701 1.554637 -1.606856 -1.548392 0.282486 -1.313410 0.246355 0.624754 1.885146 -0.534407 -0.871367 -0.104655 0.081115 -0.141046 -0.565077 1.073839 0.510514 0.072658 0.148384 -1.013968 0.926985 1.599885 -1.540486 -0.480615 -0.664832 -0.264243 0.638232 0.108186 0.491450 1.124148 -0.011180 -0.607039 -0.033838 -0.775771 -0.760572 0.245538 1.733415 0.223271 -0.256881 0.968141 -1.119922 0.509319 -0.286334 0.909096 -0.400486 -0.672113 -0.848678 1.540181 0.941988 -0.379712 0.130609 -0.546811 -0.127631 -0.052491 -1.975382 -0.006869 1.335984 -1.249509 -0.200234 -0.011312 0.311478 -0.989991 -0.199584 2.334610 0.045903 -1.254425 -0.825017 -0.857905 0.526907 0.230298 -0.901163 -0.573134 1.207139 -0.488086 -0.655628 0.921862
for -0.192504 -2.125586 2.025891 -0.224174 -0.329574 0.595227 -0.714914 1.326924 0.413610 -0.006135 0.261589 -0.865490 -0.042187 -0.801360 -0.308719 -0.685874 1.294563 -1.722388 -0.403551 1.897059 1.043512 0.961966 -0.665879 0.513407 1.051485 1.705593 0.400614 -0.114901 1.218323 -0.806320 0.190683 -0.690266 0.021377 0.007797 -0.129696 -0.685989 -1.393220 1.376622 -2.379591 -1.292126 0.255247 1.378050 0.510305 -0.448828 -0.353335 -0.583478 0.826589 -0.837398 0.990193 -0.822220 -1.431561 0.955387 -0.100334 0.309378 -0.888301 -1.430088 -0.562289 -1.023616 1.627047 2.573023 -0.698652 -0.859817 -0.218928 0.326990 0.437526 0.491981 0.333555 -0.628874 -0.021501 1.205896 1.147688 0.827980 1.884284 0.760029 1.157187 -0.511236 -1.967053 0.186006 1.186736 -0.091468 1.441031 1.020558 2.069005 0.253541 -0.822552 0.266730 1.822092 -2.076762 -0.548617 0.043054 1.225752 0.115163 -1.199662 -0.561140 -0.953110 1.007280 -0.581872 2.614419 0.739918 0.162544 -0.587593 0.196279 0.205108 -0.240457 0.903048 0.891827 -1.993822 -1.031795 1.169710 -2.165728 1.502228 0.194469 0.478926 0.587555 0.988548 0.112036 -0.470871 1.224687 0.159166 1.619121 -1.296906 1.086790 -0.449080 -2.132517 0.404500 -0.208706 -1.281417 2.057322
had -0.839009 0.277210 -1.040077 1.132873 0.919276 0.662512 0.127125 -0.634740 -1.038005 1.528745 1.310961 -3.016219 -0.651922 0.146465 0.860994 -0.683942 0.653696 -0.358711 -0.902757 -0.563363 -0.987993 -0.913298 0.776819 -1.654681 -0.697462 -0.444121 0.237632 -0.196059 0.279338 -0.704663 -0.943447 0.973975 0.780718 -1.339501 0.762109 0.760928 0.131976 -0.287408 -1.072079 0.291784 -1.262326 0.817128 0.344696 0.916888 -0.227362 -1.619868 -1.278061 0.470040 0.917964 -0.650173 0.364207 -0.099202 1.144142 -0.685639 0.948767 -1.270097 -1.803910 0.206987 1.058366 0.306116 0.724825 -0.145334 -0.370775 0.291129 0.227679 1.067247 -1.477610 0.739689 0.609197 1.430661 -1.827411 1.095522 0.953218 -2.099068 -1.396633 0.481860 1.204767 -0.485300 -1.446966 1.529700 0.314077 -1.846800 0.416045 0.172827 -0.485122 -0.350928 1.342948 0.891303 0.706695 -1.055223 -0.662128 -0.211683 1.222651 -0.295342 0.373328 0.739571 0.691767 2.033065 1.338546 0.360827 0.255067 0.381842 -0.877299 -1.789913 -1.189513 -0.428698 0.377092 0.980672 -0.880291 0.306120 0.899158 1.188557 -0.519608 -1.501995 0.241104 0.085179 -1.820175 0.056075 0.175007 -0.813582 -0.173182 -1.327469 -0.289175 0.587453 0.243804 -0.344361 0.293525 0.647168
but -2.123405 0.455201 1.348908 -0.482463 0.655011 -0.843412 -0.303876 -1.345756 -0.172147 -1.699005 2.203469 -0.023730 0.027552 -1.684804 -1.544600 1.003447 0.595869 1.220213 1.415781 1.139219 0.950516 1.405688 1.607254 0.740650 -0.107804 -0.782648 0.833917 0.811526 1.476447 -0.637196 -0.796618 1.042598 0.172215 0.628653 0.434144 -0.755571 -0.079922 -1.127006 1.029176 0.625063 -1.271749 0.543264 0.592395 0.760847 -0.124385 0.682947 0.209789 -2.565598 -1.180005 0.083314 -0.514220 1.444675 0.457262 -0.775683 0.546643 0.597781 -0.275924 0.255914 0.015367 -0.092001 -2.262374 0.932662 1.223730 0.472552 -0.294432 -0.244361 1.757467 0.954439 1.560884 1.118704 0.340225 -0.132933 -0.327265 0.258956 -0.485458 0.964028 -1.371512 -0.219941 -0.355008 -0.343329 0.192159 -0.905360 -0.145507 2.110604 0.345232 -1.644040 -1.380182 -0.339542 -0.348895 -0.312689 -0.398236 0.098264 -0.814570 0.443742 0.357558 0.911916 0.302597 -2.841482 -1.191665 -0.724643 1.267752 0.796121 -0.230898 1.063998 1.484282 0.663779 2.329911 1.204020 -1.533368 -0.747904 1.215301 0.960976 -0.390868 1.178980 -0.204021 0.033228 1.919034 0.600433 1.033485 -0.022005 1.544962 0.576996 0.553836 0.287406 -0.445652 0.318135 0.383190 1.395610
at 2.148522 -0.779186 1.415666 -0.845062 0.265498 0.837323 -0.269803 0.440225 0.656387 -0.051764 -2.052463 0.699052 1.925919 -0.038591 -0.712584 0.940706 -0.317950 0.130937 -0.716892 1.287082 0.696111 1.054094 0.283983 -0.358959 -1.071788 -0.189745 -1.124773 0.276138 0.688851 -0.776299 -0.863308 -0.385724 1.127626 0.233567 0.138666 -0.286047 -0.851722 -0.443367 0.775594 0.229758 -1.694544 0.490664 -2.117201 0.894238 -0.125536 0.805222 0.207198 -0.056576 0.328758 -1.449397 -1.427246 -0.172453 0.364100 0.375274 -1.794246 0.342114 -0.366997 -1.084139 0.810767 -1.221999 1.037424 1.338753 -1.117232 -0.684375 0.832944 1.519324 -0.593844 -0.071508 -0.330702 1.555645 -0.872543 -0.301589 -1.264442 -0.080348 -0.350364 -1.989584 -0.623285 -0.613112 0.831600 -0.462278 0.554442 -0.665179 -0.876232 0.229021 -1.039427 -0.244590 -0.647698 -1.134374 0.693498 -0.362869 -0.941912 -0.346286 -0.265073 -0.830903 -1.148905 0.829830 0.406886 -2.116568 -0.335065 0.175020 -0.178475 0.131577 -1.328547 0.528198 0.837764 0.870307 -0.852745 0.481612 -0.964670 -0.096448 -0.398394 2.971835 -2.397442 0.211470 0.506262 0.290568 0.238270 0.410149 0.080305 1.210005 -0.370761 0.670232 -0.762983 0.359927 0.363776 -0.425379 -0.677480 -0.972591
be -0.929188 -0.761292 -1.678852 0.375178 0.699146 -0.817392 -0.159535 -0.656575 -0.483362 -0.860445 -0.695507 -0.252133 1.067240 0.397452 -0.199199 1.055302 0.853294 -1.061034 -0.915456 -1.076048 1.432147 0.974459 0.771571 1.344898 -1.027169 0.399208 0.671180 0.258753 -1.039820 -1.953540 -1.068230 -1.031267 0.322543 -1.044544 0.645198 0.049651 -0.058338 0.365474 -2.171430 -0.445168 -0.534911 -1.868019 -0.531794 0.719933 -0.870888 1.312793 0.625113 -0.563117 0.575322 0.897518 1.064048 0.945318 1.715418 -0.025543 0.472199 -0.773422 -0.333783 -0.111787 -1.082722 1.343841 -0.587785 2.654646 0.129771 0.578114 1.453414 3.167640 -0.850653 -0.323410 -0.214011 1.264639 0.337918 0.122501 -0.394489 0.553456 1.113729 -0.936274 1.138121 0.439337 0.136629 -0.113587 -1.578194 0.067393 -0.389895 0.641755 -0.213358 0.083069 1.102818 1.602487 0.805614 1.339833 0.730430 0.442712 -1.437892 -0.642563 0.596620 -0.207768 1.284721 -0.749115 0.351711 0.249953 1.320798 -0.743834 1.184258 0.889344 -0.046249 -1.232466 -0.992523 -0.455333 -0.074410 2.499226 -0.840116 0.945681 -0.010052 1.994120 0.281777 -0.278398 0.810967 1.080465 1.906207 -1.023497 -0.609302 -1.934333 1.624212 -1.474463 -0.053639 0.060924 -0.791000 2.238769
on 1.629029 0.602884 0.324387 -0.048440 -1.092791 0.021346 -0.252303 -0.344558 0.235083 -0.407327 0.670441 1.092754 -0.671855 -1.401563 -0.069657 -2.831078 -1.657219 -0.421115 -1.077191 -0.751878 1.260449 0.703468 0.098668 -0.055745 0.448291 -0.112915 1.029256 -0.331874 -1.093837 1.013097 -1.621401 0.892901 1.519169 0.786765 0.760404 -0.646070 0.188309 0.968124 -0.256868 0.120805 -0.792388 -0.093002 0.805672 0.497296 -1.439255 0.164520 -0.040737 0.075184 -1.223246 0.888952 -0.618913 -0.357256 -0.513029 0.016553 -0.294486 -0.533692 -0.362579 2.241129 0.126966 0.309006 0.556615 0.004111 0.044091 0.227112 -0.737657 0.241209 1.899949 -1.179274 -0.325577 0.323710 -1.087774 -0.327577 0.029259 -0.978644 -0.010571 0.175631 0.675327 0.224619 1.120999 -0.844703 0.855495 0.151882 2.243383 -1.464525 0.162376 0.008717 -0.188603 -0.360028 -0.433127 0.543753 2.419330 -0.976558 -1.124180 -0.010657 0.338266 -0.137990 -0.041806 -0.535944 0.591624 0.348078 1.640016 -0.648363 -0.254759 1.004419 0.390667 -1.125598 0.078826 -1.659988 0.504565 -1.247832 1.015950 1.139656 -1.892371 -0.130515 -1.233686 -0.135048 -0.556337 -0.121041 -0.170550 -0.978963 -0.544959 0.059862 -0.804794 0.093183 1.811330 0.590163 1.901674 -0.694156
her 0.189994 -0.091918 0.372996 0.819477 0.118816 -0.207658 -0.456495 -0.442994 -0.465129 -0.362920 0.484039 -0.515124 0.054489 -0.583792 0.572731 0.977173 -1.140545 -0.230275 0.162248 0.252873 -1.090777 -1.292799 1.035862 -0.427494 1.574958 -1.521238 -0.096405 -1.862360 -1.944721 0.006168 -0.912251 0.974258 -0.666456 0.721501 -1.585486 0.436385 0.403019 2.193529 -1.206538 1.894192 -0.905369 -2.002819 0.801037 -0.116810 0.031669 1.320431 -1.150972 1.356463 1.118600 1.457580 1.904222 0.426625 -0.463530 -0.854687 -0.758918 1.637928 1.158847 0.478855 1.097074 1.161573 -0.144118 0.262922 1.276129 1.116911 0.324645 -0.185141 0.377768 -0.427254 -0.367394 0.258925 -0.237491 -1.622882 1.135632 0.724529 -0.892319 -2.165028 -0.353705 -0.464774 2.240890 -0.260447 -1.707786 0.501789 0.531075 0.466894 -1.034348 2.662063 -2.542101 1.934972 -0.235440 0.765755 1.154962 0.779804 -1.038124 -1.924499 0.236013 1.005457 -1.007788 -2.592920 0.722993 -0.819531 -0.412984 0.370171 -1.652918 1.726651 -0.176166 0.575857 1.333025 -0.912967 0.958321 -1.842389 -0.326485 -1.932144 -0.196433 -0.093301 1.601587 0.133988 -0.178165 0.573828 -1.678747 0.357729 1.415684 0.294274 1.079408 -1.369808 0.037055 -0.896102 0.378240 1.496025
my 1.961443 1.724148 -1.994622 -1.778676 1.552814 -0.377313 0.419287 -1.188905 -1.944433 0.479711 -1.413688 -1.744179 0.505853 0.024171 0.957309 0.468310 -0.352628 1.114569 -1.197727 -0.710747 0.729256 -0.443548 0.923862 -1.005100 -0.326790 -1.644431 -0.908859 0.681369 0.069893 -0.359875 0.901038 -0.894924 1.221950 -0.261538 1.744400 -0.093774 0.177593 -0.523456 -0.221403 0.708037 -1.376557 1.627185 -1.300923 0.381590 -0.886520 -0.768374 0.127727 -1.616884 -0.391732 -0.922071 0.116823 -0.394877 0.510392 -0.821401 0.316116 1.593349 0.444472 0.013380 -2.176045 0.993580 0.286858 -0.259225 -0.910100 -0.036301 -0.899145 0.724909 0.759271 1.203043 1.474999 0.167320 0.569964 -0.677248 -0.259364 0.575873 -1.153995 0.671566 0.253858 1.431687 -1.117166 -1.004380 1.423788 -1.089217 1.018286 -0.293739 0.758112 -0.061995 0.380053 1.822912 -0.601132 0.945236 -0.858861 0.265186 0.852982 -0.387106 0.041468 -0.045439 0.049079 0.197434 -1.113583 0.687396 1.152414 0.304552 1.415547 0.041557 0.683205 -0.649734 0.026432 0.291679 -1.255961 -0.218230 -0.712530 0.147034 0.461186 0.485613 -0.054076 -1.368614 -1.662685 -0.854443 1.515056 1.161263 -1.097647 -1.447586 0.549052 -0.803386 0.628936 0.692439 1.544554 1.477532
him 1.341920 -0.230932 2.175022 -0.409910 -1.960863 0.518053 -0.594311 1.043319 -2.356802 1.339944 0.606606 0.268053 0.166329 -1.024555 -0.365635 0.072703 -0.527417 -0.280911 -0.480042 0.157336 0.290189 2.406670 -0.415816 0.718392 1.272410 0.416875 -1.528871 0.439276 -1.178510 -0.648577 0.518363 -0.938465 1.705254 -0.097855 -1.597533 -0.080194 0.163050 -0.330746 0.199062 -1.389982 0.560937 0.865844 0.623966 0.968054 -0.222245 0.544167 1.194092 -0.646004 -0.843599 -1.262257 -0.468105 0.213520 1.228326 -1.159063 -1.122810 1.036929 0.018290 -1.221672 -1.199433 0.418117 -0.303038 0.404655 -1.521682 0.290236 -0.151415 1.051770 0.796573 0.178961 -0.471470 1.400730 1.041984 1.560760 -1.183720 0.290133 0.450438 0.081375 -0.908947 -1.133458 0.161657 -0.459477 1.806927 1.446927 0.383399 1.003647 -1.050416 -1.212028 0.269357 -1.935384 0.297978 0.929865 -1.067200 0.899191 -0.109488 0.036049 -0.801013 -0.716305 -1.112047 0.311857 2.391752 1.733928 0.856742 -0.045343 -0.795453 0.500168 -0.452055 0.805578 -0.322555 1.108246 -1.100111 -0.908632 0.578309 -0.851892 1.271017 -1.383782 -0.796876 0.437656 0.250060 0.072237 0.013920 0.132815 0.947122 0.678160 -0.952204 0.241435 0.134484 0.751153 0.381134 0.152863
have -0.503223 -0.543971 0.034954 -0.375530 1.414137 -0.606752 0.824634 0.056186 0.112939 0.115012 -0.472617 0.937282 0.105366 0.023249 0.604320 0.493600 -1.812980 0.247389 0.117906 1.365088 -0.700011 1.332578 0.550014 1.257096 -1.181249 -0.055513 0.858056 0.925243 0.748072 0.310113 0.784701 -0.891320 0.429075 1.052000 0.005813 0.037356 -0.911977 2.162299 0.290911 -0.614569 -1.964513 1.018529 -0.371534 1.453559 0.299376 -0.327800 -1.143874 -0.780460 0.117290 0.392197 0.114252 0.709194 1.763825 0.230781 -1.246499 -0.358024 1.203487 -1.370458 -0.930935 -0.401511 -0.627000 -0.181566 1.652462 0.815333 -0.992890 -0.219936 -0.324154 -0.931378 -0.963371 -0.407617 0.735995 -0.075788 0.994163 0.132660 -0.720452 -1.767280 -1.206833 -0.117629 -1.118622 1.248987 -1.952098 1.239023 -0.585606 0.463540 0.074700 -0.885157 -1.556314 0.359954 0.998786 1.038595 1.212151 -0.853076 0.371341 -0.079731 0.755355 -0.955478 -3.028016 -1.150360 -0.890067 0.355007 0.479831 -1.165696 0.598166 -1.941221 1.818158 0.515730 1.194741 0.659491 -1.689125 1.465175 -0.954668 -0.521242 0.128205 -0.459924 0.845993 -0.320817 0.458952 -0.397950 -0.029596 1.009884 -0.321092 -0.523336 -0.732199 -0.434544 0.270471 0.500051 0.276343 -0.966363
by -2.023856 -0.555300 0.084177 -1.033905 1.161684 1.154937 -0.395232 -0.977451 -0.766856 0.701576 0.116267 0.021835 1.670167 1.379008 -1.199488 -0.112275 0.530173 0.070351 -1.493424 0.690133 -0.118828 1.743815 -0.866097 0.886364 1.284822 -1.246666 0.043876 -1.438630 -1.023075 -0.143109 -0.787614 -0.853728 -0.954998 -2.068978 -0.449259 -0.118407 -1.666023 -0.552722 0.329992 0.478199 1.283139 -0.369687 0.187819 0.314760 0.133112 -0.092411 1.446514 -1.082135 0.277605 0.042713 -0.410084 0.312378 -0.528011 -0.291671 -0.829378 0.152965 0.950618 0.519762 -0.293092 1.214365 -1.071957 -0.621575 0.017958 -0.288523 -0.535053 0.134899 -0.299356 -0.661151 -0.093274 0.571900 0.715762 0.777336 -1.468387 1.312838 1.633548 0.902162 -1.498069 -0.134451 0.241002 -0.034787 0.397721 -0.285512 -0.677644 1.548492 -0.698110 -0.253467 -0.219491 0.518032 0.067364 -0.648194 -1.381073 0.567909 0.120604 0.697496 -0.928779 -0.530742 -0.588453 1.508021 0.423036 -1.018552 0.028085 1.210683 -1.433717 0.844758 0.036410 0.707197 1.029322 -0.385583 -0.319403 0.027399 0.864132 0.413662 -2.754662 -0.404529 -0.211473 -2.103855 -0.347961 -0.756926 -0.374206 -1.360803 -0.158663 0.519992 0.644929 -0.424623 2.255788 0.922792 0.613563 0.483320
this -1.884255 -0.491253 0.151585 -0.689000 0.374468 -0.895098 -0.801426 -1.911872 0.083427 -0.862704 -0.347524 -0.674818 -0.944670 -0.969821 -1.710392 0.728295 -0.725833 -0.069223 0.813152 -1.589488 -0.329657 0.619688 -0.446279 1.207752 -1.455227 0.436590 -0.045302 -0.465112 0.982977 -0.703688 0.889051 0.470552 0.740310 0.166803 0.694360 1.188710 0.600096 0.698121 0.013212 0.812518 -0.527132 -1.671231 0.628536 0.431853 1.059626 0.044801 0.194466 0.194875 1.118597 0.888145 -0.946573 -0.504675 0.707461 0.328326 0.218744 0.814334 -1.873169 0.257591 -1.586217 -1.353081 1.485016 0.283797 -0.150446 -0.925156 -0.349340 0.885471 1.702548 1.201253 -1.466664 0.266540 1.732127 -0.426504 -0.630855 0.905058 -0.225739 1.444856 -1.479235 0.094849 -1.100250 -1.297035 0.687541 -0.667442 -1.608633 -0.343994 -0.214172 -1.348250 0.282194 -1.196508 0.372918 -1.577961 -0.424318 -0.100013 -0.494462 1.207006 0.221291 0.613424 1.067420 0.422775 -1.438770 1.457680 0.178828 -0.245500 1.057696 0.300439 0.180593 0.760327 0.202749 -0.508178 -1.555596 -0.286312 -0.009241 1.041473 0.272807 0.017981 1.263021 -1.121121 -0.265196 -0.658140 -0.457795 -0.090540 -0.364157 0.739022 0.113549 -1.612174 -0.809427 -0.922957 -0.926704 -0.652641
which -0.084271 1.642391 0.746957 -0.370137 0.292444 -1.250360 0.447078 -1.869684 -0.263170 -0.502523 -1.217063 0.346852 1.003757 1.867830 0.118291 0.929003 -1.131426 0.979035 -0.482444 0.755041 1.058682 0.109153 -0.983856 -0.988982 1.989395 1.148873 1.697968 1.327808 0.417805 0.330256 -0.878404 -0.551354 1.061393 1.269438 -1.404443 -1.001665 -1.720919 0.464899 0.648455 0.631596 -0.145190 0.129200 -0.836285 0.711020 -1.126140 -0.547555 -0.076697 -0.612320 -1.465738 0.139278 -0.305821 -0.118636 -0.126375 1.730020 0.291968 -0.466415 -0.044034 0.346302 0.849572 0.404362 0.962154 0.593107 1.259078 1.811558 -0.301648 0.330415 0.484718 1.015395 -2.364147 2.123285 0.288311 0.114491 1.979980 1.906831 2.110374 -0.861904 0.870793 0.050424 -0.282433 -0.520215 0.555269 0.729607 -0.152963 0.268749 0.531648 -0.154718 0.709803 -2.595488 -1.391472 -1.310957 0.002517 1.011102 -1.580308 -1.216330 -0.515678 0.420504 0.015133 0.590804 -0.345410 2.156534 0.780081 1.327738 0.567351 0.602216 0.016891 -2.459151 1.282948 0.133977 0.783958 1.612810 -1.095656 0.265109 -0.160503 0.232505 -1.332033 1.608571 -1.092165 -0.942734 0.357894 -0.834220 1.000324 0.315625 -1.886451 -0.902200 -1.070760 1.601148 1.349035 1.782545
me 0.190931 -0.662617 0.584817 -0.793255 -0.380061 1.205463 0.957517 1.037364 1.613233 0.137478 1.376208 -1.555785 -1.605457 -0.334781 -1.304284 0.420580 -0.101854 0.173615 1.135485 0.973207 -0.303082 0.244897 3.164723 0.273661 1.563419 1.439604 -0.500292 0.051903 1.156447 0.046154 -0.906925 -0.009731 -0.577115 -0.934489 -1.114358 -0.039969 0.153785 0.812115 -0.783114 1.113964 -1.154627 -0.324169 1.173698 -0.283936 -0.975481 1.030820 1.088500 -0.542471 -0.227053 -0.571728 0.356650 0.178009 -0.923123 0.234456 -0.011477 -2.288967 -0.042907 0.534723 1.187323 -0.306088 1.256364 0.952231 -0.568020 1.886734 0.663745 -0.327804 0.689564 -0.284014 -0.037214 1.019234 -0.077687 1.958852 0.515077 -0.641173 -0.264867 -1.386879 1.006880 1.699113 -0.969857 -0.175789 -1.578008 -1.378609 0.766163 0.041360 -0.515875 -0.238637 0.428359 0.287162 1.088008 -1.054665 -0.718501 0.693564 -0.161485 1.226668 0.237841 1.709807 -0.212027 0.860782 -1.684015 2.216998 -2.015417 0.178751 1.765468 -1.149547 1.171530 0.791358 0.973701 1.198831 0.056932 -0.381296 1.331138 -1.210990 0.698595 1.315418 -0.022193 -0.393607 -0.159239 -0.227411 -3.824545 -0.326135 -1.073033 0.499995 -1.367988 -0.169421 0.553511 0.367817 1.058097 -0.659779
all -0.249160 2.000895 -1.163992 0.433643 -0.097529 -1.731740 0.904087 -0.429573 1.876827 -1.822462 -1.790043 2.362958 -1.887594 0.840135 0.813203 0.486710 -0.360940 2.487822 -0.031466 -1.583874 -0.317824 -1.149467 0.382016 0.394052 1.043243 0.643142 -0.032821 -0.032825 -0.313214 0.372841 0.633516 2.728658 0.384803 0.344173 0.084675 -1.905237 -0.961805 -1.953223 1.137165 -0.414715 0.486794 0.104138 -0.776064 1.421687 1.794585 -0.165421 -0.464117 0.193523 1.154131 1.609924 -1.176676 -1.148164 0.227565 -1.509792 -0.409920 -1.464184 0.163093 0.800938 -0.574883 -1.007952 -0.731389 -0.359822 0.603960 -0.517224 1.864644 1.101120 -1.112406 0.122185 -1.267609 0.982694 -0.226444 0.609495 -0.694211 0.104367 -2.318173 1.187565 0.031087 -1.082131 -0.389578 -0.456363 0.765915 -0.449061 -1.928830 0.310022 2.151682 -0.422926 -0.961413 -0.285958 2.216374 -0.470884 -0.631536 -1.469440 -0.563286 0.053738 -0.477262 -1.424554 -0.053678 -0.159720 -0.501716 0.933152 -0.334104 0.266131 -2.365159 0.779250 0.119250 0.113693 -1.171409 2.605629 0.015289 -0.282674 0.510341 -0.492966 -0.203152 0.134182 0.442313 0.319065 0.155763 0.642460 -0.458264 1.813799 -0.461781 1.603128 -1.514243 0.345294 0.036394 0.168679 0.099894 0.009111
said -0.321705 -1.410327 -0.504908 1.286528 -0.098854 0.051423 -1.942581 -0.175572 1.467390 -0.162089 -0.776429 -0.440700 -0.279255 -0.068683 -0.827443 0.945417 1.139631 -0.118011 -0.832861 0.965504 -0.139553 0.852011 1.357153 0.502965 -0.494801 -1.377971 -0.489189 0.197667 -0.246727 0.757259 -1.781677 -1.555903 -0.779130 0.853759 0.240385 0.359775 -1.884555 -1.084089 -1.487549 -1.542035 -1.034973 0.121166 0.664607 -0.250509 1.999635 -0.063954 0.734155 -0.331148 -0.254193 1.308664 -0.232115 -0.598163 -0.169058 1.005277 -0.802503 -0.582963 0.217589 -0.756484 1.032323 -0.011749 0.491677 -0.215402 -0.800856 -1.231440 -0.312735 -0.934881 -0.172101 0.524954 1.569651 -0.018605 -1.171698 -1.313922 0.267188 1.072119 0.425719 -0.184503 1.395469 0.516702 0.454800 0.541193 -0.782867 0.620515 -0.109841 -0.640543 -0.950724 0.777474 -0.247265 -0.769583 0.906164 0.253649 -1.195939 1.522151 0.803782 0.535591 -0.057784 -0.161415 -0.750821 0.141151 0.076012 -0.735676 0.998683 -0.318459 -0.816976 0.340414 -0.392279 -0.346992 1.281297 1.160679 0.092622 -0.907947 0.654013 0.792743 -0.920360 0.834681 -0.754594 -0.708966 -1.674681 -0.271161 1.418864 2.267414 0.594020 -0.086513 -0.388467 -0.257368 -0.190744 0.544702 0.673231 -0.726179
she -1.431791 -0.723378 0.743084 -0.462885 -1.322089 -0.361951 0.090809 0.780343 -0.100443 -0.864570 0.721500 1.076698 -0.166227 -1.699681 0.867107 0.385405 -0.360923 -1.566779 1.230869 -2.213437 0.843511 -1.374138 0.347799 0.238543 0.030979 -1.805135 -1.419579 0.836825 -0.754188 0.060245 -1.183670 -0.597066 -0.603398 -0.325323 -1.586635 -0.984349 0.184171 1.080991 -0.161908 0.505288 -0.872356 -0.537642 -0.417330 0.740082 -0.131624 0.116163 1.138451 -0.770705 0.860361 -0.504615 -1.020207 -1.383266 -0.463760 0.384154 -0.113302 0.807517 1.292674 0.627470 -1.339301 -0.494176 -0.869922 -0.803828 0.080872 0.621651 -1.950379 1.226781 1.059588 1.014984 -0.254423 1.392981 0.790065 -2.975713 0.110344 -0.025616 -0.110412 0.535291 -0.775697 0.877800 -0.800046 -1.079538 1.784137 0.655469 -0.013258 -0.255454 0.930889 1.351657 0.878099 0.115162 -1.381137 -0.120400 0.798098 0.085944 2.410952 -2.398922 1.263759 -2.188849 -0.413835 -0.445161 0.413089 1.709706 -1.795776 -0.647179 2.564977 0.483817 0.425230 0.504276 -1.091307 1.314042 0.450256 0.776467 -0.337274 1.282787 1.217597 0.965953 -0.712391 1.271370 0.883016 -1.091019 -0.469910 -0.081200 2.249875 -0.958849 1.019742 -0.075341 1.580029 -0.316573 -1.039720 -0.283582
from 0.124765 1.200304 -1.458471 -0.480729 0.364974 -1.471289 0.831616 -1.239236 -0.527488 -0.350920 -0.429701 1.579884 -1.431453 -0.688529 -1.894930 0.146357 1.016774 -1.948991 -0.998467 0.569258 -1.461785 -0.765291 -0.161851 -1.606909 0.688917 -0.794051 -0.822415 -1.556074 -1.300969 0.463942 -0.514325 0.506302 -0.127777 -0.869505 0.151891 0.627014 0.210132 -0.496274 0.585459 -0.554860 0.626570 1.967758 -0.320183 -0.761230 0.541887 -0.278785 -0.690835 -0.743119 1.398250 -0.380441 -0.309040 1.242448 0.927193 -0.955407 2.133240 -1.096890 -0.467499 -0.798914 -2.021047 -1.378046 0.131694 -0.194266 -0.425366 1.528329 -0.975094 -0.854944 -0.008283 -1.765987 -0.140131 0.230393 -0.112358 -0.880772 0.547013 0.595453 -0.611404 0.105384 0.275885 1.324857 1.698601 0.871571 -1.591155 2.270357 -0.145513 -0.172446 0.674908 0.174656 1.556176 0.142882 1.167308 -0.030855 -0.404763 -1.449613 1.493046 0.842099 -0.019502 -0.450346 -0.074899 1.395362 0.818099 0.440553 -0.186281 0.218589 0.602890 0.858609 0.631961 -0.178663 -0.418842 0.811534 -0.928444 -0.278930 -1.634787 1.100535 0.183507 1.111016 0.434417 0.908658 0.039020 2.058079 -0.245057 -0.825950 -1.821799 0.462425 0.477999 1.170595 0.896106 2.001498 1.106274 0.932866
or -0.164033 -1.443896 0.147050 0.881731 0.143291 0.761982 1.876695 1.958398 0.058252 0.156070 0.082018 -1.287090 1.432253 0.427440 -1.260829 0.058038 -0.276448 -1.924688 -0.587309 1.170874 0.612700 2.594075 0.567356 0.199194 -2.195675 0.543825 1.561244 0.424126 -0.025090 -1.823380 -0.870195 0.532943 -0.574746 0.747765 0.514140 -0.453304 -0.354164 -0.028765 1.299280 -1.861562 0.461715 -0.248662 1.142748 0.630679 -1.241654 -1.451283 -0.796045 -1.690111 -0.118242 -0.331244 -0.167391 -0.135477 0.026668 -0.449357 -0.149444 -0.122425 0.586240 0.490516 -0.797414 -2.221127 -1.631546 1.268143 1.011645 -1.138663 2.748184 -1.087318 1.050126 -0.025337 0.132092 -1.535297 -1.505962 0.782251 3.066563 -1.800359 0.930636 0.840908 0.083480 0.147362 -0.021552 1.003995 1.293972 -2.543655 -1.221143 0.705297 0.490712 0.563911 -0.363481 1.395678 -0.274171 -0.077447 -1.377825 -0.182445 0.041245 0.201176 1.159921 1.078275 -0.554648 -1.819809 -0.707757 1.123719 0.354980 0.059422 2.286741 0.511847 0.692051 0.833749 -0.467752 0.909583 -1.079347 0.390265 -1.442288 -0.749803 -1.402803 0.225723 -1.187436 -0.438820 -1.409579 -1.608118 -1.333173 -1.050164 -1.167123 0.983558 0.015726 0.377618 -1.424261 -0.470180 -1.574223 -1.584866
they 1.462417 -0.155999 0.347105 0.522923 0.699193 1.034307 2.157607 -0.024487 0.289679 1.462350 -0.323762 1.222638 1.472557 0.357306 1.297943 1.006416 0.164981 1.105946 0.992646 0.930149 1.422389 1.299870 0.310191 1.832599 0.600536 -0.484159 -1.689272 0.265867 0.519985 0.911769 -0.741862 -1.734823 -2.307706 0.115546 -2.275461 -0.094515 1.670434 -0.571505 1.367763 0.445629 -1.163319 -1.213142 0.388269 -1.551465 -0.032590 0.596285 -0.867869 0.989084 0.104927 0.178291 -1.639030 -1.274083 1.206341 -0.749927 -0.517898 -0.615190 -0.297131 -1.477242 0.211783 -1.201303 -0.787743 0.631741 -0.270754 -0.943782 -0.506194 0.186671 -0.187873 -0.467718 0.177799 -0.122671 0.220286 1.410450 -1.022924 -0.494030 1.484803 -0.902198 -0.931473 -0.507727 -0.797670 1.320190 0.252912 2.044350 -0.230656 -0.705183 -0.769279 -0.614115 1.586048 0.149697 -1.405079 1.980102 2.150040 -1.168006 -1.565856 0.211335 -0.310834 -1.962960 -1.592071 -2.505236 1.043273 -0.148318 0.348931 -1.056103 0.071684 -1.518088 -0.073575 -1.498366 -0.693264 1.685804 -0.497510 -1.099323 -0.584037 0.027484 -0.137447 0.195942 0.881692 -0.163036 1.579622 1.463311 0.452701 -0.201874 0.623363 -0.564774 -0.614720 0.558513 -2.051098 -0.555482 0.505366 1.386160
so 1.266627 1.105993 0.333434 -1.398052 -1.367962 0.189275 -1.836258 -0.600588 -0.967037 -0.204466 0.810748 -0.100280 -0.928127 -0.452024 0.949682 0.107812 -0.913106 0.635484 -0.003428 -0.602322 -1.092898 -0.179285 0.415548 1.181489 2.554058 -0.881976 0.446064 0.139817 0.198665 0.305787 -0.219393 -0.622118 0.022370 0.537568 0.894450 -0.581868 -1.612908 1.492494 -0.100375 1.265475 0.272960 -0.237567 -1.529332 0.722328 -0.372046 0.472890 0.265960 2.088254 0.622767 0.580380 1.043406 -1.165029 -0.287723 -0.691539 0.737015 0.942320 -0.498647 1.371148 0.407005 -0.560683 -0.284432 1.417897 -0.695260 1.501425 -1.418171 0.532562 0.198814 1.191028 1.458782 0.128110 -0.016203 0.520775 0.424346 -0.666516 -0.317764 1.028920 -2.213796 -0.454562 -0.406382 0.968839 0.323650 0.589014 0.132132 0.268701 1.104811 0.783668 2.343487 0.507106 0.203608 -0.664369 0.808593 0.010369 0.786666 -0.636348 0.198481 -0.312785 -0.919603 0.735398 1.586447 -0.538205 0.967196 -1.124684 0.837947 -0.834853 -0.285126 0.692057 -0.292199 0.256365 -0.637781 -0.106406 0.496264 -0.549178 1.411309 3.025712 -0.415456 -1.133243 0.787799 -0.280821 -1.011703 -0.273691 0.975219 -0.000223 -1.669088 -0.947423 -1.181153 0.555873 1.485687 1.453816
are -0.517201 0.107547 0.172304 -1.878912 -0.626930 0.455563 0.780112 -0.013571 0.392895 0.262294 -0.368512 0.173046 -0.850191 2.357345 0.053807 0.174223 0.365364 -0.273042 1.926768 -1.649680 1.005920 0.463251 -0.804089 -0.052904 -0.846528 -1.674508 -2.398143 -1.459620 -0.342015 -1.281821 -0.022142 1.284057 1.264363 0.260195 0.697750 -0.499563 -0.389542 0.412152 -0.765574 0.654199 0.226587 -0.275595 0.970825 -1.795657 -0.904331 0.888821 0.579989 0.377848 0.570800 0.002437 0.989306 0.237787 -0.923237 0.505481 -0.152770 0.965715 0.549683 0.643495 1.216790 -0.432419 0.199665 -1.795975 0.446997 -0.475814 1.083265 -1.011998 0.328591 1.168002 -0.134623 -1.569823 -0.324342 0.561673 0.369265 -0.383631 -0.551796 -0.343479 -0.307933 -0.479326 -0.549007 -0.723250 0.169721 -1.332080 0.768885 -0.316775 -2.565017 0.322099 -0.224314 1.029664 -0.262714 0.702564 0.288722 -0.072420 -0.273058 -1.153956 0.238423 0.339346 0.190093 1.032412 -0.777433 0.721149 -1.163087 0.554914 -0.399086 1.013648 1.356614 -0.448819 0.689197 -0.470997 1.762782 0.218572 -0.881291 -0.571824 -0.698207 1.466136 0.960805 -0.218055 0.152155 0.473285 1.069791 0.077249 -0.802923 1.115052 -1.582116 -0.615590 -1.007657 -1.010418 -0.456851 0.635950
one 0.024459 0.278236 1.435721 0.204516 0.638839 -0.442547 0.569507 -1.012062 -0.159950 -0.435456 0.500700 -0.015318 -1.230244 0.107337 -2.493066 -0.648245 0.583455 -1.135582 -0.518968 -0.885260 -0.989053 1.219851 -1.837886 -0.105628 0.370291 0.005899 0.060691 0.348236 1.323432 -3.141990 0.223425 -1.033749 0.142569 0.141355 -1.339972 -0.588491 -1.985722 0.575978 1.069263 0.562236 -1.572627 -0.838186 -0.186438 -0.044052 0.557368 1.455691 -1.195743 -1.073975 -0.053516 0.864887 0.601384 2.457311 -0.903308 0.347606 0.236556 0.839541 0.374986 -0.475888 -0.732675 1.045630 0.898899 2.425945 1.371905 0.434426 0.635110 0.210095 0.905467 -0.778459 -0.214261 0.383451 1.949745 -0.467245 -0.129279 0.870187 -0.180718 1.213513 0.643154 1.878098 -0.846517 -0.542962 -0.343355 -0.866735 0.539780 -0.690771 -0.322276 1.805564 1.126755 0.906887 0.507535 -0.106472 0.785180 0.953415 0.567330 1.682436 -1.421877 0.770552 -1.370978 -0.622963 1.327228 0.210948 -0.987978 0.899153 -0.697438 1.092724 -0.267391 -0.862979 1.156211 -0.001688 -1.058499 -0.020635 0.365542 1.293316 1.491577 -0.590168 -1.822056 0.647160 -0.171737 -0.306148 0.517776 0.850910 1.101505 -0.022134 -1.832845 3.162978 -1.873514 0.918358 0.423731 0.872893
were 0.490897 -0.574052 1.192019 -1.323731 0.596874 -0.474542 -1.373190 -0.769027 0.261172 0.931234 2.671270 0.009123 0.092836 -0.365760 1.159252 0.030813 0.899203 -1.645386 1.035113 2.576432 1.360953 -0.414318 1.514404 -0.788405 -0.426248 2.300917 -0.103675 -0.371249 -1.578836 -1.107530 1.358804 -0.357830 -0.699564 -1.517528 0.468807 -0.837114 -0.474260 0.966875 0.380654 -0.526723 -0.070707 -0.457287 2.112962 0.231287 1.155550 -1.718894 1.604741 1.572970 2.024005 0.191263 -2.123966 0.834664 1.188699 -0.441221 -0.828788 0.338464 -0.117457 0.024647 1.151117 0.835438 0.634052 -0.248402 1.260671 0.892588 -1.686680 -0.664377 -0.095236 1.958643 1.642851 -2.298682 -0.079393 0.940533 -0.110432 -1.617948 -0.811493 -2.129464 -0.136570 -1.056283 1.537944 -0.742356 -0.258074 -0.359568 1.517661 0.868059 -1.518331 -1.141338 -0.146324 -0.098756 1.606153 -0.565282 -0.080203 1.352421 -0.322809 1.984421 -0.664758 -0.831747 -0.242093 0.601907 -0.332770 0.227995 -0.284515 0.029607 0.957281 0.028824 0.019802 -1.131284 -1.238700 -2.410790 0.354401 -0.464405 0.237097 -0.088407 -0.013779 -0.040750 -0.286320 -0.293367 1.696530 -0.138544 0.270365 0.648695 0.092846 0.612642 -0.407590 0.767538 -0.458785 1.211012 -0.371611 -0.914307
what -0.811977 0.227690 0.034844 -0.535994 -0.219587 -0.626253 0.606904 -0.790424 1.691842 -0.390318 2.044195 1.034500 -1.316290 -0.455267 0.646053 0.750483 -0.921168 -1.118025 0.130719 0.223258 1.172003 1.825976 0.754873 1.770214 -0.341783 -0.458384 0.137609 -0.257609 0.610009 -0.025061 1.660730 -0.076224 -0.869399 0.824001 -0.953241 0.712680 0.170405 0.078069 1.278007 0.804109 -0.980483 0.769704 0.241783 -0.736393 1.118963 -0.476411 0.786970 -0.314658 -0.150565 0.928271 0.230755 -0.082226 0.931875 -0.357364 0.716778 -1.665058 -1.630277 -0.000934 0.479164 -0.585534 -0.043988 -0.557349 -0.527414 -0.437476 0.826427 0.441732 -1.318796 1.296978 0.868977 0.420457 0.628810 0.501561 3.326769 -0.119282 -1.063262 0.348580 -0.557518 -1.077092 0.181019 -0.282173 -1.517699 -1.147463 -1.347880 0.610417 -0.353488 0.167202 0.847250 0.723343 0.328471 -0.637859 -0.074472 -0.048124 -0.332621 -0.391852 -1.537185 -1.561672 0.701686 0.100378 -0.028207 -1.258453 -1.075960 -1.587213 -0.350843 -1.098778 0.868748 0.152969 -0.771503 1.243491 -2.030089 -0.218691 -0.724000 0.575201 -0.216034 0.191883 -0.373232 -0.943039 1.183856 0.909833 -0.095288 -0.229843 -2.254454 0.006866 0.799289 1.564370 -0.534405 -1.156059 -0.247944 0.344622
when 0.454416 1.319662 0.433698 0.936634 -2.274800 0.735989 0.337797 -1.494057 -0.854829 -0.938794 2.098414 0.546932 -0.483967 -0.952057 1.014540 -1.814636 0.932120 0.726750 1.596342 -1.270729 0.444792 0.617594 1.394021 2.517476 -0.286446 0.646049 0.371672 0.808299 -0.058351 0.368930 2.015089 1.062135 -0.444898 -0.329568 1.388038 -0.460787 0.087088 -0.371787 0.873230 0.126766 -1.093558 -0.104386 -0.055270 -1.551379 0.097079 -0.529157 0.009811 1.056680 2.060780 -0.397455 1.219003 0.210779 0.020541 -1.510547 -0.926368 0.204304 -0.614636 -1.467949 0.579118 0.844099 -0.261431 0.009112 1.248296 -0.378844 -0.307246 0.092703 1.575005 0.756903 -0.247304 -0.447894 1.068934 0.890695 0.226877 1.393623 -0.153688 -1.679209 0.572166 -0.445591 0.182101 -0.016041 0.546706 -1.096724 0.459800 -1.258425 -0.219158 -1.077796 -0.421521 -1.805288 -0.808890 -0.347105 1.045031 0.246826 1.344864 1.258043 0.089343 1.389802 -0.272360 0.785113 1.088942 -0.140388 -0.820229 -0.863957 0.195585 -0.303433 -0.212603 -0.658637 0.567429 0.733444 -2.059696 -1.068230 -0.166659 -1.208654 -1.011808 0.709533 0.281110 -1.355594 1.038273 -0.914691 -0.101381 0.149021 -0.241414 -1.041284 -1.345188 -0.300759 -0.239137 0.343340 1.270880 0.461463
no -1.174125 -0.915113 0.442459 0.880431 0.353944 -0.756026 -1.664132 -0.012632 -0.189674 -0.756290 -0.478324 -0.644151 0.177742 -1.620789 -1.432698 0.726914 1.182688 -0.086535 1.896409 0.101813 1.123784 0.377279 -1.737726 1.295104 1.594141 -0.653741 0.387800 0.978452 -1.303167 -0.364483 -1.233314 1.047645 -1.077459 1.517333 -0.729583 -0.290948 1.118960 -0.658191 -0.561643 -0.626518 1.686595 0.422051 0.490891 -0.574722 -1.792330 -1.507969 -0.660487 -0.881774 -1.240615 -0.223690 0.819585 -0.720502 0.528029 1.237688 -1.540964 -0.182955 -1.901540 0.058328 -0.272521 -2.126894 0.092176 1.165706 0.802055 -0.517428 1.225443 -1.134342 -1.672970 -0.419396 0.812705 -0.550025 0.484113 0.350434 -0.183853 0.189506 -1.140479 -0.173685 0.592062 1.784816 0.272511 -0.098399 -1.870242 -0.377913 -0.901868 -0.021797 -0.494956 -0.729008 1.765180 -1.149338 -0.149806 0.785712 -0.022528 -0.021352 0.318258 0.417630 -0.541519 -0.768585 1.643342 -1.274957 0.516416 -0.544812 -0.556856 -0.297750 0.708800 0.022657 0.070686 -0.851356 0.427567 1.198787 0.153482 -0.231337 1.447670 -1.623586 0.164271 -0.703954 -0.642627 0.852368 -0.871520 0.123889 0.131902 0.510435 -0.246109 0.258578 -0.123618 0.306163 0.813678 -0.651323 -0.742480 1.835552
if -1.318487 1.251201 0.542062 1.277309 1.058966 0.980281 -1.527497 -1.903022 0.830557 0.898091 1.037973 -0.141935 -0.201632 -1.183342 0.332840 -1.734967 0.607865 -1.391006 -0.911787 -0.325201 1.254083 -0.896011 0.505478 0.923213 -1.179286 -1.205892 0.866552 -0.202061 -1.017076 -0.981383 1.179798 0.158634 0.508639 -1.258992 -0.593435 0.947804 1.882475 0.886183 -0.134432 0.006499 0.709489 1.021027 0.248484 -0.216812 -0.035188 -1.071245 0.840573 0.019816 1.992196 0.619481 1.007046 -0.212446 0.299671 1.662924 0.626459 -1.221110 0.495775 -0.217481 1.610779 -1.321610 0.853354 -0.303511 -0.124890 -0.818620 0.260428 0.807172 0.795751 0.525148 0.290810 0.039180 -0.842468 -1.155333 -0.714717 -0.343288 -0.548270 -0.335179 0.862810 -0.080444 0.859795 -0.618103 0.365929 0.905077 -0.702012 -0.523449 0.674129 0.541956 -0.162587 1.226509 0.741579 0.076793 -0.475376 0.607239 0.012118 0.324017 -0.420310 1.122034 1.418364 1.205849 0.864282 -0.867761 -1.155439 0.632596 -1.299739 0.052686 -0.038517 -0.610314 -0.955795 0.229434 -0.007153 -1.691785 -0.779271 -2.147558 -0.078683 -0.622893 -1.007359 0.398891 -0.939322 1.137779 -0.946423 1.559179 0.518332 -0.599583 0.255987 0.985902 -0.409597 -0.316790 -0.022873 -0.855654
there 1.314616 -1.215330 1.315848 -0.792214 -2.078436 2.011763 -0.698770 -1.354567 0.021149 1.597062 -0.582336 0.673665 0.676568 0.499070 -0.726338 -0.823192 2.536357 2.408788 0.190676 -0.021625 0.699922 -0.356657 1.025914 -2.008347 0.239635 0.398089 1.567256 0.347735 -1.325891 1.988211 0.775341 1.543663 0.039575 -0.238608 0.248700 0.898588 0.756849 -1.157675 -0.641113 -0.382251 0.139772 -1.172324 0.640595 0.572434 1.270181 0.294881 1.153034 1.460135 -1.479311 1.864344 -0.877071 0.644013 2.227845 0.332631 1.301876 -0.692812 1.264422 0.681666 0.660874 -1.093545 -0.150426 0.227177 0.286522 1.801013 -0.513862 0.300314 0.112899 -1.697788 -1.387620 -0.599425 -0.495783 0.839427 0.697904 -0.022042 0.608488 0.011056 -0.762596 -0.356791 -1.794604 0.949406 -0.471450 0.676221 1.048138 -2.108163 -1.807258 -0.636306 -0.430194 -0.559848 -0.356133 -0.267041 0.039563 -0.388806 0.790842 2.778632 -0.682199 -1.268125 -0.351233 -0.583896 -1.255551 -0.137519 -1.122933 -0.115060 0.322714 0.031065 0.126797 1.513260 0.617533 1.351675 -2.788189 0.262993 -1.047230 -0.292827 -1.172396 -1.244827 -0.270414 -1.276894 -0.832328 0.408974 -0.941071 0.066868 -0.801625 -0.789462 0.192144 -0.022256 -0.603590 0.668261 -0.479733 0.020190
who 0.585167 -1.181501 -2.406283 0.237182 1.872212 0.356405 -1.256842 0.773875 0.302957 0.367496 -1.871602 -0.953310 0.044340 -1.037620 -1.930462 -0.709131 0.709277 0.561515 -1.066067 0.664174 0.219899 -0.496810 -0.051816 -1.307392 -0.534617 -1.308361 0.371984 0.455978 -3.015052 -3.198255 0.848531 0.251773 0.572247 -1.255391 0.204679 1.319424 -2.598691 -1.370266 -0.789602 -0.456365 0.477186 1.868224 0.392698 0.416256 -0.093432 -1.926302 -0.619257 -1.155864 0.622339 0.467299 0.969050 -1.990743 -1.083719 -0.327067 0.734719 -0.351181 0.716690 0.196605 0.253460 -0.989527 0.843546 -0.699104 0.422743 2.045580 -0.324618 0.544121 -0.739868 0.101085 -0.325509 -0.473040 -2.003146 1.409132 0.050315 -0.312244 -0.153322 0.479953 0.896219 -1.354498 -0.844717 -0.369607 2.094539 1.082471 0.013555 -0.106452 0.778664 -0.032961 0.076154 -0.749755 -0.019419 -0.697931 1.405363 0.035687 0.318790 0.728310 0.048041 0.732058 -0.984514 -0.441373 0.120459 -1.140371 -1.380706 1.824210 -0.544507 0.501415 0.289382 0.919696 1.035058 0.317973 -0.155504 0.995085 -0.855963 -1.704631 -0.705150 0.430261 0.007503 -1.264346 -0.379715 1.618311 1.833988 -1.243658 -0.479865 0.963399 -1.496550 0.050534 -0.004172 2.079551 0.075557 -0.128069
we -0.076441 -0.989000 -0.226647 -0.550328 -0.222092 0.594825 0.271164 1.015161 0.883288 0.798995 -0.000481 -1.121482 0.809980 1.100665 0.865078 0.004619 1.439348 1.791629 0.312944 0.466936 0.964723 -0.054498 0.904962 -1.705526 -1.215037 1.188888 -0.461635 -1.371272 0.931709 -0.736845 2.834671 1.869154 0.585955 -2.009283 -0.693402 0.088546 1.211486 -0.008754 1.442944 0.644950 0.555652 0.055308 -0.863427 1.055731 0.088425 0.078666 0.839199 -1.863046 -0.395614 -1.311452 -1.683448 -0.238493 -0.677790 -1.594983 0.380738 -1.062465 0.079464 -0.129179 -1.294769 -1.480660 2.387515 -1.225202 0.322843 0.268178 -2.020624 0.542515 0.104479 1.135524 -1.635787 0.097922 -0.097977 -1.772281 -0.287550 -0.098011 -0.217257 0.039928 -0.662854 -0.670832 0.253775 0.168380 -0.897362 -1.656255 -1.836861 0.968915 1.524683 -0.055169 1.007861 -1.353991 0.120194 1.069379 -1.393561 -0.814265 0.279010 -1.746093 1.359739 1.292619 -0.933185 1.014915 -1.734080 -0.441243 -0.279458 -1.588524 0.593630 -0.818608 0.564598 0.992651 1.538415 0.490624 -0.277023 0.542286 -0.338445 -1.273268 -2.120502 -1.215041 -1.175385 -1.791708 0.871353 1.524733 0.490185 -0.736607 -0.068878 -0.204637 -0.341261 -0.902310 0.232686 -1.016122 -0.606755 0.748334
will 0.798604 0.053911 -1.238658 0.647292 0.223047 -1.171128 0.463665 -0.269467 1.869397 -1.988586 -1.494713 0.573943 -0.929173 -0.262082 1.128915 0.178385 -0.282090 -1.048415 1.055353 1.597245 -0.188711 -2.417356 0.598868 0.893616 0.199373 -0.090130 1.202408 0.321089 -1.338646 -1.124737 0.017354 -0.760591 -0.671136 -0.782668 -0.772421 0.251807 0.966713 0.763076 -1.470025 1.447493 0.195049 -1.405095 -0.075542 0.376949 -0.013091 1.149642 -0.881820 -0.786744 0.021296 -1.392553 -3.006713 -0.106941 0.118492 1.495610 -0.649370 0.333197 0.014066 1.185234 -0.054271 -0.756961 1.891080 0.087900 -0.437363 0.426834 0.164844 0.566720 0.803313 0.477254 0.840597 0.545687 -0.026189 0.780162 0.715167 0.407804 -0.474423 -0.349843 -0.396740 -0.720518 -1.152017 -0.617862 -0.631080 -1.045638 -0.161157 0.037155 -1.526629 0.627768 -0.528378 -1.538429 1.337976 -1.040133 1.410204 -0.441411 -0.557140 1.918002 -1.403569 1.646087 -0.351799 -0.050903 1.548557 -0.046322 -1.475650 -0.692033 -1.311311 -0.004676 0.650627 0.717039 -0.708839 -0.938314 0.643839 0.889369 -1.294108 -2.014866 -1.058913 0.845195 0.755712 -2.116292 2.593502 0.186905 0.156865 -0.157834 0.780875 -1.091475 -0.746903 -0.139290 1.485267 -0.204248 -1.126121 -1.570760
an -0.439333 0.138809 0.995598 -0.131741 -0.242399 -0.000681 1.815067 -1.282015 -0.380171 -1.750105 -1.071224 1.836997 1.282630 -0.399558 -0.155783 0.858468 1.288999 -0.341740 -1.403294 1.005722 -0.034542 -0.795447 -0.426694 0.971678 -0.113932 0.217620 1.055457 -1.238032 -0.770439 -1.028930 -0.356294 0.372873 0.824827 0.908481 -0.415796 0.761699 0.170705 -2.239324 1.261429 0.690483 1.682400 -1.009812 -0.398351 -0.580862 0.683689 0.465529 -0.015617 -0.362704 0.143099 -0.734134 -0.361331 -0.827834 0.157663 -0.691809 0.437923 -0.441810 -0.844239 -1.302779 -1.009102 -0.017511 0.137449 -0.766856 -1.683356 -0.180079 -0.741134 -1.670838 -1.092472 0.029110 0.505242 -0.609873 -0.237724 -0.410539 -0.299787 -0.013819 -1.140555 -0.535839 0.656921 0.862538 0.594630 2.706747 0.483291 -0.003698 0.995460 -0.236460 0.329927 1.496360 2.051667 0.074257 -0.440028 0.158960 1.041824 -0.695142 1.256681 1.321159 0.422075 -0.369993 -0.397115 -1.165159 0.805925 0.594300 0.234413 -0.018353 -1.075063 1.006786 -1.713028 0.019267 1.058601 0.133338 -0.106717 0.382220 0.328206 0.345590 -1.198437 0.229195 -0.038582 0.807526 -0.905304 -0.035708 -1.154465 0.062521 -0.788447 -0.203111 -0.319407 0.227696 -0.482900 -0.608292 0.861914 -0.831579
then 0.752702 0.845183 0.909899 -0.349734 -1.804189 1.344221 -0.373302 2.089804 -0.091051 0.401218 -0.539641 1.860534 0.961324 -0.642517 1.700830 -0.545746 0.766698 0.107318 -0.448141 0.915520 0.407521 0.212783 1.517323 -0.704631 0.643914 -0.833992 0.359034 -1.317089 -2.058715 0.771971 0.903532 1.102552 -0.277163 0.005519 -1.595157 -1.022484 0.665968 3.080738 0.543511 -1.128985 0.090491 0.898763 0.531671 -0.296863 0.462222 -1.117042 -0.226011 -0.634299 0.608957 -0.798493 0.441439 1.683372 0.049259 0.069557 -0.583568 0.563201 0.320766 1.095642 0.837902 0.557438 2.237361 -0.068678 -0.759209 -1.597268 -0.334332 -1.041604 2.544026 1.189909 1.648658 1.223616 -0.160440 -1.315524 -2.026352 1.093378 0.898190 0.964865 0.502733 -1.075999 1.105004 0.278898 2.367042 -0.367180 -0.204238 -0.727741 -0.307892 0.942305 -0.931113 1.135114 -0.815812 -1.801748 -0.112592 -0.131762 0.397865 -1.596449 0.986987 -0.702078 -0.863671 0.344207 -1.043288 0.132619 -0.946489 0.669335 0.395603 -0.233466 -0.013053 -0.887459 1.022747 0.459371 0.444087 1.842986 0.403846 -0.297168 0.304926 -0.187327 -0.270679 -0.078776 0.565389 -0.045366 0.389228 0.073251 0.594496 1.996820 0.623007 -1.435619 -0.416057 0.864526 0.766760 0.825609
their 1.803228 0.439833 2.604802 0.517519 0.422769 0.075874 -1.805944 -0.174862 1.583600 -1.247071 -1.458165 0.104928 -0.970730 0.882876 -0.793988 -0.409907 -0.406827 -0.085832 -0.036619 0.320751 -0.417007 -0.428588 0.722094 -1.304910 0.579748 0.073297 -1.464685 1.272757 -1.469345 -0.422844 0.495913 -0.211217 -0.789191 0.819257 -0.846212 -1.357120 -0.226557 0.239159 -1.003455 -1.212767 -0.709361 2.062519 1.347113 0.575927 -1.305095 0.382074 1.543705 1.104738 1.147006 0.625501 0.074544 0.100509 1.082061 0.938083 -0.279814 -0.133369 -0.364147 1.715726 0.752123 -1.182390 -1.526912 0.067476 0.621863 -1.134169 0.262374 -1.520662 0.182457 0.224936 1.935102 0.403576 0.308433 -0.134290 1.052606 1.000035 0.152347 -0.585260 -0.000859 -1.331702 0.216827 -0.281836 0.162305 -0.955419 1.557796 -0.139885 -0.268248 0.232309 0.458958 0.069208 -1.832545 -0.837169 -1.218240 -1.681893 1.046898 0.265909 -0.437841 0.997780 0.984086 0.673714 -0.907938 0.147348 -0.184037 -0.211240 -1.284895 -0.701551 -0.952540 -0.803410 1.336203 -0.045190 -0.235170 1.310806 0.374071 -1.052593 1.381139 -1.274840 0.052957 0.892760 0.414887 1.909364 0.225562 -0.059653 0.074586 0.216245 -0.192356 -0.209028 1.249626 -0.301837 1.636093 -0.167114
would -1.158801 0.451499 1.338055 -0.968800 0.602934 0.517153 -1.765050 -1.256730 -0.844190 1.363933 -0.542356 -0.813400 -1.032124 -0.319307 1.812945 0.291296 0.458268 -0.751654 1.220261 -0.064774 1.571841 -0.033120 0.028121 0.813308 1.238370 -0.270888 -1.664342 -0.459477 -0.274980 -0.963915 0.439716 -0.789624 -0.361566 -0.422654 0.498044 -0.333908 0.152575 -0.834364 -0.602729 0.481524 0.353179 1.907200 -1.233748 -1.923898 0.211903 -1.034292 1.577513 -0.541413 -0.844276 -0.866901 0.350754 -0.176192 -0.446189 -1.324376 -1.832385 -0.981870 1.063258 0.762257 -0.830961 -0.613320 1.863827 -0.478491 0.979938 -0.039898 0.509309 0.850377 0.179391 0.054172 0.382599 0.204562 -0.355366 -1.400520 0.318903 -0.659319 1.056560 -0.405056 0.431437 -1.057919 0.569515 -0.665329 2.486537 -0.036398 -0.173550 -0.577455 -2.275946 0.619690 0.537607 -0.619138 2.058481 -0.493253 0.472186 -0.248190 0.344272 0.173549 -0.522502 -0.404596 0.859722 -0.871895 -1.135138 0.235489 -0.845834 -0.289825 -0.101134 -0.244365 -0.461596 -0.436791 -0.722835 -0.292463 0.428415 0.259470 -0.158034 -0.133377 -1.318874 0.532212 -0.062342 -0.290113 1.195415 -0.121234 1.473738 0.466882 -0.651036 -0.182390 -0.968477 -0.644697 0.245990 -2.317485 2.599954 0.146994
them -0.277774 -1.323017 -1.583553 -1.020789 0.411389 0.179961 -2.893196 -0.317698 0.216749 -0.767679 0.494689 -0.814880 -0.601919 -0.388283 0.524488 0.681231 -0.179379 0.537029 0.030495 1.224042 -1.647491 -0.637807 -0.778127 1.056014 -1.524465 0.894643 2.083121 2.018576 -0.957862 -1.200898 0.033177 1.761337 -1.397036 -0.295111 1.595962 0.669005 -0.710354 0.502191 -0.522251 0.145920 -0.551644 -0.253735 -0.284908 -0.509484 0.051962 -0.698158 2.374698 -1.441899 -0.448663 1.145597 0.544905 -0.819157 -0.734737 -1.773583 0.983700 0.305649 1.054207 0.454009 0.837430 -0.515919 -0.642280 -0.912198 -0.207187 0.914765 -0.726353 -0.598654 0.154623 0.891005 0.700164 -0.832534 0.290959 -0.231765 -0.280426 0.935005 -0.320539 -0.336964 2.563554 0.551090 0.667289 0.370242 -0.120154 -0.345963 -1.037669 -0.272907 -0.952673 -0.368574 0.747295 -0.587959 1.561047 -0.557743 0.968155 -0.256951 0.223667 1.221700 1.260130 0.220023 -0.060241 -0.883385 0.562185 -1.534766 -1.282898 1.871752 -0.818109 1.140406 1.057203 0.349074 -0.583068 -1.547121 -2.536094 0.701120 -0.648412 2.176991 -0.132248 -0.046532 -1.076888 -2.042807 -0.384401 1.089085 -0.360292 1.154895 1.527196 -0.124036 1.158988 -1.374353 0.537904 -0.249896 -0.519549 0.956475
been 0.181441 0.909820 0.667597 -0.206958 0.485172 0.628312 -0.047842 0.215609 0.883160 -0.247004 0.561401 -0.022472 0.492712 -0.282980 -1.264164 -0.020670 2.074316 -0.903866 0.252169 0.006747 0.303570 2.398894 0.065284 0.122850 -0.451864 -0.557544 0.001527 -1.267802 -1.456061 -0.508393 -0.697871 -0.123425 1.098087 -0.213442 -0.241951 -0.153827 -0.439184 -0.587740 0.303427 0.154528 1.006548 -0.847703 0.230515 -0.358359 -0.107232 -0.234666 -1.233533 0.503616 -1.035120 1.410346 -0.690351 0.678536 1.482965 -0.280468 -0.108836 -0.331425 -0.685128 1.562398 0.150471 -0.351737 1.717468 1.077740 -2.162916 -0.078536 -0.065414 -0.530208 -0.995653 0.212355 0.705509 -0.991740 -0.409298 -0.501866 -0.068642 -0.449391 0.425225 0.376000 0.536308 -1.090841 -0.526612 -1.374933 -1.311002 0.358108 0.261713 0.087596 -0.217015 -0.515559 0.035388 -0.271532 1.193632 1.229338 -1.655857 0.363366 -0.196420 -0.367549 -0.441597 -1.510198 1.823740 -1.452733 -0.835713 1.726875 0.052027 1.043911 1.255472 0.493848 -2.228612 0.165796 -0.522408 1.675707 -0.151544 -0.142701 0.928885 -0.686764 -0.501054 1.104421 0.587584 1.270402 -1.957862 -0.273418 -1.197053 -0.536655 -0.243814 -0.151116 -0.910108 -1.801974 1.208589 0.229094 0.402283 -0.467406
do -0.235438 0.662337 -0.050721 -0.614310 -0.563136 -2.355983 -0.355817 1.198137 -0.554774 -1.156291 -0.228463 0.920695 0.540304 -0.118396 0.914663 1.422206 1.022906 1.056249 -2.485624 0.137797 1.850102 0.576117 0.144750 0.488581 0.778681 -0.823896 -1.343514 0.515390 0.776082 1.194196 1.081234 -0.385164 0.617814 -0.891117 0.502861 0.543341 -2.216666 -1.413185 -0.557040 -1.118580 1.355846 0.408297 -0.689796 -1.633574 1.296021 1.245507 -0.218534 -0.617531 1.420623 -2.715634 -2.512853 -0.247106 2.141470 0.027307 0.351622 0.183717 0.196203 -1.927224 -2.056450 0.253773 -1.717622 -0.832417 -1.025692 0.310780 -0.135720 -0.328342 1.883066 0.470600 -0.251246 1.139573 0.559968 2.337211 -0.112773 0.075286 1.219439 -1.358389 1.664007 -1.156406 0.688671 0.472931 -0.409763 0.747095 -1.090455 -0.758849 -0.160410 -0.630192 -0.144705 1.132332 -1.111281 -0.389098 -0.832240 -0.479451 -1.073036 -0.790533 0.478200 1.226715 0.365293 -0.016070 -0.583623 0.231232 -0.765438 1.164314 -0.252946 1.824038 1.080829 -1.244016 -0.916199 -0.098797 0.134510 -1.294553 -0.548685 0.396615 0.958361 0.165159 0.709714 -0.192671 -1.207920 -0.268602 -0.533381 0.215764 0.923040 -1.507075 -0.702196 -0.414052 0.007880 0.239334 0.573007 0.653363
your 2.039693 -0.266588 3.503577 -0.547244 0.945384 -0.048792 1.564947 -1.016729 -1.665484 -1.709304 -2.851338 -1.509917 0.739913 0.899080 -0.566220 1.065178 -1.260054 -0.710873 0.852006 -0.599930 -0.968265 -2.010735 -0.235442 0.258497 0.920239 0.199282 -1.721074 -0.592949 -0.992363 1.079539 -0.389068 -1.345008 -0.092297 -0.661873 -0.236138 1.091894 0.094510 1.982195 -0.901019 -0.139856 -2.422306 -0.726587 1.729740 0.624126 0.975218 2.100327 0.823117 0.048394 -1.438592 0.203230 0.415698 0.638526 -0.474134 -0.790798 -0.434784 -0.496416 0.256423 0.238046 0.780344 0.780244 -0.139507 -0.708048 1.417496 0.259673 -0.681443 0.564142 -0.229900 -0.360554 -1.096985 1.945116 1.352684 -0.023322 -0.633918 -1.323846 0.087292 0.294542 -1.591351 -0.715716 0.061870 0.866964 -0.047840 0.765183 -3.081949 -1.991768 -0.137158 0.118197 0.919785 -1.932184 0.911873 0.087847 -1.656888 2.021224 -0.012043 -0.026436 -1.447034 0.420093 -0.287754 0.649189 -0.818964 0.144716 0.729807 0.705282 1.299055 -0.399818 -0.279458 2.392980 0.471934 0.252930 0.165388 0.117669 1.563510 0.032635 -0.778155 -0.142150 1.414517 2.167709 1.383057 -0.017223 3.221524 0.714289 0.091169 0.451079 -0.633799 0.728412 1.223902 -0.103876 -2.135579 0.835819
now -1.153964 -0.319061 -0.330636 -0.676772 -0.233990 0.211498 1.105225 -1.581324 0.585973 -0.447474 0.820468 0.062660 0.910247 -0.444477 -1.713197 0.898040 -0.808688 -0.929505 -0.104909 -0.338027 -0.701916 0.082122 0.923242 2.447955 0.597383 0.550352 0.892240 1.323134 1.097923 0.143324 1.158594 -1.317786 0.230817 -0.757891 -0.025101 0.540697 -0.522021 1.731842 -0.212539 -1.040708 0.585683 1.271246 -1.019810 -0.614825 -0.248542 -0.788604 -0.478509 -0.181108 -0.212930 -0.906303 0.396299 -1.002767 -0.792641 -1.019511 -0.954597 0.440002 0.065988 -0.400091 0.512100 -0.922044 -2.181399 -0.730143 0.573363 -0.642128 -1.599476 0.486219 0.315057 0.606712 -0.025875 1.209721 -0.853166 -0.276267 0.660729 -0.584266 -1.145636 -1.133744 0.680937 -1.101391 0.448112 -0.804914 -0.694134 -0.608628 -1.703025 -0.667955 -0.907246 0.622643 -0.888710 0.036504 -1.743178 -0.248729 0.606806 1.036453 -0.000293 1.458594 -0.987522 -0.234799 0.140529 0.210408 -0.369970 0.179558 0.009022 0.892910 1.091607 -0.374186 0.456751 -0.122905 -1.597165 -0.432234 -0.790012 -0.019671 -1.141981 -1.404848 -0.253835 -1.530060 0.667304 -0.415123 0.420147 0.985165 -0.707883 2.362379 0.515640 0.058453 -0.868878 -0.686826 1.742596 -1.377105 -0.761212 1.341980
out -0.109679 0.142746 0.169097 -0.473484 0.009102 -1.503186 1.065255 0.056278 -0.461275 0.823905 -0.372075 -0.528817 0.323415 -0.484879 0.358071 -0.595778 0.504230 0.167696 0.312342 0.833223 -0.369934 -0.611424 0.476403 -0.285599 -0.117851 -0.219916 -1.104364 0.136849 -1.491838 0.681682 -1.588576 -1.425087 -0.339895 1.106754 -1.451328 -0.664075 -0.091602 1.574923 -0.723532 -0.533035 -0.446274 -1.860547 -0.822571 -0.460648 -0.188482 0.718023 1.120219 -1.124137 -1.229907 0.128141 0.316370 -0.232893 -1.579951 -1.279557 1.037407 -0.421785 -1.463108 0.815892 2.397486 -0.223905 0.205815 0.977830 1.341818 1.608267 0.870583 -0.459886 0.208964 1.245552 0.350530 -1.537918 -0.779125 -1.780890 -0.169248 0.839843 -0.568878 0.048347 -0.924320 0.415522 -0.659475 0.854029 -0.177887 0.509992 0.920061 -0.193844 -0.734891 -0.002549 0.323891 0.449014 1.407333 -1.221947 0.921329 -0.823688 -0.821594 1.054868 -0.163188 1.371647 -0.496655 0.089178 0.810485 0.464589 -0.313752 -0.299808 -0.822528 -1.419775 -0.798910 0.083328 1.257183 -1.403034 0.164221 0.585993 1.377106 0.085178 0.419014 -0.084749 0.106247 0.045792 -0.400931 -0.769002 -0.176642 -0.064729 -1.956586 0.642719 -0.416863 -2.058076 -1.691128 -0.824514 -0.957807 -0.054723
more -0.993251 0.885528 -0.848463 -3.188717 1.390474 -0.691000 -0.578305 0.573104 -0.043835 -0.392095 -1.005744 -0.311280 1.150053 -1.992339 -0.578189 -0.647605 -1.556499 1.354503 1.362924 -1.503687 1.374225 -0.512653 1.267364 -0.133299 -0.965131 2.265102 -1.585826 0.294712 0.068041 -0.529465 -1.209194 1.173952 0.006725 -1.677546 -0.200027 -1.570157 -2.266590 -0.823810 -0.838833 -0.814887 1.018669 0.290387 -0.316480 1.165213 -0.261752 0.372897 0.956232 -0.791671 -1.141906 0.420026 -1.244500 -0.520202 0.864205 0.737538 1.858019 0.869480 0.589094 -0.437871 0.030682 0.411947 0.968552 -0.851794 -0.472226 2.702726 0.028595 1.140475 -1.026507 -0.127479 0.879223 -0.153533 -0.891690 0.616670 0.708843 0.157894 0.833834 0.010701 0.614375 1.530002 0.010732 1.921336 -1.451785 -1.297831 -1.471181 0.399723 0.426368 -1.109478 1.119627 -0.670907 -1.646194 -1.035964 -0.330012 0.130227 0.826329 -0.855851 2.125288 -1.042842 0.620871 -2.266442 -0.569118 0.008936 0.200818 0.254720 1.119853 -0.494397 2.104523 -0.170216 0.320173 -0.806127 -1.236346 0.306376 2.030093 -0.573045 0.235281 -0.161956 -0.207677 1.649781 0.870695 0.612460 -0.489577 -0.886181 -1.178023 -0.058022 -1.129206 -2.739418 0.363017 -0.532696 -1.837566 -0.045137
up 3.003647 -0.161034 -0.753618 0.991680 -2.480082 -0.354022 0.484748 -0.327592 -0.759552 -0.647343 -0.840788 -0.485909 -0.909418 -1.086546 -0.796127 0.778547 0.477862 0.307183 0.652366 0.245292 0.074526 1.761927 -1.039320 0.970764 -1.078475 0.815429 1.255881 -0.584698 1.961474 0.645037 -0.042349 0.617317 1.064482 0.743716 0.763620 0.192671 0.676260 -0.014853 0.017090 0.410808 -1.051759 -1.208170 0.039307 0.263423 -0.967361 -0.054751 -0.542022 0.825961 -0.253902 -0.121482 0.167036 0.166922 1.767519 1.010416 0.189980 -0.797553 1.257386 0.411337 -1.850108 2.049010 -1.024803 -0.843637 -0.456794 0.013167 0.865491 -0.899768 -1.211847 0.770730 1.384766 0.136731 -0.298904 -0.224254 0.021374 -1.903427 -1.303011 0.121987 0.792466 0.537637 -1.692862 0.341635 -0.407136 1.922639 0.259104 -0.402022 -1.009462 1.107298 2.389827 -0.548703 0.366457 -1.130957 0.964329 -0.592054 1.359598 -0.596189 -0.305787 0.348040 -0.297052 -0.145276 -1.922147 -1.313582 0.475374 -0.071899 -0.210711 1.552564 -0.790606 -0.857313 0.837005 0.612471 0.308348 1.843038 -1.888093 -0.480724 0.201400 0.558487 0.647654 1.100276 -0.530434 -0.557026 -0.898463 -0.618206 -2.222890 -1.000935 0.137026 0.121017 -1.535864 0.811316 -0.495950 -0.326820
man 0.377641 -0.446629 0.432795 0.272830 -0.726034 -1.588105 0.551927 -0.706405 1.552805 -1.223138 0.736322 -0.587386 -1.488133 0.419067 -0.096840 -2.211533 0.621403 -0.987429 -0.899878 0.193162 0.864182 -1.916300 0.946934 -0.822196 -0.136250 0.130115 0.321918 -1.307673 1.593939 0.240882 -0.585552 -0.096796 0.488612 0.263232 0.239232 -1.052256 -1.578400 -0.570303 -1.778188 -0.275186 -0.825747 -1.416225 -0.680507 -0.557993 -1.015994 0.466481 0.797272 -0.724328 -0.564731 -0.332528 2.584642 -1.003503 -1.769266 0.291267 2.506235 1.249275 0.353552 0.021884 -1.053292 0.280522 -0.875240 -1.621491 0.279493 -0.806856 0.342228 -0.413886 -0.699503 -0.543838 0.160581 0.572035 0.607028 0.481256 -0.405732 -1.211172 0.442375 0.283351 -1.371178 0.278506 -1.160026 -0.819157 0.102769 0.414251 0.351082 -0.993305 -0.077972 -1.195612 -1.112502 1.344127 -1.368813 -0.555582 -0.159205 0.601421 -0.692448 2.297611 0.482307 0.202822 0.336774 -1.906825 0.738918 0.392501 0.982489 -0.241403 -0.509638 -0.402746 0.492283 -0.556534 -0.146314 0.335695 -1.853378 1.099607 0.126380 -0.223810 0.388639 0.406654 1.348184 -1.624271 -0.156381 -0.913201 -0.109654 1.927917 0.238220 -1.244831 -0.486881 0.934721 -1.291056 -0.149225 -0.012072 0.371452
into 0.059045 -0.566441 0.508824 -0.527702 0.541739 1.074134 -0.161072 0.566019 1.386124 0.496446 0.295118 0.599886 0.324445 0.344690 -0.044691 -1.307531 -1.661418 0.122176 0.180154 -0.180818 -0.368667 -0.225029 -0.342710 -1.019158 1.080064 -0.059816 -0.464593 -0.757102 0.330513 -0.988721 -0.217226 -0.933005 1.183227 0.434126 1.466970 -1.274280 -1.253924 -0.355062 -2.134338 -0.678999 -1.172165 -1.415279 -0.171402 -1.205843 0.083983 0.944720 0.862583 0.516202 -0.902312 1.271703 -2.009058 1.800186 0.192023 0.056714 1.603358 -0.769809 0.154575 -1.510790 -0.942208 -1.011420 0.405141 -1.154747 0.133509 0.392229 0.732254 -0.705862 -0.033146 -1.743482 1.184697 -1.208576 0.005108 0.100555 -0.011095 0.224522 0.394677 -0.625724 0.104832 1.887746 0.109428 0.296382 -0.294389 -1.502742 -2.080008 -1.084189 -0.398530 1.739605 -0.168716 -0.721131 -0.408072 1.950129 -0.993524 0.904052 0.334709 -0.534230 0.614114 1.968521 1.307361 1.420431 2.057934 -1.386503 -0.360110 0.920021 0.306167 0.551260 -0.685746 2.036602 0.075959 0.837494 -0.225602 -0.234296 1.183677 0.709635 -1.156490 -1.277229 0.596436 0.476054 -0.269760 0.423952 0.393752 1.937017 -0.321393 -1.493798 -0.482465 -1.716690 -0.197075 1.625777 -0.424952 -0.186787
some -1.526395 1.275403 -1.096289 0.768648 -0.168356 -0.894481 0.491971 0.087575 -0.832393 0.962935 -1.680408 -0.415917 0.754486 -0.522693 1.053914 1.752935 -1.026058 0.267580 2.075670 0.731210 -1.384557 -1.007863 -2.844931 0.541935 -0.417083 -1.478420 0.769918 0.585655 0.016514 -0.887999 -0.354633 0.815613 0.347536 0.293638 -0.440847 -0.773458 1.347355 -0.512068 -0.550727 -1.505309 -1.134471 0.957670 0.187975 -0.400867 -1.178452 -0.251268 1.084456 -0.117474 0.901767 -1.406945 2.252353 0.826142 1.623855 0.674707 -1.629154 -0.391139 -0.876459 0.124787 0.489064 1.641408 1.115685 -1.089640 0.246686 -0.129625 0.347329 0.242231 0.245747 -0.735423 0.940239 0.429104 -0.314380 0.425743 -1.498106 -0.785412 0.766532 1.253368 -0.094725 0.569619 -0.850093 -0.545656 -0.197533 1.159580 0.008996 -1.730290 -1.642401 0.103582 -0.038500 -0.574644 0.007576 -3.069336 -0.284447 -1.381614 -0.633410 -0.441898 -0.824869 0.888159 -0.444076 -1.045801 0.800064 -0.070223 -1.915559 1.105330 0.527272 0.102467 -1.386835 0.790973 0.838068 0.723678 -0.958549 -0.466615 -0.117168 -0.327008 -0.440344 1.552268 -1.474428 -0.026189 1.051780 -0.451484 0.777836 2.546100 -2.390188 1.398215 0.449623 -0.144780 -0.665481 -0.459594 -0.261132 -0.218912
could 1.206715 -1.766490 0.616463 -0.786067 -0.769584 -0.133425 -0.006015 0.095845 -2.337829 -0.400801 -0.565811 -0.130749 0.712137 0.141893 0.274840 1.515590 -0.213579 0.415049 -2.380033 1.366825 1.700586 0.129057 0.133914 -0.408975 0.743005 0.350974 -1.362985 1.580748 -0.343343 -0.432162 1.671282 -0.000537 -0.718779 0.781201 -0.310897 -0.781528 0.462884 -0.301490 -0.001908 0.780610 -1.048561 1.130370 -0.831477 0.484773 0.433185 1.455364 0.871454 -0.920037 -1.252096 0.295766 -0.006008 -0.402962 -1.011069 -2.016407 0.920657 0.021295 -1.669999 0.949963 -1.057430 -0.785905 0.006755 0.223709 -0.668610 -0.968865 0.228198 1.427657 0.432048 -0.076769 -0.776560 0.096240 0.038103 1.234197 -1.367320 -0.695642 -1.019973 -1.382572 0.804761 -1.942036 0.654856 -0.309643 -0.819192 -0.181170 0.567158 -2.492777 -0.334791 -0.088743 0.107265 1.490572 0.118354 -0.475278 0.638362 -0.969594 -0.655138 -0.336571 -0.701131 -0.828455 -0.834229 -0.081891 -1.309271 1.035713 -0.595622 0.925340 1.251333 -0.334864 1.938562 -0.905497 -1.581623 -2.064848 0.896818 0.315192 -1.020019 -0.643720 1.661915 1.225988 0.696307 -0.956601 -0.373504 -0.689090 -1.206173 0.730538 2.093636 1.955670 -0.815880 0.229312 -0.264167 1.366720 -0.899548 1.069546
has 0.064878 -1.085834 -0.267566 0.965444 -1.120253 0.446572 1.189891 1.453553 -0.628161 -0.603878 1.377771 -0.186219 0.140213 0.106111 -0.793728 -0.291783 1.018845 -0.693179 -0.471627 1.121617 0.581020 1.008767 0.441382 2.985021 -0.680133 -0.208673 0.032566 1.237385 1.571953 -0.014988 0.932445 0.682864 0.845767 -0.470264 0.723730 1.504539 -1.469339 -0.121645 -2.079374 1.750677 1.795705 0.234880 1.203708 0.292194 0.869989 1.089895 0.051441 1.076205 -0.673634 -1.544068 1.746177 -1.035715 0.289398 0.163164 -0.745030 0.084239 -0.266263 -0.677996 -0.405006 1.373791 -0.130321 1.463297 0.065260 -0.893376 -1.284095 0.452060 0.893390 0.845403 0.188990 0.749675 0.645205 1.235069 -0.405234 -0.422835 -1.665567 -0.009046 -1.686710 0.663668 1.011466 -0.073202 0.392350 1.011040 0.850229 0.766979 1.071454 -1.215218 -0.734691 2.195478 -0.707164 -0.208344 -0.062459 -0.946529 -1.676890 0.190450 -2.076745 -1.751593 0.279832 -1.524622 0.871299 0.375614 -0.373374 0.375552 -0.041300 -0.380737 3.079631 -0.640085 0.187496 -0.866317 0.337757 -0.254158 -2.107659 -2.380816 0.858122 -2.447506 -0.138028 -2.210119 -0.160958 1.650897 -0.039794 0.464861 1.024781 1.017736 1.550247 0.483307 -0.536138 -0.539200 -0.240915 0.934911
only 0.719715 0.941363 -0.044354 1.133689 0.559419 0.273411 0.964267 -0.483687 0.555180 0.186957 -0.179564 1.187255 -0.655579 2.958851 -1.004966 1.038184 -0.999754 -1.035968 0.013934 1.451773 -0.550706 0.843222 -1.344393 1.862068 0.153232 2.046850 -0.813969 1.403363 -1.221702 -0.971022 -0.846153 -1.696075 -0.740062 -0.585101 -1.396526 0.300697 0.273869 1.048550 -0.984203 -0.354590 -1.385791 0.964678 0.848800 0.255081 -0.225664 0.177453 -0.433246 0.874463 0.267142 -0.042083 -0.131154 0.002250 -0.073772 -0.644075 -0.473529 0.218055 -0.263859 -1.174662 -0.753539 -1.302979 0.788868 2.270269 1.532606 -2.030044 1.246512 0.991132 -0.174156 1.387070 0.913451 0.846854 -0.451649 1.773293 1.559089 -0.991381 0.736866 -0.093299 -0.685068 -1.191027 -0.000081 1.171120 0.561699 1.291671 0.281565 -1.016672 -1.623085 1.338482 0.611359 0.775070 -0.438701 0.833247 -0.864350 0.577282 0.398031 -0.442419 1.480872 1.798165 0.735874 -0.889911 1.544680 0.222392 -0.358405 -2.185113 1.353300 0.475813 -1.193172 -0.021913 -0.827901 0.794813 -1.171345 0.522501 0.824461 0.950795 -0.267994 0.174673 -0.345561 -0.407615 -0.426917 -0.634632 0.693294 -0.083838 0.270424 1.280973 1.813126 -0.937430 0.550130 -0.320940 0.132054 1.173233
any 0.339983 0.863183 -0.131607 -0.463308 1.335060 -2.652886 0.824740 -0.574740 -1.168538 -1.926893 0.333052 0.143796 -1.127146 0.625405 -2.369890 0.102825 -1.288781 -0.393739 0.390018 -1.314084 -0.830268 0.821788 1.096549 1.935501 0.546270 0.058185 -1.451621 0.195215 0.132386 -0.962587 -0.158451 -1.359615 0.141926 -0.975328 1.032558 0.755893 -0.559524 0.844475 -1.076867 0.147971 -0.791805 -1.881949 1.040767 2.679926 -1.299938 -0.434901 0.523113 -0.176063 0.368116 -1.578915 0.573955 0.317786 -1.801005 1.177592 0.871164 -1.630846 -0.087902 -1.541486 -0.751743 0.852943 -0.295977 0.055650 0.330885 -0.674989 0.885558 0.224655 -0.803053 -1.055444 -0.707539 1.523557 1.057320 -0.803302 0.306140 1.018915 -0.356190 -0.426959 1.324065 2.097619 -0.171142 -1.126315 -0.876261 -0.333175 3.158479 -0.734999 -0.121622 0.637519 1.611076 -0.657063 -0.931358 -0.240321 0.225974 -2.005091 0.832346 0.664478 -1.435142 0.663433 0.271911 -1.249643 0.042104 -0.039506 0.719401 0.386782 0.504122 -0.147415 0.546486 0.155086 -0.590920 -0.352422 1.876364 1.689931 -1.638564 0.427031 1.529231 -1.310132 1.213328 -1.381745 0.591373 -1.949407 0.246063 -0.466746 0.165828 0.448936 0.433382 1.511307 -0.266720 -1.386464 -1.087846 1.454321
very -0.727387 2.111419 0.204270 0.675128 -1.376665 -1.279271 -1.218364 -1.977728 -1.972250 0.095847 -0.692972 -0.707912 0.960026 -0.441164 -0.052202 -0.253448 0.133975 -2.155763 0.453758 -2.021594 0.993985 0.936398 -0.342818 0.793560 0.344410 -0.343065 -0.236856 0.152176 0.756920 -0.887308 1.202731 0.834177 -0.716290 2.290326 0.276358 0.576828 -0.432669 0.153567 -1.085727 -0.982665 -0.290823 1.741921 -0.062837 0.548632 -0.673211 -0.060067 -0.454298 -1.658257 0.006912 0.728571 -2.007022 -1.296184 1.953683 -1.907145 0.277288 0.943460 -1.744136 -0.260889 0.011607 -0.156790 -0.463062 -0.853547 -0.011945 -0.234462 1.708514 -1.141441 -1.257405 0.109692 0.187024 0.380092 0.560691 1.349011 0.489498 -0.654890 0.414197 1.015755 2.073399 -0.354145 -0.133732 0.194617 1.379192 1.344019 1.489777 0.259095 -0.379841 0.635371 1.740364 0.514417 -0.035115 1.469543 0.953922 -0.405075 0.418211 0.017233 1.753883 -1.462078 -0.762269 0.709048 -1.084135 0.329585 0.113041 -0.247917 2.453279 1.424836 -0.141531 0.054376 -0.195648 0.557776 0.335615 0.662548 1.810974 1.064549 0.979467 -1.802668 1.338233 -1.415494 0.630562 0.020450 0.406902 -0.542591 1.623297 -0.343414 0.790750 0.097075 -3.089128 0.969937 0.257763 0.050665
like 0.427727 0.975925 0.507040 -0.705198 -1.249408 0.244520 0.602058 0.166584 0.889171 0.200574 -0.495339 0.182597 1.015107 -1.815260 -2.010316 -0.795071 0.827091 0.349493 0.085176 -0.501070 0.426295 1.015207 -0.851920 -0.310355 -1.397717 0.159996 -0.477154 0.399900 -0.805429 0.297259 0.721725 -0.601602 -0.142857 0.354977 0.683121 -2.063376 0.671721 -0.915835 -1.300916 -0.987998 -1.238836 -0.756980 1.311340 0.335004 -1.805235 -1.322844 -0.733542 -0.875040 0.406304 0.680289 -0.797374 -0.158842 1.119171 -1.454895 0.425450 -0.311646 -0.569016 -0.374979 -1.415243 -1.064322 -1.254199 1.874576 -0.238222 -0.145848 0.010488 0.949503 -0.475962 0.713840 -1.528530 -0.436164 -0.925494 -1.065627 2.439099 0.716597 -0.371992 -1.089971 1.206051 0.016513 1.086062 0.796397 0.406334 -0.114217 0.288137 -0.534426 1.223108 -1.262805 -1.462332 -0.954094 0.300015 1.592616 -0.728247 0.879209 -0.453123 -1.936378 -0.419788 -0.639704 1.300695 -0.518360 -0.901641 1.114512 0.601502 0.312011 0.186074 -0.953049 -0.822025 0.168874 -0.457194 -1.326886 -0.336143 0.248981 0.092240 0.768274 -0.283517 0.190545 -0.371621 0.166404 -0.537533 0.040854 0.325051 0.458450 -0.830268 -0.367704 -0.197928 -0.120380 1.800000 0.773036 1.080070 -3.315683
did -0.903780 0.970448 0.010338 -0.581564 0.206482 -1.140085 1.319845 -1.379544 0.920547 -0.130148 -1.390983 1.211145 1.587744 0.008394 0.810933 0.858343 -0.841348 0.115848 0.710455 -0.005862 -0.311880 -2.285058 0.775398 0.869356 -1.644807 0.633386 0.262980 1.176145 -1.288891 -1.637571 1.192673 -0.262188 1.674393 -1.060525 1.988210 -0.588594 -0.830472 -0.868645 0.909271 1.644504 0.293953 -0.140357 -0.580600 -0.211400 0.696022 0.066599 0.540495 -0.561032 0.361949 -0.628689 -1.390533 1.042108 -1.690110 -1.471111 1.552959 0.010321 -1.761908 1.163319 -0.622384 1.039083 -0.660997 -0.904582 0.580953 0.702380 0.525590 1.564234 -0.253228 -1.439419 -0.698887 0.959288 -1.376016 -1.175018 0.984804 0.158474 -1.882658 -0.929136 0.733658 -1.270445 -0.228298 0.296030 0.421420 -0.034285 0.556398 0.305605 0.867884 -0.102502 0.544576 0.167119 0.080785 0.726751 0.420372 1.113101 -1.303864 1.260508 0.608759 -0.806277 0.139103 0.943509 -0.483184 -0.269729 -2.120744 -0.386248 1.121667 -2.433280 -0.406505 -1.687709 0.425187 -0.531569 -0.680673 1.357200 0.362446 -0.547415 -0.127451 0.038441 -1.399548 0.597735 0.228553 -0.228828 0.028722 0.558882 0.382453 0.002314 0.087770 0.650218 2.068611 -0.294156 -0.212495 0.824366
time -0.456668 -0.942269 -0.440671 0.859972 -1.106651 -0.748128 -0.491208 0.509531 0.987317 0.181094 -0.587153 -0.157138 1.004483 0.432219 -0.374193 1.989996 0.909088 -0.252915 0.123428 -1.825952 -0.099390 0.184822 1.267439 0.638070 -2.255884 -0.044630 -1.060024 0.939206 0.284766 1.021590 0.438459 1.209605 0.535392 1.610694 -1.143156 0.651534 -0.318027 -2.016843 0.704485 -1.400715 0.662006 -0.252459 -0.158268 0.752412 -0.627777 0.562277 -1.361254 -2.683914 -0.209168 0.771996 0.232555 -0.556141 0.832105 -1.288367 1.340500 -0.381552 1.180533 0.798567 -2.279904 0.212072 1.953479 -0.542519 -2.484988 1.094173 0.540210 0.189123 -0.761711 -0.792034 1.236602 1.184807 -1.452854 -2.998770 -0.593260 -1.084289 0.918655 0.245784 -1.484360 -0.234206 -1.514340 -0.827638 -0.584041 -0.024186 -0.153261 -0.374182 0.054893 -0.825814 -1.720165 -0.927849 -0.037102 1.863739 -0.453212 -0.546818 0.403026 -0.116531 0.241060 -0.515391 -0.267601 2.196257 -0.699749 -0.348504 0.406868 -1.070168 0.432859 -1.529177 0.412801 -0.629378 0.387142 -0.748504 0.743052 0.715218 -0.575050 -0.515472 0.224101 -1.144147 0.480272 0.268560 -0.950071 -0.722447 -0.182002 -0.716981 -2.206377 -0.471238 0.217194 -0.636353 0.564125 0.383942 -0.089299 -1.882723
its 0.111991 -0.148864 0.607588 -0.237779 0.320215 0.381645 -0.464801 0.937307 0.344490 0.862281 0.578106 0.083329 0.282709 1.240991 -0.671292 1.034924 1.238352 -1.015518 0.569833 -0.231227 0.851905 -0.466983 -1.127294 0.282551 0.559516 -1.110726 -0.082778 1.015998 0.636845 0.648817 -0.530091 -1.438034 0.202301 0.258216 -0.694647 0.554161 -0.568784 1.201403 -0.053193 0.024791 0.223347 -1.790872 0.233773 -1.932371 -0.227579 0.479570 -0.266086 -0.147247 1.594050 0.815068 0.662128 0.445071 -0.850491 -0.170399 0.948574 -2.618350 -0.671571 -0.340546 0.626352 1.018274 -0.343354 0.721586 -0.628379 1.664030 0.531190 -0.890517 -1.327662 -0.101997 -0.173297 -1.649359 0.594420 1.301809 -1.114092 -0.012892 -1.840640 -0.875628 1.400826 -0.304407 -1.405456 -1.844266 -1.579084 -1.276895 -0.776682 -0.875847 -0.275755 0.165144 0.806853 -0.501021 1.503317 1.540024 0.706588 1.797841 -0.995682 0.538878 -1.170122 0.914689 -1.935248 -1.165858 -0.104980 -1.688305 0.338299 -0.928877 -1.278914 -1.038340 -0.171552 1.530876 0.863871 -0.040639 -0.117996 -1.230239 -0.287583 0.421713 -1.056008 0.148098 2.958274 1.049930 0.958724 2.595731 -0.730834 -0.182332 0.275666 0.128913 0.023766 -0.086044 0.553058 1.907702 0.076599 0.944409
than -1.015741 0.584573 0.197154 -1.248115 0.673013 0.136478 0.587434 -1.313880 0.308843 1.010416 0.140784 -0.471879 0.783437 0.535079 -0.450882 -0.835983 -0.069786 0.751657 -2.335967 -0.192530 -0.729291 -0.654131 -0.095549 1.356465 -1.255907 1.322654 -0.354723 0.725580 -0.777078 3.169390 0.411580 -0.938857 1.225894 0.043251 -0.534470 0.885498 0.918147 -1.332115 -0.790941 -1.469836 2.084252 -0.828119 -0.141893 0.911763 -1.023299 0.347079 -0.384391 -1.182296 -0.032463 -1.048319 0.905300 -0.333447 1.003796 0.391906 -1.573583 -0.241689 1.520139 -0.283956 0.067319 -1.070045 -1.467547 -0.714663 0.259308 1.212026 0.768593 2.564977 0.465819 1.344014 0.332518 0.969678 -2.360451 -0.066451 1.963729 -0.906975 -0.557988 -0.058494 -0.077009 1.669671 -0.379239 0.951452 1.952927 0.707956 0.056069 -0.099148 -0.236566 0.840331 -0.286799 0.090593 -1.563662 -2.032034 0.373977 -0.303947 1.207917 -0.625725 -0.336990 -0.706187 -0.652571 0.641471 1.264952 0.976328 1.579165 -0.062725 -0.034106 -0.598200 -1.318579 0.205072 -0.857197 -0.671865 1.563674 0.559991 0.701844 1.041054 1.489526 1.865426 -0.122967 0.183743 -0.258872 1.178517 -0.739199 0.050891 -0.818228 -1.502352 0.008941 -0.123443 -1.283429 0.062295 0.012260 0.967332
other 1.530150 -0.618745 -0.146858 -0.713204 -0.178370 -0.679421 -1.010507 0.681998 -0.140706 0.530929 -1.081995 -0.241534 -0.159821 -0.098776 -1.107702 -1.361890 0.176673 -1.845791 0.517784 1.747741 0.439753 0.155330 0.815219 -0.232461 -0.132931 -0.588085 -0.885096 -0.569668 0.242843 1.615739 0.346323 0.002022 -0.040442 -0.564451 -0.022885 0.925250 0.060083 0.569092 -0.865107 0.412431 -0.188922 0.133937 -0.059730 1.033256 -1.320985 -1.252720 1.259920 0.486149 -0.372509 0.299214 -1.835183 -0.417519 0.171210 2.024321 -2.543616 0.801606 0.496783 0.793967 0.225522 2.112139 -0.018535 2.466846 -1.329214 -2.815603 0.701902 0.693280 0.558371 0.408811 0.425759 1.460821 0.392215 -0.640627 1.557622 -1.889414 1.096759 1.345566 -0.525345 -1.008783 0.314223 0.867474 -0.719583 -0.603877 -0.681252 1.137770 0.330691 -2.685426 -0.606964 0.646289 1.779732 -0.571082 0.530036 -0.118216 -0.632473 0.347755 0.470964 0.388636 1.929450 0.286057 -0.283234 -0.910008 0.818409 0.009560 -0.802142 0.476431 -0.997092 1.479535 1.090616 0.047153 -3.019063 0.856523 -0.828289 -0.509639 -0.398822 -1.036741 1.504132 -1.069157 -0.588508 0.103205 -1.929293 -0.343578 -1.375193 3.082201 -0.340513 0.313717 -0.042128 -2.653875 -0.975559 -1.428261
before 0.548747 -0.051442 0.838823 -0.407442 2.830287 -0.019048 0.257813 -0.301235 0.196213 0.392299 -2.423269 -1.652468 0.107261 0.458957 0.740047 0.280279 0.797141 0.113670 -0.184384 0.842719 -0.532944 -1.136917 0.191946 -0.127633 0.890601 0.335982 0.058816 -0.274952 0.244032 0.914780 0.326340 1.401602 -1.118501 0.533961 -0.294459 -1.174274 -0.376972 1.386553 0.663541 0.174457 -0.738729 -0.627180 1.210730 0.279179 -1.088969 0.849308 0.124871 0.536106 0.570416 -0.689302 0.464755 -2.695356 0.477492 1.100193 -2.006981 0.702225 1.009373 -1.726972 -0.435872 -0.779131 0.634935 -1.066470 0.421234 -0.753701 0.847339 0.164076 0.305592 -0.924387 -0.013797 -1.834150 1.584174 0.794970 -1.312050 -0.692712 0.559322 -0.064213 -0.935323 -1.186563 1.078201 -0.657098 -1.864659 -1.129353 -1.643760 -0.641881 0.305839 -0.919938 -2.238486 -0.710449 2.270247 -2.008961 0.259750 0.363125 -2.034109 -0.695421 0.983505 0.644775 0.077045 0.177159 0.185783 -0.732319 -1.337339 0.024766 0.184052 0.043982 0.228132 1.457875 -0.619332 0.432579 -0.649356 0.923143 0.399908 0.041376 0.725331 0.549079 0.162414 0.616088 -0.640996 0.652827 1.907083 -1.121463 1.244015 0.322599 0.648331 0.776692 1.546818 -0.354752 0.120809 0.614599
about 1.327546 -0.060125 1.611314 0.264658 -2.228554 0.876486 0.513684 1.057459 -0.320072 -0.179103 -0.069817 0.137746 0.090847 0.366025 -0.328046 -1.562926 -1.457951 0.310023 1.019257 1.416645 -0.249401 0.816237 -0.089344 1.048678 1.344789 -0.404989 3.693494 1.320884 2.114538 1.179017 -0.698026 -1.723291 0.358938 -0.008074 0.074987 1.014989 -0.187888 -0.844797 0.530752 1.259589 0.628389 1.265670 0.001735 0.502968 0.581128 -0.422330 0.531301 -1.310071 0.476987 -0.252601 0.049415 0.985220 1.009897 -0.826009 1.378826 -1.182531 0.376406 -0.772781 0.180774 0.240868 -0.213644 -2.346517 -0.114685 2.391701 -1.328134 0.074285 -1.135461 2.423525 0.367062 1.015439 2.110383 -0.476382 1.415596 1.260705 -0.393777 -0.830934 -0.511852 0.238134 0.608799 -0.012444 0.004608 0.794733 -0.347167 -1.649089 0.235521 -0.520951 -0.715909 -0.350054 -1.980538 0.314165 0.423757 1.225685 -0.658447 -0.875721 -0.255120 0.587485 0.312385 1.538820 2.091814 1.480175 -1.541432 -0.123477 -1.916407 -0.746033 -1.210317 -1.613291 -0.043101 1.604799 -1.288586 0.114258 1.886488 0.403690 0.895316 1.413030 1.173406 -1.201634 -0.848939 -1.033465 0.758087 0.340802 -0.527231 -0.025992 -1.023383 -0.077318 -0.397745 0.567836 1.177649 0.111416
see 1.286939 0.244778 -0.588051 -0.406981 -0.289483 0.999789 -2.157710 -0.786824 -2.106886 -0.701190 -0.959245 1.403800 0.726473 1.349716 -1.297206 -0.722393 -0.569525 -1.612191 1.802590 2.334229 -1.562885 0.595983 0.199125 0.505046 -1.631981 -0.471579 -0.558396 -0.307612 -0.065047 -0.982032 -0.078727 0.160525 0.353340 0.357813 0.626531 -1.811573 1.060345 0.874916 0.559286 -0.794317 -1.446878 -1.130710 0.805925 -0.485563 1.524372 -1.489860 -0.052941 -1.669425 -0.617783 -0.948687 -0.597454 1.158415 -0.241733 -1.717504 0.778806 -0.801213 -1.102134 0.211260 0.829453 -1.985407 -1.700465 -0.009932 -0.620190 0.267990 0.912296 1.363584 -1.499512 0.609801 0.042909 -2.187229 -0.352050 -0.509828 0.401124 1.269785 -1.374209 -1.380385 -1.129122 0.504749 -0.660796 -0.238377 0.582231 0.145047 -0.809267 -0.769780 0.193324 -0.013460 0.310319 0.272991 -0.701087 -0.852012 0.603133 -1.804466 0.404113 -1.727753 -0.649611 0.949014 -1.736237 1.048966 0.471520 1.279106 1.576074 -0.054262 0.460684 0.278994 -0.394971 -0.661574 -0.033800 0.059215 -0.264632 -0.134494 1.041348 1.560149 -0.616366 0.648610 0.601163 -0.225030 0.620877 -1.275784 0.537724 -0.677639 -0.407200 0.444959 -1.235199 -0.474592 1.310489 1.837081 0.882514 -0.057856
