3000 128
<pad> 0.000000 0.000000 0.000000 0.000000 0.000000 0.000000 0.000000 0.000000 0.000000 0.000000 0.000000 0.000000 0.000000 0.000000 0.000000 0.000000 0.000000 0.000000 0.000000 0.000000 0.000000 0.000000 0.000000 0.000000 0.000000 0.000000 0.000000 0.000000 0.000000 0.000000 0.000000 0.000000 0.000000 0.000000 0.000000 0.000000 0.000000 0.000000 0.000000 0.000000 0.000000 0.000000 0.000000 0.000000 0.000000 0.000000 0.000000 0.000000 0.000000 0.000000 0.000000 0.000000 0.000000 0.000000 0.000000 0.000000 0.000000 0.000000 0.000000 0.000000 0.000000 0.000000 0.000000 0.000000 0.000000 0.000000 0.000000 0.000000 0.000000 0.000000 0.000000 0.000000 0.000000 0.000000 0.000000 0.000000 0.000000 0.000000 0.000000 0.000000 0.000000 0.000000 0.000000 0.000000 0.000000 0.000000 0.000000 0.000000 0.000000 0.000000 0.000000 0.000000 0.000000 0.000000 0.000000 0.000000 0.000000 0.000000 0.000000 0.000000 0.000000 0.000000 0.000000 0.000000 0.000000 0.000000 0.000000 0.000000 0.000000 0.000000 0.000000 0.000000 0.000000 0.000000 0.000000 0.000000 0.000000 0.000000 0.000000 0.000000 0.000000 0.000000 0.000000 0.000000 0.000000 0.000000 0.000000 0.000000
<start> 0.213031 -0.248986 0.700186 -1.327066 -0.443292 2.376366 0.265870 -2.028579 -1.402332 1.149412 -0.273603 0.423337 1.559306 1.821123 1.345884 -1.513029 -0.456333 1.210165 0.794556 -0.348531 -2.068762 -0.228204 1.275920 0.225570 1.174123 -0.289048 -2.110458 0.363160 -0.577601 1.088694 1.499441 0.902315 -1.207411 -0.723439 0.198902 0.305375 -0.708576 -0.086271 -0.697984 0.203493 -0.388469 1.533793 -0.519977 1.714750 0.911550 0.155593 -0.036476 -0.991410 -0.589243 0.563523 0.295525 -1.607076 1.546498 -0.461422 0.116244 -0.274470 1.613039 0.763768 -2.331857 0.177718 0.069414 -0.621429 1.009136 1.085854 0.466147 -0.726893 -2.174948 -0.842801 -1.441943 -0.239582 -1.562513 0.729789 0.217189 -1.254050 -0.994618 -0.957049 -0.984169 1.031843 -0.522809 1.064862 0.148855 -2.285836 1.325882 0.573181 0.151966 -2.369068 -1.214541 -0.184638 -0.381967 1.458630 -0.122235 0.911056 1.172017 -0.104901 -0.355184 0.108351 0.195762 0.654149 -0.133010 -0.162511 -0.156141 0.340815 -1.072063 -0.988236 2.593652 0.844786 -0.362692 0.351270 -1.165893 -0.163503 -1.473988 0.955004 -1.003910 0.465778 -0.164141 0.509588 0.236339 -0.057521 0.253672 -0.140193 -1.273410 -0.145828 -1.255426 -0.253372 -0.762505 0.606578 -1.327584 -1.121711
<end> 1.178840 -0.421955 -1.570782 0.621063 0.554908 1.289641 -0.211170 -1.047991 0.098414 -0.546657 0.663968 0.121847 0.303159 -0.839009 -1.102772 0.231812 0.838825 -1.263653 0.105633 0.080311 0.319596 -0.048838 -1.991449 -0.714485 0.337550 0.827263 0.382999 0.084116 -0.129283 1.854945 0.856884 0.201192 0.366789 -1.145586 0.188127 0.913862 -1.041242 -0.704899 -0.511358 -1.443061 0.927447 -0.490874 -0.044093 0.203923 0.294846 0.637480 -1.258874 -0.265372 -0.227120 -0.850540 -0.743237 -1.674951 0.187760 -0.716579 0.206489 0.977721 2.670046 0.120851 -1.337936 0.324270 1.289278 -0.414159 3.082499 1.652308 0.061870 -0.542711 -0.196645 2.839972 1.037087 -0.614514 -0.953095 0.675004 0.563516 1.505533 -3.179942 -0.816698 -0.869305 0.865086 -1.309753 -1.141609 -0.050059 0.445000 0.167999 -1.234497 -0.739120 -0.264898 -0.002360 1.058617 0.363562 -1.286796 -0.514842 1.887429 2.865417 -1.038379 0.121951 0.509305 0.892590 -2.093633 -1.444159 0.707271 -1.110716 0.814062 -1.610263 -0.052290 -0.218508 0.430847 1.571354 2.054171 -1.173677 0.898367 1.449423 -1.294051 -0.695271 -2.834882 -2.908950 0.708162 0.065558 2.065715 -0.224587 0.815627 -1.184250 0.479496 0.346908 -0.820849 -0.862808 -0.836597 -0.165392 0.477741
<unk> 0.085596 0.017988 -0.594662 -0.014371 -0.998457 0.698158 0.555814 -0.088440 0.104976 0.472771 0.534903 -0.103293 0.493163 -0.018128 -0.246618 -0.207685 0.855604 1.079672 -0.727098 -0.142093 0.172741 0.185637 0.964740 -0.635086 -0.158135 -0.525053 0.105312 -0.112033 0.356177 0.469527 -0.259982 -0.757111 0.075913 -0.443837 -0.583270 1.071009 -0.074858 -0.145884 0.541039 -0.017557 -0.255771 0.384083 -0.399855 -0.503888 -0.034921 0.838434 -0.191014 -0.130706 0.564058 0.760102 0.272568 0.622826 0.444339 0.111372 -0.403577 -0.774746 0.116111 -0.344203 -0.679588 -0.248715 0.081533 -0.681049 1.229715 0.892951 -0.139348 -1.470889 -0.655051 0.430132 0.034149 -0.187296 0.160603 -0.800045 0.141970 1.205484 -0.167529 0.022019 0.425063 -0.594980 1.630391 0.033902 0.720916 0.177993 0.205501 -0.536323 -0.191350 0.645880 1.227638 -0.113841 -0.321336 -0.156687 -0.066516 0.067602 -0.727582 -0.078453 1.677181 -0.835674 0.044997 -0.503923 -0.390081 0.048798 0.273804 0.405350 -0.351599 0.143207 -0.821130 0.952970 0.627785 0.080874 0.373774 -1.037015 0.378566 -0.534351 0.962111 -0.054904 0.563742 -0.923387 -0.006044 -0.945944 -0.230996 0.367041 -0.127428 0.995316 0.773410 0.278760 -0.054450 1.018981 -0.501886 -0.592105
the 0.315642 0.065794 -0.379993 1.674403 -0.497854 -0.101710 0.123354 -0.428670 0.724698 -0.060547 0.109067 0.845527 -0.291732 -0.119691 0.609659 1.393489 1.674829 0.449701 -0.322945 1.233138 0.668222 0.640829 1.723315 0.030505 -1.269732 -0.194344 -0.107259 1.588838 0.159699 -0.723316 -0.956960 1.008819 -0.585249 0.487822 -0.266337 0.408381 0.310835 0.117623 -0.793694 0.040279 -0.301243 -0.377666 1.148109 0.646015 -1.622035 0.710759 0.823942 0.344403 -1.457391 -0.766953 -0.321897 0.033620 -0.430050 -0.113425 -0.011997 -0.342605 0.205336 0.565848 0.985455 0.479818 -0.153779 -0.369030 0.277577 0.234500 -0.052605 1.097562 -0.136026 -0.587325 -1.433716 0.703743 -0.715065 -0.861290 -1.083280 -0.969820 -1.042395 -0.458750 0.970628 1.235199 -0.573391 -0.341148 0.004929 0.231405 1.279138 0.616335 0.102236 0.365991 -0.071593 0.485638 1.939308 1.003137 0.548294 0.131795 0.259347 0.018771 -0.443456 0.145040 -0.582071 1.202294 0.080199 -0.256862 0.195335 -0.032231 -0.469061 -0.569309 -1.869545 0.674070 -0.415302 0.686274 -0.359572 -0.223927 0.158525 0.544092 -1.183014 -0.073706 -0.948257 0.106159 -0.155889 -1.905416 -0.021269 0.443349 0.538168 0.547066 0.889003 0.685824 0.591547 -0.393216 -0.707824 0.200548
and -0.309493 0.382406 1.128412 0.091666 -0.635231 0.029936 0.412937 0.382335 0.009166 -0.249307 -0.858738 1.239099 0.591441 -0.852333 -0.587390 -1.268009 -0.304234 -0.874919 0.211052 0.041473 -0.211064 0.660533 0.821908 0.546853 -0.022245 0.360120 -0.095110 -0.452326 -0.407651 -0.333188 -0.588053 -0.356866 -2.053926 1.102135 -0.364712 -0.066195 0.666743 -0.098938 1.387295 -0.186947 -0.100411 -0.037026 -1.162396 -0.307075 0.004240 -0.630651 -0.685355 0.030318 0.033037 0.303113 -1.371031 -0.126816 0.179317 -0.604958 -0.186366 0.718727 -0.089378 -0.619744 -0.051293 -1.218153 0.326916 0.451268 -1.420623 -0.965167 0.399372 -0.429736 0.068517 -0.532236 -0.804012 -1.129394 -0.521200 0.397402 -0.212900 -0.474969 -0.444633 0.150262 0.518082 1.155895 -0.124304 0.991302 0.737630 0.152518 1.032098 -0.073487 0.382981 -0.842772 -0.526790 -0.357590 0.331099 1.985242 -0.250074 -0.550764 0.456647 -1.545821 0.552186 -0.425440 0.022006 0.688220 0.070687 0.925403 0.124611 0.289199 1.170090 0.204882 0.051233 0.900657 -0.554590 -2.071373 0.838126 -0.552562 -1.259308 -1.824473 1.461024 0.301448 -0.754502 -0.212426 -0.421459 -0.464057 -0.148347 -0.375360 -0.080674 0.144478 -0.826434 -0.371602 0.263303 -0.635363 0.403388 -0.946280
of 1.265433 -1.281905 0.030953 -1.450242 -1.450921 0.657314 -0.416419 1.452427 -0.532658 0.131558 -0.831601 -0.986356 -0.694224 -1.104095 0.284247 -0.595145 0.338915 -1.787112 -0.732942 0.763397 -1.509931 -0.498312 -1.189239 0.120954 0.644981 0.084736 -1.038335 -1.201437 0.362068 -0.122179 0.323704 1.616164 0.514641 -0.191998 1.077862 1.007467 -0.321790 -0.762470 -0.839880 0.412088 1.290249 -0.724523 0.316168 -0.036851 -0.135851 -1.559076 -1.288271 0.032683 -0.518495 -0.094624 0.313203 0.165013 0.084708 -0.699811 0.731431 0.608881 1.459586 -0.242908 -0.699584 -1.014227 -0.122225 -1.593877 0.570558 1.409395 -0.831503 -0.911496 -0.499909 0.253829 0.296375 -1.322840 0.494747 -0.184916 0.750868 -0.570204 -1.644647 0.222579 -0.252398 -0.262994 0.430749 1.217140 -1.407963 1.235276 -0.250771 -0.283826 1.173160 0.325573 -2.538110 0.500788 -0.056705 0.204280 0.592706 0.767970 -0.396307 -0.110231 0.614715 -0.009109 -0.373269 0.015196 -0.264622 -0.317242 0.591630 -0.745314 -0.856504 1.674855 0.741619 -0.702376 0.082764 -1.583487 -0.792913 0.489473 1.078264 -0.671459 -0.556549 -1.039638 0.024359 1.052489 -1.493962 0.814027 -0.251288 -0.075017 0.565119 1.199723 -0.540381 0.430254 -0.584848 0.061272 1.598157 0.325922
to 1.890810 0.317002 1.600230 -1.517542 0.238881 -0.279721 1.159514 0.457469 -0.399620 0.033672 0.346801 -1.381684 -0.005637 -0.433275 -0.633437 -0.734461 -1.023163 -0.449615 -0.484143 1.405725 0.995432 0.118651 -1.309625 -0.300636 0.266028 -0.593152 -0.220184 1.088585 0.568898 -1.315971 1.669000 1.127451 -0.713981 0.216114 0.064339 0.239501 -0.587594 -0.030476 -0.353799 -0.856564 0.979664 0.030941 0.063491 0.823598 0.420995 2.056204 0.986259 -0.344095 0.906459 0.722351 0.741880 -0.624229 -0.117575 1.462299 0.871300 1.378169 0.346734 0.107357 0.038430 -1.044224 0.563324 -0.055809 -1.049774 0.337648 -0.985085 -2.108005 0.227491 0.369258 -0.360369 0.406923 -0.554605 0.232722 0.132327 -0.326810 -0.100393 0.594991 0.305709 -0.093055 -0.355332 -0.179981 -0.374898 0.452557 0.304068 -0.605566 -0.802367 0.063852 -2.204724 -0.116799 -0.744601 0.033728 -0.109152 -1.162316 -0.685084 -0.939678 1.368564 0.193673 1.736693 -1.594041 -0.118173 0.178557 0.721566 -0.146868 0.337596 -1.312495 -0.181531 0.087949 -0.411621 0.723521 -0.964668 0.178687 0.045364 0.817723 0.097255 -2.497247 -0.607583 0.088695 0.477446 -0.555263 -0.279956 -0.294973 -0.144831 -0.658141 -0.105028 0.255680 -0.780758 0.717106 0.229970 -1.230710
a -0.180960 -0.440819 0.203277 0.061105 0.486436 0.037298 -1.117870 -1.559403 0.634738 -1.531004 1.375035 -0.071368 0.319451 -0.954280 -0.432095 1.830102 0.879626 0.198408 -0.011390 -0.289370 -0.116985 -0.221510 -1.104263 -0.037746 1.415205 -0.914872 -1.353865 -1.848677 0.115675 -1.712821 0.083937 -0.196822 -0.953373 0.270288 0.324118 -0.151464 0.174960 0.877686 1.013510 -0.847406 0.338524 0.449021 -0.238280 1.008657 -1.321902 0.697643 1.556923 0.107324 -1.929925 -1.753136 -0.603976 1.456311 0.621691 -0.208651 0.464942 0.334633 -0.762571 -0.449342 2.415190 -1.177036 -0.517800 -1.007593 -0.060233 -1.381543 0.937145 -0.327414 1.846458 -1.562564 0.223444 0.769289 0.242680 0.285856 0.820879 -0.727994 -0.891237 0.503063 0.070797 0.610507 -0.361491 0.055495 1.390629 0.087462 1.321508 0.141274 1.042150 0.494396 0.767990 0.351672 -1.358631 0.618654 -0.165469 1.722783 -1.341258 0.974163 0.040608 1.156645 -0.511336 -0.056962 0.472173 0.036631 0.231466 0.895517 0.148312 -0.822411 -0.256105 -0.500138 -0.887549 -1.791434 -0.455134 0.370748 0.457776 0.917642 -0.895058 0.396845 0.354460 0.887815 -0.757940 -0.839645 1.117827 -0.180513 -0.029436 0.418674 1.360506 -0.013185 0.086948 -0.840926 -1.688249 -1.041302
in 0.117895 -0.911504 -0.472756 1.476930 -0.856254 1.086984 -0.010060 -0.203273 -1.357631 1.048936 -0.840850 -0.770422 -0.761582 -2.361577 -0.701427 -0.339636 -1.364892 -0.354409 1.245003 0.020493 -0.100457 1.669078 0.859059 0.388104 0.477148 0.637286 0.114424 1.427305 0.030444 1.539134 -1.455421 1.118176 0.536363 1.556980 0.410777 1.032086 -0.505137 -0.520921 0.010132 -1.357089 0.458993 0.337148 0.078005 -0.863364 1.491059 -0.138942 0.410509 0.069340 -1.093380 0.905616 1.858690 -0.170730 0.757034 -0.282298 -0.570983 -0.263170 -0.646082 -0.991870 0.277370 -0.621386 -0.220467 1.603745 -0.311886 -0.534129 -0.566067 0.287274 1.342709 -0.247143 -0.327257 0.054068 -0.167934 2.919327 1.695490 -1.871137 0.211026 -0.473029 -0.252330 -0.009577 -0.526929 0.713306 -0.003473 -0.203810 -0.177694 0.866230 0.356670 1.569979 -0.872939 0.434504 0.234626 0.169721 0.920823 -0.210302 -0.493468 -1.670579 1.985263 1.711228 -0.479937 -0.534448 -0.192191 -0.598066 1.534127 -0.010350 0.318304 -0.163483 1.299728 0.597401 -0.577832 0.187593 1.700104 0.472830 0.167116 0.374991 -0.355558 -0.357011 -0.561071 0.724074 -0.126728 0.241376 -0.412576 -0.310857 1.334684 -0.109150 1.097805 -0.336686 0.367905 -0.069572 -0.577599 -0.481003
i 0.268302 0.730388 0.161386 -0.689072 2.001124 -0.041073 0.420382 -1.913002 0.453476 -0.847568 1.313789 -0.348147 1.229005 0.424077 1.302073 -0.623977 -0.781518 -0.383972 0.341711 0.025001 -2.233181 1.328312 0.273753 -0.643745 1.458688 1.753785 1.407419 0.242273 0.513391 0.897445 0.755733 0.617115 0.465947 0.439265 0.384668 -0.087912 1.065484 0.165811 -0.767339 -0.062292 0.849021 -2.127185 -0.580532 0.484608 -0.123443 0.653242 2.085181 1.460461 0.169624 -0.936902 3.088412 -0.198914 1.122187 0.740446 0.126605 -0.309771 -0.527045 0.588581 0.888845 -1.321356 -0.562599 0.883671 -0.055937 1.318681 -0.322356 -0.361748 0.766064 1.482817 0.576716 -0.436598 -0.850747 1.224483 1.936614 1.042723 0.499723 1.325896 0.997560 0.370326 0.009409 0.987049 -1.740536 -0.098875 -1.695847 0.548036 1.283026 0.321595 0.547014 1.112349 -0.756349 1.033241 -1.297813 -0.558162 1.121827 0.498422 -1.648933 0.261619 -0.044717 0.464040 0.762279 -1.154759 -1.026665 0.358998 0.573109 -1.267722 -0.278885 2.341058 -0.775124 -0.975118 0.920969 0.595477 -0.927380 -1.448308 0.054772 0.232902 -2.006806 0.607757 0.640500 -0.526206 0.393286 0.156694 -0.249671 -1.239022 -0.581014 0.183005 -2.357327 -0.837646 -0.536201 0.557668
it 0.329438 0.155404 1.015461 1.732510 -1.078199 -0.095388 0.634564 -0.502989 -0.357965 1.237339 0.342691 1.269292 -0.675279 -0.436152 1.246276 1.321853 -0.125903 0.516317 0.192201 -0.472174 0.161912 -1.029441 0.535114 0.508158 1.160219 0.085266 2.023885 0.410993 -0.304479 -1.960893 0.101209 -0.404990 0.951004 -0.843551 0.942434 -1.713449 -0.506537 -0.421737 -1.193940 -1.799603 0.290025 -2.206501 -0.462433 -0.529283 0.746989 0.038437 1.553545 1.520888 0.903532 -0.660241 -0.389289 -0.544005 -1.920600 -0.509764 0.270247 -0.439925 0.761646 0.539864 -1.462697 -1.004317 1.651920 1.285861 0.046754 0.182748 -0.444556 -0.264222 -0.932397 -0.077830 -0.501240 0.363628 -0.901517 1.261726 1.511328 1.373228 -0.338161 -0.132736 2.307890 0.420785 0.194580 -0.543245 -1.415954 0.243309 1.312977 0.326525 0.468099 -1.195559 1.033979 1.618398 -1.438001 1.325101 0.873256 -1.018062 -1.730904 -1.109507 -0.946190 -0.411064 0.176050 0.729914 1.720982 -0.625175 1.244491 -0.262444 0.820899 -0.639106 0.039398 -1.498299 0.927559 0.522681 -0.242595 0.627480 -1.037626 -1.276321 -0.477109 0.388922 -0.307193 -0.059945 0.830382 0.587529 0.912904 0.505252 0.340106 -0.937135 0.602519 -0.587954 -0.225056 1.374221 -1.260481 -0.236338
that 1.451548 -1.553858 -0.802624 -1.445739 -1.468075 -0.066667 -0.096405 -0.423682 1.017362 -1.756411 1.705383 -0.011290 1.808842 1.927516 -0.739112 -1.092842 -1.233046 -0.617467 -0.138799 -0.140538 -0.047774 0.510948 -0.963385 -0.535420 -0.375890 1.361362 -0.994993 -0.422453 -0.019501 -0.535814 0.782759 0.138781 0.006362 -0.324747 0.214759 -0.677932 -0.856342 0.796886 -0.256118 -0.502522 -1.362227 1.172099 1.839812 0.534266 1.985032 0.614169 0.468085 -0.819292 1.248901 -1.585070 -2.137562 0.847044 -1.051135 0.408240 -1.109079 0.351005 -0.700416 0.626487 0.484849 -1.926871 -1.004317 0.315632 -0.504883 0.481605 -0.471361 0.408442 -0.986149 1.191702 0.359317 0.189571 -0.245922 -1.278773 0.202106 -0.398751 0.180522 -0.671202 0.351699 0.989756 1.145939 1.304463 0.821308 0.680195 0.789199 0.363397 0.627667 -0.923735 -1.061427 -0.378843 0.935266 0.463329 -0.123617 0.641823 1.505079 2.686088 0.079806 0.656619 -0.568201 -0.778357 0.246305 -1.272784 0.566334 -0.542746 1.032604 1.340540 0.336806 1.010831 -0.280075 -0.371357 1.768924 0.757398 -3.176577 -2.587982 0.503269 -0.484604 -0.730695 -0.463662 2.052226 -0.490502 -0.501245 0.567406 1.091583 -0.894208 0.692743 -0.517783 0.023233 -1.353151 -0.900260 -0.387632
was 0.249180 1.490288 -0.922096 1.158488 -1.597650 0.997833 -1.285322 0.542631 0.009874 0.310489 1.966829 -0.519370 1.003595 -1.096131 -0.048273 -0.795962 1.352259 -1.063430 -0.296603 -1.675756 0.076319 -0.595110 0.585456 0.549807 -0.362802 -0.312857 0.670485 -0.340311 1.820482 1.317687 0.991002 0.813234 -0.001172 -1.667452 0.388847 -0.052450 -0.912781 -0.420200 -1.699742 0.490404 -0.043859 0.022491 -1.004107 -0.679179 0.543354 -0.003995 -0.878894 -2.183036 -2.136814 0.618056 0.772117 -0.561093 0.214977 -1.934341 -1.118594 -0.169733 -0.753549 -0.740449 -0.127491 -0.569930 0.631594 1.254495 -1.059812 0.649605 2.201647 0.531318 0.187814 1.079419 0.718482 0.593370 1.290965 -2.110886 0.437513 -0.571337 -0.133390 0.441400 -0.045251 -0.901410 -0.283923 0.575688 -0.001617 0.599381 0.825386 1.171936 -1.566522 -1.338996 0.235101 -0.080656 0.647321 0.081556 -2.174013 -0.295466 -2.089162 1.396555 -0.432541 -0.154995 -0.754048 -1.598499 -1.004108 -0.803145 0.515139 -0.968895 0.340507 -0.624326 -1.398391 0.334016 -0.593091 -0.753670 -0.172346 -0.612433 -0.219942 0.948228 -0.992102 0.847666 0.030965 0.037341 -0.924068 -2.035631 -0.940513 -1.279544 -1.526340 0.163730 0.850820 0.385896 0.849958 1.179992 1.113897 -1.164250
he -0.372961 0.015501 -0.006188 1.228362 0.929268 -0.964390 1.817113 -0.070034 1.023915 0.543151 -0.104709 -0.925682 -0.557355 0.316390 -0.491925 0.792770 -0.111349 0.213064 0.637133 -0.490317 -2.479572 0.705922 -1.649975 -1.825381 -0.188483 1.636507 -0.241710 0.396533 1.709130 0.618051 1.318636 1.157834 0.217203 -0.135438 0.586893 -0.835179 0.398403 0.916135 -0.168527 -0.649283 -1.165590 -0.487916 -0.142969 -0.913829 0.630906 0.865184 1.928671 1.985924 -0.203110 -0.406515 0.000038 0.379835 -1.514160 -0.008265 -0.506884 -1.132180 0.112477 1.214398 -1.414541 0.193845 -0.256070 0.503323 2.148667 1.322531 0.391080 -1.432591 1.342812 0.648007 1.572979 0.143726 -0.474472 -0.536818 2.379541 0.876438 -2.471123 1.075803 -0.877017 0.724636 0.384995 -0.190384 -0.526703 0.531927 -0.003165 0.262506 1.017651 -2.376135 1.081523 1.633016 0.548327 -0.101312 -0.021217 -1.320492 0.740780 -1.333250 -0.440641 -0.471816 1.260391 0.326755 -0.673311 -0.238848 0.593990 0.095147 0.314673 -0.771106 -1.232385 -0.448933 -0.935307 -0.046374 0.412207 -0.189562 -0.126867 -0.289369 0.012961 -0.818267 -1.424962 -0.088824 1.896778 -0.208984 0.575987 -0.099088 -0.749624 2.471833 -0.192312 -0.209476 -1.137480 -1.385596 -1.376865 1.840063
is 0.611034 2.194446 0.203286 0.842481 -0.453851 0.281238 0.537328 0.775317 -0.533870 -0.542995 -0.156218 -0.792587 0.599829 0.442467 -1.460599 1.520413 1.158282 -1.488020 -0.118400 -0.479286 1.714558 -1.206311 2.189060 0.210098 -0.461882 -0.812389 1.372366 -0.068792 1.024262 -0.924767 0.067844 0.634513 -0.837970 -0.815274 -0.810452 0.514417 -0.551875 -0.003755 -0.350797 0.654721 0.072031 1.872485 0.211005 -1.615335 -0.966161 0.365953 0.582549 0.250190 -0.811941 0.711638 1.472205 1.223261 0.176204 -0.543130 0.206354 -0.598740 -0.550243 -0.348413 -2.020722 -0.600151 1.401618 1.025676 0.180794 0.809264 1.093805 0.513925 -0.743037 0.280464 0.365595 -0.015030 0.992024 -0.611601 2.313250 0.217452 -0.511831 0.223304 -0.577530 2.535230 0.209626 -1.070037 -0.390347 1.120923 -0.048228 0.590635 -0.383397 -0.411331 -0.288457 -0.104325 -1.138167 -1.389974 0.204688 1.009767 2.389451 -0.228151 -0.607513 0.709102 0.183862 1.334001 1.921490 -0.515687 -1.824134 -1.282033 -0.744623 0.612424 -0.612897 0.524240 -1.421120 -0.967055 1.014852 1.481074 -1.044789 -0.273829 0.826433 -0.672929 0.000592 1.250499 0.632142 0.169533 -2.848337 -1.493730 0.119557 1.159629 -0.862874 2.083336 0.725171 -0.583419 1.972493 -1.131483
his -0.503706 0.814069 0.267975 0.564436 0.120296 0.380318 1.378628 0.524808 0.436693 -0.910167 -0.436359 1.915542 -0.486326 1.426843 1.263505 0.064637 -0.389841 0.629134 -1.680117 0.629826 -0.431658 0.592018 -0.216951 -1.365755 0.120062 -0.102974 0.099936 -2.244857 -1.271711 -0.654817 -1.602441 -0.507493 0.608258 -0.380145 -0.999818 0.500037 -0.838663 0.442572 -0.704928 -0.469161 -1.276992 -1.643031 0.568112 0.907339 0.493566 0.542239 1.492025 0.456514 -0.142512 -1.221938 -1.794262 -0.062616 -0.903502 -1.190652 0.609503 0.845643 0.081807 -0.777607 0.698332 -0.545328 -1.507063 1.119706 0.689209 2.081379 0.813681 0.034118 -0.317862 -0.592191 1.629838 0.207720 0.202275 0.874656 1.563193 0.500686 0.312575 0.908716 0.396139 0.105031 0.008346 0.994677 2.018250 0.032648 0.819597 1.264867 -0.073735 0.430541 -0.623354 1.779261 1.649365 1.461610 1.146361 -1.322946 1.311383 1.675018 -0.751708 0.510350 -0.815088 0.952047 -0.037295 -0.679184 -1.058506 -0.624816 0.721216 1.150937 -0.283271 1.122286 0.175778 -0.693230 1.453198 -0.480338 2.086643 0.669643 -0.073310 -0.364171 0.222977 0.009207 -2.183401 0.421093 -1.269183 0.600820 1.386671 1.057018 0.613552 -0.172009 0.078742 1.202350 0.227903 -0.688171
as -0.761155 -2.282243 0.816203 -0.318994 -0.215850 2.367287 0.800539 0.492514 -1.825814 -0.650228 1.259280 0.776538 0.200928 -1.585789 0.110947 0.010686 0.398126 0.706805 1.109384 0.891184 -0.814506 -0.145387 -0.230292 0.013439 0.263078 0.924348 1.228639 0.611215 0.831514 0.123118 -0.848980 -0.942635 0.401866 -0.301163 0.897696 -1.465689 -0.863555 0.471991 -1.499260 -0.660670 -0.043874 -1.071337 -1.887899 -1.772187 1.342587 0.427373 -0.097693 -0.565186 -0.596272 -1.201854 -0.453533 0.366975 -0.661368 1.688148 1.203870 -0.551526 -1.499561 -0.056914 0.246915 -0.831287 0.305818 -2.203129 -0.184587 0.626602 1.616569 -0.249126 0.051396 -1.059300 -1.140429 2.319899 -0.681021 -0.639130 -0.472872 0.446906 -0.383497 0.791524 0.048770 1.509408 -0.311624 0.483447 1.306088 0.513809 -1.791742 0.443674 -1.416459 -0.930280 -1.872484 -0.017124 -0.327512 -1.115903 -0.604097 1.264947 -0.600011 -0.536298 -0.708030 -1.458367 -0.003144 1.778452 -0.258087 0.112598 -0.467625 -0.162029 0.480050 0.829003 1.065667 1.751869 -0.403137 -0.949173 0.269609 0.429022 -1.940317 -0.954613 -0.329679 -1.708820 -0.004073 -1.050938 0.831778 0.338347 -1.198219 0.732363 -0.653843 0.648648 -0.470787 -0.074543 1.532566 -0.262124 -0.286589 -0.196416
with 0.938228 0.989343 2.444543 0.234965 -0.360599 0.089514 -0.959794 0.846517 0.870562 0.381449 -0.236732 0.162798 -1.668704 -1.073679 -0.454049 -0.412869 -1.110191 0.332672 0.006971 -0.677558 -0.507516 -0.860605 -1.201803 0.318200 0.397896 0.206171 0.116444 0.269352 0.017630 0.919040 -0.656468 0.169212 -0.238089 -0.499795 0.733852 -0.944296 -0.767272 1.418284 0.025731 -0.394211 -0.524802 2.885011 0.400686 -0.887815 0.062964 -0.565697 0.586371 1.349128 -0.054244 1.746419 -0.669569 0.099740 2.089480 -1.305252 -0.444263 0.139424 -1.804410 0.068421 1.724870 -1.892281 0.014638 0.262530 0.822574 2.160721 -1.133056 -0.310702 -0.643587 -0.535973 0.154069 -0.180720 -0.895117 -1.172357 -0.131856 -1.921849 -0.502908 -0.235661 0.139965 0.599265 -2.385126 1.324767 0.182247 -0.465423 -1.027768 -0.363870 -0.894551 0.537883 -0.327527 1.441193 -1.966319 -0.064510 0.386852 -0.989645 -0.272824 -0.923406 0.264777 0.413360 0.068157 0.158370 -0.706274 1.062131 1.556593 -1.549026 -0.820794 0.799648 -0.511097 -0.115758 -0.643135 1.838364 -0.167126 -0.568792 -0.321526 -0.442272 0.933328 -0.797804 0.150787 -0.320101 -0.122732 -0.845201 -1.138893 -0.958895 -0.883445 0.882324 -0.469298 0.867260 -0.024456 0.981193 -1.562858 -0.859110
you -0.657441 2.265837 0.597942 0.070091 0.315549 1.296837 -1.650633 -0.221717 0.404073 0.118604 2.163157 -1.466551 0.878719 0.588789 0.217247 -1.161538 0.972157 -2.397993 0.870869 -0.383644 -1.064885 -2.467664 -0.659931 0.056029 -1.349929 -0.793763 -0.341985 -1.466846 0.447488 2.033899 -0.432758 -0.342808 0.556529 0.354753 -0.108091 0.312425 -1.027387 -1.176241 -0.438442 -1.444260 -0.916720 -1.642081 -0.130554 0.609765 -0.597247 1.020807 -0.269108 1.430099 -0.625858 1.370510 2.580017 0.836368 0.707341 1.064385 0.848035 1.346505 0.818140 1.198997 0.147787 1.717092 -1.246305 2.786028 -0.317341 1.104764 -0.416394 -0.508264 -0.022890 -0.241376 0.658274 0.182636 -0.989367 1.066017 -0.075572 1.526670 0.412138 -0.671370 0.525740 0.498686 0.174608 -1.558658 -2.285817 0.376993 2.053320 -0.030529 -0.371853 0.139155 0.387104 0.073994 -0.996170 0.751430 1.133549 0.373690 0.034170 0.228476 1.078379 1.319765 0.561470 1.090165 0.940136 1.817297 -1.275910 -1.645837 -1.679165 -0.092877 0.701119 0.038215 -2.196589 -1.780153 1.229425 0.805933 -0.498703 1.589548 0.074076 0.839410 0.878202 0.130263 1.196853 -0.534569 0.730838 -1.305064 1.041435 -0.977487 -1.502532 -1.085797 -0.461664 0.183300 -1.400799 -0.630526
for 0.509049 0.427715 1.599870 0.720712 0.773801 0.160839 -0.664892 1.449101 -1.334309 0.775680 -1.377296 -0.620951 0.047896 -0.698516 -0.649358 -1.095523 0.003844 -0.240710 0.860608 0.195365 -0.876484 0.085554 -1.434951 1.456036 1.797072 -0.050310 0.162604 0.868450 1.531253 -0.459334 -0.247549 1.240542 0.631442 0.712736 -0.555085 0.676360 -0.541492 -0.385007 0.224143 -0.432098 0.814921 -0.070817 0.236613 1.700077 1.574942 -0.663250 -0.605732 0.151615 -0.040390 -2.166788 -0.106707 -1.135318 2.174658 0.078707 -0.772278 1.373633 -0.586801 0.266478 0.017236 0.215931 0.975446 -1.217889 -0.484252 -0.371309 0.393150 -0.725964 -1.746272 0.291230 -0.537321 -1.666807 0.025744 0.346718 -0.640890 -1.665360 -0.142897 0.776536 0.203185 0.721882 -0.156166 1.186927 -0.570324 1.046026 -0.979301 1.333314 0.098045 -0.000507 -2.558047 -0.094663 -2.160452 -0.340464 -1.440866 0.694413 0.706346 0.674995 -0.963101 -1.386671 -1.116919 -0.177217 -0.149456 0.368717 1.284418 0.447499 1.490359 -0.057038 0.835265 0.521062 -0.199750 0.643615 -0.234151 1.178659 0.749207 -0.857890 0.932303 -0.106292 0.273582 1.434624 0.236187 -0.310587 1.008571 1.228550 0.409493 -0.100264 0.187595 0.093458 0.965674 0.674751 -1.982316 0.495894
not -0.491594 -0.633500 -0.120013 -0.966452 1.335253 0.174231 2.294237 2.095049 -0.570917 -1.016140 2.443120 0.151913 -0.453920 0.922623 -2.546032 0.925719 1.601669 -1.362669 0.357852 -0.353489 -0.461867 0.418174 -0.370302 0.715949 0.978512 -0.699541 0.412111 1.588115 -0.245038 0.998914 0.561226 -0.713891 0.969961 -1.120252 1.859192 -0.552086 -0.420026 -0.888887 -1.497116 0.044832 -2.068563 -0.988584 -1.019564 0.313169 -0.090752 0.005857 1.268128 -0.350281 0.135847 0.014672 1.199409 0.151819 -1.882152 -0.766831 0.546597 2.076699 -1.084828 1.061011 0.621939 -0.135719 0.875494 -0.931565 -0.146837 -0.274910 -0.182154 1.382974 0.753404 -0.568329 1.080507 -0.518562 0.703957 -0.470641 1.287184 0.597667 -0.146429 -1.383641 0.547800 2.095170 0.837985 -0.556749 -0.756828 -2.692256 0.718196 0.743925 0.337270 2.056730 -2.115656 -0.593142 -0.974114 -0.854768 -0.619226 -1.424200 -0.898882 -0.029927 1.508255 -0.042893 0.879617 0.196451 -1.362699 0.954976 1.198714 -0.216130 -0.597482 0.157126 -1.433634 1.348729 -1.359129 -0.187280 1.336140 0.336299 0.365157 0.621332 -2.021136 1.333967 0.261312 -1.003347 1.921178 -0.241516 0.322714 0.038185 1.184119 -0.580745 -1.599356 0.291922 -0.672267 0.606788 0.318827 -0.932837
be 0.129643 -0.911912 -1.288871 1.415738 -0.255477 -1.441427 -1.165892 1.416433 -2.516453 0.199603 1.452562 -0.484337 0.778770 -1.481591 -1.342402 0.752216 0.680416 1.334172 -0.413693 -1.311282 0.411857 -0.760847 -1.111709 -0.168292 0.695000 -1.472259 0.766441 -1.586920 -0.592513 1.642804 1.501425 0.368867 -0.419300 0.305677 -1.275483 1.155109 -1.084693 0.003565 2.095988 -1.715944 -1.549230 -1.384985 -0.875288 -0.208612 0.764451 0.579140 0.396938 0.185112 0.447264 1.051768 0.371430 -0.356345 -1.317570 -0.908096 -0.621168 0.257944 0.195383 0.906582 -0.203053 -0.922314 -0.058520 0.040186 1.279626 1.105564 0.834428 1.164619 -0.479284 -0.727076 -0.872317 0.267187 0.725045 -1.091460 1.777091 -0.122246 -0.709407 0.867368 -0.407887 -0.490270 1.688856 -0.688390 -1.194127 -0.950419 0.038375 1.258585 -1.364043 -1.522353 -0.637181 1.093802 0.007452 0.977738 -0.458776 0.087429 1.171821 -0.442233 -1.847337 -0.716957 -0.247240 2.388604 0.425315 1.789874 -0.144360 -0.450415 0.155250 -1.477715 -0.312575 0.602260 -1.335300 -0.237045 0.268246 0.696738 0.315283 1.274653 1.032424 1.476525 -0.411173 0.387116 -0.586804 -1.474809 0.555482 -2.722929 0.458077 0.077633 0.203992 1.299865 0.543828 0.460854 1.539628 0.194281
but -0.320201 0.130244 0.286277 -1.007039 -0.564964 1.313220 -1.629286 0.170657 -1.085625 0.432692 -0.324175 -0.284772 1.601507 -0.139732 0.046129 -0.339114 0.337568 -0.047265 1.757687 1.044295 1.086126 0.578075 -0.919909 -0.103618 -1.754691 1.083026 -1.550282 0.791292 1.108134 -1.011766 0.304830 -0.398303 0.296645 1.649271 0.994552 0.290121 0.646706 0.141196 -0.708588 1.683621 -1.297206 0.872027 -0.177547 -0.316560 -0.257591 -0.573601 0.048814 -1.609833 1.217791 -0.053417 0.531406 -0.600409 1.697324 -2.860831 1.213931 -0.728728 -0.672015 -0.422429 -0.465810 0.069195 0.801658 -0.074702 -1.162431 -0.537776 0.846645 -1.347673 -2.342955 -0.123581 1.205851 -0.323382 -0.111291 0.812982 0.704470 0.101230 -0.115583 0.304923 0.534161 2.780743 1.430411 -0.106602 -0.742376 0.463284 1.523640 0.761252 0.959711 0.455045 1.058548 0.739984 2.271406 -1.558782 -1.233298 0.052212 -1.410602 0.268652 0.181029 1.784372 -0.184937 0.921018 -0.098110 0.363280 -0.408848 0.058567 -0.014762 0.408094 -0.361329 0.360569 0.705492 0.506452 -0.512177 -0.002945 -0.392246 0.192233 0.240759 -0.736418 -1.804465 0.656508 0.196110 -0.016093 -1.075543 -0.379092 -0.935579 0.310218 -0.339470 -0.285269 -1.244012 -0.537685 -0.212680 1.149203
at 1.309723 1.071440 1.408809 0.349319 -0.803948 0.301044 -0.285361 2.644397 -1.281524 -1.963068 2.072262 0.839966 -2.051652 -0.417341 0.204606 -0.234606 -1.171477 -0.033944 0.536694 1.955482 -1.509459 -1.737319 1.011202 0.622932 0.116536 0.289385 -1.052553 1.818223 0.774231 0.655542 0.217992 -0.568186 0.747733 -0.841286 -0.111825 1.780443 -0.295450 0.163636 -1.490535 -1.345957 1.140733 -0.162905 0.269220 -0.478066 0.853734 -0.097204 0.935878 -0.967279 0.554512 -0.137900 -0.070207 -0.623791 1.057135 0.889907 -0.806686 -1.392710 -0.526374 0.273691 -0.761343 -1.079624 -1.321858 0.762422 0.774366 -0.643989 -0.437483 -0.453955 1.224668 0.198411 -0.039182 -2.003589 -0.011000 0.868063 -0.460487 -1.452995 -0.759169 -0.122741 0.020020 1.847559 0.680241 0.206628 -0.839906 0.502336 -0.271510 0.024731 -0.502680 0.843596 -0.747661 -0.649333 1.201598 0.308621 1.001486 2.166748 0.175636 0.445359 0.864113 -0.553010 1.346547 -0.493662 0.482862 0.973856 -1.030285 0.534555 -0.769327 -1.980565 -0.869876 2.486369 -0.158653 -0.110560 0.642064 0.164621 -0.365940 0.082073 0.809877 -1.367307 -1.489017 0.851755 0.164020 0.903375 0.257500 0.516675 0.347902 -0.248072 -0.486022 0.288249 2.004792 -0.859594 1.319611 -0.574859
my -0.360081 0.234310 -0.318283 0.598788 -0.667022 -0.536670 0.052180 -0.869071 0.499195 -1.231540 -1.197455 1.605154 0.329934 1.502436 0.550593 1.657860 0.211427 -1.337855 0.788856 0.339982 -1.392806 -1.012428 0.426764 -0.185332 -0.835464 -0.203583 -0.664300 -0.828806 1.664243 -1.249989 -0.179973 -0.744532 0.606132 0.134696 -0.445560 0.836506 -3.070428 0.763108 -1.616446 0.168253 -1.468807 -0.024017 -0.913925 0.741018 -1.112948 -0.414693 0.665931 -0.406190 0.540747 1.185885 0.189381 0.611897 -2.448559 1.151537 1.315869 0.864393 -0.786912 0.269622 1.077032 -0.731415 -1.113557 0.243479 0.885672 1.933036 1.640735 0.029301 -0.101722 -0.237968 -1.627153 -1.243458 1.861781 -0.573080 0.372846 -1.223699 0.181211 0.898801 0.449867 -0.388806 -0.404095 1.219481 2.401276 1.157134 1.403718 0.315509 0.642461 2.405669 0.283896 2.386955 1.464191 1.900198 0.426721 -0.287237 -0.198318 1.298451 1.195658 -0.682195 -0.200560 1.743462 -0.573388 1.291664 -1.205453 -0.460301 -1.484805 -1.163106 -1.558401 -0.549210 -1.266311 -0.030019 1.298831 -0.351177 -0.807964 -0.056717 0.101237 -0.865526 1.032545 -0.322271 -0.680479 0.252977 -0.825767 0.249543 0.096075 -0.494964 0.789130 -0.510670 0.068822 0.143751 -0.376586 1.062230
had 1.203689 0.274446 1.777390 0.945279 -0.914189 0.835815 0.675671 0.078422 -0.272714 0.616857 0.813736 -1.399205 1.008930 -0.769004 -1.355880 0.402266 -0.682710 -1.470542 0.796609 -0.204334 0.074583 -0.712868 -0.396227 -0.789908 0.362392 0.234358 -0.413039 -0.656308 1.115559 0.044876 -0.821428 -0.152158 -1.437564 -0.566076 0.891808 0.505721 0.925910 -0.880748 0.114103 1.628137 0.332262 0.916000 1.396784 -2.256314 -0.370982 -1.001146 -0.595571 -0.866841 -0.628719 0.327560 0.803294 -0.979101 -1.534180 0.618286 -3.108533 0.224424 -0.912512 -0.565220 1.250636 1.378532 -0.627458 0.458415 0.763497 1.870543 0.015331 -1.265773 -0.308658 1.531026 -0.504185 -0.095723 0.514728 0.238160 2.960678 -0.517384 -1.169394 0.700585 -0.231335 0.765638 0.429807 -0.934044 -1.224262 -1.104099 -0.984343 -0.072042 -0.406530 -0.061596 -1.273358 1.146210 1.247352 0.957539 1.935590 0.291671 2.262979 -0.658767 -0.273547 -0.202880 0.169010 0.817135 0.162717 0.096436 -0.090186 -0.411554 1.532395 -2.272318 -0.978134 -0.471160 0.258465 1.627944 -0.369908 0.129419 -0.810558 0.543134 -0.290875 2.094518 0.443619 -1.375580 -0.028161 0.481946 0.341154 1.157405 -1.851463 0.584370 -0.980775 0.374679 -2.747945 -0.483684 1.095422 0.729112
on 0.454196 -1.106517 0.905150 -1.579780 -0.410569 -0.750291 0.127653 0.849673 0.157999 0.541136 -0.092581 -0.196328 1.506873 -1.965422 -0.880450 -0.612398 0.225578 -2.043903 0.678472 -1.236961 -0.994498 -0.150180 1.043148 0.778309 0.420645 -0.172168 -0.995103 0.186830 -1.211524 -0.687715 -0.864248 -0.787788 1.091305 -2.396387 0.428280 1.464271 0.352079 -0.820730 0.509232 -0.278188 -0.538656 0.620077 0.373547 -0.479583 1.567978 0.189730 0.252938 0.085473 -0.285607 1.684348 2.976392 0.189657 -0.120008 1.333633 0.116844 -1.662054 0.862786 -0.160155 1.949201 -0.697536 -0.452046 -0.979738 -0.920779 1.519282 -0.422867 -0.438379 -0.022305 0.903145 -1.153240 -0.779354 -1.140962 0.527425 0.087335 1.010918 0.655714 0.779822 0.512733 -0.173795 0.418325 -1.037743 0.734799 -0.874197 0.222682 -0.663188 1.055273 0.237767 -0.906199 0.019178 0.268134 -0.287154 -0.094117 -0.149212 -0.414014 -0.974587 -0.549716 0.814389 -0.328439 -0.980809 1.780120 0.263370 1.517888 1.059101 1.010316 -0.154403 -1.175456 1.778319 0.096537 -0.443554 1.279264 1.180858 -0.036348 0.878296 1.327122 -1.062075 -1.346680 1.206300 0.624304 -0.645028 -1.017238 -0.986469 -1.835986 -0.000558 0.731763 -0.011195 0.954627 -0.049834 -0.288007 0.182322
have 0.109458 -1.279324 0.326695 0.121565 -2.505702 0.280872 0.820634 0.675650 0.440951 1.022326 0.251524 -0.115614 -0.359535 -0.796278 -1.026583 0.497744 0.781407 -1.216781 -0.161914 -0.233605 -0.292061 -0.127877 -1.284820 1.247553 0.266387 0.641469 1.222917 -0.407882 1.071046 -0.708625 2.337122 -0.918758 0.105651 1.046448 1.895929 1.097741 1.718880 1.588022 1.883168 -0.951548 0.704735 -2.375473 1.150797 -1.114914 -0.036162 1.635002 -0.366794 -0.211367 0.214946 1.864046 -0.219991 -0.174604 -0.857998 -1.144959 -1.085770 0.177980 -1.454203 1.362724 0.999876 0.996451 0.151873 1.531328 -1.171578 0.332603 0.471625 -0.011794 0.367737 0.135660 -0.396303 -1.550282 -0.104425 -0.094324 1.457879 -0.419408 0.290445 0.852713 0.054707 -0.132943 2.663703 0.074584 0.411098 0.536492 -1.782914 -0.425833 0.733959 -2.697162 -0.956517 1.764967 -1.726489 0.007287 0.009213 0.419228 1.796321 1.364132 0.107172 -1.576067 -0.569543 1.807170 -1.681730 0.951080 -0.199008 0.616734 -0.851611 -0.048531 0.745842 1.644725 -0.240707 1.689788 -0.870045 0.764589 -2.076467 -0.030280 1.437934 1.182373 0.453059 0.485967 -0.367346 0.303985 1.302941 -0.493939 -0.389053 -0.047511 0.326531 2.358424 0.818075 0.916940 -0.225786 -1.279133
by 0.583745 -1.560961 -0.845361 0.769482 -0.382467 -0.353844 -0.785309 0.915472 0.561963 0.245372 1.403405 1.764889 0.276991 -3.068397 1.163774 -0.043886 -1.220563 0.359987 1.690801 -0.354570 -1.342667 -1.814313 0.944096 1.028664 0.538696 -0.691806 -0.416252 0.908319 -0.506544 -0.382539 0.669028 0.597117 -0.893436 0.347681 1.211893 0.442813 2.255347 -0.056398 1.193709 -0.291038 0.536701 1.286842 0.551071 -0.277604 0.134920 -0.923788 0.689781 -0.452102 0.338088 1.023397 -0.608173 1.946461 0.647581 -1.127495 -1.230510 2.040412 -0.108571 -0.303741 1.118865 -0.208653 -1.578486 -0.522521 -0.615172 -0.210101 0.307235 -0.305343 -1.727692 0.367550 1.237061 -0.983024 -0.153546 1.332200 1.748327 -1.520556 -0.253197 1.628341 0.703562 0.893164 -0.660308 -0.360496 -0.400168 0.678261 -1.466973 1.026900 -0.683800 1.068539 -0.385600 -1.468177 0.016775 0.525807 -1.352196 0.178777 2.173525 0.434240 -0.612698 0.246314 -0.790321 0.213567 0.031883 -0.567058 1.238206 -1.264789 1.026094 -0.814400 0.120882 0.218198 -1.349561 1.460364 1.024577 -0.661933 0.777202 0.787800 0.232049 -1.949633 0.496374 0.820717 0.147443 0.186624 0.367689 -0.807836 -0.410357 0.780934 1.285263 -0.212028 -0.182649 0.373936 0.833685 1.117243
this -0.460292 0.817328 -0.684573 -0.080099 -0.613181 -0.210912 -1.985970 -1.418431 -0.185050 -0.006122 0.992239 -0.563125 -0.435544 1.782346 -1.055562 -0.650439 0.199253 0.607903 0.511219 1.394593 0.574881 -0.294707 -0.367436 -0.910528 0.444399 -0.713307 -0.168772 -1.083866 -0.902339 -1.042989 0.537711 -0.659282 -0.667280 -1.639261 0.123656 1.230520 0.407908 -0.539152 -0.506483 -1.152851 0.585511 0.529383 -0.437995 0.827620 -0.609094 0.862112 1.546046 1.351305 0.804090 -0.382014 -0.314341 1.456481 -0.232160 -0.639694 -0.930291 -1.358375 -2.157149 -0.585801 -0.958845 -0.220164 -0.348447 -1.153401 -0.239224 0.769533 0.998820 -1.116389 -0.303112 -0.067677 -0.433608 0.848913 0.361236 0.747527 0.887995 -1.186037 -1.130051 1.249337 0.257753 1.009022 -0.181528 -0.279358 -0.617939 -1.269015 0.106624 2.755660 1.140806 1.152112 0.267398 -0.551085 2.493250 0.712683 0.349010 0.414067 0.341395 0.137252 0.686355 -0.121621 -1.512371 1.245530 1.240562 0.667739 -1.692254 -1.467943 0.225608 2.206552 -0.482255 -0.854421 -1.062157 -0.663745 0.857490 0.121932 0.159608 -2.077942 -0.196427 0.484592 -1.130600 0.090522 1.173183 -1.329351 -0.395803 2.825843 0.881490 0.121424 1.811868 -0.180322 0.275723 0.077862 -0.535076 -0.236437
or -1.013291 -1.437939 -0.676228 -0.389659 -0.902532 -0.545973 0.347048 0.742381 -1.717924 -1.889200 1.667135 -1.194248 1.053743 -0.710707 -0.372434 -1.468317 -0.115252 -0.145458 -0.273793 -0.381937 -1.597401 -1.762492 0.648312 0.363006 -0.676152 0.774440 -0.614697 -0.255355 0.964647 0.165218 -1.480924 -0.584133 0.126957 0.361595 0.306163 1.667779 0.696876 0.334203 1.012763 0.301923 0.614263 -0.009910 1.846560 -0.031661 -1.009154 -1.582148 -1.242600 0.210354 -1.341081 -0.084154 0.901060 -0.615117 -1.198272 0.069790 1.950992 1.717671 -0.525104 0.589774 0.777871 -1.119938 -0.405559 -1.467742 -0.194213 -0.955790 0.063700 -1.469658 0.615124 -1.317603 1.058785 -0.322126 -0.909816 -0.549639 0.613890 -1.032405 -0.149769 0.174677 0.980315 1.180470 -1.388070 0.167282 0.131077 -0.700963 0.486855 1.222254 0.686397 1.125055 0.040006 -1.056823 -1.013617 1.655805 0.670024 -0.713377 0.711058 -0.285744 -0.071271 1.240567 0.209923 1.810927 1.815134 0.789034 -0.537623 1.163101 0.231462 0.912239 -0.281119 0.873478 1.433913 0.618672 1.736364 0.192876 0.357854 0.802773 2.548318 -0.757054 0.889896 -1.463256 1.547085 -1.155944 -0.980189 0.812195 0.111799 1.855071 0.119044 -0.531492 0.450758 -0.427613 0.816853 1.118435
which -0.397799 -0.679647 -0.182114 1.491921 0.241735 -0.982473 -0.279945 -0.383642 0.866086 -0.823453 -1.609613 -0.671677 2.278897 -0.063144 -0.421582 0.924455 0.248518 -0.415889 0.183349 0.873115 -1.039837 -1.755244 -0.673495 -1.399900 -0.599290 -0.452086 1.710814 1.330766 -0.980230 0.650507 0.382812 -0.034393 0.072935 1.439389 1.449052 -2.284295 1.927183 -0.900802 1.133019 -1.129176 -1.041992 -0.039319 -0.229408 0.215056 0.306899 0.675580 -0.669894 -0.525621 1.319843 0.995394 -1.189355 0.275034 -0.661944 -1.223915 -0.082958 1.459251 -1.263522 -0.254092 1.489791 0.028926 0.927783 0.045683 -0.436492 -1.162095 -0.063780 -1.920540 -1.574169 -0.664548 1.943874 0.910505 -0.018019 1.841293 -0.385413 -0.548537 -0.273398 -0.749670 0.381473 -0.453327 1.016036 -0.305323 0.605830 0.272783 2.678882 -0.592561 0.751457 0.291442 0.149859 0.101713 2.104995 -0.605592 0.809163 0.714057 -0.122602 0.894093 1.045056 0.503780 -1.173848 -0.172413 -0.311018 -1.640145 -0.773057 -1.516954 -1.602346 -0.054870 -1.632693 1.667507 -0.100792 -1.989977 0.837407 1.717699 0.246221 -2.468140 0.431469 0.192893 -2.120031 0.721556 -0.739981 0.316101 0.654056 1.414360 -1.698341 0.818892 0.309406 -0.304158 0.581270 1.348584 0.749249 -0.307761
me 0.475271 2.624398 -0.397549 0.288954 -1.471193 0.392144 0.535334 0.534936 -1.824967 1.779702 0.213635 0.210331 0.137681 1.595933 0.582576 -0.192798 -1.196966 0.061316 0.508215 -0.658987 -0.655847 -2.393056 2.223107 0.052541 -2.118080 1.424127 1.015429 -0.992839 -0.428596 -1.226751 0.594135 0.618654 -1.013337 -1.427005 -0.846718 -1.201885 -0.184412 0.441891 0.684779 -2.053003 -1.431144 -1.230780 2.159985 -0.252032 2.043213 1.466779 -0.321666 -0.063244 0.386942 -0.976735 2.198403 -0.011548 -0.213978 -0.241779 0.381271 1.152301 -1.310734 1.335147 -0.469002 0.651577 -0.042448 0.652434 0.004491 -1.306218 1.048535 -0.443006 -0.722089 -1.044733 -0.542099 -0.836867 0.207209 1.138621 0.909133 -0.310244 0.562724 -0.718225 1.973718 -0.073214 0.063221 -1.429242 -0.024778 1.323400 0.778535 -0.122255 0.061734 0.208801 -1.264770 0.670204 -0.819464 -0.144993 -0.970545 -0.648752 1.127755 -0.404321 -0.668502 -0.443797 0.819030 -1.744584 1.668273 -0.291480 0.293482 1.542329 -1.742291 0.237474 0.025065 -1.046019 0.353640 -0.530254 1.134893 0.417375 -1.756538 1.088298 -0.844679 0.603519 0.045541 1.513787 -1.971904 -1.372307 -0.027733 0.813964 -0.138262 0.037802 0.751156 -1.270007 0.278691 -1.608648 0.416695 -0.644297
all 0.164159 -1.232723 -1.620582 0.198695 0.155985 0.103955 -0.491421 -0.036883 -0.259926 -1.463696 1.113896 1.662885 -0.288018 -0.088449 -1.403800 0.942091 -0.306705 1.266837 -0.506649 -1.027000 0.722363 -2.703375 -0.143302 -1.881990 1.831872 1.093850 -0.693125 0.994887 -1.379815 0.437454 -1.161915 0.822957 0.409985 0.259315 -1.834147 0.356130 0.110462 0.661044 0.221163 -0.217658 1.428133 -0.734832 2.250241 1.888759 0.075275 -1.129233 -0.590188 1.249183 0.913587 1.505316 0.813717 0.195294 -1.330768 -0.816790 -0.525925 -0.836352 -1.072973 1.797223 -0.525326 -0.008171 2.894072 -1.033942 -0.639128 -0.384103 0.954926 0.054457 -1.889404 -0.217171 0.224140 -0.199966 -0.301196 0.614628 -0.841556 -2.486603 -0.728128 -0.144526 1.887582 -0.915153 0.044346 -0.693358 -0.752889 -0.196906 1.119262 -0.141561 0.240315 0.344065 -0.927216 1.710961 0.123085 -1.053027 0.302472 -0.487288 -0.006485 0.891990 1.240345 -1.734973 1.389575 -0.581982 -0.732069 1.554543 -0.792225 -1.552864 1.592001 0.494131 -0.806149 -0.806483 0.784760 -1.781564 0.144436 0.083144 1.306109 -1.534569 -0.915729 -0.544721 0.014258 -2.375959 -0.772186 0.153334 -0.726156 -0.924265 -0.123302 1.956581 1.219638 -0.044234 -0.936533 -0.367501 -3.629513 -0.283539
they 0.376649 0.543890 -0.692836 0.123113 0.975666 1.752135 -0.143865 -0.605837 2.226753 0.351532 -0.433964 -0.354594 -1.197018 0.397569 1.029793 1.934666 0.012176 -0.300771 0.541890 0.339336 -1.740090 -1.321915 0.367550 -1.812967 -0.413446 -0.612435 1.333758 0.856225 2.726956 3.192859 -1.015361 -0.735832 0.093195 -0.558601 1.555208 -1.410512 -1.138124 0.314024 -0.106616 -0.483267 -0.648023 -1.314432 -0.263588 0.151966 1.003468 0.346321 1.185246 0.545245 -0.203901 -0.243351 0.372986 0.101661 1.135655 -0.362747 1.606556 0.554558 1.258795 1.465155 0.180005 0.483529 -0.350004 0.134856 -1.461462 0.338710 0.428033 0.391404 1.202058 0.560309 1.472302 0.080499 0.506746 1.247749 1.316976 -2.087573 -0.807826 1.350030 0.496520 -1.335310 -0.200965 1.000377 0.701818 -0.293472 1.216650 1.703812 -0.259853 -1.217154 -0.804661 -0.424945 -2.182518 0.189309 -2.453862 -0.748147 0.131654 -0.871458 0.176386 0.819345 2.827804 1.359720 -1.360790 0.430198 -0.388152 -0.489419 2.402323 0.012377 -0.442079 0.301769 -1.024067 -0.177419 -1.138922 0.010832 -0.440344 -1.924992 0.543461 0.375041 -2.331077 -1.139967 0.164929 -1.654488 2.899132 -0.653719 0.580823 -1.285572 1.674097 -0.200748 0.112065 1.050910 -0.083513 1.888426
her 1.086800 0.284982 -1.577651 0.312495 0.360187 0.858168 -0.299620 0.317239 -0.109517 -0.853830 -0.831361 1.362479 1.739498 0.332671 -0.948614 1.247775 0.000396 1.559107 -1.089133 -0.035125 0.332266 -2.181092 2.623322 -0.823568 -0.154286 1.070797 0.752063 -0.867605 -0.863148 -1.689295 -0.778730 -1.580564 0.481305 -1.428077 0.425589 -0.845514 0.920661 -0.389936 0.040216 -0.165173 -0.942700 -0.813296 0.963478 -0.759234 0.823129 1.929154 -0.082642 0.033521 -0.110446 -1.175110 -0.295795 -1.484542 -0.003721 0.825522 1.639698 0.495864 -0.484704 0.997125 1.956198 -1.587775 -0.418509 0.725800 -0.691760 -1.463764 0.492866 -0.788474 0.040953 0.586924 -1.421242 -0.307582 -1.053523 1.134393 -0.491423 0.226131 0.027279 0.783723 0.234143 -0.574055 -0.522414 -0.771601 0.138550 0.473251 1.988333 2.205862 0.627505 0.309233 -0.194508 0.915016 0.847772 0.802349 -0.009958 -1.318471 1.271397 -1.163793 -2.044287 0.297020 -0.147013 0.989668 -0.308864 -1.734915 0.050263 -1.419078 -0.790218 0.235597 -0.128458 -1.834668 -0.868444 -2.027699 1.434022 -0.905958 -0.711647 1.757425 -1.393574 -0.621662 1.291579 0.652185 -2.319704 -0.331014 -1.580876 0.727154 -0.814851 0.119042 -0.028670 0.655954 -0.506113 0.053092 -0.718746 -0.260156
him 1.163028 -1.579922 -0.240803 -0.605484 -1.128042 -0.189646 1.198715 -1.487196 -0.461116 0.737039 -1.069229 0.468268 0.002702 0.650303 -1.678857 -1.156285 0.983659 0.272149 -0.781936 0.540012 0.251700 -0.874626 1.840626 -0.898063 -0.184279 2.120276 0.501662 -0.259075 -0.701820 -0.925660 -0.373305 0.167242 1.308295 0.117788 0.497672 0.572643 0.432033 -0.803020 -0.019120 0.309772 -0.458711 -0.777949 1.734003 1.964681 1.148277 1.508812 1.256769 -0.609739 1.625927 -0.079337 -0.016326 -1.136601 -0.118555 -1.263278 -0.718593 0.867174 -1.471479 1.757325 -0.320485 1.755896 -1.234677 1.296914 0.035026 -0.271838 0.426845 -0.467987 0.100883 -0.933697 -0.108219 -1.226720 -0.068339 0.170184 1.536714 -1.634704 1.423669 -0.926752 1.757925 0.070416 -0.045038 -0.641642 0.496365 1.203269 -0.639183 -1.564593 -1.738263 -0.120288 -0.594075 0.445439 0.352531 -0.551668 -1.357519 0.353335 1.082310 -0.262496 -1.433263 1.252989 0.389641 -0.276627 -0.606007 0.511969 0.673046 -0.789655 -1.375410 0.478526 -1.253760 -0.667116 0.094640 -1.778333 0.563281 1.938483 -0.801951 1.052055 -1.471402 0.702013 2.267085 1.952463 -1.339838 -2.700840 1.096653 0.612469 0.643579 -0.374667 -0.609927 -1.966529 -0.237256 0.451122 -1.119218 -1.146765
she -0.985280 0.321349 -0.909074 0.517482 0.145406 0.141941 -0.275880 0.217976 1.072070 1.677625 0.772209 -0.644642 -0.112070 -0.148190 -0.388063 1.915868 -0.096499 -0.762935 1.134502 0.206356 -2.490992 0.071654 -1.522484 -0.281095 2.330893 -0.903770 0.564669 1.979739 0.178274 -0.046198 1.397494 1.361858 1.337280 1.130567 -0.004901 -0.702578 0.603802 0.151198 0.141829 -0.010817 -0.305994 -2.838705 0.367388 0.109821 -0.391393 0.086670 0.368133 -0.028509 0.048120 0.607107 -1.359977 -0.529654 1.070560 -0.872356 -0.449593 -0.311383 0.763752 -0.466630 -0.325420 -0.898705 -0.124346 -0.702734 0.666294 2.779884 1.163203 -0.314546 1.477522 0.261880 1.704470 1.179901 -0.333373 -0.122004 0.667661 1.306813 0.518840 2.083793 -1.173427 1.132247 0.348679 -0.358355 -1.672152 -0.378008 0.044666 1.931570 0.209808 -1.413138 0.873457 1.585361 0.442104 -0.130156 -0.797602 -0.978849 -0.392866 -3.204906 -0.375651 -0.421604 -0.633836 1.657669 -1.048185 0.351628 -0.622352 -2.159169 0.327160 -0.829120 -1.431088 0.566623 -1.366296 -2.750559 -0.258130 1.188651 -0.599109 -1.113050 -0.024824 -0.679170 -0.909564 -1.162992 1.141471 0.275963 -0.467457 2.145088 0.512761 -0.102990 -1.316948 0.420873 0.151814 -1.269582 -1.171040 0.732989
so 0.337648 -0.042691 0.664895 -0.017504 0.749833 0.865862 -0.560249 1.638598 -0.303667 -0.915345 -0.723586 -0.792469 2.017902 -0.359039 -1.652433 1.003480 -0.212062 -0.219452 0.301496 0.316758 0.833115 -1.679873 0.712097 -1.334179 -0.477602 -2.458329 -2.216727 0.702796 1.947070 0.258041 -2.988781 -1.060231 -2.234531 0.489552 -0.388468 0.847011 0.142893 -1.679286 1.736353 -0.650449 -1.131273 0.438082 -0.026818 1.520859 0.860980 -0.700989 1.687444 2.342165 -1.614022 0.387549 -1.292060 -0.174494 0.571745 0.033297 2.044133 0.415427 -0.531463 0.554107 -0.642027 0.643795 -2.053203 -0.880946 1.587122 0.883883 1.079700 -1.018585 -0.089924 -0.113269 0.666104 -1.161704 0.880089 0.446938 1.030752 -1.230679 0.867525 -0.101727 -0.438967 0.281537 -0.998477 -1.201673 -1.762239 -0.091137 -1.653223 0.286690 0.505758 -1.487464 1.777722 -0.384224 -0.867316 -1.084113 -1.888250 0.946617 0.051990 1.167055 -0.294717 -1.816697 -0.096210 -0.245335 0.710912 0.083461 1.085438 -2.008574 -0.201868 0.311360 -0.213947 0.761840 -1.485159 0.114473 -0.344548 0.071050 -2.036786 0.830910 -0.549777 1.265895 -0.380666 -1.032924 -0.593180 0.329019 -1.096229 0.858282 2.205688 -1.216820 0.442928 -1.685694 -1.221727 0.953232 -0.592515 0.571105
are 0.385070 0.935821 -2.320194 0.239385 -2.618926 1.559073 0.337255 0.267688 -0.142455 1.609141 -0.764285 0.635650 0.602549 0.505402 -0.669899 -1.266682 0.053729 -1.195933 0.348467 0.684227 2.304798 -1.378304 -0.949245 -0.732454 0.214144 -0.001084 0.596540 -0.128009 -1.458898 -1.764875 -0.827049 -1.464263 -2.042627 0.711273 1.447187 -0.729519 -0.386832 0.543262 0.976995 0.354983 0.914863 0.246702 0.987920 -0.523653 1.664053 0.599872 1.357050 -0.327395 -2.461757 0.941258 1.605810 -0.215982 -0.685726 -0.764611 -0.612400 -2.392982 0.664457 -0.144658 -0.248920 -1.703926 -0.215129 -0.695333 0.314887 -0.402570 0.511642 -0.367905 -2.193078 1.207181 2.359125 0.917460 -0.151821 -0.944563 1.222368 -1.785802 0.064420 -0.351156 0.694791 -1.078705 1.358752 -0.981720 1.139930 -0.387767 -1.689985 -0.797442 1.096167 1.423402 -0.594957 -0.906640 -1.721436 0.913171 0.892615 -1.506004 -0.250093 1.767873 -0.475895 1.713834 1.282266 0.620550 0.853371 -2.000292 0.432195 -0.826370 0.748063 -1.216991 -1.519010 0.232313 -1.373502 -0.679498 -0.730771 0.675837 -1.692816 1.098228 1.552247 0.881558 -0.367413 -0.319430 0.102511 0.325708 -0.389006 -2.495210 -1.441897 -0.020160 1.567665 -0.600224 0.675930 0.930332 -0.723356 1.066792
said 1.485045 -0.765339 1.669681 1.757602 -0.064462 -0.753677 0.970291 -1.574500 -0.018593 -1.430030 -0.681735 0.954706 1.131436 0.291974 -0.515610 -0.245294 -0.265085 -1.308592 0.705671 -0.349503 -2.196021 1.018586 0.936057 1.372854 -0.651731 1.205583 -1.002988 -0.047162 -0.890473 0.191146 -1.336863 -0.165201 0.233987 0.338711 -1.145414 -0.717359 -2.221458 -1.152229 -0.908254 -0.908280 1.646618 0.184333 0.083867 0.183383 0.828848 0.442086 -0.433633 -0.158941 1.496860 -1.536548 1.096443 -1.578017 2.309038 -0.811716 -0.710487 -0.405426 -1.089984 -0.695024 1.246179 -1.442587 1.058931 0.623902 -0.110791 0.303787 1.604438 0.467763 -0.310392 2.421454 -1.309445 -0.296365 0.680856 0.467416 -1.446381 0.395774 0.819000 -0.741138 1.022678 0.698945 0.747329 -0.427886 1.196233 -0.517456 -0.816652 1.284577 1.811285 -0.063463 0.673074 -2.209538 0.167292 -0.369509 -0.201923 0.507538 -1.436872 -1.080879 1.319843 0.126634 0.254915 1.479541 0.023385 0.088349 0.435326 1.141949 -1.910523 -0.165665 -0.221489 0.940411 0.223436 -0.443746 0.609580 2.016195 -1.794832 0.832463 0.682986 0.019175 -2.859849 -2.045410 -0.106410 -0.734494 -0.202618 -0.479398 -0.704564 0.048545 -3.054343 -1.943599 -1.082550 0.517518 0.412628 -0.124324
from -0.684031 -0.885588 0.409132 -1.656499 1.418074 -1.291839 -0.882322 -0.190818 -0.610163 0.029890 -0.204854 -0.811284 0.100348 -1.575272 0.538235 -0.178997 0.168226 -0.319481 2.008233 0.621990 0.723807 -0.907982 0.239254 -0.042457 -0.027624 0.039382 -1.110757 0.690044 0.374009 0.063357 -0.667686 1.236595 -1.555927 -0.676935 -0.239684 0.745197 -0.345928 -0.904120 -0.873179 -0.356792 -1.663735 0.796201 0.196015 -0.440921 0.413660 -0.495807 -0.252938 -0.219979 -0.011982 0.264174 0.010876 1.899337 0.500126 -0.969201 0.045879 0.652031 -1.667781 0.244178 -1.408473 0.037985 -0.723779 -1.056976 0.242439 -0.436808 0.372161 1.603312 -1.237160 1.455927 1.371945 0.900140 -0.748435 0.635627 0.806363 0.455790 -0.326247 1.484809 -0.905794 2.999165 -1.670401 1.089241 -1.296722 1.327070 0.251198 0.291621 0.564236 1.447247 -0.606620 -1.220900 0.533411 1.012974 -0.423315 0.627160 0.205306 -0.403446 -1.246226 1.240623 1.211881 -1.319766 0.557725 -0.616061 1.356694 1.084793 0.180130 -1.645611 -0.028678 0.838399 -0.133599 -1.509853 0.648821 -0.323764 -0.840914 -0.452914 1.829247 -0.799574 -0.930849 -0.614429 -0.927131 2.031137 0.859108 -1.150314 0.103495 1.306207 0.728008 0.025653 -1.525775 0.631145 -0.908298 -1.452737
one -0.312039 -0.390872 -0.677119 1.662250 -0.228490 -0.446734 -1.065346 0.689519 -0.578984 0.200837 0.393785 1.373435 -1.371445 1.744218 0.440290 -0.445897 0.328648 -0.933452 0.221102 -0.122462 -1.263396 -1.136193 -1.341543 -0.920750 1.993117 -1.588660 -1.797964 -1.714533 1.368462 -0.060026 -0.508002 -1.054007 -1.062548 0.792537 -1.505820 0.221736 0.471441 1.226643 0.071162 0.578983 1.392446 0.040003 -0.256889 -0.250428 -0.490802 1.869623 0.336412 0.378559 0.366511 -0.386892 0.748635 0.248903 -1.478377 -0.938909 -0.477023 0.771090 -0.163907 0.689409 -0.468982 1.440104 -0.520099 -0.755072 -0.170141 0.858104 -0.808687 -1.782300 0.501303 0.667452 1.417190 -1.280146 -0.860264 0.627204 0.839124 0.385201 -0.922431 -0.689748 1.645849 2.817657 -0.385484 -2.377062 1.365375 -2.031582 0.463510 -1.173346 0.694131 0.848410 0.175812 1.374344 -2.013188 0.120138 0.231474 0.535620 1.142868 1.503678 -1.219107 0.517124 -0.800308 -1.343206 -2.084323 0.436667 1.251056 -0.037193 -0.247724 0.732829 -0.141179 -0.805347 -0.076643 -0.136794 0.710300 -1.920932 -0.712467 -1.826973 -1.191957 0.283266 0.835523 0.003659 -0.306111 0.606374 0.752156 -1.898864 0.230862 1.013685 0.794078 1.513584 -0.111873 -1.736819 0.116974 0.015381
were -0.467474 0.746429 -0.382828 -0.152938 -2.344797 1.685495 1.009933 -0.321226 -0.402396 2.619930 0.345540 -0.477143 0.179926 -0.651507 0.132685 0.063039 -0.800801 -0.424616 0.331335 1.001530 2.425153 -0.925475 -0.668552 2.662229 0.645902 -0.050268 0.105753 -0.536350 -1.501660 -0.196614 -0.651121 0.026773 0.457951 -0.510635 0.853135 0.531460 -0.995230 -1.817191 -0.934868 0.033663 -1.057409 0.192985 0.357526 -0.294365 -0.516461 0.235079 0.305124 -2.931751 -2.062585 0.389426 0.317974 -1.198612 1.791709 -1.056731 -0.845336 0.921372 0.482730 1.277074 1.135805 -0.796900 1.398909 -0.615276 1.089541 0.310711 -0.405442 -0.009357 -0.308656 0.222466 0.410538 1.215391 0.091505 -0.598355 1.712645 0.854652 0.212126 0.838688 -1.431128 -0.636351 0.104152 -0.304731 -0.957550 0.677344 -0.470982 -0.105952 -0.562705 -0.208171 -0.182232 -0.625101 -0.062275 1.398003 0.014668 1.995983 0.837210 1.170082 -0.822491 -0.788612 1.964015 1.208124 0.965363 0.763838 0.069692 0.416502 1.217492 1.112107 -1.036455 0.336950 -1.091344 -0.065684 0.902338 0.125359 0.109249 0.816282 2.026700 1.263015 -0.003362 -0.191290 -0.937393 0.520799 0.327164 0.074442 -0.300245 2.711106 -0.629105 0.274321 0.847885 0.032719 -0.990264 1.147290
if 0.189879 -0.926740 0.927151 -1.281090 0.138817 0.984602 0.133565 0.579665 0.014115 1.448963 -0.472003 0.559550 1.664906 0.664739 -0.511305 0.705416 0.323048 0.881801 0.124788 -0.361721 0.604403 0.606335 -1.229822 0.008054 0.424413 1.802053 -1.842798 2.384792 2.062627 2.255209 -0.734616 0.235352 -0.861852 -0.406282 -1.056132 -2.897031 1.023690 -2.564546 -0.993073 -2.006926 1.756878 -0.132185 1.474269 -0.013869 0.434915 -1.278060 -1.054350 -0.586586 0.067604 -1.077507 0.971060 -0.805196 -0.570049 0.042177 -1.635939 0.689876 -0.460560 -1.696684 -0.396206 0.203487 -0.559781 0.676255 0.703443 -2.117201 1.873830 -1.145808 1.136706 -0.182008 2.393677 -1.374214 -1.025559 -0.186220 -0.242853 0.495084 -0.516555 0.608633 -0.631514 1.097191 -0.617761 -1.226568 -0.088483 -0.182142 0.554194 1.332592 0.500903 -0.505355 -0.736092 1.254123 -0.806697 1.651939 0.361368 -0.129145 -0.832933 0.844071 -0.733138 -1.945550 -0.307648 -0.373748 -2.559634 -1.118726 1.803014 1.580653 -0.435341 -0.720871 1.167679 0.196835 -0.952778 -0.250533 -0.621794 2.768040 1.533152 -0.471135 0.084483 -1.325839 0.062609 1.075294 -1.063358 -0.278670 -0.439634 -1.196261 1.409685 1.211637 -0.511567 0.712431 0.169992 -0.149652 -0.629906 0.166546
there -0.233084 -0.394795 -0.739064 -0.357612 0.514627 1.911179 0.852201 0.195468 0.902246 2.364135 0.812325 -0.813803 -0.242356 0.236197 0.260233 1.146092 -0.082909 0.005404 0.954415 -1.719722 1.734394 -1.828210 0.934476 -0.209393 0.812283 -1.779848 -0.746063 0.487270 -0.039201 1.532668 0.801839 -0.842875 -0.173112 -0.560929 0.048060 1.312753 1.658246 1.543393 -1.517786 -1.843197 -0.582441 -1.196730 1.721051 -2.438230 0.460232 -1.005872 0.501990 0.777000 1.753183 -1.674370 -0.634049 -0.734941 0.693997 0.431497 -0.276670 -2.220305 -1.223091 2.506228 1.469596 -0.051398 -1.220249 1.020924 0.557226 0.502049 1.385432 -0.366010 0.683576 1.215047 0.201980 0.814064 -0.556217 0.600504 -1.350509 -0.436098 -1.009895 -0.286012 1.459514 -0.986235 -0.310908 -1.130170 0.317207 -0.787210 2.334737 0.673691 -0.014398 -0.894893 -0.733937 -0.630381 -1.180671 -2.337739 -0.216259 -0.715810 -0.834565 -0.287970 1.239278 -0.373032 -0.944735 -0.277432 0.381359 1.137511 2.175688 -1.053190 0.609360 -0.344475 0.889944 1.038570 -0.870080 -0.163063 1.406291 1.030696 -0.350543 -0.082480 -1.050065 -0.414076 0.704173 0.507940 1.455835 -0.609878 0.433850 -0.834617 2.302906 0.442863 -0.076728 1.104506 -0.701852 -0.495496 -0.982294 0.110361
when 0.129303 0.237576 -1.125981 -0.102704 0.689915 0.035028 -0.075675 0.498418 -0.640555 -0.160369 0.245954 0.001873 -0.303646 0.180097 0.775589 -0.055390 -0.413647 -1.578589 0.206620 0.801086 -1.194457 0.217847 2.211806 -0.677731 -0.760982 -0.409336 -0.801242 0.589607 -0.228257 1.744940 0.921968 0.455561 -0.319456 0.018625 0.362691 -1.520307 -0.367132 -0.739415 -1.101358 -1.009159 0.418592 -0.761209 0.871351 0.979364 0.500232 0.254928 -1.280801 -0.064297 0.417278 1.100106 1.062948 0.786338 0.326937 -1.181287 0.916643 -0.626954 -1.041769 -1.015196 -0.402458 -1.765492 -0.207723 -1.645265 -2.020566 1.054379 1.438465 -0.471579 0.473782 0.798817 0.802208 0.100488 0.024216 0.221970 -1.466037 0.546377 1.097781 0.836141 -1.022744 1.774736 1.205930 -0.767559 -0.209279 0.787869 0.513128 -0.565424 0.526896 -0.535058 -0.656028 0.519867 -1.727982 1.835994 2.955807 1.452536 0.847139 2.038030 -0.335769 -1.283516 0.474183 -1.526372 0.440829 -0.492394 0.041049 -1.228449 0.603186 -0.294409 1.360349 1.202940 -0.763181 0.413673 1.055845 0.919355 0.050323 0.264554 0.528242 0.302180 0.018497 -0.176126 0.802473 -0.032723 -0.799601 0.900918 -0.796081 -0.115364 0.526585 -0.601200 2.212048 0.698223 -0.926595 0.043934
an -0.618288 1.160160 -0.334605 1.123012 1.261443 0.585289 0.063408 -0.159999 -0.525686 2.319932 -0.277181 -0.169670 -1.544704 0.916041 -0.203804 -2.210229 -0.308642 -0.486605 -0.976697 1.358304 -1.056579 0.872333 2.042386 0.748761 -0.295571 -0.673996 -0.855566 0.142065 -0.266223 -1.261736 -0.976119 -0.048575 -2.531091 0.924321 -0.480200 -0.391164 1.029344 -0.060884 0.290621 -0.355852 0.780270 -1.245532 -0.416534 0.414925 -0.872144 0.862084 -1.399078 0.299567 -0.382503 -1.072718 -0.549688 0.943435 -0.731408 0.451609 0.654059 0.060418 1.567087 0.902560 0.101999 -2.206140 -1.919352 0.818125 -1.299737 2.336912 -0.337384 -0.800874 -0.076529 -1.814451 -0.656737 -0.904076 0.809936 0.449938 -0.788647 -0.115293 -1.285827 -0.401073 -1.716103 0.065290 -0.068163 -0.700566 -0.829316 -0.247644 1.519981 -0.788923 -0.995716 0.913041 1.323162 -0.565176 0.214638 0.562147 -0.238924 -0.496046 -1.080605 2.875780 -0.131941 -0.360012 0.370865 0.398619 -0.195954 0.813051 -0.877453 0.719734 0.614243 0.944556 -1.543746 1.035811 -0.695777 -0.729188 -0.563734 0.732096 -0.990786 0.023894 0.572409 0.024024 1.938845 -0.889893 0.695775 -2.420369 -0.465261 -0.568515 2.151754 2.856619 -0.402374 0.241762 -1.073124 -0.253334 -1.019306 -1.822865
no -0.359140 0.833661 0.723838 0.390857 -0.321099 0.549676 -1.457922 0.273042 -0.946926 -1.661722 1.075308 0.561784 -0.011776 1.200255 -0.054956 0.094123 1.924081 -1.216983 0.790496 0.321117 -0.902206 -1.011331 1.524109 1.614973 1.236977 0.193606 0.547405 0.875146 0.626714 -0.837049 -0.014280 -0.919746 -0.211189 0.277858 0.369411 -0.610426 -0.130605 1.648005 0.889801 0.728375 -2.248362 0.057461 0.098381 1.680593 -2.104986 0.130218 -0.960264 0.362999 -0.537344 -0.746806 0.040326 -0.179789 -0.224579 0.759653 0.145460 0.970366 1.786785 -1.157987 -0.740776 0.434126 -0.779975 0.117860 0.663528 0.701214 -1.677473 2.133640 0.014392 0.976937 -0.063991 0.109841 -0.908960 2.077447 -0.490916 2.592135 -0.982805 2.200845 -1.202048 -1.114122 1.313983 -0.023883 -0.815543 0.504970 -0.482969 -1.034549 0.817800 -1.015843 -2.054601 -1.032230 -0.574819 2.282774 3.264186 -0.364884 -1.682532 -0.588045 3.744571 -0.145819 -0.054481 0.921685 -0.829264 -0.132929 1.230935 0.177333 -0.582236 1.300540 -1.319650 0.352082 -2.007187 0.014141 -0.785850 -0.628334 -0.328129 -0.372844 -2.596344 -1.292852 -0.611899 0.621261 0.364435 -1.795774 -1.872703 -0.430208 0.788145 2.059575 -1.296665 1.017563 1.508221 0.154660 -0.900836 1.192809
who 0.572844 0.674784 -0.800241 -0.149999 0.236250 -0.232084 -1.577887 0.113481 -0.776891 0.471103 0.756691 -1.923162 0.030318 0.088878 -0.219657 -0.665568 -2.277194 -0.956018 1.142413 -0.505114 -1.486229 1.298843 -0.626373 0.195908 -0.216439 0.797622 -1.278906 1.574697 -2.256571 1.365439 1.048085 0.354526 -0.703706 1.934419 -0.455945 -1.381564 -0.537393 0.866527 -0.196142 -1.464275 -0.237561 0.368105 2.179950 0.080827 -1.851653 -0.299449 -1.243355 -0.383308 0.382434 -2.325316 0.941114 -1.904075 -1.295217 -0.295892 1.370101 0.348349 -0.879489 0.562443 1.247777 -1.402381 1.020798 -0.003278 0.164619 0.512322 0.403326 0.404619 -0.380436 -0.534793 0.982761 -0.149717 -2.874898 0.568718 3.067309 0.406727 -1.328463 2.032733 0.418781 -0.565958 0.075601 -0.308097 0.184629 1.782340 0.740179 -0.235337 0.414933 -2.233673 1.428810 0.118898 -1.132344 0.600027 -0.717855 -1.073654 -0.904703 -0.463898 0.458817 -2.416767 0.305314 0.170406 -0.427767 1.032346 -0.570253 0.687890 -0.282859 0.013417 -0.375940 1.051105 2.093539 -0.496720 2.420982 1.431229 -0.158524 -0.047470 -1.184148 -0.897805 1.375140 0.441840 1.693674 -0.799772 1.904667 -0.901177 -1.605288 0.322892 -1.120437 -0.021253 0.169826 1.225441 -0.593889 -0.381633
their -0.588841 -0.968707 -0.041924 0.012470 -0.749696 -0.834694 -0.537773 -2.394480 0.472643 0.189587 -1.259530 1.092708 0.430510 0.234401 -1.545047 1.183182 1.984439 1.638920 -1.113034 1.505702 0.162580 1.382123 0.876555 -0.057653 0.622170 1.050712 0.093880 -1.714097 -1.413635 -0.147166 -1.068752 0.595079 1.060941 1.195207 -1.037155 -1.585129 1.161382 0.384797 -1.680311 -0.698663 0.731215 -2.149260 0.431815 -0.091186 -0.330939 0.769549 0.604307 0.288768 -0.831719 -0.163681 -0.924011 -0.346911 0.438146 -1.476268 1.652057 0.579881 0.482026 1.610234 1.637504 -1.174576 -1.438982 -0.003040 -0.581952 -0.214386 -0.070466 -2.437498 -0.166834 -0.736260 -1.624002 1.896767 0.824325 1.740195 0.054979 0.045644 -1.408002 -0.723245 -0.797602 -0.021654 0.109726 0.312899 1.778188 1.042560 0.189886 -0.736876 -1.055314 0.890347 -1.303689 0.194121 0.604066 1.308901 0.395740 -0.883012 0.529465 1.717177 -0.882687 0.343689 0.118747 0.545516 -0.417026 0.396680 -0.001380 -0.654511 0.640794 0.525324 -0.392562 0.640975 0.322766 -0.675463 0.882241 -0.791604 1.102799 -0.916376 -1.964296 -0.685711 -0.313219 0.176750 -1.436289 -0.624445 -0.076652 0.706941 -0.052757 -0.348083 -0.723918 1.019215 0.624556 0.169499 0.577761 -0.764853
what -0.210009 -0.372944 -0.007641 0.783994 0.075163 0.160821 1.250972 -1.251192 1.535120 1.005657 0.572616 -0.054863 1.303915 0.931967 -0.790180 1.331217 -1.527642 -2.243488 -1.704156 -0.702928 0.933204 -0.431286 0.073184 0.064351 2.666224 -1.042552 -1.090941 -1.139436 -1.572613 0.274119 2.293765 0.867860 -0.851330 -0.158196 1.846710 -0.140898 0.438922 2.325694 -0.204687 0.416840 -0.533444 0.238401 -0.957536 1.263349 -1.105337 -0.390480 -0.216744 1.580514 0.196945 -0.907500 1.082816 -1.742967 -0.087068 0.601380 1.220587 -0.391935 -1.071763 0.666214 0.020132 0.209322 -0.823064 -1.575100 -1.537636 0.586845 1.050736 0.548699 -0.102520 -0.420972 -0.490014 -1.303813 -2.052330 -0.500481 1.033567 1.923040 0.476163 0.523405 0.653708 -0.517498 0.256340 0.576543 -0.603995 2.097720 1.750634 0.429378 -0.077580 0.285869 1.529901 0.616581 0.519817 0.222111 0.410909 1.291198 -1.818329 1.922515 -1.120829 -2.580891 -0.504257 -1.601078 0.982455 -0.218956 -0.653437 0.053203 -0.557996 -0.409243 1.459264 0.452643 -0.152657 -0.100140 0.526268 0.481932 -0.226872 -0.518580 -0.403674 0.542097 -1.538902 0.244757 0.730786 -0.868071 -3.030313 0.814528 2.184106 0.208117 -1.090318 -0.827101 0.339898 1.474748 0.789673 -0.319168
will 0.682300 1.174489 1.225362 -0.314510 -0.800291 -1.233120 1.019770 -0.517820 -1.132048 -0.852691 0.325590 -0.111168 0.332989 1.403502 1.155380 -0.425316 -1.214892 -0.612623 0.578102 0.349669 0.794745 0.490854 -0.171615 1.120363 -0.450616 -0.036893 1.224748 1.217432 0.722969 0.181670 2.131958 2.424535 1.191353 0.212605 1.137839 1.296623 -0.224317 0.087283 -0.451178 -1.354625 0.163789 0.080127 -0.402189 -0.338822 1.924280 -0.033664 0.050662 -0.495493 -2.563004 -0.550260 1.318786 -1.970897 -0.009293 0.096288 0.467200 -0.845668 -0.738466 -0.643771 1.919918 -0.698957 0.475325 1.029019 -0.491766 -1.943052 0.357549 -0.007948 0.097683 0.350639 0.727403 -0.084571 1.572839 -0.997134 -0.161972 0.664271 0.244850 0.114188 1.178509 2.113979 0.867946 -1.165431 -0.535643 1.066118 -0.361114 0.093233 1.017536 0.534865 -0.426822 1.459980 -0.043164 0.625064 1.947605 -0.924390 0.054557 1.388381 1.283130 0.536421 4.220197 1.682453 -1.268186 -0.265118 -0.466731 -0.025402 0.217117 -0.747511 1.492066 -0.309984 -1.258821 -0.305059 0.006305 -1.576940 -0.223798 -0.797775 -1.136912 -2.685634 1.282990 0.760924 0.167579 -1.662488 0.195187 0.452151 -0.524693 0.542944 -1.285820 0.628799 -1.564556 1.253256 -2.219288 -0.735445
them -1.358711 0.042307 0.840494 -0.438426 -0.723281 1.414373 1.162181 0.281917 -0.931765 1.120444 -0.574108 -0.001211 1.053208 0.977550 -0.355466 0.933494 -0.237215 0.496057 1.524010 0.595972 1.194111 -1.650449 1.841762 -0.121329 0.269134 0.150379 1.864726 0.817899 -0.564368 -0.719667 -0.031475 1.144755 1.275594 0.990410 -0.449797 0.911586 1.609263 -1.276991 0.348451 -0.673146 -0.721960 0.765743 0.177931 -0.173049 1.063779 0.905101 1.194394 -2.109995 0.420364 -0.484154 1.096503 0.011361 -1.030029 0.120378 0.548649 -0.493342 1.054984 0.121700 0.654341 0.861368 -0.699342 -0.975044 -0.517894 0.800909 0.686514 -0.273669 0.008494 -0.676251 0.243083 -1.073928 1.173354 -1.035578 1.966128 2.580729 -0.315310 1.303697 -1.080672 -0.439268 -0.865378 -0.640482 0.326075 -1.015888 2.555042 -1.816303 -0.577932 1.391339 -0.302445 0.490551 -2.149461 -0.124986 -0.471453 -1.254622 0.773968 0.520970 -0.945564 0.477118 -0.317623 -0.659089 0.889468 -0.272910 0.659853 -0.514130 -0.228609 -0.597061 -2.656570 -0.449515 -0.164988 -0.127804 -0.664844 1.238602 0.274725 0.199343 -0.298722 1.956163 1.624889 1.442703 -1.053769 0.436004 -0.583965 0.458312 1.217044 -0.951969 1.152224 -1.739619 -0.327774 0.919683 -2.259054 -0.686001
we 1.282397 0.144531 -0.427053 2.047488 1.515924 -0.901180 0.682434 -0.083457 -0.197651 0.443254 1.508156 0.449383 0.373932 0.425888 0.978025 -0.817448 -0.412627 -0.306576 0.813997 1.221438 0.264272 -0.023808 -0.379030 -1.808259 -1.735162 -0.442848 1.734960 -1.099485 0.313931 1.152592 -0.193197 -0.241935 -0.482935 -1.696258 1.990020 -0.802157 0.938541 1.729529 0.227088 -1.444209 -1.995505 -0.214435 0.689989 1.010605 0.495120 0.310623 0.800572 0.006154 0.983427 -0.083353 1.018963 -2.457837 3.597970 -0.525621 0.079508 0.053417 1.962828 0.107405 -0.354839 2.051295 -0.409893 1.638121 0.325388 1.426472 -1.459157 -3.314136 0.353978 -0.353759 0.032219 0.150584 -0.482587 1.286806 0.522060 0.983604 -0.638028 0.847115 0.684333 0.015811 -0.141769 0.832829 -1.471547 -1.988371 -0.251485 -1.244562 1.709399 -0.931103 0.428797 1.086002 0.604310 1.221982 -0.937424 -1.747024 0.344480 -0.016559 -0.081719 -0.461305 0.549887 0.474974 -0.356771 -0.453177 0.698263 -1.409891 3.773845 0.032447 -0.196551 -0.716902 0.369461 -1.641228 0.676172 0.639230 -1.316096 -0.502443 0.106091 -0.604661 -2.030449 0.248740 0.379955 -2.787969 1.325984 -1.422785 0.233084 0.250808 -0.288495 0.980538 -0.722329 0.344403 -1.749961 -0.103661
been -0.204649 1.268125 -1.928719 -1.303403 1.180816 0.969480 1.872691 0.769235 -2.097062 -1.438823 -1.372737 -0.420143 3.413064 0.525241 0.460159 1.774464 -1.806297 -1.385699 -0.879831 -1.266341 0.690714 -0.461725 0.782816 0.523853 1.583313 2.161322 -0.538734 -0.640040 0.775120 0.304815 0.814230 0.146323 0.164729 0.771290 1.013498 1.049784 0.999392 -0.950165 0.711628 -0.612484 2.161783 -1.416749 1.372208 -0.037476 0.981180 0.921941 1.285675 -1.488701 -0.528815 -0.130005 1.030400 1.235543 -0.503520 -2.283937 -0.313973 -0.280734 2.569765 2.095779 1.019548 -0.060209 0.440565 -0.101445 1.748653 0.364181 -0.322285 1.441868 0.091865 0.396869 0.889833 1.573925 0.030080 0.286120 1.172939 0.609614 0.281691 0.785957 -1.169168 -0.258101 -1.325799 1.211322 0.152793 1.165479 -0.463348 -0.495761 -0.475909 -1.215320 -0.391287 0.473125 -0.323955 -0.333515 1.200457 0.213799 -0.913634 -0.922408 -0.999568 -0.437204 -0.715193 0.078716 -0.009657 0.173179 0.785785 1.005804 0.937976 -0.116400 -2.156225 -1.023231 -0.489471 0.023778 0.415141 0.994349 -1.779073 1.560960 1.076527 1.584464 -0.418317 -2.042384 -1.770933 -0.492532 -1.278872 -1.154684 -2.311045 -1.241529 -1.895675 -0.476432 -2.611351 0.301574 0.659678 -0.258691
would -1.239319 2.371048 1.469325 -1.375710 -2.909499 0.014967 2.794508 -0.358269 -1.135288 -1.244772 0.745320 -1.296011 0.203992 -0.325780 -0.544414 0.051036 -0.655613 -0.728855 1.570722 -0.774099 -0.820185 -0.121629 -1.769406 0.736545 0.126188 -1.572115 -0.059935 0.822865 -0.818940 -2.743124 -0.533553 -0.088222 -2.665570 0.368437 -0.611340 -0.167587 -0.681854 -0.778668 -2.224204 0.258478 2.087381 2.405981 0.137508 1.641974 -0.921701 -0.649911 -2.070142 -0.316413 0.289873 -0.542211 1.733239 0.662446 -0.186992 0.143676 -0.561207 -0.027029 0.504449 -1.520834 0.564716 2.514469 -0.463487 0.358560 -1.446749 1.188807 -0.075420 0.628144 -0.665641 1.076625 -0.218176 -0.065706 2.298456 0.797582 2.101827 -1.381418 -0.102364 1.111512 0.842830 0.904177 -0.576782 0.061520 -1.570657 -0.152568 0.326166 0.225122 1.186523 -0.334932 0.044410 2.040528 -0.302247 1.204299 -0.722863 -0.354351 0.600834 1.605223 0.658414 -0.529864 0.982220 1.334240 -1.701325 -1.643495 0.015805 0.198026 -0.140273 -0.099767 -0.702284 -0.351230 -1.116649 0.256299 -0.597792 -0.199073 -0.067665 -1.297733 -1.222324 -0.383706 -0.265907 -0.947106 0.811038 -1.701186 0.135430 0.136221 0.337981 -0.418460 -1.621799 -0.631388 -0.272136 0.101679 0.199479 -1.353233
chapter -0.166310 1.902897 -0.831941 0.919586 -0.402570 -0.717922 1.640056 -0.685155 -2.112989 -0.679198 -0.004832 -1.411789 -0.946918 -0.409006 -1.105610 0.358296 -0.067586 0.808828 0.100402 -0.759187 -1.011735 -0.109773 -0.232012 0.226619 -2.281844 0.530182 0.017647 -1.342299 -1.026655 0.747948 1.207977 -0.116747 1.679169 0.983782 1.122132 -0.612615 1.744850 -0.663706 -2.194713 1.001252 -1.995298 1.334834 0.697155 0.088120 0.715039 0.269791 0.058995 0.103651 -0.902346 0.688887 0.307422 0.273431 -0.016122 2.235008 -0.978939 0.327168 0.245419 1.394452 -0.346766 1.658232 0.299036 -1.018309 -0.113002 1.815402 1.658775 1.153356 -1.387561 0.852493 0.454701 -0.032799 0.966121 -0.163900 -0.850549 1.129226 -0.227960 0.202914 -0.219781 0.684026 -0.208278 -0.129567 -0.030615 2.089531 1.866917 0.015499 1.765313 1.003686 0.313864 0.453307 -1.289373 0.261904 3.335829 -0.254272 -2.033623 -0.288191 1.066601 -0.041548 -1.134995 -0.191108 0.534869 1.270604 -0.742747 1.214725 -0.165482 1.114419 0.410824 0.185939 -1.372109 -0.895049 -0.152350 -1.345270 -1.238027 -0.047590 -0.191311 -0.505157 1.611477 -1.497410 -0.652984 -0.709838 -2.254892 0.818042 0.915156 0.950741 -0.716718 0.272269 -1.558007 -0.378725 0.130485 -0.272102
out 0.044236 2.520138 -0.043267 -0.810874 0.423595 0.545669 1.325767 -0.888927 1.181790 0.560995 1.933580 0.515451 0.138437 0.196847 0.229273 2.528090 -1.697320 -0.302671 0.724451 1.223182 -0.608456 0.462310 -1.996831 0.153496 0.073265 1.323973 0.124007 0.455828 0.720604 -1.590132 -1.919521 -0.086085 0.941549 -1.089658 1.458534 -1.257149 -1.648488 -0.543543 1.556841 -0.086345 -0.478558 -0.000475 -0.041939 -0.231709 1.909589 -0.157250 -0.711843 0.080607 -1.342590 1.722596 -1.236205 0.551272 0.422507 0.272996 0.861745 -0.009072 -0.205201 2.514216 -0.737404 0.418496 -1.616571 -1.421101 0.911344 1.077560 1.568551 -0.617971 0.652135 -1.090963 0.914747 -1.276414 -0.187727 -0.261194 0.659342 -1.145154 0.610599 0.094179 1.337461 0.773046 1.941679 -0.905724 -1.560851 -0.039917 0.607185 0.014113 -0.805528 0.638667 -1.373363 -0.981804 0.922752 0.543107 -0.736160 -0.754665 -0.541067 -0.941925 -0.961992 0.528558 -0.690789 0.417537 1.161929 1.195166 0.586383 0.543105 -0.100179 0.105409 -1.793364 -0.555811 1.902883 1.962439 0.227806 -1.573793 1.613154 -2.088046 1.897391 -0.188338 0.542718 1.958684 -2.108202 -1.168653 -0.973017 0.978297 -1.290547 -0.919359 -0.283563 -1.096482 -0.333061 -0.224317 0.081843 -0.751841
more 0.715345 -0.243793 0.582739 0.324957 0.385538 1.214608 -0.291238 1.196639 -1.674224 -0.385957 0.594695 -1.001161 -3.084464 0.464132 -0.465677 1.497872 0.268586 -0.400099 -0.083188 -0.479346 0.642751 1.391309 0.855117 -1.058082 0.333311 0.110236 -0.325694 -0.815018 -0.046183 0.032927 0.241822 -1.916245 -1.758856 1.569736 0.685606 -0.115513 0.722021 -0.600289 0.363232 0.246220 -0.228214 -1.452536 -0.811535 0.501392 1.405488 1.248130 -0.066627 -0.842690 -0.587475 0.112465 -2.098642 -0.980069 1.149480 -0.700045 1.696546 2.819443 1.210809 -0.310607 0.827956 -2.288870 0.740104 1.347964 0.187945 -0.409343 1.989826 -0.490920 -1.504384 1.169416 -0.584816 0.856635 1.108696 0.964140 1.364470 -0.229323 -0.334410 2.118580 -0.628471 0.394636 -0.914582 -0.306654 0.226651 0.071196 -1.339539 0.378045 0.384219 0.021795 -0.581722 1.131938 1.191524 -1.187180 -1.165670 1.834612 -1.235155 1.925970 0.351656 -0.962815 0.129115 -1.536327 0.939846 0.028704 0.572139 -0.385440 -0.066133 0.295732 -1.129525 -1.821431 -0.816294 0.810625 2.286812 -1.228300 1.833914 0.017825 2.430328 0.859370 -1.907010 -2.648100 2.448110 1.201376 0.062931 -0.516311 0.922876 -0.406049 -1.068926 -2.352261 -0.452103 0.559319 1.159702 -0.832976
then -0.377191 0.279025 0.365207 -1.053078 -1.862789 0.146004 1.047516 0.257759 1.112321 1.040591 -0.011878 -1.068776 -0.525545 1.420467 -0.897224 2.204831 -0.343055 0.251798 -1.558250 -0.942985 0.026482 1.473114 0.139909 -0.631256 1.579042 1.887285 -0.497489 0.802646 0.412372 1.169226 -0.392227 -0.315860 -0.634871 0.969912 -0.311872 -0.793609 0.303954 -0.043501 0.457321 -1.254852 -0.977087 -1.071434 -0.610050 -0.174858 0.229386 -0.838737 0.726764 -0.606404 1.105774 1.121044 0.541146 -0.998330 -0.761647 -0.887498 1.708660 0.098843 -1.577366 -1.120095 -0.920354 1.047521 -0.148595 -1.928519 -2.876742 1.383056 1.354038 -0.923685 -0.251268 1.155192 1.040587 0.835419 1.094509 0.326336 -0.061600 1.868764 -1.968386 1.659045 1.415782 0.895564 -0.413444 -0.874787 0.549605 -0.569284 0.997844 0.820156 0.504168 0.308544 0.151066 -0.342349 -1.354909 0.412199 0.828869 0.386828 0.612673 0.420741 1.470476 -0.246236 -1.660564 -0.532656 0.392494 -1.063904 0.508371 -0.553585 1.560171 0.556500 2.454221 -0.588155 -0.909856 -0.810455 -0.832198 -0.817669 -2.058976 1.058139 1.511942 0.656349 -0.713303 0.672071 -0.428604 -0.249511 1.104369 0.180752 0.936589 0.271789 0.261185 -0.327548 -0.300852 -1.063187 -0.173628 -0.375683
up 0.163920 -0.048670 -0.515216 0.687461 -0.323885 1.083420 -1.806567 0.167369 1.401036 -0.020724 0.134480 1.879380 -0.010703 0.646279 0.150131 -0.404253 0.438045 0.327286 -1.285589 -1.265191 -0.031163 -0.294286 -0.261473 0.198822 0.657290 0.856079 -0.589129 0.957336 -1.702849 -0.131159 -0.589336 0.179646 -0.117840 0.941654 -0.027808 0.298168 0.673122 -0.243623 0.938533 -2.631641 -1.530671 0.375128 0.266998 2.027832 2.437951 -0.000359 -0.762713 -2.344572 0.769883 0.649779 1.296730 -0.776852 1.848055 0.410170 0.876873 2.401106 0.409055 0.143122 -2.037262 -0.688673 -1.464288 -0.956974 0.794630 0.906564 -0.447129 0.808354 1.169064 -0.736885 0.590543 -1.483341 -1.814544 1.902505 -0.299706 1.180183 -0.501189 0.570405 -0.865963 0.042979 2.086899 1.146958 -1.839459 1.173407 0.550462 -0.234457 -2.389733 -0.260325 -0.043866 0.342251 -0.749371 1.148847 0.208423 -0.932967 0.601374 0.752042 -0.181861 2.046003 -0.151283 1.778917 -0.089180 0.581030 1.474431 -0.169802 1.896479 -0.787941 0.316195 0.713375 -1.351332 0.799814 1.165676 -1.199049 -2.564493 0.681573 -0.076767 -0.169195 1.254869 0.135382 -1.453017 0.647701 0.171784 0.931131 -0.013891 0.858796 -0.097824 -0.365593 2.049670 0.664101 -0.053182 -0.406919
has 2.070045 -0.388562 1.768110 0.748318 -0.815173 0.085617 0.622798 -0.843177 0.100823 1.621665 1.126103 -0.896139 2.178246 -1.927718 -2.208708 0.467216 -0.212616 -0.121839 -1.484856 -1.919819 1.853069 -0.313084 -0.325738 -1.236113 -0.674837 -0.502375 1.193679 -0.198676 0.559823 -0.196665 -0.215945 0.314756 -0.848622 -2.590011 2.661929 0.913362 0.391606 0.001020 1.471051 -0.216442 0.151015 0.147661 1.631111 -1.679695 0.031988 -0.710237 -0.802774 -1.433862 0.186964 -0.281002 1.177415 -0.479879 0.601656 -1.218188 0.223578 -0.505287 -0.591952 -1.660210 0.086749 -0.797197 1.585359 0.591532 0.195755 1.732783 -1.880422 0.633290 0.125747 1.811748 -0.751379 -0.646686 0.275948 0.637377 1.690782 1.708463 0.690142 0.361358 -1.477083 1.006208 -0.512338 -0.670393 -0.768849 0.517644 -0.111155 0.518647 1.117214 -1.546997 -1.594726 -0.344648 -0.411365 -0.669495 -0.507136 0.327876 0.362669 2.065525 0.315549 -0.463416 -0.134209 2.121947 -2.189998 -0.264602 -0.955557 0.628414 0.142052 -2.060544 -0.574967 0.222257 0.323661 -0.183078 0.821777 0.994549 0.333679 -0.787020 0.153128 -0.310712 0.527268 2.904445 -1.297995 -1.760255 -1.013737 -0.230418 -0.266237 -0.100132 0.289330 2.251857 -1.937265 0.035924 0.235057 1.148421
do -0.265610 -0.629221 -0.710368 2.863900 1.924594 0.669743 0.192327 0.537990 -0.073741 1.363822 -0.351302 0.432899 0.732508 -0.946178 0.216483 0.295266 0.359978 -0.682588 -0.266684 0.681810 0.354380 0.034757 1.159418 -0.476983 1.421334 -0.335838 0.463861 -0.784263 1.613212 -0.811731 -0.135899 0.616392 -0.829016 1.488526 1.259226 0.386001 0.803299 -1.645713 -0.042115 2.000219 0.778283 1.131684 0.663169 0.067239 2.352045 0.018317 -0.966750 -0.792511 0.511445 0.904522 0.440435 -2.710144 1.598303 -0.026054 -1.226149 -0.642691 0.609623 0.021929 -0.759264 0.207059 -0.807637 -1.318271 0.848119 -2.072963 0.335727 -0.517719 -1.366503 -0.190350 0.665200 -1.702951 -0.612631 0.578985 1.489094 1.090972 1.086309 0.817513 -1.751719 -0.270597 0.213410 -0.615699 0.530447 -0.830978 1.171038 1.549896 1.056916 -0.591291 1.655968 -0.177673 0.555471 0.997210 1.339079 -0.379704 2.077159 -0.498955 -0.279078 -0.670782 0.721377 0.863324 -1.779651 0.011126 0.334653 1.035956 -1.928426 0.068699 0.106414 -0.196691 -1.038928 -0.914330 -2.035855 0.470553 -1.057502 0.990867 0.763009 -0.393752 -0.915139 -0.016221 0.670439 -2.126159 -1.222510 -0.048338 0.805761 -1.100042 0.178575 -0.123975 -0.914698 -0.277560 -0.268697 1.441289
into -0.600257 1.492222 -0.023540 -0.038456 1.957186 -0.114890 1.257289 -0.972299 -0.590160 -2.382347 -1.445354 -0.843903 -0.197562 -1.208620 1.423065 1.592586 -2.393719 -1.785850 0.924768 1.244112 0.116522 0.371970 0.210946 -1.594243 0.359419 -0.359905 -1.276170 0.606784 0.545683 -2.439868 -0.331045 -0.976241 -1.575309 -0.179301 0.034443 -0.421426 0.493378 0.957644 -1.047258 -0.605626 0.488758 0.242478 -1.292183 -0.121233 0.954051 -0.136480 0.003566 0.189204 0.322590 1.865606 2.815969 -2.142573 2.375208 -1.987635 -1.899203 0.557292 1.169574 -0.403825 1.653071 -1.437813 -1.464716 -0.734623 0.153942 2.057547 -0.646089 0.096729 -0.587191 0.080504 0.294452 -0.717992 0.460630 0.021822 0.649033 -0.232999 -1.417295 -0.815263 0.970785 1.352508 -0.678171 -0.950561 -0.173467 1.706129 -0.737498 0.336953 0.152578 -1.678721 -0.920566 -0.209257 0.521921 -0.593322 1.488216 -1.045829 0.833332 0.318745 -0.243774 1.061162 -0.037762 -2.212205 -0.765081 0.500173 1.962103 0.556713 -0.021233 1.554861 -0.262247 1.098551 0.983697 0.756496 1.764397 1.552261 0.096494 -0.540329 2.533860 -0.336421 0.609368 1.561884 -1.999981 1.979796 -0.686039 -1.495203 0.310958 -1.398181 0.797062 -0.210414 1.853546 0.008071 0.452011 -1.197385
very 1.554026 -1.286584 -0.127540 1.150677 1.429242 -0.424412 -0.796385 0.443058 -0.968104 -0.277052 -0.566434 -0.781984 1.344935 -1.287785 -1.347358 1.150010 -0.221693 -0.446846 0.182494 0.598138 1.373070 -0.604501 -0.814008 -1.544042 1.309170 -0.725143 0.372604 1.194240 -0.305223 -0.886835 -0.320903 -1.437274 -1.327541 -1.431622 1.166959 -1.040328 -0.197277 1.562985 -2.160239 -2.899536 0.597382 -0.040970 1.266214 0.708045 1.307014 0.695558 -0.819244 -0.367254 -0.670604 -1.017994 0.287280 0.504779 1.036481 -1.184580 0.357792 -0.390344 -0.102341 1.629144 0.311942 -2.587505 0.800909 0.399930 1.748391 -0.613229 -1.008355 1.428242 1.224640 1.741771 -1.777851 1.541327 1.115719 -0.252130 -0.985732 0.522944 -0.815850 -0.648371 1.507781 0.732385 0.703722 1.586214 -1.733844 1.839373 -0.430499 -0.266855 -1.158858 -0.144014 1.012484 0.656818 -0.063610 -0.584016 -0.242248 0.130805 -1.320212 0.077107 0.766366 -0.678438 -0.868921 0.845941 -0.080816 -0.289562 -0.368745 -0.472168 -0.236551 0.114892 1.222641 1.444552 -0.279687 -1.208899 0.085098 -0.454701 -0.062516 0.513533 -1.548655 2.673190 1.444123 0.348391 -0.214325 0.257499 -3.022888 -1.206664 1.222916 0.310426 -0.537711 -1.057891 -1.422911 -0.570742 1.016355 -1.368713
some 1.896336 1.870903 -0.373429 0.938676 -0.435282 1.347932 -1.505016 0.839315 1.604197 -0.103004 3.244951 1.391666 -0.662818 -0.583218 0.929455 2.775752 0.076593 -0.528057 1.488352 0.218300 -1.055161 -1.603352 1.859055 0.357371 -0.168975 0.960012 -0.485287 -0.907834 0.545046 -1.926905 0.508522 -0.720137 -1.902746 1.662766 0.027576 0.747206 0.830421 -1.374042 0.218228 -0.108638 0.191425 -0.166472 1.243585 0.758699 1.429164 -0.716945 -0.308963 -0.559805 -1.849388 -1.315773 0.030465 0.665645 -0.704904 0.917525 0.640452 0.564330 0.186252 1.460026 -0.164183 -0.185319 -1.036621 0.570087 -1.641641 0.312414 -1.013952 0.386676 1.043851 -0.612692 -0.315666 1.177595 0.643532 1.047302 -1.920325 0.530280 0.659124 2.855572 -0.601349 1.141765 -0.477425 0.387607 0.042091 1.845241 0.955983 -0.035998 1.603087 1.060859 1.042844 0.927053 1.997943 1.541652 0.808086 1.338855 -0.073011 0.576745 -0.457477 2.240034 0.733111 0.616329 0.358537 0.854953 -0.196775 -0.276998 1.067442 0.307128 -0.336415 1.574768 0.654886 -1.023786 -0.725631 0.184583 0.613515 -0.695659 -0.240736 -0.353254 1.151295 -2.340183 0.479177 0.203057 -2.350339 0.493384 -0.468622 -0.132985 0.269529 -1.098835 0.275239 -0.741649 -0.824452 -1.399965
any -0.467186 0.253149 0.544745 -1.242071 -0.181761 -0.532006 -1.018110 -0.134941 1.378999 -0.017647 0.677421 0.088482 -0.658543 0.338159 0.969808 1.810071 0.987947 0.853603 0.894977 0.865443 0.020811 -0.615995 -1.603020 2.495694 1.161844 0.671979 0.183520 -0.582135 -0.327222 0.345186 -0.720296 -0.574469 -1.161407 2.419953 0.388393 0.002605 0.848080 1.590738 1.006761 -0.838316 0.599310 -1.492890 -0.656869 -0.880811 -0.785453 0.385007 1.082692 0.160236 1.130807 0.049961 -0.880063 0.368598 0.239374 0.087644 1.666146 -1.181499 1.604252 0.418020 -1.345777 -0.508449 0.066169 -2.645916 0.271570 3.321604 0.052720 -0.455272 0.311134 0.152486 -0.306505 0.520138 -1.358230 1.641172 -0.692604 -1.842754 1.501409 0.268975 -1.055354 0.395281 -0.461938 -0.858030 1.032394 0.652164 -0.084327 0.156837 -0.259014 2.498825 -1.416897 0.246311 0.056757 0.414426 -0.124017 -0.662293 0.036399 1.845589 -1.036952 1.364009 -1.280717 0.679270 -0.977708 -0.790371 0.438563 0.265976 0.492619 1.747175 -1.499985 -0.301401 -0.096878 -1.584139 -0.006232 1.744039 0.431804 -0.687215 -1.623662 -0.331512 0.856780 -0.448856 1.111905 -2.665261 -0.171417 0.227079 -0.140358 1.185109 0.622109 -1.157399 0.809300 1.349337 0.745343 -0.287429
your -0.719757 1.232853 0.747748 -0.131424 0.079839 -0.370129 -1.439742 -0.055236 -0.233105 -0.740507 0.640930 -0.263259 -0.657307 -0.054564 1.967330 -1.550939 -0.860025 -1.030197 -0.168781 1.320056 -0.598997 0.867143 1.177028 1.324372 0.035342 -0.251236 -0.499354 -0.775539 0.771179 -0.822224 -1.809640 -1.583319 0.143900 0.032485 0.344354 1.214634 -0.429693 -0.723361 -2.002198 0.763122 -0.588673 -0.948665 -0.352189 -1.241440 -2.189111 -0.045092 1.557022 0.633507 0.501088 -1.071735 -0.313225 -0.580819 -0.530767 -0.063834 2.076051 -0.362405 -0.403181 0.093343 0.310688 -0.631258 0.735139 -0.827495 0.919180 0.903937 1.050435 -1.266132 0.039262 -2.423906 -0.536214 1.141776 0.811716 1.515655 0.811600 -0.443640 1.094157 2.063541 1.455917 -1.201227 0.446382 -0.493724 2.041344 -0.059201 2.188683 -0.020366 -0.456667 0.123630 -1.145701 0.851541 -0.064398 1.168784 -0.410408 0.298727 -0.523396 0.128408 -0.964416 0.733122 -0.116933 0.727167 -0.811321 0.360460 -1.087076 0.400344 -1.035771 -0.675125 -1.038407 0.134340 -1.185509 -0.719585 -0.367474 -2.133043 0.623382 -1.631852 0.141726 0.066885 0.790157 -1.094976 -1.745180 -0.013623 0.236924 -0.455004 1.328689 1.314762 1.125944 -1.135245 0.244000 0.401227 0.114299 0.666397
its -0.963138 0.832510 -1.412468 0.166358 -0.058846 1.427768 0.683000 -0.726073 1.568294 0.705211 1.013587 1.915682 -0.251689 -0.846213 -0.986798 -1.069753 0.620599 0.056320 -1.214367 1.663014 -0.436905 0.126060 -0.929220 0.437882 0.222503 -0.271505 -1.050358 -2.024987 0.592819 0.128467 -0.845557 1.276715 -2.214524 -0.154619 -0.936017 0.681637 -0.010377 -0.095521 -1.533108 -1.590220 -0.343724 -0.014936 0.060351 1.227808 -0.519910 0.729615 -0.589286 0.428475 -0.414950 -0.936934 2.410624 -0.756380 1.585776 -1.252050 1.052880 -0.011904 1.339719 0.916128 0.270736 -0.475380 -1.117347 0.508649 0.219863 1.179092 0.567712 -0.809304 -0.277599 -0.111282 -1.690308 2.111517 0.096460 1.148969 0.816132 1.031958 0.466894 0.227533 -0.989338 -0.363874 0.139192 -1.566991 0.821648 -0.796162 0.179383 -0.567423 0.428279 0.283083 -0.188698 0.050456 1.969896 2.128027 0.526227 0.376993 0.333075 0.518467 -1.524223 2.127637 -1.447099 -0.446210 -0.829940 0.000896 0.766753 0.980747 1.846752 0.274698 0.507411 -0.744153 0.338682 0.579019 1.715501 -0.690094 0.196339 0.967137 -0.913739 -0.830060 -0.419466 -0.776414 -0.870116 -0.712586 0.739955 0.157675 0.590407 0.043553 -0.929116 1.312098 1.137750 -0.286053 -0.808674 1.581025
than -1.027185 -1.392914 1.625301 -0.501923 0.005699 -0.874238 0.560915 -0.038003 -0.351724 -0.386646 1.399353 -0.848714 0.845403 0.222787 0.243320 -0.735652 -0.132659 1.929834 1.977852 1.728941 -0.257457 -2.226983 -1.003935 1.479800 0.187686 0.690113 0.250084 1.203920 0.624274 -0.498122 -0.070705 -0.273139 -1.577723 0.930803 1.143239 0.127695 -1.643685 -1.595759 0.783669 0.057998 -1.935334 0.503452 -1.696702 -0.531042 -0.660454 -1.039642 0.064907 -0.252475 -1.213828 -0.272450 -0.764953 -0.068769 0.708023 -1.173335 0.977162 -0.925333 -0.037695 0.793184 -0.221240 -1.214656 0.262650 -0.539981 0.459982 -1.712905 -0.729230 -0.403250 -1.110824 -0.050167 -0.730876 -2.452510 -0.786135 0.163292 -0.856300 -0.732654 0.385324 1.826077 1.318693 1.030250 -1.219896 -2.293584 -0.185480 0.713524 0.779253 -0.237390 0.092145 -0.375647 -0.632794 0.918903 0.011498 -0.716030 -0.239651 1.594081 -0.432922 -0.133653 1.634805 2.167270 0.785901 1.435226 -1.182190 0.822133 0.789824 -0.232363 0.176384 -0.551383 1.167808 2.000241 0.135146 1.179290 1.103969 2.384686 -0.523363 0.783458 -1.451335 -0.546419 1.373020 1.223602 -1.779908 0.188896 -2.823772 0.594749 -0.077823 0.389282 -0.786770 -0.465231 0.474474 -0.016880 0.994456 -0.777761
man 1.092606 0.781340 -1.872785 -0.684292 -0.562057 -0.833666 0.703249 -0.310921 -4.084910 0.583678 0.937215 0.063213 -0.284540 1.039459 0.352557 0.223638 0.201232 -0.908629 0.880340 -0.675687 -0.125805 -1.095403 1.174926 -0.884815 0.065143 1.209127 -1.215282 0.428913 -2.191877 1.021408 0.078830 -0.590864 -2.422571 0.477317 0.102797 0.186370 0.540160 0.572838 -0.383135 -0.473140 0.203296 0.217142 -0.346680 -1.662602 -0.992771 3.198574 -0.153410 2.669036 0.229309 -1.075927 -0.482648 -0.637387 -0.422253 0.989596 -0.819016 1.293761 0.737860 0.171776 -1.165362 -0.408339 -1.355988 -1.429056 0.104443 -0.694005 0.683267 -1.076077 0.287605 1.147568 1.992081 1.008021 -0.675059 -0.142718 1.155577 -1.192025 1.056952 -0.644655 -0.492040 0.339427 1.215951 -0.655497 -2.072959 -0.839201 0.522051 -0.361192 0.154258 0.837337 0.998479 2.483745 -0.832096 -0.980387 0.341282 -0.893128 0.272754 -0.988487 0.810428 0.864607 1.820792 1.340426 -1.597231 0.288982 0.019433 -0.434534 0.514628 1.281840 -1.619959 -1.787683 1.386668 1.205795 0.648981 -0.699886 -1.064872 -1.851400 0.778523 1.497067 0.530291 0.272924 0.040854 0.705453 -1.425851 1.070580 0.444154 0.860829 -0.596000 -2.273854 -0.880221 -1.649201 0.341360 0.291089
like 1.096781 -0.800626 0.018893 -0.789894 0.844518 -1.223715 1.303948 0.218975 0.124572 -0.705178 -0.646512 0.056242 1.105405 0.223477 0.453580 -0.294984 -1.666768 -0.609816 1.480278 -2.673377 -0.837321 -1.250816 -0.275688 -0.314686 0.679583 0.441207 0.725044 -0.998663 0.475682 -1.825533 -0.883086 1.455377 1.252727 -1.125767 2.694371 0.056375 0.549058 -0.168760 -2.840967 -1.037855 0.096865 0.782087 0.633769 1.331051 -0.572060 -0.549029 -0.145612 -0.598535 -0.942197 -0.687586 1.168017 0.660262 -0.086632 -1.295017 0.275473 0.052022 0.631258 0.242889 -2.022629 -2.704149 -1.535574 0.452188 1.072876 -0.658784 0.897923 -1.267153 -1.025129 -2.462369 0.200914 0.743657 -1.289174 -0.713945 0.873073 -1.170120 -0.241627 0.947101 1.145812 -0.541003 -0.258714 1.058106 0.255321 0.554048 -0.918269 -0.143546 0.696590 0.938379 0.295387 -0.455642 1.058546 -0.099482 0.139134 0.766678 0.680146 -0.834703 2.206822 -0.486583 -1.364921 -0.785452 -1.012793 2.712898 0.449013 -0.681259 -0.382055 -0.253363 0.366383 1.010499 1.264791 0.468045 -1.578884 1.416098 0.224426 1.363810 0.262452 -0.235136 -0.041995 1.941449 -1.350980 -1.905307 0.471736 -0.879388 -0.944306 -0.384235 -1.068818 -0.997133 -1.393701 -0.562478 1.141176 0.441957
could 2.906362 0.984592 0.778739 0.361043 -0.692192 1.602477 -0.792521 -0.547775 -0.651384 -0.068426 -0.927365 -0.993876 -0.163454 -0.623279 0.778224 -0.439231 -0.168879 -1.444340 1.616048 -0.802166 -0.505419 0.508767 -1.549454 0.154903 1.187994 -1.741579 0.528657 1.036243 1.272956 1.224959 1.257120 0.265746 -2.899146 -0.216438 -0.502436 0.123994 1.989331 -0.894262 0.394052 1.747941 1.404192 0.067260 1.208133 1.407425 -1.062905 -0.127502 0.134499 0.003908 -1.805497 -0.223753 -1.094057 -1.832895 -2.378458 0.535020 1.756938 1.228755 -1.853447 0.139589 -0.005628 -0.213023 1.363587 0.373361 -0.746033 0.064751 0.512809 -1.064074 -1.624808 -0.154433 -0.204359 0.237928 2.186408 1.086295 0.020347 1.430639 1.487419 -0.823893 -1.334405 0.790957 0.063170 -2.262151 -0.684801 0.413527 0.898648 -0.194368 -1.820091 0.521780 0.504361 -1.258378 -0.890190 0.396545 1.030638 -1.325883 -0.988583 0.440553 -0.636796 -1.629466 1.702013 1.713741 0.477581 0.028972 1.460248 -0.296412 0.770290 -0.937060 -0.348347 0.674466 -0.332102 0.276475 -0.657578 -0.673588 -0.095330 0.296322 -0.920943 -0.681449 0.030248 1.946299 -1.353044 -1.435480 -0.043939 -0.030982 -0.181561 -0.173910 -0.564147 -0.581173 -0.205279 2.317065 -1.814268 -1.747490
now 0.755357 1.248937 0.929709 -0.666629 1.086402 0.244636 -1.195112 0.575408 -0.199965 2.256618 -0.055327 -1.229386 -0.973500 1.650030 -0.151474 1.047702 1.886594 -1.619889 0.366273 -1.910768 -1.109171 -2.039216 0.328089 -0.621862 -2.411344 2.196595 -0.150324 -1.365032 0.294257 0.388893 -0.150790 0.806176 -0.870127 -1.244021 0.827643 -0.727203 1.751631 -0.363750 0.203812 -0.877891 0.697233 -1.089622 0.422841 -0.118123 2.104808 1.706743 0.034666 -0.070401 -0.362853 0.571249 -2.421942 -0.422104 -0.031588 -2.365786 -1.169849 -1.254293 0.725130 -0.229120 0.636957 0.736585 0.436229 0.263405 -0.085342 -0.455063 0.730127 -0.307305 1.049797 -0.874022 0.262351 0.988157 0.335011 2.235214 0.135213 0.452437 0.281524 -0.176741 1.622372 -0.774115 -0.867659 -0.946465 -1.838960 -0.445166 -0.148171 0.680479 0.689594 1.486050 -0.467689 -1.251405 -0.580677 1.322574 0.981421 -1.403251 -1.509854 -0.696830 1.236029 0.588761 -0.447907 -0.298075 -0.054569 1.868348 0.234091 -0.651630 0.701950 -0.739354 -0.092072 1.634495 1.201476 0.743376 -0.722008 0.751715 -0.920760 1.180248 -0.741810 -0.264238 -1.364316 0.310447 -0.565122 1.727606 -0.074015 -1.067819 -0.433859 0.098582 0.295283 -1.380444 -0.303456 -0.132144 -1.644970 0.394768
time 1.354762 0.215294 -0.095036 -1.341538 0.756937 1.269058 -0.480456 -0.493779 -1.320432 1.513734 -0.798701 -1.486896 -0.298782 0.917157 -0.936917 2.339253 2.114192 1.792834 0.411621 -0.862629 -1.337825 -1.555180 0.472282 0.754905 0.774235 0.148625 -0.050773 0.030834 1.844058 1.434162 -0.278547 0.217538 1.024943 0.640051 -0.103267 -0.628815 0.643392 1.709305 -0.784749 -1.236281 0.546195 -1.561931 1.230028 2.299319 -1.378014 -0.362556 -2.097841 -3.304603 -1.851522 0.630561 -0.585032 -0.116373 1.029261 -1.033665 0.766660 -0.441926 -1.814427 0.974114 0.729832 -0.392911 -0.104430 -0.183822 0.375114 -3.567353 1.318024 -0.829511 0.274714 0.777071 0.531121 0.205615 0.415689 0.663882 -0.194364 -0.968844 -0.629819 -0.822868 -0.155680 -1.094306 0.569470 0.825610 0.280176 0.259906 -0.518016 -0.328131 1.649352 -0.114166 -0.217140 1.290505 -0.757980 -0.027761 0.692066 1.747258 -0.897759 -1.056945 -0.354456 -0.577065 0.345056 -0.262466 -0.568501 -1.937690 1.575283 -1.249925 1.223165 -0.761897 -0.618299 -1.453521 1.011878 -0.129365 -0.023010 0.115033 -2.830158 0.179916 -2.353913 -0.369868 1.847095 1.045251 -0.403827 1.272729 -0.241712 0.315794 0.133290 0.006494 -1.012252 -0.941168 0.895816 -0.879044 -0.457419 -0.291967
little 0.552652 1.163383 -2.311481 -0.132826 -1.843190 0.224304 -1.217522 -0.860335 0.354032 -0.820104 1.061916 1.175048 0.446296 -0.549900 -0.265630 -0.223961 0.586656 -0.828152 0.404888 1.295363 -0.996307 0.435366 -0.029637 0.708192 1.412716 -0.787101 1.106268 -1.501126 -0.864364 1.327932 0.700535 1.350707 -1.158785 -0.967688 -1.749863 0.190380 -1.308181 0.455002 -0.218065 1.758206 -1.454380 -0.197701 -0.381608 -0.136274 2.189722 0.991145 -1.505152 1.547307 0.190515 -0.951839 0.505182 0.223524 0.015095 -1.714818 0.611327 1.591940 -0.621879 -0.047968 0.551103 -1.156729 -0.776249 -0.775644 -1.239154 -1.159929 -0.819483 0.252344 -0.074368 -0.557376 0.878639 -0.082516 -0.233627 -1.897811 -0.761248 -1.161786 -0.438061 0.452882 0.324185 0.894400 0.208777 -1.500503 1.657461 2.040974 0.792822 -0.394143 0.706324 1.409778 0.952578 1.087575 -1.111557 0.866255 -1.398102 1.114863 -1.064557 -0.548178 0.825087 0.060230 -0.782204 -1.360617 -1.261489 1.814558 0.426053 0.841581 -0.220625 -2.110130 -0.218041 2.095278 -2.034282 0.135004 0.490762 0.461588 1.461149 -0.688184 0.267963 1.292336 -0.877143 2.522947 -1.876519 0.931795 1.450753 0.780878 0.760245 1.143032 -0.076723 -1.247678 0.797311 -1.190763 0.018364 0.223348
only -0.518583 -0.222822 1.003300 -1.784821 -0.305174 -0.221726 -0.183800 2.222368 -2.596137 0.575105 0.657413 0.106523 0.509835 0.644442 -0.479535 0.900844 -0.806589 0.091928 0.650370 1.667518 -2.344848 -0.298448 -0.981422 -0.727805 -0.462355 -1.481657 0.388082 -0.411004 0.650960 -0.571902 0.004088 1.266562 -1.062989 1.721291 0.476137 0.900292 0.507709 0.452764 0.119328 1.063392 1.841475 -0.780648 0.796328 0.870713 -0.431622 0.066158 -2.353853 -0.252399 0.204853 0.343255 1.501399 0.252206 -0.505420 -1.299444 -1.321876 -0.359084 0.803129 -0.610953 0.010282 -0.719603 1.253694 -0.368032 -0.604990 -1.636272 0.720460 1.257909 0.629717 0.724074 -0.099140 0.060167 -0.986756 1.391964 1.236874 -0.561441 -0.060917 -0.390038 0.875543 1.151671 2.272782 0.000674 -0.074228 0.868008 1.347966 1.308969 -0.100783 0.526285 1.141532 -0.523385 1.099256 -0.885115 -1.057786 -0.797153 -0.891562 -0.062919 0.657050 0.122498 1.522583 1.433760 0.535677 -0.002160 -0.706813 1.381287 0.943500 0.846699 -1.159157 -0.596302 0.616211 0.873780 1.637293 0.272659 -0.936250 1.124731 -0.918669 0.146369 -0.285154 0.386485 0.425600 0.080413 0.737387 -1.094703 0.163392 -0.728538 0.360236 -1.713326 -0.902311 1.546841 -0.873433 1.217536
other -0.199995 -1.629486 -0.005474 1.737426 0.470900 -0.105128 0.957500 -0.556576 -0.300260 0.482713 -0.016831 -1.355224 0.836984 2.584401 0.898909 0.457277 -0.424533 -0.164197 -0.642126 0.582976 -1.721013 -1.170928 0.584240 2.619833 -1.823411 0.857521 -0.101694 -2.299833 0.318849 0.068322 -0.375649 -0.838697 -1.015600 -1.056998 -0.765543 2.105425 0.119621 -1.002468 -0.130539 -0.677486 0.239956 0.540914 1.587412 1.040897 0.212496 -0.138206 -0.208308 -0.083130 -1.049714 1.611353 -0.907392 -1.531486 1.769851 0.060755 -1.042628 0.998268 0.767854 -0.504072 -0.199750 0.105611 0.672122 -1.928567 -0.606212 -0.407350 -0.126902 -1.150343 -1.078385 0.456814 -0.131874 1.547321 0.446973 -0.299328 -0.792371 0.802840 0.118018 0.808732 0.567630 0.333493 0.315968 0.326879 0.222806 0.509557 -0.913130 -1.187495 -0.626634 0.445431 -1.209570 1.073931 0.178617 1.580345 -0.454774 0.777807 0.108641 -0.791359 -1.220322 0.518720 0.154459 -1.787274 0.767575 -0.510328 1.413857 1.489887 -1.195387 -1.194110 -0.238547 1.165636 0.449367 -1.418794 1.805106 -0.830788 1.362737 -1.508288 -0.863005 -0.535554 -0.468318 -0.945507 0.339072 1.236895 0.975612 -0.275001 2.122809 -0.365372 1.400801 -0.552562 -0.605621 -0.417096 -0.765441 1.020248
upon 0.376227 -0.983084 3.252961 -1.183710 -1.007336 1.411490 0.858914 -0.030750 0.377227 -1.143559 -0.371383 -0.158895 -0.098181 -0.697367 1.445785 -0.072584 0.473629 0.186184 1.499098 -0.762450 0.519003 0.439945 -0.306597 -1.729504 -0.470467 0.557028 -0.992288 0.057978 -1.402698 -0.504137 0.493785 0.740185 1.506026 -0.643242 0.365599 1.127275 0.964827 0.747506 -0.560685 -0.887712 1.109837 1.907187 -0.703402 0.354757 0.814822 -0.168772 -1.020670 -0.122308 -0.613356 0.552996 0.099663 -0.466142 1.433090 0.977441 -0.485106 0.961859 0.836088 1.026269 1.023151 -0.827275 0.059662 1.269046 1.184320 -0.008478 1.061395 -0.477490 -0.598618 1.096455 0.640427 -1.111958 -1.782098 1.318965 1.540386 -0.641178 1.273900 -1.439662 -0.184988 0.925354 0.961029 -0.698961 -0.167482 2.143646 0.926956 -1.197772 -1.213088 1.218867 -0.903676 0.098423 -0.877532 0.397067 0.997626 -0.220989 0.098262 -0.301744 -0.460536 0.603710 -0.592250 0.396277 0.434840 0.533955 0.691936 0.157828 1.949265 0.468996 -0.897495 0.300081 -0.315964 0.418825 1.313011 -1.099029 0.563522 -0.937447 0.994110 -0.640524 -1.269930 0.512784 0.557023 0.269611 1.123103 -0.553999 -0.145124 0.227733 0.123438 -1.230548 0.875927 -1.213415 1.821501 -0.893993
such 1.109374 -0.441948 0.185519 -0.034410 0.657549 1.799723 0.397740 2.229209 -1.648430 0.379512 1.171954 0.359851 0.980944 0.308839 0.102209 -1.225748 -0.733286 0.351320 -0.050223 -0.096937 0.155471 0.360603 0.650729 -1.577626 0.022671 -2.637268 1.071987 -1.609561 -0.524518 -0.491160 -1.774029 0.453425 1.516367 -0.503372 -0.650652 -3.077814 0.598664 1.674963 -0.752995 1.552034 0.031989 -1.482368 1.774523 0.410660 -1.418522 0.397959 -0.673848 0.759060 0.327612 1.253523 0.733729 0.502354 -0.119447 -1.203604 -0.017127 -0.384093 2.634367 0.403824 0.644070 -1.072206 -0.202024 -0.217951 -0.536374 -1.192026 0.488473 -0.392831 -0.930495 0.712941 0.622366 2.057773 0.771783 -0.600288 1.244132 -1.363515 -0.337682 0.906797 -0.887317 1.668667 0.750830 1.050958 0.844417 1.304746 0.109115 -0.366117 0.759251 2.275482 0.673983 -0.045484 0.685605 2.562801 1.127793 0.071037 -1.621595 1.317085 -0.540363 0.988001 0.397302 -1.668528 -1.997326 0.584319 1.349464 0.004802 -0.672986 0.118258 -0.734040 0.181220 -0.680467 0.511220 1.906474 0.684009 0.432406 -0.548869 0.403448 1.164572 0.107095 0.496859 0.126771 -1.898457 1.347071 1.193714 0.114191 1.182484 -0.947506 -0.509382 1.556969 1.078543 0.874130 -0.365019
