3000 128
<pad> 0.000000 0.000000 0.000000 0.000000 0.000000 0.000000 0.000000 0.000000 0.000000 0.000000 0.000000 0.000000 0.000000 0.000000 0.000000 0.000000 0.000000 0.000000 0.000000 0.000000 0.000000 0.000000 0.000000 0.000000 0.000000 0.000000 0.000000 0.000000 0.000000 0.000000 0.000000 0.000000 0.000000 0.000000 0.000000 0.000000 0.000000 0.000000 0.000000 0.000000 0.000000 0.000000 0.000000 0.000000 0.000000 0.000000 0.000000 0.000000 0.000000 0.000000 0.000000 0.000000 0.000000 0.000000 0.000000 0.000000 0.000000 0.000000 0.000000 0.000000 0.000000 0.000000 0.000000 0.000000 0.000000 0.000000 0.000000 0.000000 0.000000 0.000000 0.000000 0.000000 0.000000 0.000000 0.000000 0.000000 0.000000 0.000000 0.000000 0.000000 0.000000 0.000000 0.000000 0.000000 0.000000 0.000000 0.000000 0.000000 0.000000 0.000000 0.000000 0.000000 0.000000 0.000000 0.000000 0.000000 0.000000 0.000000 0.000000 0.000000 0.000000 0.000000 0.000000 0.000000 0.000000 0.000000 0.000000 0.000000 0.000000 0.000000 0.000000 0.000000 0.000000 0.000000 0.000000 0.000000 0.000000 0.000000 0.000000 0.000000 0.000000 0.000000 0.000000 0.000000 0.000000 0.000000 0.000000 0.000000
<start> -2.171508 0.938242 -1.590977 -1.342031 1.021738 0.359497 -0.089337 -0.909705 -1.207749 -0.437442 -0.090995 2.455116 -0.583965 -0.417136 0.246732 -1.228521 0.965035 -0.194044 -0.634196 0.056052 0.308502 0.808218 0.848718 -1.944454 0.627055 1.674446 0.885208 0.255130 1.357175 -1.568182 -1.630154 -0.693054 -0.342999 -0.042753 -0.548103 -1.273597 0.266141 -1.613362 -0.844455 -0.393043 -0.568651 0.753477 0.307420 0.577963 -1.166276 -0.304110 -0.537306 -0.917124 -2.117065 -0.938614 -0.400220 0.954428 0.656490 -0.734467 0.373550 -1.981346 0.942309 -0.336727 0.612809 -1.272683 0.057618 0.088150 0.696681 1.038477 -1.023220 -0.299242 -0.668619 0.461817 -0.661685 0.622618 0.547028 -1.374188 0.284427 0.994074 0.128936 -0.201052 0.902932 -0.203639 -0.210192 -0.197071 -0.343319 0.172407 -1.363990 0.382907 -0.325207 0.480836 0.686497 -2.020344 -1.328019 -1.048603 -0.505400 0.833533 -0.836086 0.745812 0.713489 -0.993487 0.618129 1.448182 0.852847 -1.474635 -0.397749 -0.442446 0.004700 -0.146780 -0.159429 0.637093 -1.093434 0.238640 -0.176241 -0.567301 -1.305399 -1.094225 -0.256002 0.513101 0.158905 1.236289 -0.267576 -0.722319 2.523215 0.114208 -0.042523 -1.027691 -0.915292 0.214653 1.073674 0.742521 -1.385550 -1.367568
<end> -0.368854 0.220257 2.034203 -0.540587 -1.075311 0.178511 0.391432 -0.913633 0.056202 0.447250 0.325431 0.611461 1.087641 -0.699820 -0.825792 1.413175 -3.279507 -1.675469 -0.590048 0.771395 -1.178740 0.635519 -1.141210 -0.789135 -0.659416 -0.390186 0.461097 -0.751084 0.594064 -0.084238 -1.393074 0.465638 0.872013 1.087671 2.048910 0.867749 0.403290 1.537981 -0.522420 -0.723670 1.743592 0.212267 -0.055741 -0.017290 -1.034546 -1.210680 0.213352 -1.602432 -0.000852 -0.178634 1.774874 -0.804006 -1.410529 0.089109 -0.126995 -1.322456 0.613980 -1.453766 -0.351889 -0.123694 0.658515 -0.370174 0.845761 0.703290 -0.287244 0.900751 0.001125 -1.121282 -1.053683 -1.577882 -1.584470 -0.114001 0.733779 1.014415 0.942077 1.485685 -1.627029 -1.317518 0.385570 -1.535496 -1.162451 2.304860 0.232236 -0.886511 1.315337 -2.026489 0.959412 1.099515 -1.064546 -0.295214 0.193585 0.251233 0.989611 -0.398473 -0.943662 1.098010 -0.620802 0.670865 0.102723 -0.124758 1.445137 1.091208 0.478794 0.376405 -2.141490 0.498699 0.650564 0.014640 -0.769700 0.480127 0.483673 0.595655 1.282031 1.030146 0.553095 -0.895629 0.430026 -0.608668 0.816470 0.333028 -0.366173 0.054359 -0.948406 -0.811969 1.126062 -0.990016 -1.591776 0.654095
<unk> 0.932071 0.050419 0.178741 0.057068 0.034219 0.688355 -0.277960 -0.074301 -0.258450 0.628026 -0.159817 0.243492 0.049304 0.058987 -0.134930 -0.741711 0.777994 0.393833 -0.178732 0.761704 0.348345 -0.186155 -0.147878 0.285322 -0.086667 -0.474747 -0.139947 -0.281059 -0.440547 0.399225 0.395790 -0.354905 -0.135602 -0.872328 -1.181420 -0.114948 0.165113 -0.303454 -0.801509 -0.234363 0.117668 -0.144573 -0.080297 0.507679 -0.094025 0.018146 0.449372 0.595250 0.065705 -0.048625 0.763714 -0.187249 0.418161 0.484205 -0.193746 -0.234847 -0.546135 -0.208010 -0.126197 -0.148929 0.081112 0.812336 -0.736248 0.689579 0.220535 -0.312516 -0.080138 0.072324 -0.892932 0.736864 0.294743 0.002075 -0.587217 -1.374342 0.203218 0.068901 1.066684 -0.347529 -0.058047 -0.326454 0.002334 0.190693 0.596184 0.023765 -0.147050 -0.446567 0.785597 -0.155605 -0.553146 0.746398 0.394415 -0.046673 0.003322 0.133148 0.336602 -0.512674 0.329277 0.245745 0.175355 -0.085093 0.294042 -0.188513 0.558592 -0.747150 0.672615 0.390791 -0.072710 -0.349551 0.345988 -0.825833 0.715861 0.058126 0.437482 0.449055 -0.230554 0.180978 -0.618716 0.676946 0.947436 0.843553 -0.478647 0.393340 0.204268 -0.511588 -0.536317 0.287198 0.094701 0.085860
the 0.581929 0.036188 -0.190206 -1.432667 0.305786 -1.361825 0.691716 0.694052 0.627726 0.235029 0.868216 0.030946 0.074355 0.720157 0.032474 0.236526 1.449241 0.105220 0.416904 1.363381 -0.445290 -1.280370 -0.105761 -0.838734 -0.488529 -0.117551 -0.211069 -1.180869 0.537576 0.103065 0.036944 -0.949177 0.681329 -0.541595 -0.013705 0.303832 0.148286 0.609241 1.435991 0.034241 -0.093983 0.369178 0.250024 -0.796650 -0.817473 -0.265109 -0.124497 -0.739262 1.321692 -0.227057 0.663760 0.146005 -0.239980 -0.232667 0.605872 0.283037 -0.818577 -0.748280 -0.928850 0.527125 -0.339598 -0.926914 -0.260215 0.517595 0.346137 0.003985 -0.181903 -0.914585 -0.069438 -0.490738 1.156148 -0.484575 0.287955 1.307829 0.388094 -0.042096 0.459776 0.082572 0.479823 0.303359 1.701726 -0.044714 -0.431305 0.366566 -0.062163 0.478324 0.451487 0.705760 0.484859 0.771913 -0.342417 0.025517 0.996265 0.010704 0.357837 -0.520396 0.217931 0.902393 -0.284702 -1.087271 -1.050738 -0.218942 -0.650406 -0.870188 -0.674287 -0.522825 0.778646 0.588682 0.285186 -0.696390 0.353962 -0.088154 0.068628 -0.092125 1.375363 -0.244759 1.211398 0.352606 -1.082691 -0.025616 -0.029387 -0.164611 -0.203400 0.127503 -1.193526 1.116322 -0.648574 0.939991
and -0.584857 0.816914 0.319072 0.436479 0.246719 -0.423589 1.061196 0.285855 -1.245438 0.210687 -0.031445 -0.263709 -0.355208 -0.103882 0.118480 -0.183419 -0.689223 -0.469404 -0.023603 -1.677931 -0.027262 0.089473 -0.625970 0.681967 0.452855 0.776078 -0.663431 -0.347529 0.215444 0.596146 0.018640 -0.933618 0.035622 -0.229657 0.240974 0.097188 -0.262552 -0.611237 -0.161573 -0.396344 -0.230576 -0.453250 0.062089 0.741271 0.384139 -0.245171 -1.062081 0.394824 -0.040755 0.159588 0.506646 0.306494 -1.393376 -0.287693 -1.644561 0.533717 0.425801 -0.838634 0.346076 -1.516770 0.492172 -1.098538 -1.422548 0.122994 -1.070449 0.563390 1.747342 -0.015032 -0.082194 -0.035440 -0.491925 0.334543 -0.443635 0.982857 1.053821 0.660207 0.129175 0.328157 0.227205 0.010277 0.470743 1.561043 -0.410255 -0.755926 0.426350 0.075871 0.424976 -0.396224 -0.289221 0.028217 -1.056521 -0.621521 0.501579 0.285361 0.585395 0.623569 1.095574 -0.169398 -0.263157 -1.096871 -0.811724 0.107973 -0.561575 0.145834 0.213515 -0.447501 -1.178439 -0.023915 0.463798 0.024342 1.350776 0.816501 -0.020630 -0.989850 0.405528 -0.455034 -0.658995 -0.145903 -0.093673 0.305869 -0.147880 -0.002608 -0.493251 0.134931 1.025241 -0.373538 -0.962888 0.316107
of 0.488517 -0.711877 0.136088 -1.056096 -0.242350 -0.086317 0.038548 -0.023234 0.263536 1.211309 -0.181842 0.074605 -0.406512 -0.010127 -1.504978 -0.420404 -0.688026 0.955653 -0.334092 -1.476761 1.330659 1.676707 -0.091793 -0.311153 -0.060711 0.449629 -0.592289 1.287584 -0.177899 -0.277834 0.010643 0.636712 0.338915 0.638337 0.346700 0.571639 0.671278 -0.977817 -0.069838 0.676804 0.043187 -0.092564 -0.328622 -1.229667 -0.024567 1.357491 0.176938 0.110914 -0.508878 1.296526 1.396077 0.792527 -0.681848 -0.146053 -0.523469 -1.582603 1.052435 -1.767344 0.728065 0.562152 -0.049591 1.504833 -0.586537 0.179378 -1.058360 0.012389 -0.734729 -0.556815 0.992968 0.439858 0.458535 0.072277 1.070430 -0.624899 0.003280 0.745129 -0.689119 -0.224444 0.989542 -0.282916 0.277270 0.665854 -0.664371 0.148276 1.085943 -0.685498 -0.287001 -0.794198 1.068813 0.241335 -0.547463 0.210228 -0.684416 -0.837749 0.128599 -0.122412 0.641043 -1.278729 -0.477827 -0.393734 -1.108652 -0.748821 -0.421836 -0.170573 0.094318 -0.648587 0.040716 0.419222 -0.057438 0.843117 -0.351102 -0.785797 0.348093 -0.048385 0.030937 -0.570781 -0.216291 -0.723619 1.025792 -0.395605 1.540763 1.089012 -0.684215 -0.275279 -0.429603 -2.610555 1.656550 -0.654532
to 0.457258 0.684533 -1.715211 1.070056 -0.473553 0.168865 0.439901 -0.300783 0.079409 -0.140080 1.458401 -0.258087 -0.976315 -1.236614 -0.586905 0.265478 0.330924 0.294196 -0.464960 -0.740515 0.414933 0.323458 -0.185883 -0.326519 1.837452 2.636097 1.242401 -0.123530 -0.083117 0.241572 0.799126 -0.323002 0.391210 -0.097410 0.889331 1.057635 -0.487697 -0.045512 -0.314893 0.404148 0.026686 0.227012 -0.439826 -1.445298 -1.151912 0.697146 0.466022 0.467513 -1.108694 -0.606222 1.330485 0.066521 -0.669610 -0.800643 1.660346 0.270562 2.135070 0.930143 -0.446534 -0.009136 0.083786 0.001974 -1.942437 -0.147499 -0.422940 0.729766 0.058898 -0.770330 0.267097 1.312221 -0.099034 -0.144749 0.104169 0.467907 -0.511862 -1.100029 -0.643743 1.166903 -0.572467 -0.496457 -0.009983 1.253416 0.349854 -0.148161 -0.327425 -0.481413 -0.417936 0.385065 0.847851 -0.554696 0.482079 0.433636 -0.375656 -0.628539 -0.550798 -0.609730 0.409735 -0.174889 -0.531456 0.156984 2.424684 2.041819 -0.317846 -0.808104 -0.554374 1.189655 0.274116 -0.576114 2.373065 0.879890 -0.376711 0.592506 -0.538760 0.554029 -0.654402 1.041734 -0.436551 -0.872137 1.012921 0.304674 -0.076871 -0.259235 0.292904 -1.056218 -0.133517 -1.376852 1.170289 -1.083421
a -0.452055 0.867745 -1.225854 1.326883 0.377623 -1.575914 0.329282 -0.179008 -0.162754 0.023429 1.245256 -0.268550 0.382003 -0.559474 -0.973506 1.930154 0.658792 0.554159 -0.776184 1.351726 -1.454710 -1.826279 0.522436 0.175698 0.712747 0.117469 -0.541162 -0.399897 0.586718 -0.283235 -0.860455 0.912409 -0.021807 0.301214 0.526814 -0.087178 0.219322 0.039078 -0.142493 -0.452961 0.707396 -1.359973 1.610659 -0.848640 -0.152550 -0.543206 1.838460 -0.680283 0.432286 0.689001 0.881055 0.495327 -1.982068 -1.095324 -1.605097 0.160121 -1.028694 0.089070 -0.239980 -0.913528 -2.121599 -0.090666 0.477419 0.946692 1.302951 -0.064733 0.019418 0.228483 0.135091 -0.260515 0.998075 0.550679 0.486638 0.634223 0.541546 -0.711313 0.679133 -0.789968 -1.008614 1.202672 -0.008195 -1.052925 0.298974 0.085617 0.023217 0.294239 0.107355 0.223528 -0.126060 2.075469 -0.967813 0.210339 1.310921 -0.470623 0.246013 0.564416 -0.173493 0.173342 0.800664 -0.842235 -0.853277 0.705490 0.492085 -0.056994 -0.610165 0.108531 -0.542621 0.749642 0.309634 -1.567048 -2.053087 -0.120583 -1.486222 1.074863 -0.507861 -0.112374 -0.687078 -0.256338 0.663027 -0.197782 2.227282 0.689964 -0.527833 1.436668 -1.168341 -0.054561 0.220326 0.592998
in 1.190935 0.154829 0.451825 -0.925641 -0.351002 -1.092666 -0.088988 0.153183 -0.055146 0.551248 -0.687334 -0.312611 1.278705 -0.051998 -1.581494 0.335582 -0.103055 -0.771175 -1.920941 -0.110911 0.444401 1.849604 0.802472 -0.314570 -0.046371 0.609989 0.541080 0.592341 -0.635440 -0.016987 1.495519 1.408850 -0.251771 -0.031057 1.193015 -1.136827 1.270277 -0.651317 0.716568 0.043249 0.375767 -0.444189 1.695054 -1.045485 1.262687 0.424591 -1.478057 0.172388 1.443509 0.396270 0.462533 -0.753511 -0.634442 -1.269168 -0.575414 0.316129 0.508579 -0.306748 0.571533 -0.409803 -0.655032 -1.004424 -0.999350 -0.342803 -0.181921 -0.468940 0.446656 -0.426242 -0.096185 -0.545177 -0.093234 0.289588 1.940564 0.530871 0.211115 -1.332871 1.183840 0.493243 0.171186 0.023148 0.477072 0.122488 1.600954 1.324993 1.074214 -0.079960 0.460692 -0.964146 0.034837 0.791492 0.831975 -0.695275 -0.684569 0.668185 0.835709 -0.914041 0.035731 -0.935440 0.604210 -0.049196 0.843088 1.412403 -0.872697 -0.329261 0.537916 0.642523 -0.150838 -0.098620 0.479783 -0.732498 -0.627461 -0.346818 1.259859 0.140723 -0.564162 1.305313 0.134335 -0.872522 -0.116117 0.321826 0.029503 0.524297 -0.008813 0.148145 2.041498 1.096440 0.278837 -0.679689
i -0.763601 1.073282 -0.739915 0.339426 0.913641 -0.413503 -0.901554 -1.319807 0.136420 -0.018203 -1.627599 1.646248 -0.992686 0.501597 0.265364 -0.681638 0.910890 -0.486229 -0.018597 0.534889 -1.052900 0.737270 0.374312 -0.107692 0.823988 -0.019482 0.604020 -0.465480 -0.973496 1.273976 0.868091 0.340869 -0.846011 -0.125231 1.055109 0.340613 -0.038507 0.730946 -0.272649 -0.562784 0.138550 -0.486209 -1.076825 -0.671621 1.960946 0.605400 -0.996978 1.622767 -1.275037 0.381651 -0.215122 0.597957 0.847956 0.148357 -0.607398 -1.144857 -0.350390 -0.919883 0.597225 -0.754415 0.067854 -0.394531 1.256277 0.209346 -0.379120 -1.606201 2.023226 -0.553182 -0.203950 2.147442 -0.041073 0.564213 1.285468 1.402868 -0.782840 0.990133 -0.787005 2.089517 0.325947 -0.082609 -1.166267 1.044350 0.194294 1.492591 0.939604 0.941418 0.608980 0.642993 2.884219 0.775807 -0.162147 0.187123 1.201559 -0.818993 -0.279047 -0.134443 -1.287991 1.067059 0.171630 -0.698618 -0.871074 -1.333858 -0.354050 -0.654158 -0.012662 0.150495 1.250752 -0.162437 -0.268449 0.480730 -0.118778 0.452251 -1.063872 -0.170111 -1.159321 -1.456968 -0.750286 -0.920605 0.060463 0.251709 -0.077359 0.495994 0.154840 -0.511551 0.486998 0.253988 -0.053621 0.549199
he 0.571265 -0.856478 -1.631579 0.744094 0.270850 1.021163 0.141835 -0.361561 -1.289062 -0.916779 -0.957792 0.938842 -1.128772 0.454307 -0.347931 0.318025 0.522441 1.196039 1.211479 -0.794167 -0.511539 -0.009350 1.226738 0.242270 0.874945 -0.411777 -0.276804 -0.310993 1.726341 0.708172 0.671670 -0.561532 0.136337 -0.524839 -0.081679 -0.475744 0.355029 2.433917 0.212674 -0.119887 0.125142 -0.621919 0.448061 -0.182369 0.393196 -0.685423 -0.564777 0.142082 -1.164610 -0.468577 0.859297 1.900263 0.218901 -0.224411 0.131330 -2.017158 -0.814901 0.308723 0.011811 -0.459992 0.921561 -0.209281 -0.015816 0.024383 -0.083016 -0.558183 1.856558 -1.659985 1.580375 -0.557831 -0.910205 0.840594 1.195382 1.569110 0.095693 0.356579 0.090734 0.410993 -0.312962 1.325717 -0.941613 -2.150969 0.941859 -0.324673 0.146497 0.200474 0.381012 0.627260 0.216922 0.536004 0.435628 1.531313 0.742255 0.825054 1.971622 -0.027177 -2.289852 -1.083952 -0.155701 0.210433 -0.321124 -0.036082 -0.044666 0.117249 -1.254782 0.191695 1.616742 0.239678 1.452993 0.591593 -0.735040 0.348726 0.161138 -0.277658 0.773477 -0.610098 0.135944 -0.134197 -0.946069 0.588298 -1.226822 0.834676 0.691511 -0.005452 -0.495216 -0.167551 -0.267497 -0.792862
that -0.138302 0.692209 -1.297981 -0.142288 0.734619 -0.474188 0.025112 1.133429 -0.569226 -1.924202 -0.153801 0.310436 -1.609585 -0.680043 -0.540681 -0.579843 0.552456 0.131884 -1.631100 -0.931692 -1.147591 -0.087017 2.075458 0.204433 -0.323805 -1.081432 1.017463 0.948671 1.069639 1.069226 1.042772 -1.850891 -0.260881 1.152247 -0.586871 0.071918 0.371062 0.546305 -0.388221 0.846313 -1.254341 0.984504 1.298750 0.159392 0.010377 0.422374 1.945749 -0.185132 -1.181954 0.287900 -0.448213 0.234378 -0.392323 -0.721070 -0.279325 -1.000591 0.805334 0.746609 0.022032 1.522076 -1.611950 0.928751 -0.149666 0.005572 0.474002 1.084757 -1.261842 0.268619 0.489683 -0.874302 -0.827515 -0.910562 0.055189 -0.358464 1.264674 0.585307 0.174966 1.456446 0.545349 1.116483 0.663212 0.365003 1.170233 0.552697 -1.185071 -0.462226 -0.010384 -1.543103 -0.404731 -0.182598 0.050320 0.847013 1.272469 -0.443424 -0.202183 0.351923 -0.466877 0.606157 -0.037061 -0.231381 -0.796063 0.567878 0.277837 0.370690 -0.633077 0.020617 0.079865 -0.288020 1.243836 1.622961 -0.199984 -0.068479 -0.314377 -2.090449 0.587345 -1.783970 -0.407499 0.356120 1.305648 0.986332 -0.642770 -1.163567 0.603712 0.039799 0.418908 -1.430351 0.034674 1.750881
his -0.250291 -0.161589 -0.117411 0.562999 0.992382 -0.251706 -0.932386 -0.776654 1.203686 0.448991 1.419291 -0.942011 0.431139 0.636831 -0.307521 -0.113513 0.503665 0.145999 0.767275 0.091152 -1.411368 -0.282974 0.959664 0.149100 -0.781331 -0.204918 0.396828 0.383431 2.226765 0.029109 0.388031 -0.693829 -0.483876 -0.539835 -1.335261 0.808024 -0.475481 1.023127 0.211991 0.919963 -0.307393 -0.710068 -0.127325 -0.764611 -0.111685 -1.124849 -0.480568 0.861919 2.148197 -0.331793 -0.212384 0.594192 -1.762537 0.050826 -1.414884 -1.677107 0.637973 -0.365602 0.048490 -1.001809 -1.640138 0.089820 0.539508 -0.541405 0.923847 1.676495 -0.124414 -0.622583 -0.903437 -0.963213 0.251789 0.540990 0.439266 0.085411 0.312971 0.576756 -0.594070 0.690140 0.518954 0.179466 2.058983 0.724037 0.722066 -0.919920 0.326258 -0.402830 -0.514913 2.229890 0.706395 -0.490223 -0.872954 -1.013698 1.531292 -1.131920 -1.196528 -0.715258 -0.235296 -0.094670 0.303316 -1.765013 -0.622967 -0.283178 0.583342 0.064350 -1.636492 -0.705419 -0.084931 1.522788 -0.624539 -1.403572 -0.110357 -2.236390 0.411734 0.110156 0.237833 1.526748 0.090334 -0.516658 1.021560 0.418790 1.454683 1.070367 0.921301 0.127504 -0.727183 0.310881 0.692468 1.709643
was 0.314249 -0.863349 -0.035546 -0.727448 1.048747 0.205666 -1.430559 -0.857992 -1.193931 -0.397255 -0.728324 -1.309450 0.799923 1.358608 -1.203362 -0.293155 -1.615400 0.243676 0.231257 -0.015161 -0.222603 -1.308059 -0.244124 -1.639060 0.632298 -1.209408 -1.463482 0.469641 -0.007013 -0.223280 -0.640357 0.070838 -1.709045 0.817511 2.026351 -1.513323 -2.236166 0.046361 0.404221 0.603735 -1.740389 0.446652 -1.252010 -0.770864 1.353055 -0.516418 0.728375 -0.003452 -0.337866 -0.557151 -0.582474 0.009321 -0.984421 -0.620502 -0.925344 -0.568511 -0.563029 0.673678 1.218992 -0.000736 -0.576796 0.747683 -0.554301 -0.502225 -0.190231 1.253291 0.496400 0.512470 0.229662 0.169561 0.765626 -0.749859 0.581398 0.463210 -0.097330 -0.150731 -0.100360 -0.215089 0.561983 1.408357 -0.246552 -0.188746 -0.091945 -0.369050 0.734365 0.600585 -0.097389 0.048844 -1.147259 0.350463 0.057957 0.173299 -1.787307 -0.145275 0.689037 -0.283103 0.104267 -0.438615 0.200206 -0.425705 0.066229 -0.710954 -1.113480 -1.699070 -1.236938 -0.271397 0.285988 0.142248 0.570568 0.138814 1.132971 -0.725549 -0.284842 -1.966307 1.470519 0.119251 -2.605227 1.095073 -0.146544 -1.206963 0.010093 -0.134869 0.821857 0.177909 -0.152898 -0.116999 -0.901706 0.704702
it 0.560691 -0.116544 -0.671615 0.620336 -1.066970 1.366383 -0.210277 -0.644945 0.818631 0.716253 0.186533 -0.267253 -1.064663 -0.201377 0.470404 -0.312954 -0.718201 1.442536 1.297767 -1.111775 -1.035659 0.233823 -0.238567 -0.536254 0.086399 1.215732 0.925945 0.366210 0.677122 0.626659 0.785700 -0.437336 -1.687203 -0.146167 -1.939570 0.142681 -0.653360 0.968698 0.196390 -0.903927 -0.252580 0.229977 0.217531 -0.011415 -1.654761 1.335905 0.855169 1.667842 -1.325958 -0.608814 -1.332453 0.215952 0.469269 0.835833 -1.524450 0.689500 -0.989274 -0.650242 0.252805 1.465402 -0.361316 0.054523 -0.277817 -1.512706 0.268974 -1.031438 0.753462 -1.060025 -0.520491 -0.034629 0.004130 0.857810 -0.263608 2.171125 1.138126 -0.465297 -0.339336 1.093187 0.208729 0.558327 0.805503 0.848202 0.038297 -1.682815 1.342942 -0.126270 2.007137 0.519237 -2.027544 0.958596 1.423558 -1.446823 -0.007333 1.083956 0.106079 -0.767985 -0.796132 1.249902 0.021412 0.796931 -0.140379 0.573279 -0.278335 -1.058890 0.502061 0.961906 1.033482 -1.158288 0.317430 -2.295363 0.559537 -0.454214 0.723400 -0.256080 0.099971 -0.990491 0.788588 -1.673150 -0.107104 -0.539341 -0.149894 -2.103732 0.096382 1.738086 -0.070256 0.070237 -0.908404 -0.759861
you -0.860801 -0.177980 -1.623966 0.243440 1.145504 0.329842 -0.292720 0.354253 -0.294990 -0.190757 1.328629 1.104665 -1.445575 0.972370 1.286626 0.664225 -0.730019 -0.465218 -0.323708 -0.304355 0.286107 1.604888 -0.217608 -2.420441 -1.226530 1.487779 -0.460112 -1.875061 -2.323098 -0.343433 0.027582 1.022318 -1.277334 -0.285840 -0.124914 0.549086 -0.399434 -0.858712 -0.407539 1.416921 0.984566 -0.424589 0.713300 2.172340 -0.700497 0.527788 0.195618 -0.376682 -0.586378 0.753837 0.454125 -0.543295 -0.408872 -0.160509 -0.270886 0.316612 -0.270152 1.283131 -0.782428 3.385668 0.771696 -0.819512 -0.379221 -0.265662 -0.143034 -2.378918 1.051945 1.010881 -0.392393 -0.051577 -0.310865 0.553965 0.383881 0.582370 1.158904 -0.984560 -0.441716 0.322435 1.908029 1.086673 0.618435 0.063784 -0.259191 -0.796076 0.710323 -1.085373 0.502649 0.778739 0.249000 -0.865303 -0.143514 0.463225 -0.084042 -0.053994 1.239148 1.238455 -1.900412 1.166273 -1.542901 -0.617306 0.364620 -0.789740 0.216486 -0.865934 -1.754280 0.968254 -0.088761 -0.703871 1.475687 -0.523718 -1.399717 -0.537044 0.116064 0.334198 -0.260900 -0.662933 -0.224334 -0.982362 0.817646 0.068573 0.080630 -0.670939 0.315248 -0.272042 -0.103462 1.864727 1.536081 0.834269
with 0.709619 -1.317492 0.287802 -0.606162 -0.248716 0.145437 -0.183491 -0.143885 -1.407286 0.382914 1.230993 1.228630 -1.307174 -0.513265 -0.410578 0.859752 0.925899 0.431013 -1.669314 -1.045546 -0.313886 -0.542108 0.824347 -0.789776 -0.051414 0.625428 0.278954 0.056401 0.273755 -1.387360 -0.904491 -0.627159 0.330232 -0.445790 0.769484 -0.060809 -0.207722 -1.721364 0.294193 0.771920 0.476663 -1.122792 -0.552726 -2.947821 -0.177477 2.094040 -0.545413 -0.219008 1.242197 1.662784 0.326549 0.982692 1.218375 0.401183 0.102144 -1.370129 -0.027673 0.064947 -0.075496 -0.479428 2.117793 0.472926 -1.178196 -0.225584 0.594025 1.038850 1.115139 0.838602 0.963659 -0.391987 0.148243 -0.242953 0.588364 1.000828 -0.857000 0.740315 -0.552271 0.823188 -0.221176 -0.511516 0.791199 0.311248 1.269085 0.775591 -0.763168 0.450338 -0.326326 0.193570 -0.656722 0.490423 -0.029136 -0.285667 -0.680471 0.018013 2.910670 1.050330 0.818641 -0.309864 -0.155293 1.532455 1.867117 -1.135731 -0.390269 -0.958124 0.279244 -1.612346 -0.980312 0.740791 0.496614 0.332372 0.934884 0.078216 -0.359208 0.354654 -1.673600 0.902088 -0.282579 0.730015 0.028977 0.430656 0.454483 -0.196560 0.696267 -0.128246 0.981610 0.768149 0.400401 0.133445
is 0.282674 -0.108184 -1.674997 -1.119441 0.600392 1.952005 -0.221530 -0.430843 -1.029569 -0.236622 -1.511287 0.308525 1.336652 2.128798 -0.428877 0.347687 -2.369097 0.557760 -0.442993 -0.463715 0.595926 -1.899612 -1.667172 0.325889 0.112127 2.264259 -0.071271 1.224505 1.351420 -1.086274 0.144335 0.349490 0.791326 -0.319221 2.781420 -0.540009 -1.158146 0.938488 -1.067046 -1.263829 -1.806334 -0.020150 -0.985197 0.195893 2.120113 0.813095 2.401593 -0.278398 -0.815021 0.915901 0.416954 -0.315331 -2.434443 0.573345 1.219528 -0.439521 1.985150 -1.410158 0.200941 -0.083161 -1.752792 0.808707 0.742270 0.739038 0.141295 -0.191957 0.265732 1.291882 0.016717 -0.445730 0.612348 -0.003971 0.381293 -0.484185 0.947014 -0.338019 -1.255645 -0.738686 -0.734981 0.592320 0.180753 0.771683 -1.049304 -0.262737 0.067864 0.047114 -0.045165 0.261437 -0.172217 2.027263 -0.730948 -0.893386 0.028293 0.160583 1.152838 -0.733011 0.441012 -0.014663 0.118943 -0.311934 -0.444509 -0.517587 0.565349 0.522468 0.245386 1.693802 0.271167 -0.913820 0.808923 -0.063423 0.694595 0.010149 -0.319021 -1.644974 -0.110726 0.167558 -1.344104 0.702541 -0.717846 -0.284280 -0.204115 0.001365 1.313242 0.988575 -0.959406 0.211543 0.171226 -0.189586
as 0.000250 -0.198514 0.165824 -0.631454 -0.430494 0.423000 -0.465776 0.759664 0.243677 0.644640 0.862567 0.285824 -0.575566 0.590923 0.299591 1.849554 0.676632 0.140245 -1.615320 0.542163 0.006123 1.064010 0.458260 -0.653690 1.004664 -0.167440 0.546683 -1.065044 0.907310 0.607619 -1.696071 -0.298237 0.001452 -1.224916 -0.066043 0.436621 -0.316155 -0.347179 -1.534907 -0.298035 0.399806 0.946851 -0.864352 -0.862088 0.908525 -1.147675 1.417738 0.875697 0.488970 1.395965 0.620240 -0.673124 1.243413 -0.782842 -1.245508 1.159793 -0.783110 -0.155132 0.974479 0.627962 0.538157 0.873694 -0.722237 0.292865 -1.664591 1.698591 -0.185401 0.177289 -1.951247 -0.732661 -1.178565 -0.640204 -0.118111 0.845771 -0.800022 0.447972 -0.109054 -1.307163 1.260493 -0.791156 0.422603 -0.498834 -0.971927 1.313510 1.771978 -0.928050 -0.042503 -1.170377 -0.013414 0.424687 -0.244936 0.333229 0.165359 0.845375 0.279271 -0.611616 -1.071688 0.229863 0.131954 0.953280 0.633029 0.320575 0.567090 1.175117 0.418528 1.398599 0.586535 -0.434320 -1.132051 0.770527 0.221809 0.794877 -0.647528 -3.111217 0.887149 -0.204119 -3.188040 -0.070969 -0.881272 -0.731515 0.622182 -0.740640 -1.003710 0.485524 -0.351894 -0.774877 -0.870439 -0.210164
not -1.118799 -1.571396 -1.145544 1.045059 -0.082685 1.156891 -0.811340 0.733515 1.278479 -0.356098 1.178361 0.868799 -0.982842 0.622604 0.851429 1.290540 -2.033522 -0.732359 -0.006537 1.141869 1.686841 1.407628 0.877298 -1.408456 0.111541 -0.378663 -0.088750 -0.521430 0.689855 -0.962724 0.315403 -1.877952 -1.200958 0.094292 1.270152 0.374781 0.213813 1.363511 0.819507 -0.164086 1.862886 -1.116328 -0.137499 0.814377 -0.484356 0.346099 -0.175946 0.055867 0.102047 -1.026541 0.958789 -0.241512 0.724625 0.087419 -0.063859 -1.405540 -0.990460 0.195688 1.237969 -0.653441 1.980301 -0.674276 1.275293 0.905975 -0.723281 0.913103 0.369470 -0.308591 -0.425953 1.506906 -0.197433 -1.783540 -0.133857 0.485091 1.031023 -0.154837 -0.721691 -1.643310 -0.099207 1.808475 -0.086433 1.943011 -0.052780 1.287838 -1.180604 0.576973 -1.387192 -0.249722 0.553783 0.535676 -0.377499 -0.275522 2.473651 -0.875788 -0.766907 0.213571 0.245642 -0.425091 1.195399 2.606322 -0.174224 0.129908 -1.141824 -0.097895 0.299000 0.590703 0.408760 -0.731221 0.843141 0.425765 0.658121 -0.366650 -1.573655 0.077026 -0.755031 1.069055 -1.049476 -1.265644 0.085499 -1.471254 -0.542007 0.565813 -0.977451 1.003520 -2.117112 0.278800 0.720237 -2.964308
for -0.042514 -0.369649 -0.663293 -1.186124 0.340887 -0.153401 -0.628028 -0.461688 -0.914321 0.006079 -0.975332 -1.146517 0.546842 0.906762 1.215963 1.445391 0.526468 -1.176339 -1.012251 1.067214 0.489961 0.715305 1.443548 0.673151 1.017273 0.128673 1.984753 -0.181220 0.056825 0.790492 -0.182432 -1.496067 -2.454338 0.238116 0.743744 -0.593851 -1.044384 -1.779222 0.200165 0.573330 -1.727468 -0.291015 -0.058309 -0.864361 -1.219383 0.553387 -0.263360 -0.588834 0.176942 -0.112348 -0.592962 0.719046 -1.920212 -0.248769 0.231933 -0.360524 1.206096 0.522893 0.225553 -0.753879 0.640098 0.721475 -1.343493 0.714653 -1.170879 -1.429533 1.130086 -1.102470 1.320328 -0.554244 -1.229973 -0.292244 0.678244 -1.381086 0.377072 -0.342027 0.291212 0.358534 -0.227120 0.587220 1.328143 0.160416 0.736419 -0.297610 0.584304 0.103852 0.657862 -0.473965 0.492285 -0.136408 -1.029802 0.339605 -1.458440 0.112720 -0.102372 -0.019995 -0.318942 -1.645367 0.259006 -0.652470 1.490399 -0.361607 -0.206527 -1.493079 0.879220 -0.251666 -0.767136 -0.069698 0.179975 0.275669 0.566429 0.164743 -0.394836 1.070073 -0.359919 -0.755088 -0.355756 0.587255 -0.238775 0.603047 0.561227 1.160913 -0.355763 1.082865 0.338722 -0.599225 0.067586 -0.007001
had -0.052429 -0.864697 0.183373 -1.359126 -0.646096 -0.128254 -1.231078 -1.082974 -2.235183 0.534717 -2.077781 -1.485898 -0.804994 -0.150340 0.481326 -0.695110 1.673489 0.379867 -0.014413 2.493882 0.883006 -1.213158 -0.139698 -0.179648 0.369634 0.389362 -0.004130 -0.178299 -0.864529 -0.415540 0.222200 0.079788 1.399013 1.037414 -1.493898 0.061890 0.187148 -0.752658 1.943577 1.000775 -0.087217 0.105765 0.033316 0.732557 1.529466 -0.847667 -0.316624 -0.376075 -0.571557 0.748365 -1.065247 0.461192 -0.697016 0.371275 -1.457440 -1.097985 1.142411 0.723967 -0.167384 -0.072576 -0.086595 -0.455403 -0.346913 -1.698690 -0.802973 0.823013 -0.475649 0.918553 -0.085491 1.691379 0.090244 -0.412112 0.188261 1.058091 0.622520 0.478318 1.385926 0.564979 -0.508183 1.909573 -0.493918 -0.730788 0.859475 1.209147 1.261490 0.469379 -0.200365 0.549511 1.991796 1.485216 -0.853546 0.445331 -0.637649 -0.599856 1.596090 -0.403889 0.918224 -0.481725 0.943940 0.748069 0.821104 -1.963503 1.479352 1.314324 -0.387648 -0.434504 -0.606374 -0.914289 0.838918 0.572712 1.158283 -0.382286 0.260748 -1.495675 -0.489594 2.614878 -0.790202 0.691777 -1.251347 -0.142224 -0.667681 0.100672 0.590948 -0.372899 0.295699 1.478752 -0.031884 -1.876754
but 0.137512 -0.722996 1.053493 -0.211184 0.584837 -0.533683 0.963527 0.224875 -0.460281 1.322702 1.545471 -1.220609 0.593962 1.118709 0.178562 0.438955 1.250795 0.746571 -0.992015 -1.018034 -0.733868 0.944660 0.588512 -0.511846 -0.247191 -0.863222 -0.408870 0.510034 -0.694908 -0.111213 1.405337 -1.214633 -1.233007 -1.073254 1.478764 0.393456 0.551084 -1.233401 0.765811 0.492545 -0.164196 -0.262575 0.336846 1.886632 -0.485833 -0.952076 0.976088 1.104712 -0.711683 -1.158729 1.477365 -1.381004 0.481282 1.453891 -1.792231 0.705172 0.782331 -0.656407 -0.915609 -0.937393 0.168341 0.023099 0.344896 2.046772 -3.251054 0.288949 -0.515335 0.697479 0.405837 -0.496237 -1.058581 0.059663 -1.276428 0.961497 0.590614 0.080405 1.056152 0.076770 0.780008 0.851626 -0.336883 0.535213 -0.251417 0.561359 0.269086 1.546461 1.717170 -1.379754 -0.339921 -0.019257 -0.480256 -0.965232 0.243056 -0.289452 -0.809022 -0.397917 0.572212 0.170641 1.042515 -0.021610 -0.403309 -0.650380 -1.081300 -1.678095 -0.318778 0.105117 -0.621949 1.004003 0.132598 0.472036 -0.337006 -0.088678 -0.516846 -0.481103 -0.794106 -0.252103 0.331239 0.066256 -0.497406 -1.104060 -1.732512 0.715920 -0.563197 -0.906232 -0.479248 -1.011146 -1.225588 -0.775180
at 1.241628 0.202047 -1.518951 0.444155 0.499700 -0.215323 0.256103 -0.309366 -1.748699 0.240291 -2.065317 -0.181536 -0.567487 0.053228 -0.488197 -0.224354 0.240056 0.495295 -0.719149 -0.368638 -0.125801 1.571952 0.149501 -0.527832 0.147059 -0.211226 0.547046 1.078311 -1.057183 -0.645884 0.356029 1.033707 -1.358349 -0.322522 1.355451 -0.184930 -0.359967 -0.091807 1.163253 -0.144606 -0.190933 0.927332 1.471123 -0.706513 -0.743630 2.323048 0.858538 0.136714 -0.209638 1.397485 -0.163270 0.044419 1.589140 0.355802 -2.293433 -0.864500 0.778980 -0.258225 0.324416 -0.418989 -1.896569 -0.282161 -0.220646 -0.363936 -1.182415 0.716542 0.433798 -2.130256 0.530767 0.963233 0.059227 1.696892 0.490538 0.306507 -0.491664 0.728133 -0.035866 1.073756 0.432862 -0.831273 2.057171 0.306336 -0.197977 -1.253898 0.245187 -0.446722 -0.217501 -0.492329 0.234480 0.247631 1.542667 1.839316 -0.975803 0.635630 0.968330 -0.709080 -0.241296 2.450480 -1.456411 0.744031 0.011503 -0.109900 -1.433863 1.806067 0.993722 -1.208983 0.523027 -0.937791 -1.964234 -0.405629 0.808452 0.187190 -0.340786 -1.717745 -0.253352 1.434408 -2.318395 -1.054090 0.181963 -1.230164 1.758333 0.303728 0.341699 1.545755 -1.126747 1.921242 0.357190 -0.876428
be -0.732666 -1.333513 0.537173 0.555700 0.259517 1.216852 -0.975811 -0.465101 1.939807 1.032365 0.354253 1.792962 0.898026 1.891914 -1.100576 -1.584953 -1.315727 -0.546981 -0.158485 -0.829701 1.013320 -0.171618 -0.014201 0.097388 -1.808499 0.771547 -2.024202 -0.463581 0.152354 0.547689 1.067604 0.562783 -0.931762 -1.182671 -0.403052 -0.971671 -0.704600 0.613385 1.488170 -0.989435 1.364515 -0.200220 0.840578 0.219422 0.296881 -0.826374 1.751990 0.410113 -0.918501 0.002639 -2.324446 -0.039950 -0.839574 0.015882 1.072290 0.095263 0.752737 -1.193071 0.235562 -1.586764 0.837656 -1.337285 -1.453266 0.511453 0.411707 -0.308558 0.162659 1.490453 0.423667 1.861296 -0.137757 -0.214977 1.880096 0.821196 -0.433074 -1.081935 1.713607 2.048055 1.070742 0.945811 0.477978 -0.523336 -0.329122 -0.126719 0.229225 1.435645 -0.963787 -0.114361 -0.042627 0.581522 -0.953551 0.653284 -2.324858 1.918369 -0.458183 -0.968361 -0.157164 0.078586 1.906973 -0.151977 0.437227 -0.714178 0.142427 0.946625 0.498440 -1.078752 1.185352 -0.036742 1.697396 1.379099 0.985121 0.158353 -0.892782 -0.834881 -0.706019 -0.432561 -0.782281 0.566423 -0.145844 -0.201226 0.768899 -0.275257 -0.644050 0.109925 -0.875615 0.212448 0.518719 2.312886
on -0.069643 0.165648 -0.265835 -1.227136 0.055963 1.744795 1.271932 -0.199541 -2.366410 0.848177 -0.186858 0.521392 0.809201 -1.173404 0.384811 1.307652 -1.921361 0.273196 -0.747172 -0.376148 0.067956 0.913112 -0.191161 1.565729 0.463247 0.182078 -0.502125 0.011386 -0.341650 1.045919 0.778914 -0.933729 -0.664896 -1.919708 -0.294299 0.702485 -0.503523 -1.492940 -1.341580 0.843338 -0.096571 0.487448 0.065070 -0.053104 0.393400 -0.247948 -1.273926 0.194860 0.105009 2.232594 0.476413 -1.021002 -0.133856 0.083404 -0.296496 0.476502 1.049608 0.227550 0.657899 -1.173960 -0.214402 1.278985 0.910161 -1.139843 0.825691 -0.933697 1.268512 -0.493026 1.900115 0.539702 2.068634 -1.045612 0.508388 0.532681 0.083476 0.213554 0.082637 -0.376870 -0.370261 0.516222 0.670542 -0.438864 0.623250 -0.287620 -0.246228 -0.334943 -0.743391 -1.638083 0.231668 0.795868 0.716975 -0.425444 0.007517 1.579187 -0.723168 -2.329967 -0.060568 -1.021146 -1.453856 1.025878 -0.762443 2.094883 0.265338 -0.043195 0.322372 -0.201522 -0.972570 -0.060063 0.938788 -0.964764 -0.249743 -0.949308 1.182211 0.055948 0.699928 -0.600054 -0.738996 -1.615710 -0.783587 0.188069 -0.163433 -0.012633 -0.328319 0.948958 0.431508 0.741906 0.314758 2.142829
her 0.880126 -0.291024 0.200547 -0.348604 0.608972 -0.201969 -0.339082 -0.630168 0.962931 -0.567387 -0.222027 0.442836 0.163626 0.015937 0.323141 -1.329973 1.245183 0.040472 0.651097 0.219916 -1.671928 -1.215897 0.535755 0.982554 -1.716176 0.799300 0.565421 -0.741816 -1.276248 0.520830 0.855088 0.179760 -1.423009 -0.587307 -2.131481 0.851381 -0.150844 0.732394 -0.964650 -0.712770 -2.485819 0.712323 -0.713577 -0.253466 -0.964321 -0.228353 -0.265611 0.353596 1.877273 0.447375 1.400629 0.345500 -1.280795 -0.650880 0.596806 -0.122674 0.685339 -0.491099 0.090498 -1.613457 0.963118 0.322414 -0.791307 -0.690324 0.111131 1.183708 -0.497047 0.978832 -0.181208 0.163031 -0.532192 1.599506 0.908415 0.728094 1.783668 -0.215471 -0.252816 -0.425111 0.774824 0.589858 0.773165 -0.631349 0.388961 -0.353702 1.179002 1.414923 -2.297484 0.947542 0.450667 1.093010 -0.609555 -0.266134 0.263652 0.234294 0.347355 -0.018054 -0.005322 0.251343 1.863085 0.131004 -1.070367 -0.880692 0.679533 1.072971 -0.414116 0.620183 0.160118 0.116657 0.671247 -1.270978 -1.042426 -1.206002 0.642859 0.595005 0.413818 0.322939 0.853656 -0.744206 0.098563 -1.137732 0.236555 -0.159353 -1.145324 -0.007334 -0.264887 -0.342133 1.164387 1.798116
my -0.186813 -1.498435 -0.961306 -0.899500 0.832183 0.283039 -0.321963 -0.365050 1.195058 0.239440 0.210512 -1.324924 0.413030 0.588696 0.735258 -0.217867 0.616762 0.232289 -1.011659 0.354038 0.248761 -0.033243 0.367354 0.117242 -1.744982 -0.723382 1.557121 -0.402053 -1.674327 -1.372701 -0.219514 1.236753 1.570598 -0.873423 -0.699214 1.858789 0.550679 1.575302 0.687530 -0.866170 -1.124752 -0.383851 -0.891507 -1.623835 -1.241696 -1.832943 -0.974324 1.370357 0.241749 -0.429484 1.316566 -0.161650 -1.040056 -0.633076 -1.019148 -1.793221 0.058745 -0.890863 0.198371 0.007126 -1.224928 0.825888 -0.614320 -0.372463 0.997046 1.173817 0.436227 -0.424925 -0.945386 -0.794609 0.676144 0.882873 0.440178 0.763150 0.311262 -0.827966 -0.712536 0.344362 0.155243 0.666278 1.864214 -0.440835 -1.127001 -0.839352 -0.193158 0.458319 0.406429 0.857406 0.403798 -1.133518 -1.890293 -0.523137 1.668219 0.064528 -0.764408 -0.690035 1.537892 0.997087 0.516616 -0.100385 -0.095979 0.269226 -0.492945 1.127515 0.144367 0.960921 0.145293 0.685220 0.590263 -1.769252 0.286691 0.068253 -0.826745 -0.111087 0.140171 0.785221 -0.479469 -0.022111 -0.232655 0.007133 0.615257 -0.823713 0.179493 0.916236 -0.418415 -0.542334 -0.216123 1.481621
him -2.259764 1.364315 0.437276 1.507450 -0.256309 1.764179 -0.888099 0.305796 -1.447905 -1.017894 -1.415817 0.935225 1.286241 -0.104481 0.860227 -0.914580 -1.671227 -1.114199 0.414177 1.306394 -1.077791 -1.196866 -1.210478 0.812459 -1.555146 1.274279 -0.432622 -0.596387 -0.255470 -1.837017 1.322099 -0.904019 -1.158275 -0.696313 0.170840 -0.056973 0.246368 0.321528 -0.799137 0.567925 -0.308709 0.030492 0.324691 1.025021 -0.620689 0.506106 0.064452 0.866402 1.459020 -2.418417 -1.348369 -0.251134 -1.139526 -1.522635 -1.245212 -1.077912 0.044131 -0.671376 1.643639 0.524388 0.199799 -0.644342 0.754444 1.054905 -1.013629 -0.489050 0.438731 1.823925 0.712624 1.513541 1.297890 -0.201078 -0.770333 1.570195 0.446218 0.453225 -0.942277 -0.096411 1.551969 0.421872 0.967405 0.498629 -0.633579 -1.263200 -0.076929 1.478315 0.094156 1.732153 0.404363 2.010648 0.114648 0.556325 -0.416316 -1.310787 2.499348 -1.064165 -0.245353 0.203963 2.249389 -0.377447 0.370438 -0.729384 -0.142103 -1.357255 -1.047648 0.701345 0.516429 -0.168489 -0.977892 -1.290778 -0.502655 0.446310 0.771486 -0.059491 0.422068 0.252625 0.702783 0.363211 0.795487 -0.562965 -0.906659 -1.480514 -0.255940 0.677722 0.969350 -1.341148 0.876766 -0.102173
have -0.423468 -1.780031 -0.205190 -0.370930 -0.263697 1.317523 -0.384027 -1.383120 -0.763715 -1.533554 0.362659 0.329063 -0.685416 -0.361286 0.439230 0.827006 -0.049282 -1.644257 -0.952042 -0.703151 1.583716 0.062051 -0.213431 0.753138 -0.737376 0.668878 -0.473181 -0.181226 0.077110 0.555576 -2.417778 -0.631658 -0.704433 0.921347 -1.816318 1.324031 -0.284680 -1.010114 1.363225 0.360825 1.247963 0.057198 0.012438 0.904631 0.491900 -2.329137 0.495462 1.551353 0.725507 1.408416 -0.020312 0.085158 0.295222 2.154931 1.130677 -2.385906 1.593500 0.868034 -0.920907 1.785430 0.495262 -1.783105 -0.755625 -1.111053 -2.117291 -0.081700 -0.408593 -0.015955 1.416898 -0.605843 0.677214 1.509007 0.237994 2.955173 -0.126600 -0.476195 2.636781 0.194381 1.633493 0.596984 -1.439066 0.026171 0.552707 0.294539 1.292049 1.184451 0.833560 0.370443 -0.031141 0.669882 -0.210724 -0.076440 -0.225230 0.242302 -1.657177 -2.202526 -0.441799 -0.125153 1.697557 0.299015 -1.003020 0.257437 1.550686 -0.977463 1.044539 -0.983754 -0.152177 -1.015367 1.304716 0.629040 0.516857 1.151910 -1.449470 0.462985 -1.244075 2.011774 -2.020952 0.637492 -0.355680 -2.239447 -0.286960 1.345147 0.953834 0.155792 0.094805 -0.567227 -1.360259 0.321359
by -0.710626 0.658059 -0.012560 -0.040717 0.722010 1.639624 0.304164 0.484884 -0.498260 0.236744 -0.365396 -0.338043 0.281636 -0.225157 -1.796174 1.077291 -1.440390 0.459829 -0.562654 -0.516469 0.961869 0.495629 -0.311281 -2.091503 1.359921 -0.106964 0.681738 0.005179 0.392784 -0.204130 0.516466 -0.497899 -0.989398 -0.125687 1.295633 -0.527174 0.093653 -0.295839 0.952158 1.205578 -1.382961 0.356901 0.528347 -1.909713 -0.830239 -0.163357 0.667750 1.298633 1.002012 0.959974 0.995969 0.902847 0.897821 -0.399769 -1.000938 0.356166 -1.192836 -2.021959 1.023651 1.263258 -0.168108 0.336207 0.013185 -2.849531 -1.667109 0.043503 1.830471 1.125909 1.209491 -0.916538 0.498883 -0.705714 0.166771 -0.470071 0.354287 -0.583934 -0.761604 -0.282840 0.960906 0.073710 1.265242 0.820318 1.129748 -0.531721 0.630844 1.069380 -0.489111 0.043046 -0.088961 -0.329280 1.019182 1.076198 -0.013529 1.218766 -0.159568 -1.306641 0.944926 -1.057238 1.138981 -0.526383 1.455878 0.384346 -0.011448 0.047051 0.678864 -0.486490 -1.317089 1.230259 -0.233753 1.523463 0.092282 -0.657515 -1.752582 0.459248 -0.820521 0.371414 -0.798091 -0.975099 -0.501105 1.319608 -0.434794 -1.446268 1.852833 0.560581 -1.561908 -0.398990 -1.100261 0.057517
this -0.371906 -1.542127 -1.179428 -0.668395 -0.474092 -0.207731 -0.063630 0.551818 -0.816720 0.523236 1.294060 -0.631887 -1.502270 -0.732737 0.652497 0.801885 0.215387 1.679431 -2.364527 0.026783 -0.685040 -1.852314 -0.142699 -0.538611 -0.204591 -1.388418 0.010274 -0.669081 1.897915 -0.186314 1.103327 0.609376 -1.295144 2.578892 -0.399873 1.362466 -0.604766 1.009010 -0.222787 0.623512 -0.310045 -0.213670 0.455777 0.237036 -1.238739 -0.945861 -0.906031 0.633318 0.276458 0.881363 -1.098127 -1.023707 -0.159182 -1.375151 0.773784 -0.148735 1.091040 0.573218 -1.404163 0.521591 -2.303474 -0.850183 -0.197887 0.444062 0.075195 -0.164604 -0.166110 -0.831077 -0.000354 -0.705399 0.844530 0.417791 0.178447 1.315447 0.190761 0.033515 -0.837193 1.100292 0.362003 -0.529559 -0.451366 -0.071043 1.103451 1.193056 -0.589101 1.053010 0.763762 -1.112731 -0.217772 0.227179 -0.478486 -0.061073 1.021438 -0.758602 0.238750 -0.020415 -1.659527 -0.018701 -0.397502 -0.843893 -0.629233 -0.490385 -0.565066 -0.382219 1.267314 -0.195173 0.926303 -1.241881 0.497153 -0.826172 0.350008 0.285240 -1.738679 0.817568 1.523659 -1.014038 0.929317 1.048198 0.794494 0.556783 0.769168 -0.879210 -0.789986 1.768821 -0.250270 -1.343117 0.014491 0.734589
which -0.199670 0.950574 -0.866793 0.923271 0.020442 -2.315191 0.257292 -0.449645 0.522750 0.393060 -0.524041 0.014666 -1.223243 2.192911 -1.190919 -0.815781 0.614173 1.693754 0.229815 1.813104 0.792753 1.876038 0.244786 0.679293 -1.309888 -0.627317 1.444872 0.726298 0.387566 0.398234 0.240754 -0.281300 1.033625 2.035742 -0.765468 0.391627 0.549123 -0.211926 -1.989686 -0.577254 0.583715 -1.689049 0.474733 0.327917 -1.039861 -0.623244 -0.558565 0.416209 0.104277 1.522249 -1.223769 -0.249528 -0.359654 -0.187040 1.211417 0.094926 -1.645424 0.632934 -0.414704 0.206788 -0.413425 -1.644483 -1.137375 0.578339 0.499008 0.788134 1.545717 -0.208517 -0.944340 -0.859545 0.147754 1.510627 0.465902 -0.226954 -0.919301 -0.168474 -0.169281 0.500311 1.243075 1.050556 0.212653 0.955407 0.907651 0.674903 -1.139759 0.472948 0.333506 0.215408 -0.736817 -1.794559 -0.557475 -0.020919 -1.481943 0.678541 -0.112548 -2.394072 1.134946 0.106716 1.595798 0.277989 -1.095017 1.028573 -0.949490 1.235132 0.352182 0.637504 -1.827902 0.019068 1.325241 -0.918264 1.261191 -1.251079 -0.459223 -2.727998 0.514943 -0.308679 -0.159700 0.277943 0.397944 0.581621 -0.224150 -0.012975 -1.296653 -0.058430 0.971936 -0.106162 0.813368 -0.489650
me -1.159734 1.083511 -0.555003 -1.504445 -0.032205 0.040704 -0.366965 0.371372 -0.292356 -0.699651 0.602426 0.088904 1.563909 -0.663644 0.060570 -0.668378 -0.895688 0.031348 -1.218934 0.834716 -0.677585 0.087145 -3.123557 -1.879560 -1.426236 2.218292 -0.877722 -1.680175 -0.047692 -0.855220 -0.657157 0.253583 -1.190578 0.308179 -0.403495 -0.124700 -1.667880 0.063990 1.060318 0.100447 -0.736359 -0.142768 1.317672 1.626529 -1.406986 0.470758 -0.252705 -1.515599 -0.363315 0.517076 0.402596 0.626053 0.128936 -0.867604 -1.472291 -1.822492 0.809871 0.297251 -0.210237 0.664366 0.494493 -0.654103 1.141781 0.096643 -0.099470 -0.015947 -0.019105 1.495602 -1.792256 1.369695 0.115208 1.416810 -0.189444 0.312975 0.045631 0.195563 -0.420182 0.194144 -0.963239 0.703678 0.829038 0.123836 0.416712 0.494268 1.515165 -0.870891 -2.079617 0.665715 -0.616803 1.241760 -0.164385 0.591763 0.893317 0.012792 1.012450 -0.391812 1.100525 -0.312080 1.770922 1.944281 0.432912 0.026690 0.863329 -0.518785 -0.311993 0.407920 1.070840 -0.614073 -0.188089 -0.953694 -0.670983 -1.230825 0.770655 0.360643 -0.691350 -0.370495 1.158395 -0.485556 0.127436 0.180617 -1.084720 -1.000491 -0.280294 0.714986 1.556014 -1.363291 1.890757 0.645968
all -2.020874 -0.159112 0.894987 -0.560377 0.859536 0.065458 1.022787 0.147699 0.862908 0.473641 1.527632 -0.473316 0.964965 0.223373 0.923352 -0.572849 1.001088 0.021377 1.195360 0.353419 0.871153 1.555757 -0.652675 -0.410567 -0.128597 0.970787 -0.361961 0.679772 0.203675 1.131902 -0.527702 0.285996 -0.600614 0.656021 0.421546 -0.548292 1.141555 2.000583 -0.912123 -0.475209 -1.253962 -0.575991 -0.632771 0.463217 0.408735 -0.663728 0.223130 -0.058327 1.335916 2.278503 0.785500 0.719459 -0.383565 0.644888 -1.035915 0.431526 -1.701295 0.486927 0.022692 -0.538744 0.285918 0.304664 0.113871 0.510033 -0.439706 -0.815020 0.494143 -0.584575 0.332656 -0.804431 0.854109 -0.544832 0.867861 2.102737 1.897151 0.102782 -0.100673 0.259682 0.610920 0.117642 0.252567 1.111453 -0.624272 -1.485805 0.617815 -0.288692 0.351153 -0.498524 -2.956411 -0.023210 0.647722 -0.821333 -1.666639 -1.530101 -0.393713 -0.751220 0.417798 1.907267 -0.826052 2.133740 2.360118 -0.370842 -1.430854 -0.994653 0.149944 1.206429 1.364212 0.167326 0.000264 1.952583 0.732283 -0.746972 -0.588722 1.628491 -0.095730 0.083680 -0.831113 1.705269 -0.161336 0.120427 -1.671080 0.011779 0.366106 0.440658 -0.248281 -0.613112 -1.455399 0.070765
said 0.308823 0.303026 -0.232512 0.623475 0.687209 -0.237048 1.102211 -1.384546 -0.189469 -0.272980 -0.507186 0.591587 0.549861 1.128934 1.002777 0.602303 1.250432 -1.778476 -0.181522 -1.469244 0.076282 -0.630693 0.413005 -1.057537 2.140423 -0.656856 1.277056 1.449231 0.666552 -0.714868 -0.353568 0.788497 -0.703824 -0.600216 -1.302139 0.682080 -0.462652 1.601077 -0.025854 -0.235412 0.532118 -0.208662 -0.004497 0.514295 0.985729 -0.334146 0.296945 -0.694307 -0.678404 -1.847393 1.589485 0.180755 1.235593 -0.254128 1.278752 0.078624 0.966859 0.219551 0.152096 -0.949799 -0.541220 1.079810 0.192902 -0.406554 0.069301 1.664326 -0.475585 0.954463 -0.244142 -0.572431 -0.602970 -0.685848 0.067309 0.640397 0.935254 -0.805847 -0.008879 -0.425356 -0.255643 -0.128432 -0.704159 -0.667245 1.130095 1.049290 0.005930 -0.495089 0.948509 -0.744546 0.934978 -0.356044 -1.352666 0.636382 -0.186399 1.273729 0.853193 -0.633892 1.750148 0.126734 0.073134 1.614628 0.412679 -0.612530 0.468537 -0.170327 -0.922540 0.188352 -0.795567 -1.032749 0.841706 0.033799 0.789717 0.031027 -0.095627 -0.663567 0.886785 -1.737337 -0.561741 -0.189109 1.485790 0.157549 0.605058 0.926539 -2.314629 -0.468107 0.440363 -1.074118 0.232908 0.118511
she 0.934516 0.090751 -2.180213 -0.008577 -0.299574 -0.720170 0.914869 -0.943298 -0.821296 0.817602 -0.697328 0.735216 -0.360589 0.187179 0.751472 -0.806762 -0.894898 1.494745 -1.916870 0.632157 -0.134405 -0.478006 0.812643 -0.619356 0.951034 -0.641190 0.805616 -1.187264 1.143847 0.742544 0.771127 0.434711 1.283634 0.200281 -0.540733 0.136959 -0.017473 -0.167457 1.464710 -1.573588 -0.171670 -0.593256 -1.255280 0.686426 -0.326921 -0.482030 0.594129 1.709558 -1.427509 0.384801 0.322058 0.739594 -0.899541 -0.366594 -0.958514 -0.251245 -1.573647 -1.366559 -0.123501 -0.232225 -0.080132 0.341059 0.735611 -1.653183 -0.844520 0.061523 0.718850 1.317157 0.861136 0.107952 -0.755046 1.236730 0.821212 1.661043 -0.547365 0.005287 0.378260 2.964007 0.738256 1.419457 -2.126488 -0.616700 -0.646196 1.118910 -0.085820 -0.141156 0.243337 1.019246 1.518700 0.439116 -0.743326 0.817344 0.715281 1.862710 0.356055 -0.920608 -1.396274 0.552245 -0.068039 1.282663 0.765725 2.476164 -2.048826 -0.662901 -0.776667 -1.066069 1.686082 0.346249 -0.774324 0.398242 0.501548 -0.208412 -0.156279 -1.025442 -0.338383 -1.956730 0.898609 0.103278 -0.719252 0.154262 -1.052375 -0.621323 1.088403 0.450241 -0.202176 -0.049353 0.142420 0.074418
from -0.511231 0.975063 -0.020732 -0.548305 -1.602087 -0.149940 1.120849 -1.298503 0.025517 -0.033073 0.388166 1.221333 1.673117 -0.556913 -0.259285 2.477352 -0.591682 1.527875 0.450352 -1.002113 1.479033 0.150991 0.926860 0.764490 1.006196 0.322506 -0.133313 0.414553 -0.573075 -0.842944 -0.532307 -0.398803 0.107710 -0.217017 -0.546594 -0.821896 1.557272 0.932655 0.217578 1.060298 0.999957 0.766252 0.361790 -0.864697 -1.895950 0.215607 0.202351 0.435516 -0.137840 1.486813 0.916283 1.283210 -2.184212 1.030432 -0.657016 -0.480248 0.580458 -0.295386 -0.763783 -1.137354 -0.585180 1.812427 0.740493 -0.290816 -0.833742 0.762122 2.849021 0.219503 0.492586 0.498180 -0.716502 -0.863240 -0.156960 0.271202 0.268235 -0.047123 0.038239 -0.588980 2.452755 -1.085717 -0.765531 0.875306 1.164863 1.501010 1.445619 0.452950 -0.925208 -1.039041 -0.301661 -0.202483 0.637378 0.836357 0.469727 1.848159 0.704530 -1.543674 -1.219345 -0.133857 -1.472160 -0.982353 -0.182743 0.663907 -0.733928 -0.040331 0.830456 -1.226977 -0.581576 -0.627074 -0.040059 0.617669 -0.505478 1.716038 -0.416050 0.821479 0.818603 0.112553 -1.507256 -0.619724 0.259521 -0.466799 0.457815 -0.595412 0.395431 0.676341 0.145494 0.462640 0.545236 0.235250
or -0.947410 -0.851991 -0.112701 -0.229857 1.468176 -0.555489 -0.459073 1.065633 -1.312261 -1.427521 0.157401 0.733697 0.779360 0.141047 -0.943343 0.404908 0.540526 -0.520644 -1.583516 -0.005506 2.074437 -0.835878 0.072603 0.820281 0.140003 1.103593 -0.753462 0.666046 0.206449 2.802441 0.661939 -0.273377 -1.997907 -0.232476 1.149295 1.546558 0.327573 0.389412 -0.732534 -1.056073 -0.437801 -0.830114 -0.021118 -0.886679 -1.168524 -0.374570 1.218721 -0.545920 -1.198279 0.688100 0.130615 0.332992 0.180196 -0.728021 -0.628278 0.315243 0.555996 -1.762013 -0.658853 1.359144 0.029222 -0.661320 -0.448075 -0.013466 -1.556459 -0.060660 -0.665612 0.485350 -0.127359 -1.108535 0.905317 -0.382997 0.437715 1.074492 -0.275391 0.567277 0.897100 -0.062263 -0.264238 -0.130225 0.345120 0.096391 -1.241845 0.653906 0.689478 0.023632 -0.729275 -1.200822 2.295491 -0.735645 -0.988206 0.287155 -0.890438 -0.081788 -1.234247 0.027270 0.480311 0.795815 -1.633301 0.089267 0.496707 0.302890 0.478647 -1.506806 0.490692 1.064771 -0.837779 0.543625 -1.464367 -1.544467 -0.427676 -0.041254 -0.215416 -1.420296 -1.268541 0.396963 -1.419874 -0.117740 -1.214015 1.309394 -1.053175 -0.147976 -0.695449 0.601742 -0.421448 -0.862311 0.900158 -0.377254
they -1.774447 -0.449053 0.312269 -0.959401 0.275527 1.502898 -0.609348 -0.971814 -0.465068 -0.063787 0.197130 0.954176 0.137463 -0.344431 -1.659508 1.878230 1.931404 0.669982 0.049467 0.515925 -0.850671 1.073306 -1.423257 1.091963 -0.168532 0.943590 1.970883 -0.480425 -0.856594 -0.771823 1.140471 1.207232 -0.676307 -2.071726 -2.072167 -0.514054 -0.538240 -0.832272 -0.709538 0.846615 1.070038 -0.077171 0.496682 1.899948 0.420494 0.223670 -1.068391 0.003236 -0.938727 0.849189 0.874698 -0.433342 -0.316495 -0.176135 0.116496 -0.799298 -2.742036 0.217032 -2.111920 0.206839 -1.603116 -1.182140 -0.193622 0.352945 0.168715 -1.890241 1.189844 0.486942 1.059578 0.539557 -0.427843 -0.028879 1.616559 1.341999 0.761198 -0.726451 -0.468948 2.697081 0.538780 0.425938 0.826460 0.321487 1.284069 0.705524 0.608369 -0.130276 0.822011 -0.622491 0.970329 -1.531481 -0.232505 -0.934699 -0.483654 0.637462 -0.630017 0.746774 -0.099938 -0.089189 -0.972596 -1.307070 -0.884401 1.800542 -1.854662 -1.681900 -2.018233 0.610982 1.611772 -0.064550 1.621888 1.928578 0.408320 -0.406095 -0.139593 -1.344402 0.735563 -0.677374 1.401638 -0.002462 -0.677505 -0.340866 -0.191134 0.864127 1.113588 -0.978926 -0.530394 0.500881 0.855036 -0.356388
so 0.095580 -1.147263 0.483874 0.301254 0.375226 0.483790 0.330847 1.205764 -0.419894 1.188772 1.656380 0.411545 -1.202986 0.875668 1.422503 1.058105 0.830966 0.597004 -1.534287 -0.707933 0.594638 0.113737 -0.294918 1.472779 0.104306 -0.052912 -0.635232 -0.569232 1.213008 -0.260881 -1.482020 0.904426 -1.082950 -0.155410 0.101769 -1.091848 -0.453897 0.883421 -0.889496 0.795822 -0.529335 -0.254881 0.697256 0.020585 1.219436 0.233149 1.800583 -1.653589 0.749020 -0.793839 -0.364955 0.872984 -0.675143 0.286110 0.237813 1.065841 -0.016632 0.578294 0.316504 -0.055583 -0.502790 0.310122 -1.190288 0.206697 0.636014 0.762053 1.504629 -0.033399 -0.216622 0.129053 0.954548 0.015859 0.757587 1.142209 -1.736686 -0.953894 1.033567 1.934567 -1.091149 1.829258 -0.522352 -0.095550 -0.189275 2.217020 0.718243 -1.144476 0.293618 0.641253 1.633152 -0.916353 0.419120 1.476579 -0.080716 1.123845 -1.025068 0.498072 0.093203 0.582378 1.408750 0.315071 0.293592 -0.498158 -1.128162 0.463028 -1.029608 0.245712 -1.374441 -0.699914 0.261658 0.207945 -0.754128 0.050299 -1.059259 -0.692940 0.519994 -0.425447 1.255430 0.216186 1.896273 -0.006091 0.625969 0.594484 0.266904 -1.086123 0.366466 -0.931450 -1.298791 1.542357
are 0.424013 -0.523986 0.235852 0.100338 1.082445 0.283264 -0.645702 -1.453198 1.305406 1.215650 -0.739814 1.183963 1.361021 -0.521866 0.508074 0.266456 1.544492 0.657563 -1.956349 -0.734839 0.850832 -0.304854 -1.428221 0.164016 0.397684 1.565658 -2.056581 1.139160 0.686347 0.717151 0.515171 -0.165102 -0.315041 0.573037 -1.909142 -0.306595 1.633281 0.005944 0.460435 -0.533052 -1.412975 -0.072596 0.216493 -0.202893 1.819967 -1.174373 1.524397 0.765248 -0.094638 -0.681376 -0.069873 -0.996850 -0.734072 0.552424 -1.645798 -1.064337 0.222735 -1.292031 -2.594362 0.519300 0.882792 -0.676667 0.890751 -0.934414 0.286686 2.166882 -0.756793 -2.781350 -1.129142 0.937255 0.880803 -0.625258 1.972610 0.149736 1.619835 0.431132 -0.441570 -0.238087 0.504234 0.432666 -0.202924 -0.040972 -0.282819 1.199814 0.004064 -0.020605 -1.561510 -0.851495 0.100894 -0.647102 -0.795294 0.884086 0.434870 -0.046750 -0.851352 0.408682 0.488148 0.016605 0.320582 0.970374 0.558279 1.985187 0.219439 0.058636 1.144412 -0.298785 -1.235219 -0.345492 0.059842 0.676850 -0.334203 1.232127 -0.656845 -1.881738 -0.845855 -1.393680 -0.824412 0.762961 0.059363 -1.841620 1.038643 -0.330024 1.276780 -1.112410 0.612964 2.467309 0.407425 -1.660253
one -0.186173 -0.276387 0.212269 -0.312069 1.038850 0.197386 -0.524282 -0.534622 -0.676807 -0.369442 -1.607039 1.064905 -1.421410 -0.947212 -0.264895 0.276005 -1.004439 1.061106 0.816069 -0.097647 0.120740 0.958998 -0.496594 -0.587918 -1.278794 -0.544808 -1.106285 0.079100 0.539526 1.875224 0.428319 -1.198669 0.282544 -0.380799 1.478192 -0.266453 0.228165 0.965198 -0.541813 -0.926939 -1.009019 -1.001715 -1.972539 0.015544 -0.591782 -0.733857 -0.263080 0.892739 0.165441 -0.431255 1.596466 -0.195537 -0.187474 -0.364543 0.611564 1.037446 -1.737854 -0.183700 -0.643842 0.004985 -0.786033 -0.620380 -1.089741 -0.540345 0.325189 -0.290506 0.767893 -0.469278 1.575688 1.125668 -1.796717 -0.019572 -0.051946 -0.119275 0.351360 0.313463 0.145126 -1.223424 -0.531351 -0.146501 0.637831 -0.906419 0.815518 -0.743596 -1.066254 -0.944475 -0.593067 1.123698 -0.452718 -0.235266 -0.007068 -0.535617 0.990094 0.374174 0.906264 -0.531924 0.487740 3.526105 0.787838 0.077360 1.958862 -0.140033 1.034788 -1.350543 -2.160696 0.732235 -1.087625 0.955370 -1.027348 1.730152 -0.256653 0.197883 0.471281 -0.362142 0.595774 0.015088 -2.455798 1.353296 0.643773 -1.094453 1.985771 0.025742 0.976148 1.254535 0.825318 0.923810 0.089791 1.298509
were -1.205394 0.218937 -1.018584 0.464369 1.318355 0.394749 0.837176 -0.162178 0.481358 0.272355 -0.660613 0.161216 0.584698 0.999093 -0.648722 -0.151005 0.251061 -0.253573 -0.266466 -0.051039 1.571328 0.446177 -0.234484 0.413417 0.176352 1.705193 -1.035424 1.129508 -1.009271 1.206045 -0.298736 -0.795432 -0.297343 0.684922 -1.270211 0.915260 1.812950 -0.619097 0.143735 0.682798 -0.991594 -0.276465 0.460082 -0.856649 1.771386 -1.364774 0.637640 -0.534313 -0.435250 -1.024382 -2.087566 -0.828268 -1.199751 0.332905 -0.891708 0.527846 0.124956 -1.722744 -1.075388 0.344819 0.633977 -0.232748 -0.893046 -0.208612 0.804313 1.705337 0.893126 0.587469 -0.668761 1.528079 -0.510143 -0.661673 1.353178 -0.252448 0.599680 0.628543 0.356615 -0.040976 1.000245 1.344834 0.959584 -0.644435 0.665716 -1.865015 -0.834893 0.353049 -1.686832 1.045936 -0.643146 -0.023084 -0.517526 1.116537 -0.713977 -0.554907 0.894427 -0.792082 -1.220307 -1.481601 -0.654538 0.020514 1.122219 -0.915784 -1.143972 -0.796100 0.482447 -1.390109 -0.672661 -0.201742 1.701972 0.876591 0.171672 -0.760605 0.558187 -1.963705 1.099536 0.547868 0.558608 1.923143 -0.787540 0.114332 0.070749 0.543624 2.196943 -1.312617 0.554829 1.526808 -1.162408 0.449671
what -1.090616 -2.403078 -0.121604 -0.610069 -0.321863 -1.637925 0.756856 0.360831 0.162930 0.848296 0.797128 0.534552 -0.810551 -0.524294 -0.261956 -0.799254 -1.151340 0.008833 0.558944 -0.764722 -0.232608 -0.448854 1.464611 -0.562765 1.618064 0.071306 1.234580 -0.189581 1.231281 1.585612 -0.401054 -0.258555 0.278110 -0.568164 0.061941 -1.170180 0.416575 0.949612 -2.465534 1.082852 -0.390441 -1.427256 1.026873 0.711146 -0.381239 0.741810 -1.532078 -1.306931 -0.714194 0.570428 0.367483 0.830862 1.302752 -0.113209 1.170690 0.187715 0.523780 0.696216 -0.449900 1.899807 -1.881181 0.988524 -0.727214 0.632508 -0.670269 0.938490 1.686078 -1.654002 -0.776533 0.004479 0.259105 -0.123427 -0.121345 0.464709 2.363750 1.129869 1.186773 -1.235497 1.253525 0.633012 1.127131 -0.373708 0.761595 1.183291 -0.210590 0.650007 -0.424534 -0.265918 -0.796960 1.650187 0.208238 0.237980 2.401822 -1.486380 -0.902725 -0.643335 1.026563 0.410849 1.215737 1.651584 0.583348 0.082745 0.521288 1.484905 -1.735454 1.236857 0.431379 -0.023781 -1.362125 1.659131 0.448203 -0.574359 -0.790350 -0.595621 -0.424415 -1.794094 -0.517727 -0.237718 0.186368 -0.867752 -0.350190 0.082148 1.159018 0.823347 1.865479 -0.118725 -0.005430 -0.083472
when -0.353456 -0.733142 -1.722178 -0.099784 -0.715615 1.124641 0.175803 -0.099118 -0.167686 -1.261260 -1.566655 -1.708628 -1.391532 0.534264 0.552057 0.095334 0.736114 -0.647147 -0.407987 2.327754 0.625840 0.634724 0.240831 -0.764929 0.882054 -0.761599 0.027669 0.853753 -0.982326 -0.622273 -1.199422 -0.325795 -0.406428 1.490557 0.069088 -0.686868 0.499418 -0.354782 -0.759236 1.230561 0.058342 1.394379 -1.420513 -0.787882 0.525007 -0.860493 0.287077 0.402643 1.029009 1.047036 -0.895412 0.427806 0.388038 -0.624590 0.456206 0.650070 0.074049 -0.030979 1.399533 -0.221923 0.965123 -0.358875 -0.493822 -0.271208 -1.590940 -0.485423 0.070913 -2.205075 1.025724 -0.405172 1.257707 1.187213 -0.450175 0.386817 0.090984 -1.540076 -1.811324 -0.981248 1.731225 -0.263670 1.214667 0.525035 -1.038233 1.268222 -0.039048 0.461544 0.404792 0.626054 -0.976038 1.648742 -0.175532 0.041680 1.127901 1.865805 1.667244 -1.396913 -0.511719 1.049519 0.384244 0.827889 0.238076 0.416112 -0.382579 0.535286 -0.596779 0.314356 -0.626823 0.118357 -0.667789 1.183901 1.179940 -1.767149 -0.421581 -0.481111 -0.061715 -0.591730 -0.698860 0.399277 1.632419 0.960868 -1.203256 0.808006 -0.689892 0.094225 -0.189501 0.031926 0.528377 -1.194630
no -1.400134 1.865505 1.214681 -0.990627 -0.251529 -1.700330 -1.008455 -0.762464 -0.766366 0.247106 0.245890 1.470097 -0.832902 0.655850 -0.748561 0.808971 1.272432 -0.224296 -0.548221 -1.474401 1.179608 0.286799 -0.393114 -1.512024 -0.046784 -2.473417 -1.206241 -1.526644 -0.343500 0.092405 1.415172 -0.444917 0.290069 0.528021 0.248106 1.988085 -0.442153 0.557293 1.027576 0.421138 -0.013182 -0.069453 0.256553 -1.445535 0.647235 -0.629170 0.169755 -0.867932 -1.470561 0.080708 0.394594 1.399648 0.398349 -0.670764 1.812367 0.174595 -0.121235 -0.858613 0.591290 0.875003 -1.503671 -0.452145 -1.221187 0.552064 0.870942 0.434794 1.359107 -0.202101 1.729521 -0.225203 -2.178755 -0.576533 -0.988576 -0.678266 1.024075 0.443346 -0.948288 -0.187828 0.700089 -0.235955 -0.197869 -1.425846 2.199677 0.175259 -1.126719 0.110096 2.084822 -0.675353 -0.743271 1.858957 -1.175608 -1.775188 -0.324669 -0.296723 0.157313 -0.553708 -0.966823 2.129018 0.008510 0.901799 -1.428996 -0.223989 0.020865 -0.444522 -0.314951 0.423354 0.096710 -0.112376 -0.185124 1.308646 -1.213622 -1.532803 -2.224416 0.059403 0.113924 1.404997 0.081407 -0.551246 -0.334800 -1.241441 0.118666 0.805072 -0.047718 1.106694 -0.641792 -2.473374 0.536803 -0.128118
if 1.111569 0.218054 -2.339612 1.187210 -1.234878 -0.136808 -1.436536 0.022144 -1.424459 -0.497025 -0.010578 -0.447859 -0.082289 -0.268757 -0.129707 1.220610 1.872726 0.957137 -2.127220 0.174558 0.597717 -0.375213 3.051175 -0.450757 -1.294836 2.269843 0.519959 -0.205856 -0.274901 -0.247636 1.286306 0.213285 -0.368982 0.465557 0.129383 -2.074690 -0.041015 -1.030283 0.952569 0.002598 0.886877 1.008492 0.298619 1.397074 0.313383 -1.600652 0.885110 -2.244927 -0.778069 -0.777952 1.242872 -1.795156 0.415537 1.127649 -0.018154 0.021152 1.579683 -0.424737 0.629158 0.043551 -0.073671 0.571435 1.014013 0.433419 0.138413 -0.632386 0.212853 -0.913333 2.249527 -0.611148 0.934682 1.124078 0.769890 -0.797081 1.230742 2.844103 -2.405546 0.124885 0.445359 -0.846307 0.378696 -0.144217 0.782717 -0.058638 0.333512 0.938070 1.196554 -0.102379 -2.207705 0.756081 -1.110468 1.648651 -0.662031 1.114221 0.017352 -0.040628 0.310286 1.004437 -0.217386 -0.488471 0.735981 -0.559920 1.024496 -0.387774 0.631347 0.407124 -0.587373 0.652670 -0.306903 1.862930 0.754888 -1.937546 -0.699480 0.044515 1.068403 -0.703036 1.717002 1.869328 2.634264 1.001114 1.487243 0.834094 1.367748 -0.320495 -0.314207 -0.442195 -0.318343 -0.501881
there -0.153174 -0.886442 -1.362062 -0.588314 0.139179 -0.057742 -0.182812 -1.618827 2.164933 0.180801 0.025844 -1.472668 0.347973 -0.438821 -0.080321 0.092406 0.636848 1.617037 0.346293 0.526446 0.574802 -0.150921 0.243197 -0.246644 0.580693 0.724670 1.519766 0.971005 -0.086437 0.170701 -0.963942 0.194583 0.647272 -0.451234 1.399110 -1.082065 0.704271 1.482649 -1.286456 -0.445952 2.548820 -0.638022 0.804513 1.782670 0.358862 0.097578 0.590376 0.654360 0.634108 0.103832 0.081457 0.454951 0.397394 -1.362090 0.288736 -1.661448 -1.243797 -1.239140 1.240428 0.754413 0.726226 -1.468077 -0.624337 -0.935136 0.647691 -0.686534 1.419115 -0.623032 -0.619214 1.426720 -0.983271 0.177251 1.397300 -0.598140 1.016885 1.606933 0.000972 0.120947 0.437358 -0.446194 0.426330 -0.374324 1.050600 -0.178169 1.233529 -0.480346 0.874978 0.458636 1.370202 -0.211234 1.086911 -0.126857 0.271483 1.155791 -0.462499 -0.901611 -0.851589 0.880222 -0.248134 1.539826 -0.826889 1.071290 0.455383 0.212320 0.703196 -0.025273 0.683338 0.490196 0.419478 0.445777 -0.463982 -1.119939 1.149689 -0.882236 0.239983 -0.012567 0.873528 0.534715 -0.082737 -0.062373 -0.610443 -0.183930 -0.671249 0.939376 1.378595 -1.257959 -0.410417 -0.262306
who 0.295199 1.109419 -0.791672 0.765695 0.071183 2.178305 2.043533 2.621625 0.730559 0.848070 -0.017961 -0.599887 0.193520 -0.250260 0.781326 -1.377492 -1.278592 -0.094792 1.834942 2.775909 1.128095 -0.393938 0.077619 -1.022728 0.710972 -1.237798 -0.119075 0.515059 0.294662 -1.085186 1.292356 -0.154550 0.229841 0.552930 -0.242270 1.472360 0.629379 -0.264096 -1.310644 0.410357 1.109529 0.292531 0.910715 0.523042 -0.279881 -0.756203 -0.958751 1.187668 -1.234238 -0.331099 2.648672 1.790697 0.735931 -1.484282 -1.012861 -1.768457 -2.325547 0.509935 -0.101198 -1.414036 0.872743 -1.525446 -0.728311 -2.098885 -0.310595 0.771312 1.848251 -0.430874 -0.366162 0.264736 0.184139 0.988648 0.272547 -1.264971 -0.121604 -2.290709 1.279374 -0.828488 -1.604330 2.469197 0.072076 -0.017074 0.498115 -0.276292 1.169189 0.326010 -0.838592 -1.033887 -0.316911 1.109936 -1.255778 0.293444 0.847619 0.256161 -0.670416 -1.846291 -1.465234 1.016517 -2.177251 0.962339 -0.192563 -1.992287 -0.537161 -1.807988 0.637433 2.616147 -0.156429 -0.140423 -0.587274 2.351702 0.104060 -0.367750 -1.771515 -1.406478 0.561897 -0.954402 -0.055209 0.373940 -0.203923 -0.649251 1.046476 0.788708 0.109068 0.372861 1.229945 0.982864 -0.717512 -0.111672
we -1.738685 -0.016417 1.005746 -0.016537 2.087636 1.231272 0.712433 0.184836 -0.277924 0.050683 1.518983 0.376129 -1.056131 0.259512 -0.644680 1.389485 -0.581525 0.023693 0.141765 0.407670 -1.279163 0.088016 0.675969 1.285928 0.747519 0.838449 0.785068 0.462192 -1.196856 1.423823 0.872191 0.129313 -0.335181 -1.157858 -0.152230 -1.366887 -0.115671 -0.611826 0.566014 -0.917050 -0.280168 0.217943 0.152084 0.518560 2.044433 -1.137156 0.246520 0.143681 -0.952960 0.466823 0.875160 -0.622937 1.008854 -1.282289 -0.620508 -0.868236 -1.203448 -1.247656 -1.542152 0.219921 0.839666 -0.195325 0.913220 -1.056833 -2.454599 -1.151814 0.920183 -0.576339 -1.625027 0.142572 0.259308 0.626114 3.097254 0.437885 -0.867858 -0.347498 -0.965357 2.078187 -0.043012 1.374155 0.174277 1.106808 -0.764982 0.747001 1.574071 -0.879349 0.049167 0.132171 1.844960 0.010006 -0.161578 1.295329 2.081764 0.940044 -0.076115 -0.026581 -1.743891 0.910164 -1.607664 0.095840 0.524154 -0.361589 0.002240 -0.186845 -0.242540 1.148760 1.049068 0.412195 -0.079744 1.371830 0.436935 -0.954120 0.212661 1.060049 0.502176 0.667737 1.213372 -1.928015 -0.362033 -0.387261 -1.479745 1.098753 -0.491161 0.117326 -0.903929 1.339080 1.505769 0.093203
will 0.232686 -0.474248 0.676101 -0.721879 0.048014 0.424361 1.272212 -1.751956 0.009365 -1.175369 1.180906 1.003276 -3.257279 -0.572845 0.210802 -0.120330 -0.492064 0.298234 -1.012078 1.529069 1.119257 -0.126410 0.294577 1.328764 0.573855 0.635556 0.873930 -0.699209 -0.308011 -0.042198 -1.700649 0.544002 -1.323288 -1.419812 1.395172 -0.327004 0.174331 0.279634 2.179391 0.681935 0.035345 -0.042197 -0.806900 0.218251 -0.271094 -1.426199 -0.159832 -1.764202 -0.316077 0.485700 -0.083931 -1.465984 0.339609 0.166511 0.179329 0.065483 1.268859 -1.171230 -0.015417 0.535387 1.115803 -0.117193 -0.514343 -0.388376 0.685088 0.230447 1.427376 -0.122907 -1.162235 -0.059654 1.126049 -1.034927 -0.748754 0.048139 0.570500 0.167930 -1.085307 -2.185142 -0.217164 1.500746 1.369628 1.680048 1.682950 -0.165032 0.131330 -1.190273 -1.123931 1.501373 0.096055 -0.063469 0.328614 -1.571404 -1.440785 0.883370 0.070443 -1.230611 0.487268 -0.371711 -0.965880 -0.207454 0.786607 -1.235989 -0.314525 -0.054895 -0.529662 1.255864 0.451503 0.108982 -0.096841 0.036559 -1.502577 1.471470 0.217791 0.183214 0.682696 -1.220479 -1.378817 -0.772652 1.468079 -0.864056 1.009482 0.610753 0.717858 -1.867356 1.215382 -0.830497 -1.743546 -0.814349
an 0.227124 -0.307256 0.153620 2.085685 0.331120 -1.518890 -1.233844 0.055184 -0.129016 0.516214 -0.719999 1.710326 -0.688793 -1.729831 -1.160708 1.761004 2.675089 0.430881 -0.836050 0.774903 0.405474 -0.413340 -1.435327 0.083566 -1.607059 0.336329 0.477046 0.059400 2.753285 1.447394 -0.246212 -1.700797 -1.483976 0.110253 -0.623596 2.242580 0.014178 -0.404037 -0.060084 -1.643239 -0.207495 -0.152031 0.086956 -1.992998 0.028789 -1.814079 -2.002709 -0.446728 0.370604 -1.873362 0.182428 -1.020194 -0.422574 -0.862675 1.083116 -0.177441 0.425393 0.145518 1.654753 1.339842 -1.895304 -1.347636 -0.248553 0.034397 -1.120983 0.850961 -0.016743 -0.858118 -2.855101 0.673950 1.247873 0.635242 1.356604 -0.636092 0.121447 0.104234 0.780151 1.837980 -1.067674 1.427906 -0.692183 -0.723425 -0.014876 -0.323106 -0.611961 -0.044321 -0.110554 0.663809 -0.660701 1.136034 1.334737 1.014773 0.008030 -0.468317 0.343089 -1.188950 -0.883711 -1.260728 0.121436 -0.458096 -0.737897 -0.456336 -0.688115 -0.638889 -0.157960 1.118674 0.616516 1.684477 1.369421 -0.339299 1.326401 1.410856 0.553874 2.212635 -0.651569 -0.600669 0.244074 -0.564227 1.352659 -0.828184 -0.555898 2.003937 0.750981 1.533733 -1.228230 0.606857 2.947076 -0.477284
then -0.403419 -0.825581 -1.124429 0.359054 1.182365 0.345866 0.084841 -0.396139 0.851056 2.619749 -0.495882 1.871918 -0.311176 1.147520 0.020762 1.142891 0.645007 -0.716345 -0.655150 -0.107454 0.602928 -0.100782 1.608977 0.853809 0.299634 1.312008 1.041867 -0.407264 0.081469 -0.161497 1.360107 -0.375742 0.874594 0.521206 0.240938 -1.419630 -1.550558 0.160819 -0.092510 -0.235989 0.689303 -0.532977 0.378482 -0.832414 0.136411 -0.935613 0.608646 -0.658213 -0.324368 0.585493 -0.076955 0.192739 -0.211580 1.598437 -2.200288 -0.321615 -0.067650 0.940807 0.709265 -0.333996 0.268729 -0.337389 -0.484416 -0.662560 -0.467759 0.221305 -0.145370 2.287422 0.409783 -0.902550 1.721956 0.244664 -0.808024 -1.313709 1.082873 1.631112 -1.083976 -1.314009 0.506118 1.087550 0.797048 -1.080743 1.171170 -0.674235 0.925206 1.933355 0.643896 -0.410318 1.322968 -0.475408 -0.651260 -0.385553 -0.720172 0.414404 -0.734185 -0.364048 0.239149 2.262600 1.483017 0.377764 1.076070 1.302099 -0.473824 0.499887 -0.593752 0.421008 1.589901 0.161256 -0.807491 1.481642 -0.741240 -0.146696 -0.361714 -0.562040 -0.017810 -0.384224 1.321193 -0.466438 -0.879732 0.464251 -0.709658 0.599729 0.030524 -0.907933 0.298548 -0.034425 -0.102134 0.559340
their 0.241913 -0.280699 0.453720 0.164933 -0.452010 -1.057665 0.792953 -0.744719 0.022187 -0.225445 1.284855 -1.092938 -0.786548 1.398687 0.123115 -0.213369 1.764397 2.097267 -0.759176 0.561466 0.592466 -0.407476 0.620532 -0.047206 -0.042751 0.072335 -0.533342 -0.820618 -0.364155 1.361246 1.750052 -0.825396 -0.393082 -0.916632 -0.496754 2.130015 -0.197613 1.469115 1.583688 -1.906633 -0.097285 -1.175491 -0.728977 0.029739 -0.699022 0.154804 -3.055405 0.336624 2.468958 1.045866 -1.175462 -1.365572 -0.497339 -0.911445 -1.697769 -0.988002 0.351405 -0.068452 -1.401697 0.479780 -0.272281 -0.286366 -0.669166 0.953793 2.106910 1.994233 0.426542 0.130060 -0.088290 0.010134 0.373312 1.292586 -0.383020 0.196286 1.188987 1.150994 -1.973025 -0.105919 -0.216805 1.022836 0.261714 -1.621998 -1.137826 0.116279 0.826580 -0.414250 -0.288114 1.114210 -0.019095 0.001327 -0.139931 -0.125741 -0.329670 -0.406995 0.683727 -0.803598 0.485844 -0.980904 -0.087017 -0.940350 -1.433135 -0.592281 -0.312231 -0.307874 -1.257908 -0.417249 -0.296007 0.235106 -1.028487 -0.836163 -1.041550 0.587541 -0.545664 0.867811 0.247051 0.159349 -0.838456 -1.032693 0.365812 -0.223335 -0.183149 0.248021 0.875850 1.822812 -1.409877 0.543207 1.597182 0.601074
would -0.648486 -1.122293 -0.407350 0.044007 1.163646 0.192237 -1.123693 -1.238526 0.221301 -0.446385 2.196650 0.473909 -1.538373 3.059247 -1.231889 -0.984422 1.408074 1.489992 -1.422808 0.526788 1.407377 -1.070052 0.336463 -0.192828 1.825738 0.575641 1.033228 -0.137840 -0.157896 -1.226896 0.930559 0.589584 0.566625 1.263113 1.460098 1.086602 -0.669592 -0.258516 -0.181058 2.203079 -0.979693 0.115653 -0.488659 1.274402 0.040651 0.083038 1.526170 -0.294883 -0.550318 0.577846 0.892987 -0.544913 0.486987 -0.727644 0.456674 0.531496 -0.338522 0.746972 0.549378 -0.504353 -0.432380 0.433937 1.565981 -0.473374 -1.079059 1.885487 2.098435 -0.947456 -0.525485 0.562163 0.132473 -0.327508 -1.095284 -0.357559 1.476511 1.416694 -0.023573 -0.608638 0.612570 -0.472169 0.571931 2.386296 -0.003098 -0.450074 -2.093495 1.159555 -0.904285 0.896824 0.539319 0.427664 -0.402672 -1.533642 -0.551271 0.600795 0.897466 -0.404289 -0.251391 -0.390997 -0.503479 -0.166361 1.094302 0.478088 0.162359 -1.298365 -0.077540 0.038707 0.398486 0.279950 -0.233525 0.655446 -1.400142 1.465716 0.048417 -0.495214 1.474533 0.321777 0.760377 -0.746746 0.115779 -1.522356 0.473623 1.956769 -0.394143 -2.027678 0.530357 -0.096871 -0.266378 -1.846023
them -2.058300 1.014662 1.192898 -0.390102 0.495613 -0.419163 -0.234372 -0.244561 -0.352421 -1.508593 0.162826 0.649724 1.575255 -0.109946 1.184010 -1.837356 -0.870028 -1.925762 0.746156 1.146205 0.795742 -0.294400 -0.615694 -0.486730 -0.778150 1.553461 -0.626728 0.797938 -0.891296 -0.533249 1.312722 1.119536 -0.317241 -1.327247 0.610513 -0.119800 -0.793124 0.197161 0.229016 -0.965230 0.245991 0.204759 -0.171423 -0.094035 -1.218387 0.247686 0.355520 0.136068 -0.966120 0.583116 -0.787610 -1.218894 -0.361311 -1.071534 -1.548951 -0.494788 -0.072268 -0.235975 -1.565971 -0.355064 1.652428 -0.117901 0.423520 -1.151253 0.519868 2.138214 0.430889 -0.412275 -1.577025 -0.161582 -0.508810 0.865971 0.018438 -0.189114 0.523090 -0.778806 1.322766 -0.665325 -0.436808 -0.542196 1.416153 1.243721 0.920596 -0.014297 0.734823 -1.258095 0.234862 1.368333 1.106377 2.375475 -0.422264 -0.687015 1.242932 -1.208676 0.340652 -1.445656 -1.151957 0.125186 1.584649 0.075162 0.833627 -1.690973 -0.039515 -1.471632 -0.766479 -0.225428 0.355733 0.274730 -0.608762 -1.739732 -1.644535 -0.113731 0.203091 -1.445112 0.498861 -0.509907 0.198240 0.178510 -0.184980 -0.874531 -1.926701 -1.953448 -0.853276 -0.435016 -0.134157 -0.836131 0.770620 1.104001
been -2.343957 -1.332362 1.141495 -0.666848 1.960722 2.099075 0.743366 0.550791 -1.468702 0.899658 -0.002993 0.781852 0.318067 1.551731 -2.763577 -1.230782 1.327560 0.527386 1.218395 1.866964 0.664356 0.289842 -0.285859 -0.734841 0.136492 0.345506 0.218566 -0.790722 -0.930732 1.747992 -0.876706 -1.089306 -2.175485 0.143253 -1.350089 -1.339390 0.757141 -0.221331 -0.796690 -1.633691 -1.431127 0.158864 1.609007 0.136083 -0.218281 -2.014959 -0.420805 -0.511543 0.438121 -1.333869 0.286870 1.280885 -1.790914 0.125551 0.299311 -1.230890 -1.304517 0.308809 2.195036 -0.455226 0.195007 -2.531765 -0.382844 -0.755570 -0.419605 0.987178 -0.057729 0.236566 0.024612 0.592667 -0.383582 -2.553155 1.447311 -0.350500 -2.677025 -1.322985 -0.979264 0.138379 0.414970 -0.259683 -0.413038 0.336828 1.152687 -1.125066 -0.347963 2.169062 -0.547722 0.135749 -0.433984 1.613017 -0.878032 0.418303 -0.785913 0.263208 1.012549 -0.720715 -1.798858 -1.245740 0.287442 0.246685 -0.550134 0.273045 2.545244 -0.930872 -1.279100 -1.079766 -0.753368 -0.610067 2.475326 0.203953 0.693074 1.366701 0.093443 0.414937 -0.343274 0.247161 -0.107922 0.656757 -0.084110 1.059551 1.581060 -0.407977 0.341481 -1.878332 0.585557 1.862349 0.004708 -0.811100
do 0.409752 -0.344802 0.313551 -0.783453 -0.700562 0.709119 -1.865036 -1.374105 0.770992 0.381342 0.804790 0.414877 0.616993 -0.081266 2.657989 -0.594440 0.803727 0.648641 0.692613 -0.340570 -2.210937 0.601374 -1.061458 -1.318107 -0.259008 0.158923 0.795517 -0.006935 1.116253 0.638283 -0.023967 -1.185573 -2.797874 -0.188101 -0.366967 -0.420749 -0.050100 -1.415154 -0.415267 -1.028918 0.345958 0.610607 0.314884 1.171853 -0.553486 0.220997 0.357595 1.288183 -0.991777 -0.140139 -1.553862 -1.543999 1.009858 0.847549 -2.139642 -0.330255 1.592570 -0.605801 -0.372206 1.088124 -0.516460 0.001018 0.346243 0.993989 0.698391 0.503912 -0.377815 0.450338 0.377028 -0.264713 0.843912 1.456938 0.914810 0.563650 1.008557 -0.119150 -0.483801 0.297220 -0.913864 -0.666097 1.087452 0.645399 -1.168838 2.543308 -0.482619 -1.528419 -1.026363 -0.436330 0.888955 1.658165 -0.279010 -1.370747 -2.993249 0.362218 -1.233061 -0.423282 0.142632 -1.001670 -0.840787 0.183559 0.360440 1.302573 0.468095 -1.130319 -1.868519 0.716792 0.215751 0.324725 1.742558 2.006181 -0.758190 -0.366901 -0.980673 -0.282878 1.180632 -1.655319 -0.994583 0.144135 1.082863 -0.349845 0.832341 0.929662 1.449972 -0.582620 -0.267975 -0.355187 -0.749350 -0.981076
your 0.544507 -1.693700 -0.603791 0.529020 0.778391 -2.433837 0.194154 0.297902 0.127074 -0.477800 1.043621 0.442877 0.322223 0.719079 -0.737082 0.770076 2.109703 1.578800 -0.946999 -0.617990 -0.821403 1.381728 0.076547 -0.240947 -1.128988 0.656498 0.520347 -0.744294 -0.018150 -1.036703 -1.166873 -1.263180 0.978288 0.257475 0.919390 2.289475 -0.505775 2.133814 0.627525 -1.155619 -0.546156 -0.928254 0.250276 -1.875894 -0.845357 -1.880681 -0.022027 1.061818 0.127797 0.467508 0.202355 -0.792306 0.227058 0.027723 -0.858183 -2.391475 0.620027 0.888829 -0.288738 1.710671 -0.176053 -0.370721 0.479195 -0.092087 0.466984 1.069755 0.606911 -0.008705 -0.694761 -0.428350 0.594032 0.906775 0.852257 0.365834 0.183735 -0.085132 -2.194175 -1.231851 0.049870 1.020114 1.363251 0.846872 -0.909025 -0.467974 -0.245481 -0.672552 0.729511 -0.637340 1.114511 -0.875264 0.340206 0.776021 2.325986 -0.729869 -0.816904 0.882045 -0.634903 0.157395 0.225955 -1.078618 -0.662973 -0.748864 1.912073 -1.744562 0.016290 -0.499860 0.928748 1.157945 -0.347474 -1.582848 -0.065602 -2.252047 0.506409 1.289083 0.839348 0.704931 -1.051844 0.410820 -0.600117 -0.125847 -0.699954 0.964810 -1.327908 0.661164 0.269073 -0.555267 0.633853 0.714498
now -1.131699 -1.485297 -0.644858 0.764062 0.944554 1.236349 -1.048994 -0.746886 0.234335 0.681660 -0.386920 0.787014 0.172430 -0.472751 1.335445 1.445740 -0.895310 -0.303390 -0.410313 0.397800 -0.121199 -0.197564 0.153066 1.055202 -0.492156 -0.823746 0.342764 -1.284004 1.098827 -0.137915 0.514754 -0.414181 -1.094739 1.017340 -0.346939 -0.212040 -0.657498 1.226545 0.894891 -0.315897 1.412200 -0.294931 0.096240 0.719008 0.568988 0.013835 -1.789902 -0.054349 -1.266810 1.634632 0.599241 -0.379763 -0.519139 -0.276782 -1.020898 0.099916 -0.538888 -2.004176 1.069590 -1.629108 -0.564804 1.372680 -0.502793 0.956305 -0.648762 0.085247 1.505768 0.525020 0.170101 -0.411407 0.000772 1.402583 -0.704060 -0.638469 0.287616 0.229290 1.946981 0.658638 -0.480904 0.034775 0.077381 1.438840 0.070428 0.689449 0.728226 0.987112 0.301561 0.230172 0.290770 0.270151 1.639047 -0.012248 0.174255 0.110894 0.745258 0.575414 0.962736 0.735612 0.328446 -0.290575 -0.092565 1.906589 0.707479 1.075182 -0.865948 0.961901 -0.329584 -0.639045 0.868523 0.728788 -0.446782 -0.596082 0.979442 0.828000 0.572191 -0.813147 -0.294649 1.305048 1.369354 -0.708896 1.001040 -0.477747 0.660815 0.375444 2.014048 -0.635328 0.296172 0.277990
out -0.720956 2.281003 -0.139350 0.658367 -0.654479 0.863148 -0.722629 -1.622454 -1.896840 -1.476218 0.281880 -1.619037 0.152829 1.546779 0.753640 -0.223274 0.337620 0.031967 0.333344 1.153719 -0.187930 0.620479 1.458254 1.245329 -1.119834 1.562037 -1.013471 -0.708752 0.899131 -0.501281 1.031745 1.080649 2.402643 0.193416 0.787285 1.961030 0.296511 -0.530611 -1.982889 -0.799888 0.410799 -1.056612 0.354309 -0.346388 -1.621629 0.232305 0.509215 -0.672032 0.469494 -0.764994 -1.542671 -0.259439 -1.168248 2.482649 -1.424528 0.447006 -0.379357 1.728077 -1.270426 1.024639 -1.258905 -0.001554 -0.013407 0.679274 1.105195 0.310200 0.853748 -0.885771 1.079657 0.518806 0.349313 -0.399787 0.465181 -0.570201 -0.222948 -0.791456 1.825469 0.139755 -1.602385 1.165073 0.433832 -0.501813 1.357211 0.447303 0.997024 2.399559 0.154674 -0.914611 -0.348107 0.452148 0.363088 0.208416 -0.541465 -0.230751 0.377786 0.346605 -0.966646 2.322002 -0.327923 -0.724197 -0.813141 0.341383 -0.161665 -0.301828 -2.191530 0.877756 -1.207948 -0.795688 0.370794 1.473212 0.543409 0.347003 0.530189 0.073242 1.370536 1.262519 -1.502207 -0.565276 0.550970 1.326418 -0.695337 -2.750858 0.335823 -1.001390 0.826344 -0.542792 -0.308868 1.057129
more -1.095845 0.196842 -0.842739 0.188171 -1.053304 -0.270869 -0.422083 2.357373 -1.484553 1.268629 0.584055 1.882446 -0.729185 0.101492 0.854837 1.073836 0.751409 -1.815119 -0.923483 1.463635 0.617153 -0.268699 0.737929 0.906390 -1.158998 0.080266 -0.501120 0.394042 1.215251 0.003775 -0.904466 0.271989 1.599667 -0.968778 -0.783854 -1.065252 -0.413488 -0.447003 1.052467 0.434868 0.072120 -0.468924 -0.582539 -1.435230 -1.653467 -0.947329 0.108652 0.302561 -0.545501 -0.520873 -1.183408 0.886529 -0.727509 -1.113399 -1.032018 1.878718 1.034767 -1.915180 1.090306 -0.066524 -0.309231 -1.750301 -0.897423 -1.526537 1.193251 -0.642034 0.546439 0.362130 -0.968577 1.224391 1.365405 -0.332919 -0.549552 -1.382178 1.453602 0.618919 0.000350 1.709199 -1.427710 -1.031647 -1.682939 0.970576 2.557544 2.521177 1.713475 -2.155426 0.766505 -0.991751 -1.702811 0.604866 0.385009 1.255011 -0.304456 -0.210972 1.251841 1.657922 0.130663 -0.023916 1.334088 -0.994029 0.252660 0.312608 -0.155068 0.128415 -0.171618 -0.563454 0.284102 -1.533544 -0.789299 0.654381 0.057307 -0.602546 0.962597 -1.986354 -1.263984 0.231370 -0.493084 -1.314797 -0.676728 0.496371 -0.473713 0.518513 2.306851 -0.926689 -1.120511 -0.285633 -0.251109 -0.080409
up -0.510795 1.947077 -0.714536 -0.608036 1.193195 1.058866 -0.325690 0.168319 -0.227149 0.384483 -2.737912 -1.002863 0.750835 -0.132872 0.023685 1.082980 -0.213426 0.894809 0.195103 -0.530895 -0.619466 1.953314 -1.984947 -0.159303 -0.351305 1.290585 1.784979 -0.525705 1.372635 -1.376070 1.811269 0.497704 0.271372 -0.348176 0.766763 -0.710311 -0.018475 -2.079542 -0.377206 -0.391115 -0.820565 -0.400492 -0.641199 -0.723631 0.102887 -0.134854 0.953290 -1.006430 0.665744 0.135015 0.445855 0.666624 1.443872 1.940643 -1.539003 -0.429690 0.189380 -0.471032 0.066120 -1.201129 0.152192 -0.430369 0.724077 0.579025 0.224406 -0.731482 2.986287 -2.100810 -0.769202 1.557143 0.193496 -0.813693 -0.324527 -0.157917 -0.818815 1.272495 1.839403 0.862284 1.196939 0.206089 -0.760177 -0.526521 1.090732 -0.822539 -0.830042 1.223441 -0.588196 1.526286 -1.528294 1.038479 0.846657 0.049433 -0.297068 -1.198314 -0.125433 0.675042 1.168733 -0.789053 0.560392 -0.233750 -0.931514 1.499588 1.089665 0.040264 -0.612049 -0.920826 -0.164878 -0.606046 -0.475449 -0.925618 -0.439726 0.363174 -0.517286 0.728791 2.261937 0.650293 -2.153485 -1.072140 1.979900 -1.099691 0.719701 -1.834820 -1.785167 0.302760 0.840008 1.200370 -0.513264 3.199945
man 1.210338 0.254705 -2.535447 0.432465 0.528025 1.201797 1.508316 -1.491633 -0.690978 -0.533004 0.292913 2.444494 0.655019 3.076955 -0.662495 -0.542225 0.594638 -0.367250 0.087362 0.130141 0.179543 -0.048747 -0.300294 1.206524 -1.660230 -1.117827 0.314941 0.995344 0.797690 0.671635 -0.104495 -0.916400 0.760591 0.862270 -0.407622 -1.439467 -1.417191 0.087507 1.903690 0.972178 -0.709212 -0.078783 -0.604793 1.415065 0.515851 1.533917 0.018002 0.053502 -1.173520 0.552792 0.726143 0.208290 -0.764463 1.057387 1.153963 1.142551 1.550202 0.607624 1.622327 0.325275 2.688534 -0.351075 -1.237653 -0.291586 0.293931 -1.258365 -1.255791 -0.862459 -2.235022 -0.384158 0.255254 0.251835 1.718094 0.052969 -0.029047 0.337887 0.472946 -1.022055 -0.387555 1.229346 -0.303941 -0.512021 2.382792 -0.536268 0.226655 -2.005099 -0.905423 -2.359141 -0.178598 -0.831571 0.226595 -0.534381 0.557589 1.234118 -0.083788 -0.155734 -0.017074 1.048578 0.891100 1.757125 0.163962 -1.632039 -0.195877 -0.314277 -1.916890 0.420015 -0.135905 0.532232 0.404762 -1.987520 -2.085442 1.098239 -2.553197 -0.433079 1.195028 0.720529 1.510956 -0.829150 0.618117 -0.698045 -0.922803 -0.769314 0.090168 0.786932 -0.916859 -0.584892 0.578600 0.918023
into -0.399117 0.993150 0.097954 0.366506 1.065661 1.411339 1.468673 -0.585744 -2.526568 -1.886752 0.024995 -2.013882 0.826823 -0.811905 -1.518430 0.029910 1.541165 -0.533221 -1.488424 -1.137260 0.045090 1.401280 1.269685 -0.738041 -0.049267 2.425512 -0.984227 0.987226 -0.546264 0.145216 0.169338 -0.919852 1.131376 0.607404 0.767434 1.097645 1.545066 0.694336 -0.451581 1.306545 -1.276089 -0.865252 -2.130191 -0.207182 0.516422 1.684297 -0.458362 1.085024 0.802148 -1.296907 0.421234 -0.126066 0.181691 0.208504 -1.976944 0.521354 -0.430235 -0.167585 -0.478506 -0.980835 -0.187413 2.646312 -1.087447 -0.042716 -0.794042 -0.052675 -0.997269 0.154781 0.426846 0.812121 1.474164 -1.768085 1.133229 0.217855 -1.153049 0.555733 1.055327 -0.568124 0.685879 0.043352 2.154104 -1.737311 -0.332822 1.294997 1.776026 1.173004 -0.116783 -1.709695 0.549464 1.066063 0.385994 -0.561556 0.033981 0.094089 1.598772 -0.427389 0.877935 -0.698809 -1.585244 0.988372 1.484430 0.741815 -0.296780 0.127079 -1.081452 0.192644 -0.057115 -0.756600 0.356952 1.458035 1.460225 0.786345 -0.054942 -0.366167 0.003520 -0.013822 -0.636815 1.165141 -1.307948 -0.465090 -1.636996 -2.394047 0.806819 -0.120603 -0.968072 -1.130564 1.535684 0.809879
some 0.016776 0.165063 0.682936 -0.211441 -0.699402 -0.724389 1.605571 0.645775 -1.345901 -1.327779 0.466956 2.428548 -0.435124 -0.337251 -0.257478 -0.190560 0.993207 0.078686 0.175407 0.634705 0.214453 -0.215418 0.531267 -0.514256 -0.303322 0.054355 0.181122 -0.259207 0.118380 -1.137998 -0.227514 -0.275633 0.563949 0.672055 1.792147 0.063228 -0.224069 -0.240751 0.372351 -0.463688 0.743828 -1.148399 1.250310 -1.509165 -0.459233 -0.360381 0.439482 0.321659 0.293207 0.444157 -1.126187 0.513749 0.355123 -0.550055 -1.483809 1.102528 -0.983062 -0.468442 -0.127447 0.960705 -2.192645 -1.137891 0.615059 -0.030409 0.806254 -0.051562 -0.142313 -1.539588 -0.373429 0.208742 0.553678 -1.059522 0.048474 0.201331 0.883179 1.015354 -1.090109 0.385309 1.511536 -1.424742 -0.104496 -1.396008 0.858913 -1.009477 0.199393 0.441887 -1.012714 0.959537 1.066047 0.121798 -2.799911 -0.140692 1.495008 -0.854778 0.744493 -0.993007 0.842656 0.690962 -0.701240 0.264071 0.271766 -0.778207 0.884124 0.354747 0.422741 1.720923 0.708026 0.456503 1.131020 -1.009228 -1.298897 -0.155167 -0.363655 0.173811 0.200505 0.735910 0.439511 -1.388108 1.385638 1.090053 0.196636 2.287460 -1.426199 0.747492 -0.324620 -0.235523 -0.840975 2.029701
could -0.903774 0.446618 -0.969993 -0.407920 1.448295 0.473559 -0.137290 -0.270806 0.383072 -0.351667 1.440145 1.036904 -0.226138 0.395412 0.005271 -1.169718 2.161542 1.559414 0.644691 0.010590 -1.169834 -0.141227 1.125777 0.087814 1.640785 1.940111 -0.517417 0.204638 -3.322505 0.927363 0.763870 0.318021 -0.308857 0.773910 1.195920 0.530347 -1.035268 -0.083042 0.589085 0.519967 -0.020675 -1.785750 -1.195952 -0.383916 -0.449521 0.376739 1.550827 -2.340760 -0.377599 -0.408444 0.466694 -0.724340 0.511877 0.621109 -1.090919 0.825498 0.104128 1.294098 -0.180973 0.794753 0.171801 0.191903 -0.672798 -2.602950 -0.470552 1.865021 0.118320 0.308005 -0.701574 -0.117059 2.010205 0.733652 -0.129213 -1.223180 -0.420233 1.571787 1.464306 0.441770 0.817002 1.304531 0.964706 0.084548 0.043420 0.919350 -1.493092 -0.288936 0.172948 0.835688 -0.150697 -1.021865 -0.355491 -0.491184 -1.927015 2.134794 0.893458 0.348749 -0.862268 -0.128292 -0.655431 -2.445605 1.085016 -1.784206 -0.690373 -1.006400 -0.251347 0.975628 2.418980 -1.073703 -0.209057 -0.062727 -0.017056 -1.428137 0.006899 0.951939 0.283272 -0.719896 -1.010001 1.078464 0.291467 -2.685739 0.670055 -0.107824 -0.716934 -1.355940 0.807091 -0.537991 0.828467 -1.040192
has -0.347217 0.072499 0.064431 0.446039 0.521893 0.971750 -0.148128 -2.200226 -0.142564 0.433998 0.337348 1.656733 0.772306 0.755030 -0.596387 0.594110 1.089134 0.653995 -0.075217 -1.297257 1.993849 -1.261363 1.527154 0.041984 -0.152049 0.957914 -1.237102 0.359290 -0.254690 -0.563781 0.520035 0.334379 0.306183 2.609346 -0.033769 0.656435 -1.420394 -0.174016 0.656210 0.539881 0.111241 -1.255582 -0.826513 0.860340 2.356010 0.301871 0.488017 1.016004 -0.166321 0.378195 0.127186 0.712912 -0.045771 1.385469 -0.805351 0.277243 1.039569 0.151632 -0.354364 1.270120 -1.509585 -0.207971 -0.386927 -1.979298 0.249368 -0.163795 -0.259065 0.165130 1.553173 0.957888 0.274424 0.315053 0.850531 0.692397 0.646149 -0.473700 0.619809 -0.080125 -0.207162 1.123727 -1.588723 1.254348 0.234128 0.673914 -0.032288 2.397913 2.452621 -0.423983 0.349010 1.313320 1.950753 -1.254008 -0.944938 0.430928 1.263304 -0.572776 1.484544 -2.100265 2.319881 0.487471 0.187950 -1.907632 1.173980 -0.719336 0.979113 1.344151 -0.396538 -0.059146 1.340250 -1.038619 0.268473 -0.657211 0.833317 0.027142 0.630742 1.215959 -2.011972 1.697963 -1.746289 0.568619 -0.642448 1.203991 -0.753166 -1.629714 -1.018494 -0.950522 -0.892674 -1.454483
only -1.388122 -0.890046 -1.485998 -0.762103 1.026837 0.786919 0.879198 -1.439810 0.660002 1.082232 0.185797 -0.672796 -0.725007 0.766889 -0.443275 -0.741969 -0.180400 -2.285147 -1.313928 1.029283 -2.006368 1.057999 -0.054634 -1.375691 0.859495 -0.050338 -1.114564 -0.093626 0.039122 0.744047 1.390297 -1.164088 0.873023 0.872331 0.091972 -0.871899 0.824574 1.153081 -0.457097 1.903505 0.363474 -1.399352 1.530946 0.792553 -1.607519 -0.718202 -0.377186 -0.129712 0.870024 0.102703 0.708103 -0.017315 -0.253031 0.214752 0.991078 -0.158347 0.873135 0.604174 0.193347 -1.452583 0.528213 -0.919385 0.088254 0.557562 -0.070360 -1.430497 0.417851 -0.431282 -0.794268 -0.206485 -1.003820 -1.236775 0.888099 -1.071989 -0.035279 0.750756 -0.065767 2.128890 0.617187 1.653334 -1.155125 1.393399 0.569932 -0.525323 -1.096273 0.224905 0.025906 -0.535259 0.480761 1.076605 -0.035643 -0.648409 -1.352903 1.861921 -0.376995 -0.297937 -0.106894 -1.127694 0.060903 0.253896 -0.878485 -0.075668 0.469348 0.239108 0.248317 0.085426 -0.616560 -0.783302 1.453071 0.510172 1.042969 -1.247292 0.118032 0.815187 -0.204887 0.622004 0.442178 -0.942155 -0.223336 -0.209065 0.940876 0.091590 1.512100 0.485860 -1.018403 -0.547739 0.454265 1.011114
any -0.572940 0.112563 0.694449 0.690037 0.881046 0.570621 0.615325 -1.251029 0.494342 -0.093304 1.683823 1.984545 -0.047655 2.061909 0.830654 1.107911 0.860034 3.609044 -0.987496 2.074581 -2.303861 0.473387 -1.046451 -2.483109 -0.550516 -0.567835 -0.562367 1.289645 -0.598240 1.292348 1.530519 -1.263631 0.242914 2.084964 -0.422069 1.517094 -0.286649 0.554389 -0.091380 0.494064 1.930657 -0.648640 -0.448905 -0.072778 -1.491489 -1.035459 0.200327 -1.497913 -0.470283 0.939682 1.225698 0.681696 -0.262755 -0.992461 0.085366 -0.579681 0.269133 -1.010403 0.310619 0.960987 -2.604953 -1.150903 -1.349865 0.915040 2.310582 -0.573584 -0.629253 -1.218922 -0.202909 -0.396488 0.251466 -0.783368 0.694643 -1.265987 1.096407 1.348474 -0.478711 0.173750 0.080670 0.488445 -1.168229 -1.147569 0.398632 1.429660 -1.074623 0.257004 -1.403440 -0.688836 1.732342 0.545820 -0.526915 -0.374191 0.126697 -1.091642 -0.404200 0.376987 -0.981853 0.231092 -0.185702 -0.578504 1.008982 -1.976123 0.755285 -0.733655 0.786550 1.055485 -0.388118 0.458922 -0.684544 0.199313 0.730962 -0.923731 1.016727 -0.089762 -0.833662 1.355178 0.093455 -1.080079 0.266231 -0.220868 0.292018 -0.345025 0.280119 1.476641 -0.298853 0.054800 -1.364266 0.865376
very 1.253707 0.427771 -1.175772 -0.489923 -0.964753 1.067179 -0.079315 0.619826 -1.860582 2.013782 1.376768 1.776760 -1.152129 1.371742 -1.097662 -0.060549 -0.494760 -0.804689 -2.488290 2.579450 1.669543 1.532273 -0.338895 0.837132 0.936670 1.129716 -1.642641 -0.184289 1.431976 0.321136 -0.532945 -0.142482 -1.212651 0.356726 1.338392 -2.920222 1.574464 1.435967 -1.271028 1.154804 0.302110 0.168085 -0.583658 -1.737673 -0.554207 -0.804901 -0.580306 -0.362640 -0.354095 1.219164 -0.761012 0.127226 -0.724769 1.017427 0.087679 0.584479 0.484120 0.099839 -0.293684 0.084925 -0.649551 -1.057491 1.134869 0.905685 1.286812 1.428912 -0.034562 -1.752936 -0.235244 0.902377 -1.027507 -1.019778 -0.501212 -1.913545 -0.197894 -0.519704 -0.666684 -0.899363 -2.129798 0.845392 0.201041 -1.877864 -0.294837 -0.890143 0.936253 -1.178341 1.728690 -0.154719 0.186662 0.664081 1.446037 0.841335 -0.665719 1.284407 1.364140 0.494175 -0.904955 0.438719 0.863772 -1.212531 -0.650441 0.244915 0.471262 0.812251 -0.418156 0.556783 -0.553471 -0.500824 -0.579909 0.156299 1.240299 -0.981791 -1.994746 0.521451 -0.706058 -2.173124 -1.701066 0.445061 -0.281353 0.527022 -0.776537 0.842645 -0.706186 0.461793 -1.559110 -0.783296 -0.114895 1.400641
like 0.480777 0.773602 -1.003712 0.487555 0.207011 1.611748 -0.717364 -0.529656 -0.577541 2.104581 0.371812 0.817650 1.725278 0.577785 -0.103916 -0.419901 0.585913 0.903495 0.302439 0.024351 0.632560 -0.446342 1.360106 -0.670296 0.524301 -0.294732 0.592608 0.607790 1.311581 2.120063 -0.751827 -0.657944 0.987743 -0.301337 1.090923 0.156250 -0.075649 0.859376 -2.297004 1.186007 0.953977 -0.482599 0.440551 0.193154 -1.179912 -0.517379 -0.355310 -0.461921 -0.486611 2.356599 -1.411089 -0.334245 -1.105546 1.402274 0.477862 -1.189011 0.497257 0.064400 0.709824 0.770991 -1.055554 3.185723 -1.519981 0.031331 0.382498 -1.482645 0.558494 -0.353256 -2.297400 -2.046572 0.486645 0.018513 0.626499 2.036155 0.712297 1.442460 0.602811 -0.269182 -0.484091 -0.992290 -0.779266 0.965482 -0.575337 0.044443 0.842813 -0.709581 -0.879672 0.275719 -0.501699 -0.482516 -0.502461 1.282835 0.411385 1.165941 0.049141 -0.481052 0.771328 -2.560719 0.066803 0.270455 -0.299463 1.312005 -0.123955 -2.020734 0.119400 -1.224435 -0.656804 -0.976907 0.066847 -0.106521 0.249809 1.917153 -0.187901 -0.734277 0.404488 0.587110 -0.206880 -1.176216 -0.656822 0.887927 0.428751 1.604227 -0.110296 -2.454295 1.421118 -0.074805 1.144373 0.774797
did -1.288863 1.563195 0.960380 -0.754305 0.866855 -0.899693 -2.777316 -0.798813 -1.576303 -0.304069 -0.290004 0.461300 -1.081163 0.761888 1.309104 0.091697 -0.538611 -0.517908 -0.375779 0.004839 -0.732615 -1.115233 -1.557095 -0.206432 3.067219 -0.243316 1.874141 -0.660927 -1.534027 1.521312 0.340425 -0.394655 -0.182032 1.142699 1.441080 -1.550974 -0.137224 0.295504 -0.164071 -0.487154 -0.851574 0.057345 -1.263367 0.594271 2.277055 -0.876948 1.409013 0.695039 -1.279377 -0.009587 -0.432815 -0.323176 -0.515786 -0.866761 -0.928084 -0.479321 3.369596 -2.485919 -1.065434 -0.505298 -0.325180 1.763189 -0.212047 -2.419075 -1.365629 0.994034 -0.615629 -0.697609 0.126150 0.022231 -0.026695 1.067609 -1.182734 -1.147822 -0.766870 -0.612257 -0.107420 -0.352866 0.404854 1.659495 -0.210824 0.793323 -0.176428 -0.927204 0.240474 0.931096 0.451787 -0.677631 0.337053 2.420622 0.679072 -0.779585 -0.515121 1.012186 0.898802 -0.533474 0.928559 0.106524 0.356012 -2.003839 1.239729 0.249955 1.402935 0.259496 -0.496662 -0.586550 -0.249836 0.588635 -0.515870 0.371327 -0.430886 1.490304 0.090243 0.824623 0.655955 -0.191451 1.392941 -1.056504 2.187044 -1.123268 1.158719 -0.460150 -1.301942 0.076945 -0.151065 -1.286083 -1.778729 -0.289832
time -1.090405 -0.595555 -0.970670 -1.750311 0.239745 0.823237 0.718561 3.110049 0.871583 0.788187 -0.948903 -0.746225 -1.108261 0.965367 0.100077 -1.800183 0.203161 -1.746537 -2.371015 1.292913 -0.962491 1.556110 0.070115 -0.105265 -0.304134 2.440774 0.644754 0.134583 0.096231 0.380319 -2.014576 -0.712330 0.730713 -0.156578 -1.146233 -1.302868 -1.191256 0.889666 0.282668 -1.408127 -0.280554 1.573690 -0.808115 0.020042 0.590520 0.850016 -1.100922 0.480896 1.588287 -1.867573 2.156014 -1.325812 0.154832 0.323474 -0.568818 0.635271 -0.909936 -1.668538 -0.606521 0.139537 1.166789 0.197796 -0.732324 -1.683457 -0.110499 0.044247 -0.998695 0.674374 0.766139 -0.035291 -0.091111 0.462848 -0.358284 -0.295600 -0.651373 -0.268955 -1.227588 0.215156 0.208018 0.826756 -1.812057 0.104851 0.001317 -0.447708 0.202902 0.219480 -0.046345 0.543261 -0.407262 0.058149 -1.225014 0.716244 -0.907666 0.254540 -0.459048 1.816843 -0.632154 0.227950 1.001953 0.275945 1.259658 0.264306 -1.837798 -2.006280 -0.136656 1.664593 -0.606855 0.573183 1.559671 -0.744546 0.223759 1.170539 -0.299423 0.354605 1.409186 0.378323 -0.509212 0.669001 -1.340095 0.672742 -1.331954 -0.173399 -1.741649 0.856136 0.082108 -0.353301 0.330252 -0.384072
its -0.203699 -0.430198 -1.855492 -0.747536 -0.165010 -0.000786 -0.561007 0.995757 -1.624472 1.255346 1.023995 0.317636 0.838534 -0.716620 0.072552 0.767573 1.487816 0.997514 -1.149173 0.168736 -1.150274 -0.441929 1.122977 0.288467 -1.731259 0.211704 -0.568774 -1.037329 0.239342 -0.333359 -0.027479 1.304442 -1.622137 1.263530 -1.818820 0.831767 0.458500 1.670775 0.140901 -0.570241 -1.112899 0.618253 1.604097 -1.465500 -0.454931 -1.264141 -0.105283 -0.154341 1.286163 -0.048636 -0.087772 -0.663726 0.224966 2.076808 0.164080 0.241772 -1.491107 -1.108770 -0.176661 1.005210 -1.211168 0.526884 -0.862695 1.734373 0.385160 2.234146 -0.020808 -0.568986 1.113344 0.039678 0.873933 -0.050993 1.203853 -0.247337 -0.508917 1.336184 0.245251 0.797359 0.710264 0.368139 -1.368461 -0.938136 0.415390 -1.880284 0.575219 0.690527 -1.361706 0.543743 0.511622 -0.458098 -0.943522 -0.871896 0.382109 0.902974 0.258583 -1.140263 0.456040 -1.260342 0.255555 -0.572522 -0.469638 -0.536843 0.089046 -0.363664 1.395213 0.541579 -1.063729 -0.041182 -0.576829 -0.425821 0.801042 0.053026 -0.132494 -0.481179 0.809886 -0.142957 -0.186418 -1.688164 0.540813 -0.150684 0.376103 0.527304 1.061244 1.053934 0.102315 -0.986510 0.906097 0.841380
than 0.209051 -0.146310 0.729563 -0.702692 -1.009098 -0.814999 0.355649 1.661894 -1.684165 -0.977463 -0.881890 0.122688 -1.081074 1.253002 -0.072895 -0.294085 -0.077605 -0.080829 -1.382617 -0.165692 -0.400491 0.104292 0.749037 0.427214 -0.278169 0.333842 -2.005291 1.653856 0.644631 1.951845 -1.158828 -0.920621 -0.891474 -2.109203 0.505272 0.625257 -0.410615 1.296404 -0.589690 0.487670 0.662788 0.669946 0.468812 0.192116 -1.115471 1.503016 1.573285 0.201223 1.877266 1.235473 0.036946 0.873389 0.325523 -1.357088 1.385247 -1.746109 1.508917 -1.675544 -0.315879 -0.432043 -0.185234 0.187043 -1.202886 1.669601 0.750424 -0.095507 0.958135 0.138597 -0.448821 0.917360 1.071564 0.284240 -1.352196 -0.096435 2.278839 0.314984 1.050822 0.068383 0.867133 -0.422902 0.529765 -1.195366 0.938382 1.540776 -0.057024 0.488593 1.227776 0.466450 0.490205 -1.446349 -1.183190 -0.214854 -1.360754 -0.340790 0.869189 -0.139407 -0.733216 -0.981339 -0.412607 0.563208 1.065287 -1.043556 0.404184 1.296615 0.179421 0.728936 -0.063774 0.415098 0.683818 -0.609860 -0.167115 -0.180537 -2.009227 -1.013238 0.428704 1.288695 0.246584 -0.338367 0.625899 -1.267443 1.300317 -0.686948 0.621501 -1.025222 1.193133 0.197746 -0.472509 -0.589644
other -0.194246 1.451973 -0.868458 -0.205432 -0.631870 -0.439065 0.155798 1.296966 1.015131 -0.572526 -0.906602 0.956046 -0.469273 -0.232046 -1.771757 -0.578644 -0.384217 -0.844876 0.237938 1.756671 1.778316 -0.839562 0.176170 0.371121 -1.005942 -0.635108 -0.403075 0.415291 1.071139 -1.952395 -0.483034 -0.959753 -1.901699 -1.300098 -1.687068 -0.020941 1.391206 0.533096 -0.622714 0.131590 -0.721722 -0.755309 -1.187687 0.736849 -1.540066 0.642149 1.795373 0.420210 -0.221996 2.038922 0.993580 0.027055 -1.010844 0.346671 -1.795422 0.414337 -0.173153 -1.063861 -0.619041 0.890151 -0.286575 -1.351878 -2.035103 -1.923529 0.986859 0.398202 -0.213851 0.280708 2.277943 -0.855655 0.289171 1.885744 1.519628 -1.359367 -0.044566 -1.331967 -0.422418 -1.709354 0.904405 -0.667400 -0.510865 -0.692624 -0.417697 -0.096078 -0.639989 -0.749014 -0.147812 -1.336113 1.137948 0.302209 -0.807283 0.964259 -0.052172 -0.623606 -0.344028 -2.220954 0.571415 0.773721 2.699261 0.669834 0.843530 -1.716187 -0.869997 -0.924081 -0.427958 -0.149626 -0.131611 -0.348397 1.518342 1.941562 -1.987018 -1.493240 1.566056 1.370082 -0.528509 -0.000818 0.289572 -1.630416 -0.481303 0.216621 1.927262 -0.827845 -0.075307 0.037919 -0.100319 0.538238 0.455983 -0.423488
before 1.044917 -0.978044 -0.100707 0.508841 0.376999 1.808057 0.106056 1.418661 -1.225776 0.801076 -1.996358 -1.652060 0.631053 -0.826583 -0.131463 1.640589 2.478074 0.100433 -1.660928 1.101258 1.293093 0.492712 -0.032987 0.697287 0.468234 -0.704906 0.146998 1.234189 0.140281 -0.114837 0.286381 0.988659 -1.186736 0.170160 1.575232 0.134896 -0.321993 -1.003868 -0.867836 -0.971109 -0.533980 -0.825691 1.195133 1.522441 0.024909 -0.159217 -0.470097 -0.062653 -0.113092 -1.429251 1.514498 1.470607 0.762276 -0.742919 -0.427165 1.017969 0.691560 0.198562 -0.397205 0.428013 1.317251 2.157955 0.690889 1.270586 -1.018861 -0.535065 -0.060019 -0.979221 1.905643 1.825227 0.322702 1.683619 0.149499 0.072312 -0.546381 -0.438775 0.278037 -0.683960 -0.413285 -0.078734 0.893999 -0.117821 0.160159 0.043245 0.109953 1.365497 -0.842417 0.332327 0.099716 0.424973 0.464639 0.419327 -0.954552 0.074036 -0.090990 -3.413209 -0.036594 0.505809 0.713140 0.310693 -1.087334 0.529809 -0.426596 0.259987 0.131254 0.253164 0.524514 -0.764381 0.245352 -0.676283 0.046348 -0.341679 -0.158974 -1.756582 -0.122965 -0.067901 0.125305 0.163023 0.467973 1.271662 -0.168001 0.998577 0.688464 0.459678 -0.693344 -0.098285 -0.837349 0.009619
about -0.840979 -0.190395 -0.411180 0.686577 0.801575 1.354007 1.656092 0.385109 -0.879559 1.611284 -0.494638 1.119618 0.157956 1.501105 -0.247330 -0.674129 1.326114 1.041911 0.185684 -0.229055 0.093643 0.735212 0.081562 -2.698439 -0.498023 0.728210 -0.093207 1.441336 1.002102 0.522446 -0.070661 1.748971 -0.020451 -1.774629 1.402846 1.798596 0.792649 -0.333355 0.728247 -0.261036 0.425069 -0.062611 0.133026 0.643686 -0.450282 1.017712 1.067243 1.062655 0.605264 -1.165705 0.079656 -0.868875 0.822917 0.365846 -1.540822 -0.418324 0.312840 0.194292 1.655643 -0.125533 -0.393528 2.041538 0.168852 1.009988 -0.461044 -1.734179 1.477026 -0.854262 1.365909 2.092860 0.867770 -0.775956 -0.105941 0.069231 -2.182551 0.293885 -0.065106 0.340672 -0.334496 -0.690232 -0.003210 0.676782 0.206829 -0.428640 1.156953 -0.011334 1.354325 -0.094033 -0.226854 -1.129991 0.112370 -0.780979 -0.740867 -2.268736 -0.071628 -0.875156 1.168536 0.446675 -0.243347 -0.478782 -1.532067 -0.935735 -0.634933 0.644147 0.761789 -1.290561 -0.126385 -1.539417 0.852082 -0.590079 1.596035 -0.152277 -0.354357 0.407885 1.113569 -0.274817 0.011135 -0.830982 -0.560354 0.143385 1.118055 0.822135 -0.844230 -1.107913 1.616656 -0.052044 0.564153 1.220417
see 0.794269 0.569989 -0.787856 0.393708 -0.249615 2.478500 -1.191107 -0.104678 -1.722590 0.093324 0.294332 1.534452 -0.029528 1.057635 1.426130 0.613101 1.833351 0.245282 -0.644764 0.624477 -0.358286 1.334928 0.115537 -1.277146 -1.582358 -0.920471 -0.980029 -0.313042 1.256887 -0.383646 -0.339075 0.385507 0.565876 -1.976301 -0.826121 -1.558624 0.195741 -1.176265 -2.022178 -0.166948 0.714467 -0.392323 0.790579 -0.538987 0.971502 0.490249 0.599937 -0.739038 -0.554926 -0.552991 1.348173 -1.578992 -1.385355 -0.387686 1.247522 -1.305980 0.746012 -0.358003 -1.792668 0.216993 1.871896 -0.227162 1.202183 -0.222372 -1.571770 -0.181689 -0.513759 1.633144 0.716730 0.193523 -1.495871 0.753525 -0.627682 -1.534436 0.539508 -0.685041 -0.493294 -0.862146 1.594987 0.141060 -0.293084 0.340096 0.300453 0.330220 -0.587010 -0.220271 -1.198256 -0.088592 -0.512020 0.861669 0.250422 -0.228606 0.944294 1.339135 0.209334 0.577646 -0.131161 0.118024 -1.158354 -1.455729 1.396122 0.888258 -1.067746 0.311316 -0.062951 -1.344794 -0.080271 0.015543 1.001396 2.291764 1.260626 -0.137969 -1.499250 -0.517008 -0.166792 0.282093 -2.188223 1.007076 -0.407021 0.665950 0.649671 1.081657 -0.475612 1.041957 0.670976 -0.748341 0.729835 0.160491
