3000 128
<pad> 0.000000 0.000000 0.000000 0.000000 0.000000 0.000000 0.000000 0.000000 0.000000 0.000000 0.000000 0.000000 0.000000 0.000000 0.000000 0.000000 0.000000 0.000000 0.000000 0.000000 0.000000 0.000000 0.000000 0.000000 0.000000 0.000000 0.000000 0.000000 0.000000 0.000000 0.000000 0.000000 0.000000 0.000000 0.000000 0.000000 0.000000 0.000000 0.000000 0.000000 0.000000 0.000000 0.000000 0.000000 0.000000 0.000000 0.000000 0.000000 0.000000 0.000000 0.000000 0.000000 0.000000 0.000000 0.000000 0.000000 0.000000 0.000000 0.000000 0.000000 0.000000 0.000000 0.000000 0.000000 0.000000 0.000000 0.000000 0.000000 0.000000 0.000000 0.000000 0.000000 0.000000 0.000000 0.000000 0.000000 0.000000 0.000000 0.000000 0.000000 0.000000 0.000000 0.000000 0.000000 0.000000 0.000000 0.000000 0.000000 0.000000 0.000000 0.000000 0.000000 0.000000 0.000000 0.000000 0.000000 0.000000 0.000000 0.000000 0.000000 0.000000 0.000000 0.000000 0.000000 0.000000 0.000000 0.000000 0.000000 0.000000 0.000000 0.000000 0.000000 0.000000 0.000000 0.000000 0.000000 0.000000 0.000000 0.000000 0.000000 0.000000 0.000000 0.000000 0.000000 0.000000 0.000000 0.000000 0.000000
<start> 0.059083 -0.132251 0.448644 -0.895704 -0.385951 1.887928 0.296849 -1.511295 -1.122197 0.840989 -0.219362 0.299966 1.399292 1.268322 1.055551 -1.125385 -0.496152 0.888115 0.379178 -0.443479 -1.493515 -0.167414 1.084582 0.104124 0.751616 -0.182544 -1.291671 0.292722 -0.524251 0.891872 0.843581 0.488514 -0.830752 -0.303520 0.204423 0.149578 -0.335307 -0.029548 -0.462188 0.093802 -0.125464 0.912326 -0.414363 1.336918 0.759183 0.033827 -0.036646 -0.586900 -0.509239 0.615805 0.294534 -1.062923 0.929041 -0.229312 -0.013351 -0.311985 1.158601 0.486044 -1.451226 0.133426 0.284888 -0.676024 0.904783 0.738807 0.594875 -0.482345 -1.642672 -0.650531 -0.778496 -0.235073 -1.020535 0.627766 0.422227 -0.773591 -0.809007 -0.707727 -0.841360 0.776545 -0.380346 0.855579 0.157243 -1.600573 1.073813 0.446364 0.133306 -1.574160 -0.870001 -0.334178 -0.336578 0.766668 -0.061352 0.639136 0.755467 -0.009554 -0.066662 -0.032920 0.186726 0.457861 -0.110305 -0.059004 -0.138389 0.400478 -0.857293 -0.663412 1.806549 0.631561 -0.005052 0.097798 -0.833234 -0.307419 -1.017313 0.686856 -0.574496 0.334097 -0.076317 0.337614 0.064662 0.177270 0.110959 -0.168019 -0.913638 -0.155074 -0.940308 -0.175569 -0.741196 0.536378 -0.765567 -1.003663
<end> 1.178840 -0.421955 -1.570782 0.621063 0.554908 1.289641 -0.211170 -1.047991 0.098414 -0.546657 0.663968 0.121847 0.303159 -0.839009 -1.102772 0.231812 0.838825 -1.263653 0.105633 0.080311 0.319596 -0.048838 -1.991449 -0.714485 0.337550 0.827263 0.382999 0.084116 -0.129283 1.854945 0.856884 0.201192 0.366789 -1.145586 0.188127 0.913862 -1.041242 -0.704899 -0.511358 -1.443061 0.927447 -0.490874 -0.044093 0.203923 0.294846 0.637480 -1.258874 -0.265372 -0.227120 -0.850540 -0.743237 -1.674951 0.187760 -0.716579 0.206489 0.977721 2.670046 0.120851 -1.337936 0.324270 1.289278 -0.414159 3.082499 1.652308 0.061870 -0.542711 -0.196645 2.839972 1.037087 -0.614514 -0.953095 0.675004 0.563516 1.505533 -3.179942 -0.816698 -0.869305 0.865086 -1.309753 -1.141609 -0.050059 0.445000 0.167999 -1.234497 -0.739120 -0.264898 -0.002360 1.058617 0.363562 -1.286796 -0.514842 1.887429 2.865417 -1.038379 0.121951 0.509305 0.892590 -2.093633 -1.444159 0.707271 -1.110716 0.814062 -1.610263 -0.052290 -0.218508 0.430847 1.571354 2.054171 -1.173677 0.898367 1.449423 -1.294051 -0.695271 -2.834882 -2.908950 0.708162 0.065558 2.065715 -0.224587 0.815627 -1.184250 0.479496 0.346908 -0.820849 -0.862808 -0.836597 -0.165392 0.477741
<unk> 0.154704 -0.041108 -0.345849 -0.098934 -0.700774 0.536291 0.185588 -0.219216 0.050396 0.201949 0.390105 0.047573 0.534474 0.101563 -0.091482 0.010829 0.307769 0.726560 -0.624440 -0.108093 -0.077935 0.068375 0.736240 -0.275135 0.113426 -0.150800 0.020851 -0.061809 0.228386 0.386765 -0.086101 -0.259207 -0.044601 -0.267565 -0.253811 0.685163 -0.153062 -0.007236 0.399092 -0.084486 -0.115035 0.139879 -0.349708 -0.302852 -0.115675 0.745723 -0.250798 -0.162326 0.132490 0.366197 0.062877 0.419131 0.220198 0.029561 -0.168522 -0.184645 0.170613 -0.170258 -0.442253 -0.224618 -0.041203 -0.441602 0.702329 0.370741 -0.136572 -0.896311 -0.541031 0.284221 -0.112855 -0.087668 -0.032486 -0.354268 0.209057 0.404239 -0.228174 -0.009373 0.359113 -0.196389 0.811232 0.140310 0.429742 -0.086991 0.005515 -0.172004 -0.082339 0.270792 0.402150 0.094987 0.040517 -0.117161 -0.184023 0.173201 -0.257191 -0.184824 0.811230 -0.340609 0.046459 -0.227234 -0.188970 -0.119937 0.211610 0.073023 -0.335353 -0.167006 -0.338468 0.745381 0.558686 0.055806 0.185401 -0.401402 0.246027 -0.184649 0.462307 0.096944 0.365958 -0.299300 0.101802 -0.339858 0.000317 0.338771 -0.184827 0.507448 0.459883 0.054785 0.100813 0.451116 -0.425158 -0.566103
the 0.035471 0.029740 -0.279565 1.076217 -0.397593 -0.049329 -0.033278 -0.288917 0.641366 -0.063538 0.085003 0.534997 -0.161499 0.130269 0.435264 0.834676 0.996086 0.323609 -0.354177 0.751964 0.342058 0.495798 1.139617 -0.066842 -0.713834 -0.238019 -0.242889 0.702029 0.080196 -0.439736 -0.776556 0.509214 -0.490976 0.266244 -0.221381 0.379998 0.092089 0.193849 -0.360290 -0.098683 -0.118512 -0.301731 0.519307 0.373446 -1.135015 0.474356 0.658316 0.237004 -1.066585 -0.791980 -0.337399 0.203909 -0.238126 -0.131015 -0.005306 0.011006 0.229324 0.155032 0.716321 0.232549 -0.181046 -0.142748 0.132744 0.264459 -0.118273 0.540962 -0.141213 -0.414475 -1.024431 0.370816 -0.396636 -0.599317 -0.640155 -0.535756 -0.830411 -0.022463 0.562520 0.679474 -0.492414 0.028559 0.200453 0.067414 0.980943 0.216400 0.120712 0.141517 -0.074241 0.352482 1.287705 0.810743 0.129053 0.055293 0.082352 0.034928 -0.382491 0.144981 -0.356278 0.793140 0.067787 -0.152644 0.021104 0.056197 -0.310302 -0.289344 -1.446155 0.414417 -0.204540 0.294465 -0.201767 -0.053693 0.260670 0.308964 -0.615709 0.107777 -0.473828 0.127221 -0.161271 -1.377868 0.078775 0.457939 0.289053 0.465175 0.608631 0.419359 0.358203 -0.309284 -0.484067 0.032632
and -0.322956 0.073215 0.545989 -0.089032 -0.458109 0.137968 0.219480 0.239057 -0.035544 -0.104368 -0.385985 0.654685 0.567859 -0.589269 -0.353502 -1.071077 -0.109997 -0.351483 0.132041 0.152142 -0.038466 0.231602 0.451944 0.177302 -0.056628 0.163707 -0.152591 -0.096478 -0.103604 -0.201280 -0.248767 -0.124516 -1.348346 0.675040 -0.051310 0.073751 0.109664 0.064833 1.115097 -0.189065 -0.142777 -0.025402 -0.840634 -0.429651 -0.150380 -0.326899 -0.552177 -0.117574 -0.017344 0.248188 -0.720190 -0.065542 0.060030 -0.460837 -0.182651 0.459777 -0.055589 -0.210109 -0.144041 -0.736326 0.304015 0.341332 -0.642046 -0.678253 0.159098 -0.403131 -0.015513 -0.301147 -0.473893 -0.558398 -0.257864 -0.021257 0.008198 -0.354652 -0.392612 -0.064172 0.478256 0.721746 -0.060659 0.676069 0.378386 -0.009709 0.790152 -0.095039 0.371168 -0.634565 -0.308605 -0.238247 0.428048 1.258174 -0.361284 -0.217340 0.223979 -1.050957 0.204056 -0.138473 0.148290 0.429803 -0.072738 0.566249 0.085778 0.121263 0.756957 0.068370 -0.079751 0.625324 -0.235381 -1.296085 0.431577 -0.262617 -0.694925 -1.127228 0.813760 0.093041 -0.320738 0.044805 -0.148208 -0.181278 -0.273812 -0.153619 -0.148273 0.141980 -0.618837 -0.020205 0.171035 -0.282189 0.321506 -0.564966
of 0.822894 -0.967405 0.053344 -0.950605 -1.044521 0.521136 -0.228555 0.801479 -0.257386 -0.021876 -0.461922 -0.636360 -0.307212 -0.843782 0.284301 -0.449700 0.119683 -1.038008 -0.483926 0.336508 -1.011017 -0.107358 -0.634694 -0.117775 0.256488 -0.036144 -0.588401 -0.695070 0.174823 0.172754 0.093035 1.110787 0.166737 -0.167750 0.512497 0.688180 -0.267753 -0.271651 -0.505505 0.004022 0.906110 -0.245539 0.044774 -0.211437 0.089646 -0.916620 -0.808719 0.020180 -0.364107 0.053236 0.226339 0.165139 0.063041 -0.676283 0.380914 0.490100 0.831355 -0.107964 -0.385429 -1.100280 -0.048591 -1.019328 0.378129 1.095770 -0.674337 -0.740356 -0.450066 0.201791 0.081142 -0.753468 0.413016 -0.054272 0.585564 -0.302120 -1.096743 -0.120085 -0.228979 -0.079089 0.244739 0.924056 -0.926483 0.785112 -0.319769 -0.347246 0.860901 0.230756 -1.917927 0.188207 -0.025299 0.171604 0.084325 0.438370 -0.144172 -0.277743 0.581486 0.068541 -0.067593 -0.226810 -0.200585 -0.338348 0.451293 -0.340897 -0.548503 0.926942 0.762182 -0.401506 0.043068 -0.956657 -0.371650 0.208571 0.626410 -0.396072 -0.135523 -0.830503 -0.142635 0.615528 -0.793732 0.779280 -0.144439 -0.083715 0.217062 0.680537 -0.274597 0.281753 -0.248754 0.057856 1.025190 0.092970
to 1.280130 0.218174 0.897781 -1.175271 0.099494 -0.160554 0.799414 0.299428 -0.269834 -0.059177 0.236312 -0.992051 0.200908 -0.301990 -0.147647 -0.501372 -0.753003 -0.203058 -0.200743 0.893065 0.628468 0.039283 -0.706713 -0.325635 0.227762 -0.420574 -0.354089 0.799044 0.348073 -0.801709 1.094301 0.827121 -0.615071 0.368477 -0.024525 0.234534 -0.515323 0.173585 -0.146479 -0.550465 0.761393 -0.044206 -0.059179 0.531465 0.212371 1.417240 0.793656 -0.414136 0.570017 0.606428 0.452830 -0.353300 0.003543 0.527215 0.399698 1.031233 0.131668 -0.056441 -0.001729 -0.731752 0.327390 -0.006180 -0.727191 0.090049 -0.647479 -1.461321 0.044027 0.265850 -0.287287 0.392959 -0.323629 0.218033 0.156597 -0.420492 -0.000558 0.383206 0.306365 0.064440 -0.472780 0.131150 -0.418996 0.252619 0.278173 -0.317619 -0.357031 -0.022923 -1.659513 -0.095205 -0.478810 0.175681 -0.395645 -0.762792 -0.462523 -0.873804 0.842010 0.024024 1.276066 -0.995049 -0.115934 0.189363 0.495067 -0.138252 0.258817 -0.933208 -0.155350 -0.054376 -0.334475 0.406792 -0.755490 0.047981 0.085201 0.451814 0.020771 -1.840046 -0.369243 0.067405 0.588424 -0.310394 -0.275761 0.013136 -0.153422 -0.310714 -0.047051 0.141286 -0.320809 0.435930 0.165725 -0.809321
a -0.112135 -0.287633 0.243379 0.098505 0.312072 0.064273 -0.829798 -0.996806 0.534415 -1.077886 0.977090 0.209734 0.320672 -0.625674 -0.203407 1.494750 0.650425 0.201574 -0.237417 -0.087619 -0.169158 0.114651 -0.406923 0.016105 0.789206 -0.629239 -0.927906 -1.181079 0.095987 -1.250471 -0.065264 -0.116012 -0.635094 0.158220 0.161924 0.087236 -0.097580 0.695298 0.920661 -0.592474 0.174391 0.182853 -0.321423 0.722472 -1.061176 0.635669 1.214939 0.041757 -1.497934 -1.395658 -0.530027 0.938668 0.441748 -0.116343 0.262423 0.102359 -0.415016 -0.306845 1.531597 -0.841317 -0.255018 -0.552417 0.063218 -0.768325 0.651471 -0.136528 1.148085 -1.136332 -0.056866 0.558705 0.273631 0.220779 0.708360 -0.434743 -0.680126 0.271822 -0.016601 0.357989 -0.213522 0.157247 0.979396 0.008523 1.134815 0.098255 0.652490 0.179638 0.570629 0.193659 -0.646661 0.571685 -0.197836 1.220845 -0.987729 0.388146 -0.041037 0.797887 -0.281284 -0.017012 0.219548 -0.058253 0.088130 0.732488 0.046233 -0.593926 -0.314581 -0.378294 -0.488085 -0.957580 -0.397677 0.073077 0.332092 0.665512 -0.720309 0.362478 0.153539 0.551875 -0.437683 -0.821077 0.732184 0.032053 -0.075435 0.309875 1.135048 0.096282 -0.091388 -0.630746 -1.141786 -0.822133
in -0.004316 -0.923948 -0.386454 1.133401 -0.983122 0.929762 0.224435 -0.027828 -0.905860 0.473914 -0.551385 -0.560604 -0.418611 -1.494814 -0.407209 -0.188925 -1.011632 -0.168095 0.728130 -0.063777 0.014332 1.167784 0.656208 0.095205 0.415951 0.470044 -0.108273 1.064357 0.103217 0.894170 -1.008396 0.842796 0.397719 1.076043 0.273686 0.808273 -0.510090 -0.243417 0.054019 -0.835463 0.271007 0.379900 -0.098264 -0.639848 1.200460 0.164943 0.203945 0.002057 -0.855674 0.631677 1.330688 0.205697 0.403340 -0.184851 -0.317831 -0.135447 -0.543063 -0.583329 0.198858 -0.473396 -0.003787 1.274128 -0.255135 -0.190700 -0.475228 0.405948 0.725116 -0.291575 -0.091255 0.102749 -0.142166 1.680348 1.472087 -1.540731 0.010594 -0.251629 -0.334458 -0.066218 -0.304958 0.732722 -0.024791 -0.114380 -0.268249 0.488902 0.200413 1.052077 -0.725128 0.356005 0.220498 0.029417 0.571074 -0.101568 -0.161880 -1.187570 1.381352 0.898125 -0.219317 -0.520696 -0.129259 -0.394771 1.082427 -0.027660 0.211798 -0.189254 0.795456 0.478250 -0.315171 0.094204 0.988497 0.211009 0.038495 0.080732 -0.150398 -0.344142 -0.404823 0.555440 0.029868 0.180167 -0.370985 -0.160601 0.770524 -0.135951 0.831995 -0.201746 0.403155 0.060505 -0.386084 -0.297893
i 0.077383 0.585562 0.162456 -0.538125 1.344081 -0.043528 0.213122 -1.227671 0.457471 -0.674545 0.931747 -0.373092 0.803356 0.407458 0.865222 -0.248721 -0.427538 -0.136533 0.173766 0.074094 -1.560259 0.934148 0.202266 -0.610414 1.135048 1.290270 0.903651 0.459468 0.312029 0.906975 0.605424 0.427437 0.272045 0.432080 0.069825 -0.126076 0.855286 0.225786 -0.426830 -0.296749 0.387828 -1.569846 -0.471844 0.195306 -0.378677 0.500598 1.503748 1.167422 0.201383 -0.461520 2.384723 -0.235925 0.929201 0.533702 -0.022938 -0.236923 -0.376902 0.224156 0.624404 -0.966934 -0.271120 0.719952 0.024685 0.926575 -0.507574 -0.532612 0.514901 1.138838 0.177516 -0.131851 -0.555146 0.618044 1.581328 0.698155 0.306104 0.966365 0.827053 0.339793 -0.034332 0.866807 -1.406274 0.018122 -0.941036 0.179491 1.051128 0.163007 0.664750 0.914366 -0.651004 0.948727 -1.200900 -0.424039 0.512980 0.059353 -0.999644 -0.013089 0.082910 0.427951 0.427050 -0.840649 -0.706465 0.008097 0.200746 -0.765890 -0.425390 1.921186 -0.539204 -0.753178 0.571113 0.248806 -0.738769 -1.084362 0.175790 0.124041 -1.447857 0.448969 0.259409 -0.580984 0.451068 0.001813 -0.232062 -0.856809 -0.332416 0.500666 -1.659264 -0.638374 -0.276089 0.424849
it 0.369768 0.095481 0.583842 1.249501 -0.947648 -0.052999 0.483079 -0.681703 -0.152043 0.879050 0.360527 0.932939 -0.278675 -0.147406 0.999716 1.043700 0.124056 0.450541 0.081889 -0.349340 0.017250 -0.696742 0.520042 0.544479 0.857183 0.279752 1.309380 0.334825 -0.000642 -1.457997 0.037424 -0.223990 1.001558 -0.663153 0.603047 -0.988888 -0.354033 -0.347268 -0.677223 -1.420888 0.153012 -1.576193 -0.377201 -0.453119 0.409967 0.012163 0.952507 1.014643 0.712283 -0.401028 -0.150563 -0.171553 -1.501912 -0.486992 0.371566 -0.102261 0.721309 0.562295 -1.342490 -1.017323 1.027035 1.011218 0.167278 0.201725 -0.314462 -0.532173 -0.775499 -0.115068 -0.495322 0.304359 -0.332712 0.847297 1.439851 1.183836 -0.416552 -0.096707 1.751569 0.475212 0.096573 -0.107141 -0.957161 0.054988 1.387017 0.360782 0.413074 -1.000845 0.904827 1.232901 -0.841900 0.969574 0.543353 -0.810413 -1.271962 -1.003101 -0.540124 -0.093349 0.217415 0.386727 1.234461 -0.667138 0.976521 -0.121915 0.532080 -0.377845 0.065548 -1.295779 0.637591 0.171247 -0.255742 0.626228 -0.749465 -0.986558 -0.404419 0.275485 -0.311350 0.031631 0.745794 0.289238 0.796986 0.655155 0.107561 -0.641553 0.470362 -0.493410 -0.050198 1.063715 -0.966957 -0.387933
that 1.216838 -1.168360 -0.573166 -0.971894 -1.243274 -0.083554 -0.154212 -0.150616 0.958490 -1.175981 1.327888 -0.146688 1.525576 1.459300 -0.505556 -0.841350 -0.893625 -0.375312 -0.221091 -0.025449 -0.073364 0.331420 -0.620946 -0.247108 -0.077504 0.701185 -0.811998 -0.240332 0.356208 -0.250596 0.518058 0.197316 0.194579 -0.208435 0.255080 -0.374981 -0.522923 0.666345 -0.022866 -0.319243 -0.950115 0.845343 1.325325 0.400881 1.331002 0.596885 0.230758 -0.577450 1.060288 -1.167129 -1.543519 0.467369 -0.855092 0.444302 -0.706267 0.127878 -0.280414 0.339780 0.435818 -1.558289 -0.494234 0.323764 -0.410390 0.208218 -0.520604 0.270318 -0.829624 0.717185 0.213230 0.009265 -0.201982 -0.912609 0.198283 -0.578651 0.045880 -0.556571 0.174513 0.710137 0.841657 0.998421 0.549538 0.409009 0.872564 0.237069 0.546668 -0.816952 -0.806765 -0.250683 0.537521 0.249880 -0.223793 0.472248 0.993704 1.961682 0.074190 0.542013 -0.540601 -0.716093 0.295238 -1.191343 0.450666 -0.633483 0.310001 0.766925 0.372573 0.597019 -0.200312 0.029991 1.200778 0.626845 -2.398465 -1.884204 0.273494 -0.355409 -0.516265 -0.263974 1.560238 -0.240075 -0.248588 0.555764 0.919135 -0.520123 0.399227 -0.404279 -0.029146 -0.894213 -0.844176 -0.126126
was 0.166760 1.216681 -0.613480 0.887495 -1.354038 0.597457 -0.864689 0.426051 -0.148998 0.048832 1.491647 -0.294066 1.029202 -1.223972 -0.248495 -0.670546 0.914960 -0.687368 -0.198203 -1.214336 0.151679 -0.624634 0.376957 0.510849 0.115592 0.070492 0.265269 -0.515908 1.659271 0.914423 0.765991 0.588429 -0.060126 -1.209568 0.195129 -0.008514 -0.599069 -0.352597 -0.963869 0.325000 0.154522 0.200149 -1.025377 -0.547991 0.263343 -0.098518 -0.675979 -1.703843 -1.763958 0.641162 0.622477 -0.398325 0.078465 -1.680538 -1.054126 0.124564 -0.639577 -0.306529 -0.395155 -0.620052 0.670979 1.134879 -0.560217 0.404312 1.927334 0.331579 0.286315 0.678222 0.374242 0.551423 1.046944 -1.496601 0.656502 -0.352704 0.020308 0.227096 -0.224493 -0.514919 -0.326872 0.569565 -0.148842 0.504922 0.533447 0.653539 -1.093060 -1.247493 0.178459 -0.166769 0.398448 0.074454 -1.314071 -0.149693 -1.125677 1.030275 -0.316112 0.061279 -0.364562 -1.210191 -0.608708 -0.489548 0.447559 -0.625594 0.370239 -0.277616 -1.410754 0.317981 -0.522919 -0.281568 -0.010456 -0.453255 -0.416300 0.733657 -0.762836 0.760367 0.103642 0.027045 -0.464720 -1.259595 -0.700346 -0.879897 -1.259280 0.175520 0.635455 0.288712 0.811655 0.712669 0.730099 -0.813901
he -0.404198 -0.038793 -0.014721 0.975881 0.781712 -0.711866 1.306993 0.200521 1.002543 0.368787 -0.222207 -0.610756 -0.406528 0.213408 -0.343059 0.401888 -0.083458 0.345370 0.284874 -0.276737 -2.252742 0.597696 -1.083283 -1.250569 -0.191446 1.364650 -0.061043 0.419584 1.498873 0.600601 1.185137 0.955120 0.295959 0.267136 0.343268 -0.423485 0.363578 0.711436 0.103586 -0.537636 -0.938430 -0.633189 -0.128113 -0.827710 0.529366 0.506023 1.404133 1.618010 -0.068745 -0.246588 -0.118097 0.268650 -0.981562 0.007804 -0.298402 -0.634991 0.089516 1.110064 -0.864226 0.086037 -0.270295 0.523161 1.622214 0.946309 0.404260 -1.036533 0.952178 0.661020 1.306429 0.099150 -0.187010 -0.430601 1.987617 0.558720 -2.024839 0.818636 -0.692716 0.456007 0.214579 0.020241 -0.376753 0.341010 0.222798 0.076201 0.666985 -1.783261 0.747681 1.218937 0.276473 -0.150087 -0.022417 -0.981043 0.401274 -1.274117 -0.446528 -0.220269 0.971817 0.411005 -0.734368 -0.166525 0.412411 0.042658 0.284354 -0.687894 -1.056975 -0.215522 -0.716955 -0.229676 0.309582 -0.012488 -0.274586 -0.304846 0.046654 -0.886709 -1.152757 0.019395 1.383872 -0.151416 0.565939 -0.266824 -0.645250 1.890913 -0.274150 -0.220870 -0.739391 -1.170238 -1.239319 1.527491
is 0.636981 1.562582 -0.009149 0.660314 -0.385511 0.352461 0.380054 0.365993 -0.639419 -0.243989 0.028916 -0.505394 0.590996 0.392901 -1.155918 1.422569 1.003580 -0.903809 -0.337586 -0.495568 1.359713 -0.704867 1.559593 0.070092 -0.123305 -0.459412 1.236232 -0.069581 0.428392 -0.689159 0.200797 0.579369 -0.576933 -0.721744 -0.554420 0.506770 -0.680073 0.063622 -0.210106 0.408380 0.360687 1.277601 -0.051657 -1.214517 -0.687485 0.433904 0.406249 0.124541 -0.743969 0.536613 1.121386 0.897650 0.107839 -0.610464 -0.028248 -0.498079 -0.349638 -0.347624 -1.702306 -0.565924 1.303900 0.733195 0.005963 0.606795 1.042708 0.421225 -0.539474 0.087812 0.164806 0.213692 0.908280 -0.578835 2.168538 0.170818 -0.327106 -0.031761 -0.648630 1.964418 0.370671 -0.739863 -0.214812 0.936139 0.088291 0.458067 -0.272585 -0.448756 -0.554840 -0.027894 -0.981025 -1.086137 -0.046117 0.740259 1.941480 -0.054786 -0.279152 0.525314 0.221382 1.118347 1.367216 -0.488245 -1.416602 -1.050787 -0.449434 0.611316 -0.444281 0.207783 -0.950142 -0.668149 0.766733 1.215371 -0.717845 -0.108283 0.553646 -0.509968 0.011290 1.081953 0.269413 0.149330 -2.089242 -1.365989 -0.052702 0.942306 -0.693061 1.556784 0.715172 -0.230126 1.400054 -0.801185
his -0.375194 0.668120 0.160335 0.334218 0.133005 0.147205 0.883418 0.413200 0.377266 -0.485976 -0.445331 1.644961 -0.294552 1.092842 0.962250 0.309299 0.009022 0.357781 -1.410049 0.527610 -0.399505 0.580054 0.026837 -0.826283 0.221591 -0.155527 -0.099868 -1.746965 -0.888741 -0.563298 -1.347761 -0.315542 0.287235 -0.377760 -0.776869 0.502785 -0.733713 0.519855 -0.735478 -0.429904 -0.935219 -1.451492 0.248496 0.652112 0.072803 0.588533 1.223414 0.339925 -0.225230 -1.090531 -1.289452 0.126100 -0.901010 -0.998970 0.601436 0.642123 -0.003951 -0.525353 0.760375 -0.431817 -1.271309 0.987948 0.573325 1.584143 0.477322 0.125925 -0.334519 -0.455887 0.820659 0.283232 0.383493 0.890636 1.012393 0.199223 0.139160 0.882344 0.463919 -0.195396 -0.135477 0.770662 1.673182 0.101262 0.645835 0.838074 0.009241 0.251630 -0.774544 1.320843 1.568961 1.201682 0.579978 -1.028359 1.138925 0.777990 -0.428199 0.395354 -0.431338 0.766186 0.050099 -0.564749 -0.762654 -0.174599 0.422295 0.473170 -0.530645 0.769570 -0.028377 -0.651370 1.049804 -0.243566 1.621891 0.824348 -0.342672 -0.383058 0.330284 0.088886 -1.582004 0.246602 -1.039652 0.624258 1.014228 1.056186 0.793900 -0.104614 0.122124 0.718735 0.076597 -0.696503
as -0.600235 -1.885797 0.648078 -0.327533 -0.291177 2.275380 0.659434 0.275280 -1.512254 -0.367628 0.976283 0.536117 0.383344 -1.196758 0.266636 0.003849 0.168838 0.460625 0.758618 0.703889 -0.657798 -0.156710 -0.090292 -0.377914 0.016684 0.586124 0.792948 0.602563 0.464624 0.134202 -0.782148 -0.807799 0.253114 -0.322460 1.030932 -0.886430 -0.658043 0.586686 -0.974719 -0.399034 -0.134838 -0.542637 -1.560517 -1.229795 1.058355 0.509639 -0.235400 -0.491968 -0.589997 -1.110922 -0.059473 0.381626 -0.606868 1.370070 0.839961 -0.361050 -1.360530 -0.219357 0.390774 -0.630114 0.073584 -1.659255 0.007365 0.579456 0.935305 -0.233849 -0.181023 -0.869489 -0.831071 1.896926 -0.524925 -0.448421 -0.293930 0.398687 -0.495353 0.666558 0.161550 0.952549 -0.066942 0.368076 1.034480 0.425654 -1.674610 0.109216 -1.234914 -0.582714 -1.447665 0.007687 -0.116214 -0.777356 -0.445119 1.032435 -0.302788 -0.311828 -0.265406 -1.296672 0.057700 1.335665 -0.333073 0.141583 -0.442463 -0.411159 0.190744 0.664929 0.758667 1.525638 -0.298120 -0.503104 0.075831 0.288596 -1.584390 -0.798793 -0.318183 -1.114777 -0.024567 -0.758522 0.717693 0.354774 -1.078778 0.599891 -0.479438 0.505380 -0.368679 -0.052429 1.362580 -0.388318 -0.352446 -0.139507
with 0.803420 0.712604 2.140727 0.012546 -0.238047 0.189376 -0.965458 0.667345 0.615920 0.285877 0.075126 0.229286 -1.372214 -0.711393 -0.391664 -0.407970 -0.929834 0.272005 -0.304164 -0.459697 -0.809707 -0.728408 -0.759791 0.003064 0.380599 0.232839 -0.112841 0.061852 0.124577 1.039488 -0.451044 0.310693 -0.113522 -0.446745 0.511113 -0.617027 -0.589474 0.981997 0.411657 -0.354243 -0.313058 2.189085 0.117651 -0.799384 0.074510 -0.795620 0.260318 0.952485 0.031803 1.446759 -0.520603 0.081806 1.773958 -1.279678 -0.455897 0.052407 -1.414173 0.346673 1.365136 -1.886497 0.197957 0.429189 0.772766 2.021316 -1.070454 -0.118810 -0.460189 -0.809077 0.386483 -0.227206 -0.894382 -0.993255 -0.136234 -1.568667 -0.238716 -0.269740 0.177715 0.585529 -2.017070 1.121579 0.019505 -0.268485 -0.851326 -0.027860 -0.424889 0.321504 -0.362210 1.272119 -1.264107 -0.112498 0.194737 -0.587335 -0.007317 -0.886459 0.190376 0.278837 0.119585 0.019859 -0.588412 0.618716 1.390591 -1.166480 -0.807791 0.457111 -0.279749 -0.145479 -0.375008 1.558242 -0.047469 -0.269516 -0.513816 -0.448300 0.599492 -0.526264 -0.147765 0.021352 -0.063895 -0.622870 -0.852293 -0.424473 -0.822845 0.493840 -0.455570 0.729959 -0.006228 0.839819 -1.304821 -0.709825
you -0.307290 1.557452 0.656850 -0.177233 -0.023542 0.989444 -1.213961 -0.098046 0.492988 0.262749 1.997160 -1.056586 0.879964 0.455213 0.571596 -1.183136 0.951430 -1.903705 0.526324 -0.270347 -1.074583 -1.960685 -0.409381 0.120044 -1.270719 -0.395793 -0.118946 -1.298948 0.688741 1.561776 -0.315838 -0.320694 0.384344 0.170099 -0.322021 0.446297 -0.887921 -0.885243 -0.317048 -0.993692 -0.592158 -1.487766 -0.084807 0.111765 -0.570852 1.290351 -0.308454 0.896531 -0.371491 0.968883 2.126965 0.692528 0.585437 0.791255 0.843963 1.523691 0.646810 0.836912 0.233814 1.329622 -1.055226 2.310519 -0.182885 1.035987 -0.572955 -0.943104 -0.177732 -0.113000 0.454319 -0.072726 -0.823749 0.596813 -0.225131 1.141676 0.038019 -0.548798 0.808108 0.420409 0.107152 -0.848264 -1.489231 0.104553 1.774328 0.031436 -0.196703 0.236387 0.318692 0.358843 -0.406069 0.462419 0.711248 -0.060935 0.369376 -0.167403 0.985667 0.584234 0.703010 0.711316 0.494396 1.330871 -1.010560 -1.075624 -1.316113 -0.299030 0.483120 -0.046526 -1.681684 -1.423416 0.934641 0.473072 -0.209296 1.428658 -0.010791 0.636084 0.657149 0.050292 1.007731 -0.782447 0.568838 -0.565757 0.725618 -1.001343 -1.003380 -1.039522 0.116435 0.167695 -1.542406 -0.282070
for 0.426987 0.401072 1.044613 0.565629 0.501277 0.086962 -0.384420 1.406820 -1.104979 0.631163 -1.258772 -0.243288 0.363911 -0.451705 -0.608092 -0.823534 0.192506 -0.161842 0.673578 0.079875 -0.894533 0.104504 -0.935992 0.891682 1.635723 0.011563 -0.057794 0.562935 1.368998 -0.359804 -0.011540 1.042035 0.608658 0.465370 -0.581178 0.770772 -0.436738 -0.150099 0.167514 -0.389818 0.713392 0.035332 -0.225505 1.045433 1.185348 -0.489672 -0.643868 -0.070072 -0.204987 -1.776720 -0.072973 -0.778988 1.526191 0.188858 -0.818432 1.079814 -0.627171 0.329530 -0.309758 0.026259 0.857435 -0.885762 -0.224695 -0.609710 0.247484 -0.877341 -1.555280 0.406086 -0.791970 -1.156222 0.063261 0.148320 -0.504606 -1.630335 -0.104056 0.885007 0.558522 0.522426 -0.095762 1.216798 -0.279659 0.612415 -0.683885 0.980168 0.306218 -0.059656 -2.517179 -0.018502 -1.459412 -0.307364 -1.404291 0.273176 0.773507 0.603358 -0.826151 -1.281143 -0.599217 -0.245885 -0.219812 0.124967 1.170671 0.420672 1.314624 -0.358165 0.303228 0.804144 -0.253139 0.512866 -0.087188 0.845179 0.742452 -0.907934 0.659819 0.041026 0.421388 1.236245 0.301894 -0.228862 0.681909 1.302067 0.141361 0.041980 0.043089 0.004552 1.161247 0.565864 -2.121890 0.517269
not -0.298301 -0.529546 -0.226640 -1.048876 1.002975 0.414654 1.705733 1.874608 -0.476129 -0.856971 2.166561 0.199418 -0.229873 0.725899 -2.139218 0.847096 1.319045 -0.862255 0.464897 -0.197881 -0.220815 0.536593 0.094858 0.644135 1.104046 -0.457824 0.149785 1.439970 -0.008707 0.784982 0.446139 -0.309766 0.702370 -0.832186 1.421291 -0.329322 -0.464372 -0.711889 -1.088922 -0.031142 -1.673792 -0.658331 -0.906321 0.364857 -0.293659 0.200827 1.140779 -0.274408 0.411991 0.200592 1.105974 0.173817 -1.355581 -0.605946 0.606670 1.658476 -1.054570 1.301993 0.479336 -0.296140 0.757006 -0.829776 -0.198974 -0.368997 -0.215420 0.916328 0.513817 -0.518993 0.748836 -0.486224 0.689576 -0.280444 1.152661 0.475529 -0.072291 -1.118469 0.585481 1.977061 0.737551 -0.393508 -0.650855 -2.363232 0.468301 0.421740 0.351414 1.623163 -2.029346 -0.571916 -0.594427 -0.640997 -0.613962 -1.187079 -0.857598 -0.120947 1.021417 -0.186639 0.730529 0.213067 -1.379046 0.621707 1.051085 -0.110373 -0.772445 0.023325 -1.281914 1.188581 -1.176791 0.000211 0.743398 0.214641 0.512013 0.623110 -1.740789 1.296500 0.351744 -0.786408 1.394466 -0.298431 0.475284 -0.027284 0.991050 -0.551450 -1.401256 0.208984 -0.384229 0.752620 0.063989 -1.170805
be 0.216325 -0.979007 -1.175356 0.811382 -0.143464 -1.161509 -0.939568 0.931780 -2.320111 0.335567 1.320099 -0.090828 0.856528 -1.185505 -0.991153 1.038290 0.434799 0.973431 -0.363629 -0.775345 0.436582 -0.778373 -0.718086 -0.074055 0.550151 -0.811678 0.474884 -1.108103 -0.182349 1.337249 1.079516 0.125966 -0.698072 0.378729 -1.036033 1.048336 -0.768011 0.184807 1.737532 -1.537501 -1.197354 -1.092222 -0.746154 -0.264426 0.835027 0.717483 0.517334 -0.269585 0.457071 0.959349 0.684076 -0.596595 -1.063800 -0.874672 -0.466827 0.091862 0.068856 0.852792 -0.292387 -0.935586 -0.129529 0.138117 0.862074 0.741706 0.590323 1.389340 -0.512224 -0.740031 -0.704884 -0.017354 0.619809 -1.091604 1.620759 -0.252127 -0.519850 0.223291 -0.506963 -0.620164 1.487502 -0.378428 -0.980546 -0.941392 -0.138110 1.008869 -1.175077 -1.324541 -0.496052 0.906316 -0.196194 0.574659 -0.279862 0.037997 0.905039 -0.122234 -1.476216 -0.172971 -0.381013 1.884674 0.416001 1.432060 -0.131107 -0.295442 0.192487 -0.823618 -0.309851 0.546428 -0.837722 -0.213613 0.214984 0.554382 0.019319 1.156170 0.922437 1.678426 -0.420577 -0.082736 -0.289488 -1.363697 0.321721 -2.045686 0.269382 -0.058828 0.040499 1.278237 0.326361 0.124579 1.162873 0.184081
but -0.504282 0.325194 0.205502 -0.932066 -0.427635 1.278478 -1.244394 0.127008 -0.999131 0.029471 -0.267892 0.034877 1.714698 -0.036663 0.087722 -0.692670 0.196649 -0.108044 1.416710 0.774831 1.177726 0.425526 -0.745648 0.210284 -1.654499 0.641102 -1.288685 0.627227 0.854697 -1.023546 0.174107 -0.289903 -0.042106 1.163969 0.476066 0.331301 0.319986 0.511294 -0.053682 1.146364 -1.050259 0.585374 -0.182210 -0.324395 -0.395268 -0.748349 -0.087570 -1.470754 1.093529 -0.148221 0.438118 -0.446697 1.160782 -2.698251 1.150135 -0.354891 -0.522289 -0.102530 -0.340491 -0.035953 0.566986 0.289303 -0.889522 -0.993059 0.399697 -1.449986 -2.054295 -0.414526 0.830575 -0.312552 0.100563 0.539076 1.103171 -0.037299 -0.112400 0.254641 0.318655 2.389112 1.236598 0.199851 -0.401060 -0.026691 1.265750 0.419072 0.926689 0.105386 0.795559 0.810024 1.777684 -1.268207 -1.169080 0.008022 -1.294395 -0.038393 0.169871 1.116636 -0.077633 0.604513 -0.316530 0.567495 -0.433695 -0.081688 0.375994 0.117092 -0.263604 0.476438 0.478947 0.194925 -0.539618 -0.118917 -0.253593 -0.321136 0.268067 -0.576485 -1.548204 0.559537 0.049694 0.087391 -1.056656 -0.237187 -0.675923 0.391921 -0.581696 -0.119478 -0.822825 -0.642940 -0.118497 1.059101
at 0.749478 0.821738 0.957294 0.123676 -0.890003 0.125917 -0.405641 2.287886 -1.243463 -1.617980 1.487262 0.346210 -1.945619 -0.373937 0.281988 -0.070338 -1.129476 -0.103691 0.795516 1.356275 -1.469420 -1.837399 0.657345 0.533407 0.213798 0.305095 -0.749132 1.403676 0.567819 0.691695 0.383319 -0.624468 0.701089 -1.091009 -0.095441 1.392867 -0.117791 -0.090106 -1.233498 -1.316626 0.743134 -0.453488 0.137062 -0.351302 1.046697 -0.263362 0.682515 -0.727642 0.288210 -0.324108 -0.237496 -0.410943 0.848431 0.624812 -0.713309 -1.317457 -0.269774 0.118660 -0.615517 -0.906406 -1.256319 0.635390 0.726213 -0.538946 -0.557395 -0.483190 1.075084 0.253629 0.044188 -1.880083 0.023337 0.732087 -0.349731 -1.336975 -0.772040 -0.142670 0.044105 1.160343 0.381494 0.150868 -0.847052 0.223100 -0.088671 0.207389 -0.622544 0.459983 -0.432027 -0.580170 1.190683 0.062790 0.734601 1.650792 0.164339 0.390474 0.428786 -0.452748 1.227306 -0.334620 0.417265 0.909162 -0.576276 0.528781 -0.602702 -1.561714 -1.027553 2.045611 -0.098779 -0.200017 0.409337 0.108435 -0.392820 -0.064603 0.728559 -1.251220 -1.334890 0.875669 -0.126728 0.839531 0.674205 0.115932 -0.018854 -0.537006 -0.550840 0.255321 1.465488 -0.545825 1.164201 -0.721722
my -0.484174 0.383877 -0.318980 0.309149 -0.284088 -0.207233 -0.022988 -0.686370 0.415371 -0.736236 -1.173368 1.282718 0.280971 1.089196 0.484700 1.677429 0.193788 -0.944678 0.361171 0.263633 -1.102307 -0.768783 0.291036 -0.122445 -0.561647 -0.240544 -0.625051 -0.631299 1.365205 -0.905094 -0.233132 -0.438784 0.438480 0.098168 -0.555170 0.501457 -2.338328 0.784777 -1.579396 -0.102484 -0.948927 -0.042032 -0.611385 0.609913 -0.538615 -0.448458 0.589688 -0.282613 0.534578 0.794237 0.325296 0.374537 -1.613441 0.827304 1.138929 0.567364 -0.576196 0.160637 0.946741 -0.718606 -0.805487 0.288820 0.828059 1.684871 1.299234 -0.173740 -0.032041 -0.070996 -1.474243 -0.763597 1.508567 -0.215274 0.403599 -0.673046 0.090340 0.833684 0.264699 -0.408368 -0.615228 1.113434 1.952665 0.689690 1.252456 0.175014 0.545585 1.885573 -0.007844 1.952927 1.006741 1.552272 0.176664 -0.326652 -0.359805 1.254361 0.795335 -0.430602 -0.117391 1.275004 -0.351383 0.594350 -0.933333 -0.255545 -0.938210 -1.038260 -1.321171 -0.395159 -1.225922 -0.083740 1.179353 -0.343403 -0.578028 0.031065 0.032668 -0.747385 0.861505 -0.120238 -0.704712 0.403346 -0.646976 -0.043059 -0.010866 -0.192677 0.715717 -0.213663 0.276679 0.041818 -0.175884 0.909930
had 1.029176 0.009175 1.278214 1.012101 -1.023800 0.737637 0.769066 -0.036463 -0.050647 0.462326 0.756452 -1.492450 1.056870 -0.750409 -1.164948 0.407759 -0.662723 -1.072198 0.444121 -0.181004 0.125639 -0.571509 -0.357326 -0.594991 0.796736 0.086854 -0.208304 -0.365085 1.000713 0.195318 -0.521344 -0.213318 -1.094998 -0.289905 0.725419 0.508325 0.579669 -0.670091 0.415216 1.194599 0.383808 0.483773 0.875753 -2.053302 -0.473332 -0.726290 -0.786599 -1.113959 -0.708454 0.220673 0.636309 -0.793002 -1.093994 0.283137 -2.638826 -0.041408 -1.139765 -0.569612 1.493946 1.307240 -0.341553 0.547813 0.637239 1.481133 -0.002743 -1.174472 -0.127332 1.405696 -0.579590 -0.474482 0.235583 0.354486 2.883840 -0.253492 -0.955116 0.617578 -0.232647 0.525818 0.687200 -0.996879 -0.854622 -0.861042 -0.957863 0.228320 -0.426575 -0.504252 -1.215946 0.833689 0.916394 0.746444 1.620835 0.113571 1.723066 -0.482213 -0.379160 -0.347836 0.279322 0.669698 0.092981 0.156158 -0.507298 -0.045554 1.236315 -1.876498 -0.891114 -0.144037 0.021783 1.376844 -0.150857 0.193947 -0.652028 0.290496 -0.325582 2.163903 0.533974 -1.222282 -0.028502 0.442310 0.360162 0.880637 -1.832206 0.542384 -0.603008 0.357103 -1.796791 -0.414567 1.080579 0.313386
on 0.336771 -0.953534 0.883702 -1.569587 -0.274098 -0.763830 -0.069347 0.437159 0.253032 0.422899 -0.280940 0.125002 1.073820 -1.647294 -0.838541 -0.391203 0.421635 -1.706642 0.552281 -1.261786 -0.911050 0.003615 0.871540 0.429126 0.489599 -0.063291 -0.741625 0.020923 -1.264668 -0.638253 -0.928262 -0.559845 1.267653 -2.140088 0.489282 1.354291 0.300617 -0.794744 0.285552 -0.254147 -0.323423 0.394331 0.356801 -0.432516 1.564314 -0.220013 0.249317 -0.012129 -0.436902 1.245155 2.524511 0.120274 -0.135217 0.750618 0.205184 -1.433143 0.720274 0.017348 1.969611 -0.387866 -0.355303 -1.068830 -0.952038 1.031167 -0.478905 -0.355688 -0.101863 0.875464 -1.030307 -0.668525 -1.020077 0.565660 0.137187 0.454269 0.579102 0.133480 0.421236 -0.067095 0.255996 -1.012308 0.726919 -0.812951 0.243988 -0.638931 0.656528 0.020732 -0.665973 0.339218 0.430128 -0.312209 -0.289608 -0.035412 -0.569037 -0.567979 -0.390217 0.765395 -0.265491 -1.021318 1.517340 0.423396 1.280725 0.688482 1.027791 0.031319 -1.230608 1.499035 0.427631 -0.252097 1.202768 0.914062 -0.179419 0.910080 0.878575 -1.053164 -1.327927 1.177319 0.536211 -0.304282 -0.898379 -0.889284 -1.510695 0.286315 0.523995 -0.250937 0.781122 -0.105414 -0.452713 0.212149
have 0.167195 -0.900442 -0.248032 0.205725 -2.099520 -0.003300 0.648475 0.554423 0.540832 0.748127 0.359056 0.000459 -0.142738 -0.860043 -1.004393 0.648745 0.555387 -1.212875 0.060771 -0.082519 -0.184101 -0.273483 -1.222641 0.957525 0.191975 0.625152 1.200614 -0.225861 1.183544 -0.498960 1.434860 -0.619136 0.296641 0.810010 2.059531 0.991923 1.236573 1.090596 1.401429 -0.708810 0.334684 -2.080635 1.284034 -1.331205 -0.160118 0.887075 -0.514639 -0.262483 -0.088790 2.010990 0.090205 -0.420369 -0.650864 -1.049882 -0.966810 0.136898 -0.996472 1.131022 0.825417 0.981893 0.297860 1.463733 -1.088478 0.499135 0.368979 0.179493 0.082513 0.316368 -0.296633 -1.330708 -0.348162 0.030437 1.585268 -0.291551 0.211486 0.735549 0.109314 -0.204328 2.150085 0.014800 0.416405 0.336026 -1.692500 -0.364091 0.673323 -2.395261 -0.975774 1.540611 -0.891334 -0.157420 0.088104 0.375616 1.509536 1.018121 0.034073 -1.253825 -0.633688 1.757209 -1.682038 0.829481 -0.205050 0.739976 -0.697144 -0.356376 0.437428 1.287162 -0.275264 1.515541 -0.935589 0.765939 -1.837029 0.121320 1.513861 1.193444 0.300439 0.120353 -0.226066 0.369557 1.040958 -0.082520 -0.310002 0.236913 0.251866 1.780174 0.380256 0.578469 -0.220583 -1.015135
by 0.709919 -1.127754 -0.968396 0.675892 -0.282975 -0.353010 -0.336792 0.698144 0.625818 0.284573 1.123981 1.663190 0.722010 -2.643325 1.130651 -0.101663 -1.008108 0.712888 1.478942 -0.506161 -1.126812 -1.381186 0.854574 0.693345 0.121631 -0.577414 -0.542829 0.683196 -0.576981 -0.313724 0.772429 0.636075 -0.675148 0.092189 1.332441 0.397680 1.522407 -0.018504 0.778949 -0.003290 0.601592 0.982892 0.417153 -0.451785 0.163618 -0.598971 0.522284 -0.390540 0.513473 0.861454 -0.308299 2.131732 0.620890 -1.007139 -0.986795 1.681760 0.040081 -0.208363 0.915331 -0.462707 -1.020252 -0.498212 -0.596337 0.174870 0.099014 -0.594082 -1.650875 0.176658 0.862659 -0.785080 -0.060845 1.092745 1.522153 -1.076335 -0.253358 1.243162 0.688543 0.684955 -0.475465 -0.325721 -0.370720 0.691357 -1.482319 0.666647 -0.601461 0.851103 -0.633000 -1.372919 0.050875 0.158817 -0.983839 -0.108661 1.713251 0.051522 0.040499 0.056759 -0.410279 0.206279 -0.043057 -0.803022 0.996162 -0.977559 0.916824 -1.069395 0.170383 0.177720 -1.220274 1.537219 0.902559 -0.651007 0.657930 1.010614 0.044015 -1.705234 0.407019 0.649250 0.394256 -0.116477 0.305811 -0.694682 -0.291647 0.902152 1.022746 0.043995 -0.072390 0.470784 0.371063 0.611320
this -0.268248 0.879024 -0.709869 -0.189792 -0.440882 -0.399528 -1.879328 -1.037696 -0.387380 0.167114 0.771777 -0.792413 -0.363805 1.400577 -0.806488 -0.585304 0.376428 0.422506 0.947209 1.448843 0.581151 -0.120770 -0.504449 -0.735337 0.281973 -0.319224 -0.364257 -1.208641 -0.783980 -0.892497 0.663862 -0.628367 -0.396258 -1.632033 0.416329 0.938669 0.473873 -0.623817 -0.284066 -0.948802 0.478322 0.298498 -0.265142 0.631686 -0.258650 0.604987 1.163697 1.191705 0.949492 -0.423087 0.055732 1.059741 -0.306456 -0.509423 -0.850590 -0.941579 -1.562638 -0.514415 -0.995113 -0.146075 -0.282954 -1.200479 -0.377731 0.711419 0.518725 -0.965491 -0.197450 -0.162832 -0.749060 1.057799 0.304590 0.592578 0.561298 -1.081249 -1.033943 0.767542 0.297984 1.015432 -0.195485 -0.362926 -0.847787 -1.258004 0.045579 2.173063 0.794095 1.189871 0.252260 -0.702592 2.269801 0.847403 0.341877 0.661171 0.423125 0.012854 0.444218 0.012665 -1.577883 0.930658 0.573181 0.548477 -1.169830 -1.144830 0.306010 1.906075 -0.650352 -1.072351 -0.904696 -0.277725 0.613176 0.247041 0.160531 -1.927069 -0.069355 0.532781 -0.547473 -0.026589 0.763487 -1.217949 -0.399118 2.208373 0.941176 0.475371 1.396001 -0.117342 0.196196 0.291697 -0.327709 -0.423841
or -0.921825 -1.008830 -0.626462 -0.057946 -0.616678 -0.513721 0.653373 0.558554 -1.719424 -1.575908 1.171334 -1.115320 0.796976 -0.806791 -0.461920 -1.325387 0.254169 -0.206006 -0.182596 -0.603172 -1.055629 -1.490430 0.340911 0.053735 -0.659385 0.545836 -0.545785 -0.540761 0.884818 0.189518 -1.118215 -0.513353 0.250482 0.520313 0.102593 1.253915 0.567612 0.500469 0.936018 0.296272 0.531226 -0.079080 1.532109 -0.023975 -0.782322 -1.130977 -1.036237 0.203349 -1.146094 0.235905 0.900324 -0.567247 -1.063415 -0.132327 1.484574 1.601107 -0.332607 0.443004 0.368810 -1.202003 -0.121725 -1.118561 -0.033424 -0.773686 0.181365 -1.172357 0.295155 -1.021133 0.274588 -0.081693 -0.849974 -0.584257 0.754063 -0.626577 0.125343 -0.022687 0.497956 1.165525 -1.417033 0.185823 0.050147 -0.707294 0.589192 1.033120 0.505835 0.637775 0.036587 -0.889613 -0.935901 1.403663 0.359976 -0.654356 0.267766 -0.404919 -0.131120 0.996714 0.159250 1.576732 1.321694 0.604605 -0.288459 0.888856 0.258481 0.358766 0.084458 0.701110 1.196432 0.608194 1.078627 0.068564 0.625491 0.593471 1.981880 -0.680449 0.724850 -0.990763 1.376097 -1.076962 -0.871016 0.856137 0.332550 1.579844 -0.113864 -0.287251 0.268253 -0.312310 0.842139 0.646186
which -0.343306 -0.751480 -0.168312 1.287582 0.275224 -0.519651 -0.029451 -0.231352 0.788525 -0.577808 -1.479317 -0.548683 2.192950 -0.028262 -0.300078 0.519948 -0.080953 -0.326361 0.279796 0.761030 -1.104327 -1.794970 -0.461947 -1.353228 -0.363580 -0.070605 1.370275 1.326033 -0.681117 0.825137 0.267827 0.060181 0.438109 0.978295 1.238372 -2.025776 1.357682 -0.470408 0.651428 -0.909210 -0.831588 0.036108 -0.365440 0.176835 0.383607 0.487143 -0.894931 -0.392380 1.062334 1.048193 -0.917046 0.038152 -0.572281 -0.951229 -0.048099 0.982562 -0.882873 -0.010608 1.033862 0.141714 0.914317 -0.105371 0.050302 -0.748891 -0.042184 -1.323161 -1.629218 -0.799489 1.614212 1.242402 -0.119891 1.301599 -0.598812 -0.412188 -0.447451 -0.589155 0.217005 -0.343270 0.644286 -0.238934 0.433983 0.069409 2.289854 -0.310347 0.736391 0.077314 0.132155 0.048425 1.887778 -0.330965 0.849824 0.418218 -0.197625 0.655623 0.577951 0.148900 -1.188825 -0.041608 -0.072297 -1.305234 -0.499727 -1.268728 -1.311287 -0.119103 -1.275332 1.169133 -0.427570 -1.632922 0.850748 1.420527 0.211972 -2.224238 0.210972 0.405949 -1.625515 0.633597 -0.385224 0.248202 0.483009 1.412692 -1.440770 0.731867 0.031849 -0.145098 0.618468 1.295484 0.607944 -0.322202
me 0.329857 2.015235 -0.380924 -0.016730 -1.523710 0.582875 0.525141 0.436509 -1.637614 1.504351 0.062084 -0.113075 0.212760 1.411806 0.346110 0.008939 -0.828638 0.067970 0.546628 -0.653250 -0.258103 -2.207435 2.111670 -0.124272 -1.764611 1.663303 0.684758 -0.678873 -0.622324 -0.942362 0.421122 0.752436 -0.912871 -1.292207 -0.799447 -1.114104 -0.289167 0.015828 1.064397 -1.786861 -1.151307 -1.141393 1.864092 0.234736 1.923528 1.489534 -0.159397 -0.089684 0.204093 -0.534261 1.812402 0.067030 -0.139357 -0.464766 0.390260 1.410406 -0.647073 1.503261 -0.136558 0.687010 -0.363143 0.565379 -0.137448 -1.169713 0.646683 -0.538575 -0.502317 -0.917679 -0.516048 -0.817457 0.474233 1.182302 0.893004 0.204807 0.489550 -0.545895 1.591587 -0.155662 0.122298 -1.280687 0.205278 0.803019 0.798809 -0.242911 0.025374 0.389448 -1.204540 0.549845 -0.268172 -0.249661 -1.170006 -0.569404 0.437209 -0.760635 -0.484205 -0.469474 0.938683 -1.582510 1.537124 -0.320205 0.300242 1.024956 -1.698596 -0.056163 -0.070692 -1.029099 0.130307 -0.747336 0.815325 0.469623 -1.805974 1.114434 -0.822422 0.598379 0.189600 0.964219 -1.663440 -1.384710 0.315411 0.788105 -0.021816 0.186996 0.157783 -1.002696 0.410563 -1.401910 0.401413 -0.776336
all 0.158986 -1.075049 -1.352466 0.146371 -0.016516 0.268722 -0.205502 -0.361778 -0.158488 -1.277707 1.082132 1.516919 -0.373123 0.166881 -1.421983 0.835585 -0.489020 1.011927 -0.363443 -0.789582 0.551555 -2.110812 0.036938 -1.693485 1.669068 1.011253 -0.632556 0.959320 -1.296326 0.408091 -1.132199 1.050753 0.253204 0.317381 -1.388788 0.122033 0.217442 0.465378 0.132197 -0.214985 1.154896 -0.571073 1.794577 1.824545 0.005744 -0.937254 -0.597564 1.082494 0.583173 1.331777 0.925745 -0.148445 -1.207098 -0.529737 -0.200894 -0.578745 -0.941387 1.662391 -0.565553 -0.053259 2.682058 -0.905661 -0.520083 -0.314342 0.895831 0.436573 -1.626546 -0.294874 0.258602 -0.220589 -0.521834 0.654735 -0.846289 -2.128481 -0.634202 0.045868 1.666493 -1.085305 0.121971 -0.745198 -0.718390 0.277369 0.443279 -0.000416 0.335156 0.283224 -0.793446 1.449343 0.353915 -1.187654 0.305726 -0.654023 0.013958 0.798533 1.330625 -1.328722 1.286088 -0.537813 -0.299738 1.424983 -0.766558 -1.334384 1.297745 0.445826 -1.091080 -0.742756 0.707676 -1.456640 0.085536 0.263344 1.009311 -1.350824 -0.491263 -0.518970 -0.291044 -1.929156 -1.019538 0.072884 -0.644155 -0.892391 0.085187 1.591900 1.320985 -0.039899 -0.825400 -0.250459 -3.193272 -0.362397
they 0.497629 0.489777 -0.733812 0.060289 0.638268 1.333317 0.054573 -0.630346 2.187622 0.143777 -0.350222 -0.253859 -0.959178 0.399175 0.877781 1.593811 0.048588 -0.201692 0.403074 0.327051 -1.419150 -0.879897 0.397416 -1.633129 -0.636205 -0.617846 1.012124 0.455585 2.044569 2.788298 -0.828460 -0.426333 -0.034196 -0.357043 1.444081 -0.764599 -0.675860 0.265887 0.068136 -0.322950 -0.427601 -0.998417 0.430045 0.088866 0.507922 0.001612 0.931076 0.192636 -0.056600 -0.301700 0.326131 0.126058 0.995022 -0.314931 1.342187 0.301632 1.204097 1.350253 0.096765 0.581795 -0.298491 0.294035 -1.164698 0.556886 0.390179 -0.065408 0.991050 0.485539 0.996811 0.085137 0.233489 0.819766 1.540972 -1.674081 -0.755385 1.344553 0.616801 -0.993138 -0.276382 0.899697 0.535920 0.042247 1.149510 1.337505 -0.316999 -1.250221 -1.031400 -0.185958 -1.793642 0.285942 -2.206223 -0.827988 0.414092 -0.836736 -0.053074 0.690546 2.110116 1.252639 -1.113528 0.311288 -0.583053 -0.630417 2.191292 -0.041131 -0.323291 0.245155 -0.715820 -0.308887 -0.621402 0.036416 -0.227784 -1.596451 0.782436 0.374739 -2.182024 -0.894187 0.030295 -1.626281 2.382717 -0.477804 0.512070 -1.215259 1.310290 0.096250 0.017006 0.894219 -0.034866 1.535875
her 0.953798 0.310694 -1.443714 0.128401 0.163430 0.888365 -0.302938 0.440834 -0.024106 -1.149339 -0.793888 1.153617 1.434265 0.813367 -0.868988 0.685576 -0.130361 1.433793 -1.060414 0.225126 -0.077506 -1.319788 2.090786 -0.558009 -0.071807 0.525039 0.792785 -1.115964 -0.204551 -1.107816 -0.609253 -1.314634 0.736379 -1.322895 0.512660 -0.539576 0.607316 -0.406094 -0.105885 -0.047994 -0.663487 -0.341949 0.857623 -0.840163 0.331993 1.490779 -0.106746 -0.032744 0.374587 -0.886125 -0.276920 -0.873535 -0.050696 0.755601 1.287055 0.224752 -0.351567 0.859343 1.650613 -1.533761 -0.336440 0.563169 -0.311565 -0.878281 0.231732 -0.834656 0.475680 0.837334 -1.079017 -0.602733 -0.718825 1.139485 -0.122144 -0.241616 0.200292 0.688339 0.165863 -0.521883 -0.373605 -0.734532 0.060857 0.383008 1.645735 1.723432 0.611126 0.514731 -0.409564 1.333255 0.747197 0.907798 0.073879 -1.103170 1.195529 -0.891555 -1.921285 0.020390 -0.171035 0.803494 -0.637294 -1.435437 0.158055 -0.712899 -0.595196 -0.123688 0.115055 -1.808517 -0.735909 -1.582695 1.338086 -0.793369 -0.469799 1.624556 -1.168177 -0.680207 1.302666 0.662728 -2.239130 -0.116258 -0.804017 0.449966 -0.481486 0.043749 0.166247 0.423445 -0.243150 0.286428 -0.590746 -0.209057
him 0.969154 -1.026239 -0.214502 -0.768303 -1.471401 0.092603 0.766210 -1.105307 -1.005309 0.570362 -0.569307 0.564219 -0.133410 0.800753 -1.049241 -1.285728 1.097738 0.269010 -0.731404 0.649513 0.154288 -0.861024 1.769441 -0.675246 -0.123253 1.901593 0.481963 -0.631177 -0.631979 -0.836224 0.238868 0.110635 1.353156 0.229238 0.309646 0.442379 0.290626 -0.630335 0.365237 0.445004 -0.430796 -0.756826 1.256341 1.528505 1.064867 1.394921 0.807562 -0.457981 1.506226 -0.271348 -0.026221 -0.311110 -0.170935 -1.171533 -0.507107 0.766593 -1.074996 1.673069 -0.384548 1.270395 -0.976270 1.063358 0.234399 -0.020324 0.340446 -0.460274 -0.075120 -0.851896 -0.024017 -0.926464 -0.209172 0.273141 1.589860 -1.277872 1.326269 -0.426295 1.487471 0.214233 -0.268342 -0.732946 0.278570 0.901354 -0.487237 -1.251488 -1.906799 0.013728 -0.676244 0.522447 -0.098157 -0.261489 -1.296023 0.304803 1.217252 -0.381401 -1.081907 1.033946 0.554586 -0.215714 -0.527629 0.420257 0.613761 -0.200482 -1.240391 -0.096588 -1.131269 -0.856063 -0.001548 -1.452698 0.534485 1.138653 -0.762884 0.925969 -1.562235 0.530027 2.174370 1.831772 -0.947461 -2.388901 0.747876 0.670731 0.465202 -0.643109 -0.609187 -1.688593 -0.127278 0.619277 -0.926380 -1.168778
she -0.744130 0.295136 -0.577708 0.320744 0.097005 -0.046186 -0.150999 0.060883 1.225589 1.153039 0.825830 -0.419126 -0.217889 0.140800 -0.435216 1.721732 -0.041298 -0.639649 0.899227 0.169038 -2.397461 0.262569 -1.314813 0.114782 2.041541 -0.585230 0.363781 1.470560 0.312595 -0.213748 1.253157 1.186008 1.253891 0.913497 -0.270564 -0.246303 0.449904 0.369711 -0.136247 0.295628 -0.285815 -2.475155 0.656909 -0.064279 -0.208366 0.278491 0.257332 0.161183 0.077522 0.547448 -1.072966 -0.752206 1.428784 -0.817936 -0.240746 -0.269481 0.659067 -0.526124 -0.059725 -1.017106 -0.548599 -0.446046 0.790053 2.005427 1.185475 -0.283894 1.366254 0.189914 1.256149 0.983001 -0.324652 -0.090473 0.625412 1.269811 0.506855 1.826290 -0.990019 0.906022 0.049243 -0.316014 -0.979377 -0.307300 0.166617 1.783516 0.036243 -1.222996 1.149762 1.430591 0.644227 -0.218693 -0.553558 -1.100087 0.013035 -2.605855 -0.017720 -0.380630 -0.605563 1.290014 -0.764375 0.089562 -0.343578 -1.155318 0.434027 -1.025321 -1.409443 0.623800 -1.391064 -2.170474 -0.287248 0.813778 -0.547380 -0.757030 -0.103353 -0.977429 -1.021049 -1.025065 0.762314 0.272832 -0.341350 1.402441 0.412019 -0.181879 -1.091500 0.463038 0.062374 -1.582427 -0.939409 0.441774
so 0.467745 -0.041866 0.460882 0.100676 0.499128 0.474564 -0.385938 1.106360 0.051991 -0.745605 -0.898048 -0.431322 2.096493 -0.392912 -1.460790 1.180029 -0.326810 0.258034 0.238708 0.189314 0.731018 -1.340418 0.833100 -1.434844 -0.259474 -2.198205 -1.901160 0.736294 1.617430 0.176197 -2.403971 -0.917133 -2.055316 0.441974 -0.178394 0.708116 0.092494 -1.555548 1.611341 -0.614479 -0.917166 0.282283 -0.355614 1.538585 0.646040 -0.582885 1.261581 1.847390 -1.663882 0.342571 -1.406656 -0.178054 0.352919 -0.327506 1.865293 0.361716 -0.490625 0.201885 -0.619971 0.340774 -1.656125 -0.947423 1.398903 1.070753 0.746527 -0.985287 0.484370 -0.225964 0.403532 -0.636294 0.920665 0.330833 0.877177 -0.883672 0.408434 -0.022550 -0.491135 0.183310 -0.427487 -1.083297 -1.348490 -0.051621 -1.685515 0.245173 0.576297 -1.570349 1.446183 0.100125 -0.241295 -1.099743 -1.781299 0.678359 -0.502608 0.515988 -0.255610 -1.751620 -0.155777 -0.044690 0.432653 0.164277 1.045590 -1.870902 0.205105 0.300996 -0.320549 0.945373 -1.296737 -0.246736 -0.265015 0.029307 -1.953860 0.580357 -0.173029 1.027995 -0.371835 -1.062943 -0.263331 0.073765 -0.915472 0.738322 1.871281 -1.016956 0.654736 -1.291999 -0.595544 0.716833 -0.625046 0.582075
are -0.017885 0.940840 -2.279292 0.013338 -2.516907 1.427171 0.401455 0.643490 -0.152610 1.607415 -0.671278 0.580889 0.634838 0.238748 -0.713071 -0.996363 0.426887 -1.193133 0.094847 0.698113 2.086198 -1.046863 -0.669642 -0.485191 0.626200 0.151650 0.845481 -0.122499 -1.145004 -1.281968 -0.573412 -1.249285 -1.681643 0.768672 1.255120 -0.509277 -0.614810 0.622021 0.492276 0.373433 0.705594 0.057827 0.971775 -0.679641 1.455664 0.500072 0.953427 -0.169371 -2.255109 0.588413 1.321880 -0.097565 -0.567894 -0.769158 -0.389875 -1.994376 0.770556 -0.203968 -0.284198 -1.608943 -0.310986 -0.583337 0.380661 -0.177586 0.217530 -0.209486 -1.967413 1.166070 2.020113 0.790178 -0.070769 -1.177692 1.074095 -1.616536 -0.047842 -0.109276 0.734797 -1.026116 1.026000 -0.772137 0.770867 -0.390911 -1.560760 -0.533226 0.669730 1.136865 -0.896125 -0.827015 -1.540131 0.622825 0.675260 -1.506085 -0.044842 1.706577 -0.874803 1.151592 1.496401 1.035288 0.482828 -1.612082 0.368056 -0.759544 0.543904 -0.986915 -1.285114 0.464476 -1.104183 -0.302631 -0.686908 0.600109 -1.278448 1.140722 1.121562 0.857013 -0.169264 -0.482240 -0.188951 0.500677 0.213158 -2.273511 -1.414064 0.061884 1.143220 -0.396980 0.741433 0.978330 -0.542348 1.105605
said 1.473467 -0.852207 1.022967 1.353599 -0.536497 -0.679493 0.702559 -1.456053 0.071577 -1.207850 -0.217515 0.836924 1.137757 0.221931 -0.257160 0.113149 -0.455049 -1.252935 0.494301 -0.311248 -1.965124 0.703229 0.955892 1.086642 -0.631025 0.734851 -0.917553 -0.146199 -0.704935 0.203095 -0.905612 -0.036437 -0.015797 0.090056 -1.223689 -0.633581 -2.455064 -0.899430 -0.595523 -0.656742 1.193179 0.255367 -0.159063 0.254841 0.641446 0.322184 -0.259877 -0.258807 1.227071 -1.175407 1.073489 -1.465963 2.115988 -0.935017 -0.349012 -0.122020 -0.995256 -0.725716 0.621192 -1.175523 1.174091 0.487230 0.169797 0.600222 1.650748 0.370934 -0.285542 2.219268 -1.233478 -0.082224 0.849570 0.544164 -0.984879 0.633941 0.573160 -0.427623 0.943908 0.581481 0.778655 -0.518174 0.922294 -0.562010 -0.461495 1.092215 1.463528 0.230801 0.182558 -2.007922 0.066994 -0.163076 -0.173661 0.240483 -1.091816 -0.566145 1.110892 0.183034 0.312823 1.446037 0.089310 0.092100 0.458329 0.819874 -1.933027 0.082038 0.085427 0.821895 0.186852 -0.304348 0.303667 1.576604 -1.629331 1.013442 0.720025 0.203765 -2.507421 -1.821807 0.267416 -0.617044 -0.250104 -0.256888 -0.676776 0.200439 -2.582642 -1.364527 -1.096093 0.800358 0.194593 -0.324620
from -0.435568 -0.821061 0.119044 -1.808536 1.161627 -1.144816 -0.564305 -0.163436 -0.480910 0.270563 0.033533 -0.539441 -0.457659 -1.335244 0.740085 0.121776 0.303510 -0.584718 1.756847 0.622650 0.824683 -0.524333 0.372987 -0.272528 -0.169312 0.274847 -0.616661 0.010498 0.406462 0.110692 -0.630323 1.052443 -1.332104 -0.915573 -0.293092 0.818889 -0.532959 -1.029814 -1.180603 -0.658103 -1.398983 0.384015 0.225355 -0.326286 0.214013 -0.625628 -0.191474 -0.353291 0.388228 0.282827 0.117659 1.532999 0.217495 -0.860372 0.180510 0.580940 -1.372908 -0.004225 -1.558054 0.465826 -0.524110 -0.903582 0.491305 -0.091208 0.088276 1.289699 -1.255021 1.309840 1.163751 0.840546 -0.939914 0.448164 0.863585 0.083154 -0.568909 1.138667 -1.031696 2.692826 -2.029312 0.833940 -1.122106 1.166193 0.047215 0.261383 0.257578 1.335974 -1.274819 -1.006409 0.195020 0.644697 -0.381245 0.451626 0.791686 -0.270513 -1.309210 1.223184 1.208753 -1.266589 0.172923 -0.702030 1.811223 0.963124 0.152474 -1.665744 0.095335 0.475269 0.129771 -0.947739 0.708319 -0.336670 -0.934331 -0.050798 1.409697 -0.869795 -0.496069 -0.434122 -0.833072 1.734681 1.073058 -0.767429 -0.114584 1.330968 0.701833 0.008143 -1.269212 1.020486 -0.520848 -0.902529
one -0.181661 -0.236621 -0.470107 1.799083 -0.226962 -0.395765 -1.071627 0.435021 -0.420603 -0.233878 0.311800 1.303263 -0.998844 1.666091 0.791356 -0.244103 0.037070 -0.953890 0.063437 -0.150132 -1.170964 -1.011644 -1.202757 -0.691793 2.159648 -1.524270 -1.519497 -1.371123 1.265626 -0.047965 -0.173578 -0.759088 -0.733161 0.784818 -1.152433 1.033128 0.616219 0.921312 -0.000939 0.380979 1.284315 0.157966 -0.618422 -0.365632 -0.601499 2.091689 0.354298 0.280324 0.298380 -0.598812 0.900104 0.004458 -1.589743 -0.919461 -0.334862 0.671157 0.006007 0.511825 -0.602061 1.218887 -0.563552 -0.538578 0.036194 0.688387 -0.599587 -1.501472 0.630603 0.699752 1.381688 -0.435551 -1.120059 0.397382 0.464834 0.294962 -0.675438 -0.664295 1.796972 3.042478 -0.278119 -2.014618 1.227998 -1.903482 0.543629 -1.081849 0.422178 0.581911 0.178637 1.723150 -1.445596 0.244380 -0.101479 0.738510 1.028674 1.043639 -1.383561 0.372608 -0.823063 -1.551163 -1.336442 0.123798 1.236224 0.008425 -0.305412 0.825828 -0.365851 -0.831378 0.096527 -0.463459 0.823447 -1.813734 -0.802505 -1.559190 -1.137230 0.184106 0.485215 0.186293 -0.340206 0.487652 -0.075152 -1.431225 0.360550 0.838238 0.982417 1.271913 0.075446 -1.836038 -0.217081 0.076262
were -0.332754 0.652964 -0.402419 0.085231 -2.174470 1.322093 1.159838 -0.288062 -0.364902 1.871205 0.245172 -0.145501 0.141991 -0.502556 -0.198015 0.216367 -1.192790 -0.643639 -0.013424 0.709522 2.149204 -0.772223 -0.728343 2.286300 0.377506 -0.172373 0.316065 -0.553050 -0.959344 0.142406 -0.453627 -0.091871 0.181246 -0.288020 0.414096 0.798688 -1.263538 -1.725356 -0.438359 -0.300815 -0.677290 0.052639 0.175922 -0.268278 -0.434553 0.265366 0.426520 -2.391672 -1.689487 0.725719 0.236034 -0.519612 1.305436 -0.878230 -0.839672 0.637532 0.577111 1.067482 1.071647 -1.112706 1.384507 -0.396957 0.782668 -0.038715 -0.462621 0.176971 -0.190617 0.034880 0.531448 1.234159 -0.016404 -0.799471 1.520921 0.615282 0.293548 0.834240 -0.734402 -0.447777 0.132384 -0.183134 -0.978299 0.298104 -0.353186 -0.480956 -0.405333 -0.257594 -0.198855 -0.265456 0.076813 1.346595 -0.269672 1.876403 0.411489 1.402028 -0.601019 -0.700256 1.771899 1.216619 0.712875 0.486005 -0.092592 0.089619 1.377428 0.918507 -1.331162 0.336242 -0.952712 -0.034164 0.413678 0.096575 0.079580 0.480763 1.780670 1.217200 -0.032618 0.117974 -0.701677 0.756644 0.016571 0.063442 -0.337510 2.221111 -0.513059 -0.018215 0.603286 -0.033552 -0.687096 1.229417
if -0.036250 -1.044950 1.169423 -1.511230 0.129209 1.135497 -0.279076 0.170661 -0.309975 1.317995 -0.162818 0.423375 1.581463 0.506152 -0.311853 0.771407 0.155221 0.728043 -0.107371 -0.431492 0.601436 0.324199 -0.662757 -0.217633 0.161546 1.299958 -1.598835 1.983879 2.147380 2.208790 -0.579680 0.213314 -0.725881 -0.546048 -0.827976 -2.686031 1.097141 -2.376857 -0.756608 -1.645504 1.791873 -0.392395 1.130772 -0.138410 0.017648 -0.810328 -0.676153 -0.617701 0.281298 -0.797839 0.692841 -1.070371 -0.574965 0.008144 -1.586057 0.848952 -0.390176 -1.816374 -0.537466 0.035105 -0.721976 0.903828 0.573687 -1.846284 1.539387 -1.413440 1.030107 -0.335132 2.006990 -1.323409 -0.782112 -0.487584 -0.139841 0.291786 -0.407548 0.523350 -0.777615 1.070402 -0.303145 -1.081284 -0.124348 0.114277 0.516681 1.616477 0.419777 -0.363374 -0.985941 0.987859 -1.114106 1.868419 0.320134 0.093688 -0.681805 0.968940 -1.029786 -1.681894 -0.704068 0.005908 -1.926116 -1.122062 1.983057 1.699199 -0.399318 -0.390516 1.366175 0.258462 -0.565726 -0.026740 -0.737906 2.489741 1.510211 -0.245682 0.395406 -1.290953 0.236856 0.738064 -0.873990 -0.619387 -0.461244 -0.907128 1.484792 1.250818 -0.347728 0.769076 0.633755 0.160548 -0.640884 -0.103360
there -0.266284 0.010426 -0.319609 -0.249857 0.408475 1.986091 0.859929 0.136871 0.858799 2.204705 0.429580 -0.630024 0.012282 0.410393 0.574546 0.985431 -0.278789 -0.029697 0.298487 -1.692670 1.630938 -1.941995 0.594523 -0.556538 0.711852 -1.507613 -0.407794 0.203350 -0.485052 1.486928 0.108739 -0.761907 -0.091473 -0.558621 0.068344 1.457364 1.616525 1.177838 -1.726975 -1.570735 -0.387558 -1.580924 1.308451 -2.162800 0.742035 -0.960784 0.212703 0.872195 1.690986 -1.529518 -0.595886 -0.871798 0.446197 0.257724 -0.402879 -1.987036 -1.278633 2.136728 1.059433 -0.088543 -0.869263 0.921251 0.443681 0.519441 1.348604 -0.760263 0.331194 1.370727 -0.184447 0.890542 -0.454964 0.566213 -1.150129 -0.242835 -1.379554 -0.315553 1.487883 -0.694426 -0.180106 -1.108737 0.602787 -0.559168 2.726637 0.524556 0.358366 -1.093068 -0.580813 -0.754944 -0.843162 -1.906546 -0.038112 -0.786226 -0.636138 -0.370958 1.338142 -0.320223 -0.465972 -0.292414 0.364475 1.134297 2.321270 -1.216942 0.680055 -0.362887 0.648185 1.133227 -0.838506 -0.246864 1.547066 0.655691 -0.180445 -0.513785 -0.826465 -0.800807 0.810627 0.329717 1.291051 -0.186809 0.412415 -0.463348 2.107479 0.178438 -0.128562 0.951171 -0.311670 -0.330109 -0.945984 0.326377
when -0.240882 0.452884 -1.387061 -0.267047 0.407836 0.312778 -0.128597 0.523386 -0.749072 -0.182503 0.303308 0.188193 -0.051792 0.467102 0.800639 -0.290667 -0.085887 -0.753093 0.040126 0.412951 -1.149110 0.368670 2.297720 -0.682998 -0.547987 -0.368995 -0.903583 0.498363 0.153234 1.801854 1.087993 0.498272 -0.542355 0.235441 0.652968 -1.706254 -0.355933 -0.745862 -0.721096 -0.687028 0.711716 -0.793894 0.610017 0.682816 0.350678 0.359143 -0.874040 0.026623 0.620613 0.799661 1.394020 0.842936 0.745995 -1.359266 0.702662 -0.938971 -1.172781 -0.706199 -0.272567 -2.166752 -0.018542 -1.413235 -2.013525 0.970438 1.322746 -0.688189 0.670931 0.729469 0.785439 0.093538 0.205676 -0.499377 -1.257849 -0.095685 0.809213 1.425142 -0.896372 1.809059 0.986495 -0.904462 -0.200788 0.404679 -0.310369 -0.287711 0.531711 -1.150794 -1.101614 0.592332 -1.172316 1.741327 2.339762 1.641055 1.004861 1.518513 -0.633779 -1.172736 0.247724 -1.231703 0.622757 -0.502262 -0.064413 -0.975697 0.806896 -0.554478 1.287734 1.255399 -0.646994 0.635581 0.740686 1.161443 0.075900 0.200935 0.622058 0.101154 -0.212139 0.265668 0.883518 0.396025 -0.851800 0.478354 -0.640573 0.108249 0.664400 -0.371590 1.894520 0.389765 -0.897041 -0.043403
an -0.662229 1.013218 -0.468920 1.257927 1.618077 0.768330 0.110572 -0.166661 -0.412052 1.531959 -0.172834 -0.279525 -1.600147 0.723097 -0.277197 -1.600790 -0.519445 -0.423492 -0.940492 1.242333 -1.052396 0.954595 1.883002 0.895272 0.132416 -0.108215 0.047449 0.565664 -0.014905 -1.395795 -0.719363 -0.213798 -2.024807 0.658765 -0.400400 -0.534604 1.229818 -0.144030 0.383630 -0.315055 0.653557 -1.150927 -0.437931 0.396363 -0.596812 0.740414 -1.393183 0.263134 -0.083539 -1.015615 -0.355052 1.157734 -0.434226 0.440082 0.659987 -0.210051 1.253456 0.816166 0.132611 -1.943858 -1.853452 0.985905 -0.968252 2.583938 -0.139438 -0.600186 0.120236 -1.393324 -0.302623 -0.464952 0.758356 0.687884 -0.413309 -0.011514 -0.805730 -0.180459 -1.901057 0.110117 -0.321109 -0.734358 -1.055246 -0.363533 0.984592 -0.698864 -1.240603 1.357911 1.333539 -0.368724 0.048927 -0.076462 -0.149126 -0.115104 -1.037553 3.331892 -0.262200 0.055995 0.104184 0.103073 -0.129337 0.449842 -1.021559 0.721878 0.800267 0.669953 -1.815878 0.639954 -0.747717 -0.160786 -0.598494 1.215930 -0.887320 0.480660 0.223527 -0.370081 1.481875 -1.034897 0.434697 -2.330956 -0.065990 -0.496861 1.661635 2.696723 -0.280454 0.295879 -0.719357 -0.546429 -1.140018 -2.063320
no -0.520689 0.530373 0.837977 0.379980 -0.379660 0.408374 -1.399122 -0.005376 -0.929004 -1.738881 0.917786 0.166029 0.004493 1.190965 -0.261760 0.289479 1.326437 -1.007910 0.955676 0.273442 -0.672777 -0.903584 1.267252 1.167035 1.182705 0.303466 0.196978 0.543338 0.798465 -1.179918 -0.085979 -1.022912 -0.051782 0.317434 0.565192 -0.674275 0.040748 1.444945 1.330680 0.626702 -1.828393 0.074249 0.105907 1.994040 -1.750827 0.275531 -1.064304 0.390037 -0.546787 -0.452709 -0.116594 -0.044180 -0.250507 0.841181 0.146785 0.427105 1.680506 -0.819311 -0.723178 0.667233 -0.460704 0.092788 0.374971 0.461159 -1.526223 1.975276 -0.250266 0.681086 0.246921 0.315189 -0.886827 2.264936 -0.383380 2.164790 -0.817286 2.148522 -1.022649 -0.990149 1.231888 -0.233382 -1.010865 0.580544 -0.348671 -0.978815 0.708604 -0.927199 -2.050669 -0.966634 -0.425288 2.501437 2.517781 -0.083990 -1.738640 -0.153142 3.037351 0.109479 -0.357341 0.648310 -0.961434 -0.091848 1.100005 0.356572 -0.476651 0.769031 -1.096398 0.194233 -1.970065 0.108263 -0.885399 -0.118023 -0.203277 -0.374714 -2.157087 -1.003765 -0.359380 0.196000 0.557047 -1.734093 -1.484261 -0.170943 0.712798 1.705626 -0.751662 0.749137 1.454726 -0.144055 -0.976145 1.222894
who 0.380396 0.670585 -0.874272 0.205835 -0.019157 -0.760014 -1.096815 -0.203741 -0.334230 0.678581 0.445371 -2.289515 -0.236228 0.556467 -0.074754 -0.261035 -1.778050 -0.700711 0.972174 -0.193050 -1.721228 1.113845 -0.701084 0.335315 -0.449843 0.510713 -1.053036 1.637506 -2.207853 1.356613 1.021920 0.409285 -0.672760 1.960993 -0.256701 -1.235069 -0.144461 0.769771 -0.168509 -1.129248 -0.182645 0.312933 2.351088 -0.151429 -1.811079 -0.324764 -1.083880 -0.512569 0.766287 -2.214954 0.500183 -1.620429 -1.282057 -0.343582 0.882620 -0.016329 -1.040417 0.470265 1.066619 -1.006789 0.668062 -0.032445 -0.129241 0.509392 0.709159 0.370753 -0.503748 -0.464170 0.808232 -0.185614 -2.367532 0.729930 2.526307 0.450645 -1.299051 1.718976 0.406025 -0.447224 0.046888 -0.605407 0.003594 1.500460 0.759145 -0.094821 0.195430 -1.872633 1.447713 0.142021 -0.606204 0.717796 -0.462229 -0.586393 -0.563175 -0.403294 0.153153 -2.006435 -0.108094 0.400521 -0.525835 0.660360 -0.633351 0.566431 -0.388570 0.273433 -0.489253 0.920315 2.233392 -0.348081 2.093491 0.739485 -0.034652 -0.325503 -0.804847 -0.973086 0.773897 -0.050905 1.453059 -0.548814 1.739111 -0.260628 -1.810720 0.164453 -0.709483 0.086743 0.109866 1.141685 -0.707851 -0.407437
their -0.331055 -0.960768 0.138108 -0.166534 -0.780502 -1.131879 -0.671244 -2.199891 0.375951 0.345046 -1.137620 0.884728 0.317197 0.319636 -1.288226 1.022999 2.034163 1.311614 -0.482881 1.308326 -0.169406 1.074414 1.044121 0.273694 0.301866 1.066966 -0.268763 -1.550347 -0.919223 -0.104396 -0.846433 0.789381 1.207547 1.093372 -0.966250 -1.130839 0.850737 0.023075 -1.783613 -0.187181 0.603752 -2.825161 0.547565 -0.249598 -0.517787 0.440917 -0.035682 0.751748 -0.741285 -0.034806 -0.958061 -0.179104 -0.002793 -1.163977 1.680973 0.744009 0.381207 1.998021 1.468404 -0.993023 -1.407894 -0.266650 -0.502793 0.374100 -0.104902 -2.529539 -0.390149 -0.462223 -1.724886 1.676195 0.908395 1.654968 -0.138945 -0.023792 -1.232539 -0.497418 -0.809023 0.004984 0.024032 0.233887 1.675148 0.580017 0.488266 -0.658252 -0.735073 0.663419 -1.339800 0.052182 0.391407 1.009349 0.276173 -0.765773 0.313478 1.624442 -1.170174 0.109629 0.261037 0.417167 -0.553755 0.183274 -0.073781 -0.789209 0.684951 -0.077736 -0.488510 0.571961 0.517462 -0.809974 0.578762 -1.051307 1.228306 -0.683553 -1.277007 -0.420235 -0.202082 -0.300146 -1.165816 -0.316336 0.132960 0.899443 -0.152570 -0.415372 -0.601710 0.869702 0.863603 0.091951 0.289198 -0.206296
what -0.178047 -0.638910 -0.184700 0.725041 -0.051723 0.395920 0.710329 -0.775733 0.985179 0.966371 0.791587 -0.149288 1.645850 1.294595 -0.388483 0.944922 -1.389436 -1.598903 -1.282717 -0.225604 0.779716 -0.700960 0.485726 0.342192 2.258047 -0.641013 -1.389269 -1.323369 -1.324168 0.479382 2.255111 1.239853 -0.394279 0.280523 1.814878 0.080151 0.269347 2.330619 -0.071328 0.572756 -0.480884 0.125851 -0.945469 1.408066 -1.218941 0.073221 -0.287290 1.718405 0.401095 -0.414181 0.558256 -1.046606 -0.324740 0.464537 1.112451 -0.258305 -1.171532 0.780385 -0.459857 0.179215 -0.749289 -1.295981 -1.665633 0.659722 0.534699 0.162050 -0.589455 -0.488737 -1.001072 -1.033727 -2.205908 -0.470750 1.351415 1.179695 0.339931 0.432265 0.227963 0.002889 0.195691 0.767990 -0.622362 2.021179 1.180064 0.803632 -0.160613 0.387673 0.903086 0.783486 0.634000 0.218114 0.299987 1.357494 -1.741764 1.479710 -0.969016 -2.533996 -0.261446 -1.586573 0.151552 -0.175149 -0.329549 0.053314 -0.847200 -0.398740 1.610502 0.463714 -0.149591 -0.240372 0.624588 0.890464 -0.253727 -0.629864 -0.630133 0.700128 -1.028546 -0.291258 0.806607 -0.617845 -2.507118 0.768113 1.779482 -0.014493 -1.114604 -0.999511 1.108452 1.334642 0.708768 -0.173977
will 0.712095 1.302990 1.338545 -0.064257 -0.864382 -1.363138 0.757082 -0.881509 -1.050272 -0.850596 0.012189 0.001272 0.484767 1.537791 1.093448 -0.058714 -0.942363 -0.343994 0.273398 0.331404 0.497189 0.072854 -0.232781 0.658539 -0.451605 -0.520495 0.914235 1.284050 0.252988 0.212971 2.077901 1.933725 0.993981 0.283045 0.914430 1.449059 0.107362 0.112826 -0.122257 -1.063811 0.410150 0.234835 -0.252647 -0.241210 2.004239 -0.207355 -0.161816 -0.426701 -2.084385 -0.044406 0.883770 -1.692001 0.132960 -0.030777 0.388660 -0.319909 -0.808093 -0.405017 1.353062 -0.307095 0.585287 0.704224 -0.209530 -2.058633 0.241786 -0.081331 0.060270 0.287635 0.451875 0.205436 1.582271 -0.397920 -0.451535 0.905219 0.242793 0.242321 1.190080 1.666324 0.832395 -1.339118 -0.289114 0.606805 -0.687357 -0.034664 1.165087 0.262579 -0.563698 1.370910 -0.118945 0.896066 1.957002 -0.659565 -0.052016 2.055184 1.253191 0.384064 3.777611 1.664023 -1.226275 -0.428377 -0.635301 0.146211 0.427816 -0.380183 1.355279 -0.367042 -1.244394 -0.501916 0.051637 -1.647969 0.006368 -1.092857 -0.903525 -2.714846 1.220966 0.303573 0.147849 -1.530152 -0.502486 0.152434 -0.430894 0.376894 -1.288837 0.605981 -1.453914 1.348945 -1.875537 -0.879901
them -1.167906 0.052906 0.561630 -0.262803 -0.918130 1.404762 0.997994 0.159894 -1.065241 1.030221 -0.392780 0.126299 1.102107 1.062697 -0.327225 0.289685 -0.051821 0.218746 1.207380 0.524974 0.719140 -1.641376 1.742869 -0.222240 0.203913 0.256956 1.396951 0.547366 -0.240921 -0.481810 -0.324243 1.188709 1.233856 0.509362 -0.550912 0.725554 1.145920 -0.964606 0.487889 -0.784314 -0.669831 0.570561 0.053066 -0.178657 1.160437 0.985512 1.034958 -1.755015 0.672504 -0.165999 0.573642 -0.226833 -1.072830 0.082480 0.695942 -0.174124 1.236784 0.242581 0.380564 0.532404 -0.292520 -0.813573 -0.371909 0.843436 0.032851 -0.409890 -0.492559 -0.642824 -0.133420 -1.060313 1.143207 -1.092307 1.710183 1.956933 -0.281399 1.102210 -0.755612 -0.264939 -0.811865 -0.562538 0.179183 -0.690068 2.414916 -1.545479 -0.493062 1.070724 -0.609559 0.353689 -1.464999 0.140493 -0.739487 -1.081079 1.134364 0.090024 -0.494426 0.386355 -0.270754 -0.409212 1.085363 -0.153773 0.354481 -0.779490 -0.533467 -0.436700 -2.625412 -0.879315 0.008542 -0.331662 -0.383924 1.045256 0.056629 0.087557 -0.279098 1.733606 0.775561 1.322599 -0.350758 0.433123 -0.576076 0.690323 1.294394 -1.129019 0.852708 -1.884309 -0.300054 1.105559 -2.266795 -0.643523
we 0.933812 0.220917 -0.501301 1.864707 1.217255 -0.902915 0.631338 -0.023307 -0.528358 0.389078 1.948609 0.462590 0.226970 -0.005433 0.920265 -0.447165 0.067154 -0.279033 0.652834 1.338801 -0.134615 0.145120 -0.338532 -1.691435 -1.883906 -0.907244 1.492485 -0.641725 0.354510 1.424256 -0.377399 0.164306 -0.249727 -1.297832 1.728125 -0.728840 0.837627 1.368159 0.069182 -1.357701 -1.707345 -0.453386 0.584076 1.051509 0.149942 0.281775 0.776730 0.055246 0.604935 -0.367049 1.116966 -1.698950 3.544450 -0.330031 0.064786 -0.098217 1.410995 0.298791 -0.056001 1.995421 -0.213518 1.650016 0.351799 1.461036 -1.103133 -2.723274 0.454542 -0.386200 0.284108 0.126895 -0.411039 1.060077 0.449578 0.827810 -0.384039 0.927827 0.098090 0.048926 -0.013052 0.615329 -1.120941 -1.722729 -0.525019 -0.838518 1.721782 -0.531025 0.021341 1.063998 0.600065 0.797297 -1.087988 -1.080246 0.458636 0.300001 0.043612 -0.170022 0.369132 0.631824 -0.209614 -0.201990 0.196193 -1.282400 3.256960 0.316642 -0.268315 -0.837568 -0.064144 -1.280221 0.620828 0.733093 -1.107785 -0.318480 0.164991 -0.834230 -1.849653 0.203567 0.273060 -2.416626 1.424889 -1.768452 0.120081 0.199953 -0.555178 0.722203 -0.536274 0.233794 -1.283754 -0.061022
been 0.097227 1.234787 -2.085620 -0.633127 0.741878 0.665651 1.591903 0.939571 -2.171170 -0.721916 -0.853032 -0.109319 3.435734 0.711511 0.236702 1.227243 -1.712257 -0.619490 -0.945314 -0.900798 0.680413 -1.124521 0.810630 0.775254 0.953838 1.810471 -0.430240 -0.311186 0.663085 0.250755 0.715610 0.145290 0.166069 0.664822 0.545809 1.412199 0.750332 -0.991239 1.064615 -0.578601 2.003040 -1.436628 0.844560 -0.153542 0.724438 1.046173 1.028865 -1.973445 -0.841836 -0.210884 0.783059 1.160159 -0.903221 -2.385160 -0.629442 -0.194553 1.987192 1.924226 0.443672 0.016846 0.321594 0.029354 1.707283 0.012181 0.025996 1.597964 -0.202109 -0.039032 0.602030 1.272231 0.154014 0.400846 1.275315 0.453578 0.002996 0.538907 -1.030774 -0.059009 -1.013282 0.876091 0.377050 0.716895 -0.273995 -0.512234 -0.227539 -1.147262 -0.714508 0.292441 -0.376581 -0.169668 1.161729 0.393110 -0.886811 -0.821220 -0.929761 -0.014767 -0.601986 0.280016 -0.008753 0.375903 0.648611 0.770578 0.705905 0.056104 -1.911711 -1.069968 -0.697480 0.215306 0.607402 0.794056 -1.908888 1.471127 1.001597 1.546304 -0.281429 -1.691471 -1.114578 -0.633441 -1.236459 -1.171472 -2.089662 -0.988419 -1.574398 -0.256160 -1.695957 0.527143 0.645658 -0.273067
would -1.335489 1.785686 1.802751 -1.346253 -2.801507 0.178358 2.555624 -0.593989 -1.054648 -1.738192 0.303157 -0.919079 -0.045706 -0.104496 -0.667346 -0.057309 -0.717647 -0.297642 1.180381 -0.805195 -0.782118 -0.168046 -1.668815 0.805215 0.177519 -1.458447 0.209012 0.761971 -0.575920 -2.278961 -0.243273 0.033911 -2.381771 -0.119016 -0.294336 -0.115276 -0.662501 -0.719799 -2.425747 0.172349 1.883025 1.985368 0.034864 1.381433 -0.458310 -0.500416 -1.836884 -0.180029 0.038602 -0.415961 1.634303 0.206178 0.023287 0.112275 -0.350978 -0.112995 0.397682 -1.319032 0.436111 2.792719 -0.628164 0.138423 -1.495770 0.894801 -0.343532 0.274420 -0.326138 1.214362 0.182492 0.410015 2.312893 0.748915 1.476860 -1.188922 0.011002 0.485145 0.610808 0.610564 0.041605 -0.511837 -1.213967 -0.208715 0.157817 0.495713 0.703677 -0.218426 0.180954 1.847560 -0.251440 1.307608 -0.613443 -0.392874 0.548539 1.278539 0.478020 -0.310623 1.289119 0.977982 -1.257960 -1.409253 -0.231378 0.218174 0.014391 -0.449272 -0.598132 -0.271923 -0.883954 0.091710 -0.752976 -0.735462 -0.050853 -1.092493 -1.099544 -0.726103 -0.379859 -0.716554 0.467081 -1.773361 -0.218044 -0.081497 0.526034 -0.687810 -1.519321 -0.552177 -0.175925 0.184716 -0.186917 -1.126824
chapter -0.262560 1.434727 -0.322480 0.172003 -0.603097 -0.409323 1.281502 -0.452272 -1.767478 -0.731478 -0.169878 -1.650634 -0.297766 -0.419906 -0.502221 -0.015367 -0.185018 0.642404 0.139996 -0.398803 -0.964327 -0.015960 0.015715 0.331579 -1.700668 0.142944 -0.091114 -1.019457 -0.576792 0.572807 0.709995 0.052762 1.270781 0.500772 1.421936 0.104982 1.323184 -0.279244 -1.437959 0.641821 -1.526110 1.065002 0.335134 -0.035604 0.368748 0.168619 -0.120604 -0.226185 -0.892234 0.576432 0.050628 -0.078581 -0.173711 1.698467 -0.753093 0.444640 0.112324 0.539853 -0.283217 1.059255 0.252747 -0.835571 0.020686 1.435547 1.365933 0.633932 -1.565620 1.051757 -0.043731 -0.070578 0.626018 -0.481613 -0.499842 -0.056040 -0.313543 -0.003141 -0.045466 0.681015 -0.128735 0.255201 -0.061808 1.864094 1.905904 0.046772 1.947781 0.240003 -0.073963 0.179640 -0.452406 0.332921 2.370547 -0.078972 -1.325577 -0.253514 0.860485 0.090081 -0.489184 -0.359695 0.394229 0.822192 -0.415451 0.871698 0.019463 0.873583 0.334399 0.460216 -1.141856 -0.641279 -0.400086 -0.924703 -0.821074 -0.055983 0.030735 -0.187195 1.701238 -1.173519 -0.519664 -0.435198 -2.054914 0.596938 0.093912 0.761737 -0.580932 0.539305 -1.151424 -0.132546 0.126820 -0.220125
out -0.201351 2.736258 -0.047567 -0.624270 0.293875 0.740414 0.915621 -1.015011 1.093843 0.728454 1.962395 0.732739 0.237341 0.476494 0.022059 2.552301 -1.600571 -0.651553 0.876395 0.933003 -0.576799 0.335868 -1.820655 0.004897 0.279249 1.349576 -0.393844 0.480560 0.418168 -1.357189 -2.063439 -0.342971 0.897926 -0.911662 1.098047 -0.822769 -1.561992 -0.845436 1.214514 -0.064931 -0.469778 -0.103297 0.031234 -0.233900 2.045467 0.242638 -0.648315 -0.304152 -1.271120 1.846781 -0.736212 0.130965 0.643628 0.272732 0.855124 -0.034493 -0.528612 1.554940 -0.910666 0.159202 -1.120075 -1.613047 0.539965 1.104827 1.520002 -0.309272 0.620737 -0.681301 0.853788 -1.053361 -0.510344 0.126768 0.563806 -0.816634 0.519237 -0.294040 1.110796 0.755552 1.788284 -0.617373 -1.117043 0.123098 0.641825 -0.012889 -0.425754 0.645580 -1.418070 -1.016931 0.899735 0.373716 -0.645789 -0.572591 -0.476443 -0.870763 -0.728132 0.992488 -0.643145 0.553449 1.062336 1.155885 1.026570 0.319582 -0.081825 0.063878 -1.483078 -0.585364 1.689488 2.157183 0.621203 -1.447846 1.553406 -1.542513 1.350063 0.070738 0.590444 1.819985 -2.089587 -0.619109 -0.493850 0.703960 -1.284372 -1.279223 0.042653 -1.189985 -0.306450 -0.241676 -0.159051 -1.098926
more 0.793452 -0.418608 0.477149 0.332327 0.381298 1.187777 -0.362078 0.778396 -1.607042 -0.411345 0.641016 -0.906178 -2.474639 0.789754 -0.427257 1.256205 0.279580 -0.135652 -0.211329 -0.397126 0.505626 0.992399 0.845643 -1.171117 0.248651 -0.067707 -0.030144 -0.650275 0.032029 -0.007475 -0.050183 -1.708295 -1.676128 1.038320 1.096284 0.067855 1.061060 -0.380969 0.727593 0.174951 -0.307444 -1.328897 -0.599871 0.530721 1.491566 1.444605 -0.458611 -0.589340 -0.976974 0.145940 -1.637864 -0.923336 1.193262 -0.538130 1.642083 2.269654 1.400540 -0.349736 0.826243 -2.365527 0.675277 1.481716 -0.128102 -0.444269 1.995433 -0.367456 -1.484079 1.411386 -0.620514 0.797579 0.939768 0.414963 1.190292 0.117154 -0.501346 1.728526 -0.465345 0.455163 -0.969747 -0.275510 0.215265 -0.264325 -0.860293 0.060725 0.247222 -0.139382 -0.782346 1.450958 0.790971 -1.243449 -1.303577 1.872548 -1.264959 2.077687 0.166466 -0.833425 0.068000 -1.506663 1.026187 -0.029670 0.685228 -0.481131 -0.607266 0.099076 -0.956530 -1.663855 -0.737552 0.676581 1.863315 -0.850486 1.852389 -0.089919 2.142451 0.735257 -1.741422 -1.991599 2.526147 0.835713 0.265728 -0.207846 0.803901 -0.649436 -1.027492 -2.199266 -0.453953 0.580718 0.663969 -1.063940
then -0.065574 0.092040 -0.012454 -0.887351 -1.401149 -0.009365 0.748708 0.422847 0.739935 0.995541 0.114395 -1.059188 -0.246574 1.352196 -1.114465 2.211459 -0.145935 0.240184 -1.295216 -0.888250 0.082280 1.271187 0.092663 -0.606467 1.634231 1.718688 -0.749864 0.679089 -0.112830 0.928430 -0.564740 -0.609872 -0.604120 0.580674 -0.106956 -0.873138 0.207688 -0.145681 0.655769 -1.548760 -0.540465 -0.507920 -0.353486 -0.069308 0.343235 -0.895270 0.873439 -0.826871 1.108761 1.242321 0.427384 -0.915013 -1.098641 -0.807260 1.559881 0.063650 -1.448997 -0.822105 -1.142189 0.948739 0.149363 -2.037425 -2.533772 1.346798 1.125408 -1.048716 -0.301903 0.974755 0.275955 0.651203 1.454719 0.595134 0.076043 1.650254 -1.721372 1.624068 1.902494 1.177142 -0.493019 -0.648503 0.426248 -0.890276 0.973179 1.015885 0.186262 0.509127 0.168874 -0.118690 -1.327511 0.550349 0.925840 0.069256 0.786130 0.152690 1.193044 -0.241597 -0.855832 -0.496878 0.158949 -0.699536 0.666325 -0.295897 1.395952 0.108134 2.210706 -0.429168 -0.842145 -0.577870 -0.526151 -0.633383 -2.020136 1.440188 1.187943 0.347432 -0.225191 1.397519 0.600099 -0.082667 0.807619 -0.217502 1.173271 0.258329 0.043053 -0.672180 -0.292106 -1.394969 -0.242829 -0.810240
up 0.516088 0.119451 -0.452953 0.668045 -0.048086 0.692844 -1.135093 -0.204619 1.544119 -0.038259 0.198402 1.803723 -0.204829 0.724050 0.008977 0.026073 0.575057 0.018892 -0.829244 -0.921939 0.328939 -0.257090 -0.564466 -0.266507 0.937142 0.788350 -0.553272 1.082890 -1.733875 -0.152635 -0.701844 0.116238 -0.182961 0.244502 0.537602 0.181503 0.323424 -0.611920 0.786831 -2.175936 -1.466463 0.106193 0.223463 1.767632 2.721758 -0.014514 -0.903890 -2.140709 0.668391 0.794946 1.414086 -1.291109 1.668614 0.396512 0.763081 1.923829 0.111402 -0.258498 -1.814747 -0.553198 -1.079518 -1.373402 0.542079 0.729249 0.056266 0.773261 1.067989 -0.722104 0.436413 -1.446511 -1.521667 1.952101 -0.675112 1.015646 -0.630631 0.404366 -0.705841 0.157616 2.307769 0.668650 -1.594948 1.243043 0.638282 -0.458705 -2.798563 0.041246 0.326952 0.339443 -0.637753 0.986461 0.134604 -1.167779 0.408394 0.667428 -0.234134 1.942861 -0.316685 1.662330 0.492620 0.356891 1.178118 0.237196 1.637126 -0.389853 0.047884 0.548553 -0.976573 0.759246 1.078608 -0.931280 -2.592120 0.816290 -0.236786 -0.355485 1.119903 0.380071 -1.384111 0.332737 0.426377 0.961130 0.020173 1.090405 0.295896 -0.640034 1.255936 0.358102 -0.163770 -0.699015
has 1.940868 -0.245138 1.928753 0.340026 -0.462413 -0.001633 0.888313 -0.747205 0.052429 1.452850 0.638743 -0.647973 1.701598 -1.643731 -2.326268 0.666143 -0.368070 -0.059099 -0.832665 -1.663570 1.536580 -0.421339 -0.258231 -0.892590 -0.794247 -0.247888 1.062685 -0.183445 0.622150 -0.337186 -0.272764 0.320605 -0.761858 -1.810922 2.217014 1.260491 0.893059 -0.238339 1.070200 0.061612 -0.169357 0.100831 1.577754 -1.872824 -0.176496 -0.802882 -0.924905 -1.250452 0.215248 -0.176258 1.082692 -0.670382 0.211915 -1.346501 -0.041761 -0.154939 -0.996479 -1.639443 0.239851 -0.622995 1.202195 0.610594 0.125157 1.490465 -1.303943 0.858593 -0.075705 1.538099 -0.036724 -0.441534 -0.070599 1.105764 1.362757 1.460861 0.471001 0.401825 -1.223826 0.767655 -0.774449 -0.581442 -0.552588 0.717789 0.018040 0.317830 0.843560 -1.627855 -1.546799 -0.328837 -0.423765 -0.647588 -0.408127 0.197399 0.398901 2.030022 0.705294 -0.372956 -0.179147 2.252445 -2.049815 -0.202473 -1.237347 0.911921 -0.169718 -1.870008 -0.731598 -0.138039 0.384436 -0.287441 1.034024 0.908467 0.491118 -0.660268 0.429727 -0.038821 0.624706 2.329428 -1.110591 -1.465972 -0.838471 -0.483858 -0.124335 -0.026917 0.139748 2.347108 -1.613359 -0.191856 0.241767 1.111358
do -0.090847 -1.150988 -0.886067 2.764376 1.696544 0.840793 -0.238614 0.421555 0.107282 1.264277 -0.011669 0.427158 0.598467 -0.568870 0.185431 0.447344 0.336875 -0.507217 -0.273247 0.727624 0.057147 -0.387475 1.155756 -0.398830 1.841840 -0.715726 0.087562 -0.948265 1.681990 -0.613855 -0.532138 0.667431 -0.794522 1.378703 1.358763 0.179669 0.825854 -1.339017 0.036395 1.441015 0.505175 1.212192 0.877957 0.107216 2.345259 -0.314481 -0.945389 -0.865356 0.547595 0.807435 0.960810 -1.959731 2.051838 -0.085827 -1.052385 -0.761091 0.592637 -0.119627 -0.332740 0.281042 -0.425741 -1.467592 0.620740 -2.330771 -0.013250 -0.737171 -1.545001 -0.096254 0.063828 -1.155475 -0.482032 0.368042 1.611158 1.198626 1.061805 0.372126 -1.314817 0.052846 0.348498 -0.396596 0.432992 -0.723080 1.311820 1.401480 1.017186 -0.613434 1.326799 0.155202 0.553329 0.804033 1.593812 -0.432311 2.606636 -0.199834 0.069320 -0.778482 1.041061 1.371110 -1.942866 -0.564365 0.154158 1.067860 -2.471731 0.437782 0.040169 0.204238 -0.802590 -1.042997 -1.874567 0.217596 -0.871774 0.704388 0.814710 -0.276634 -0.886140 -0.328018 0.786647 -1.717700 -1.386197 0.141765 0.922677 -0.897394 0.231055 -0.325684 -0.602429 -0.310208 -0.548291 1.234489
into -0.785811 1.628026 0.017244 -0.345565 1.751788 -0.176565 1.399210 -0.884266 -0.649532 -1.784942 -1.351229 -0.944171 -0.126861 -1.640834 1.247596 1.718479 -2.111305 -1.606004 0.997332 1.231281 0.399286 0.120437 0.529499 -1.383415 0.136935 -0.335076 -1.243401 0.655352 0.658512 -2.105240 -0.397875 -0.861809 -1.341009 -0.156995 0.388781 -0.388218 0.524854 0.996468 -0.798000 -0.694225 0.340719 0.361383 -0.952143 0.232861 0.974110 -0.367775 -0.261150 0.002518 -0.079547 1.704769 2.871137 -1.585261 2.092757 -1.668170 -1.789990 0.362151 0.938781 -0.197918 1.142431 -1.313554 -1.634185 -0.918029 0.078498 1.707471 -0.612110 -0.012704 -0.614156 0.234671 0.335366 -0.883453 0.602386 0.215088 1.002666 -0.242668 -1.369151 -0.834906 1.167465 1.145266 -0.601380 -1.174259 -0.906853 1.566559 -1.051557 0.155031 0.240497 -1.620056 -1.162394 -0.205374 0.530374 -0.548455 1.449954 -1.169325 0.637095 0.048076 0.038584 1.069596 -0.389853 -2.253909 -0.652326 0.273390 2.011463 0.667737 -0.282397 1.455376 -0.122663 0.884222 0.907184 0.831551 1.569013 1.672457 0.020800 -0.354353 2.173749 -0.295882 0.623592 1.293947 -2.045277 1.670723 -0.478319 -1.214002 0.311208 -1.300319 0.652574 -0.025286 1.805930 0.033716 0.592828 -1.301745
very 1.460237 -1.012243 -0.268207 0.995079 1.419787 -0.335473 -0.970240 0.541504 -0.955789 -0.167911 -0.833372 -0.376707 1.597263 -1.386999 -1.106506 0.830395 0.002392 -0.527172 0.328849 0.676534 1.382192 -0.453642 -0.918811 -1.470740 1.603649 -0.514586 0.017002 1.240647 0.297267 -0.635237 -0.729481 -1.735678 -1.651158 -1.570731 0.711064 -0.880896 -0.069836 1.654239 -1.928829 -2.599663 0.478521 0.011247 0.863173 0.660368 1.385296 0.889517 -0.614277 -0.371826 -0.432006 -0.908855 0.231890 0.527528 1.319758 -0.965360 0.565319 -0.150496 0.094267 1.696467 -0.000086 -2.748791 0.656372 0.253763 1.451714 -0.278186 -0.735021 0.936023 0.843296 1.199523 -1.859638 1.574453 1.212013 -0.797738 -0.819826 0.649633 -0.749812 -0.838046 1.726017 1.238250 0.209360 1.583524 -1.705057 0.902251 -0.598767 -0.395220 -1.185529 -0.039897 1.356154 0.715157 -0.391669 -0.265686 -0.591643 0.365325 -0.762027 -0.082952 0.443279 -0.672020 -0.516173 0.628937 -0.297664 -0.034138 -0.117810 -0.483006 -0.474030 -0.477698 0.840136 1.443529 -0.000277 -1.052134 -0.099105 -1.135064 0.298163 0.914465 -0.977317 1.919690 0.894913 0.147079 0.166543 0.102612 -2.826750 -0.805671 1.243617 -0.076218 -0.364036 -0.742947 -1.106052 -0.507115 0.473735 -1.538792
some 1.564229 1.585672 -0.328051 0.860489 -0.218986 0.669355 -1.423324 1.151829 1.567433 0.104657 2.957328 0.997026 -0.631391 -0.223788 1.056497 2.792851 -0.205146 -0.121183 1.202514 0.153149 -0.900677 -1.324157 1.675421 0.369889 0.238207 0.901888 -0.090506 -0.874280 0.251356 -1.459290 0.754137 -0.426044 -1.718300 1.844940 -0.008505 0.513480 0.641682 -0.696323 0.160851 -0.448443 -0.142832 -0.300284 0.851627 0.668428 1.239673 -0.578017 -0.487112 -0.033869 -1.815648 -0.863153 0.300312 0.370828 -0.310911 1.017951 0.171190 0.517149 0.592738 1.437383 -0.197456 0.320363 -0.665251 0.550324 -1.395335 0.651461 -1.172542 0.677971 1.105503 -0.534956 0.443010 1.109133 0.478498 0.973111 -1.583830 0.588515 0.737678 3.075038 -0.666583 1.251342 -0.248121 0.750554 0.170252 1.903751 0.727474 -0.035945 1.584198 1.217713 0.985911 0.925469 1.541521 1.680434 0.769497 1.142905 -0.710450 0.201021 -0.133581 1.925190 0.604196 0.618028 -0.199376 0.788393 -0.029441 0.037576 0.730604 0.843299 -0.124679 1.776598 0.779498 -1.274091 -0.622295 0.240680 0.873334 -0.663538 -0.192487 0.269255 1.171787 -2.837838 0.348719 0.316393 -1.891471 0.235356 -0.440163 -0.305429 0.300059 -0.889465 0.164476 -0.439129 -1.007282 -1.335754
any -0.380160 0.131967 0.932005 -1.245485 -0.441706 -0.578182 -1.334357 -0.340005 1.391279 -0.174418 1.020020 0.203132 -0.220457 0.345675 0.910531 1.949040 0.769115 0.884415 0.798003 0.798025 -0.010468 -0.639052 -1.634710 2.193207 1.042444 0.435547 0.195601 -0.256804 -0.004160 0.216498 -0.729928 -0.416127 -1.408401 2.529564 0.176823 0.416888 0.660985 1.826158 1.345067 -0.665762 0.520510 -0.961048 -0.921725 -0.732359 -1.024722 0.317083 0.654781 0.281302 1.140023 0.128251 -0.858361 0.171762 0.350351 0.179805 1.094459 -0.778612 1.389356 0.037635 -1.346447 -0.188138 0.318980 -2.608901 0.161528 2.667023 -0.027232 -0.206119 0.352774 0.035838 -0.242463 0.694361 -1.268725 1.527339 -0.216306 -1.703057 1.466800 0.182192 -0.946242 -0.048701 -0.436864 -1.139887 0.852960 0.405778 0.204817 0.467315 -0.296677 2.104070 -1.441560 0.246854 0.191448 0.483843 -0.094144 -0.383740 0.255272 2.020446 -0.612922 1.319179 -0.928718 0.947525 -0.960390 -0.578901 0.377337 0.615070 0.204828 1.707379 -1.292672 -0.290349 -0.139373 -1.887811 -0.191004 1.759298 0.137105 -0.889333 -1.175562 -0.285077 0.932646 -0.525234 1.347645 -2.783673 -0.363499 0.272438 -0.142444 1.277697 0.693326 -1.169969 0.891556 1.227825 0.803825 -0.407258
your -0.706018 1.187364 0.024927 -0.062683 0.035584 -0.492794 -1.340189 -0.392214 -0.232850 -0.890963 0.274189 -0.150830 -0.403530 0.016564 1.633991 -1.474311 -0.737092 -1.084498 -0.064739 1.003268 -0.682721 0.793041 1.292206 0.920638 0.085839 -0.253511 -0.744084 -0.377292 0.844274 -0.734728 -1.690125 -1.091610 0.213317 0.192685 0.379126 0.981185 -0.677186 -0.696613 -2.325510 0.901567 -0.366049 -0.813145 0.219038 -0.997558 -2.087377 -0.119861 1.527928 0.520627 0.548698 -0.753517 -0.179026 -0.291159 -0.924783 0.292303 2.103950 -0.541977 -0.481229 0.402866 0.015237 -0.838988 0.434165 -0.467588 0.908562 1.376002 0.912155 -1.312817 0.191676 -2.272989 -1.124916 1.088707 0.611794 1.664745 0.673644 -0.328268 0.783137 1.772699 1.151350 -1.057841 0.576599 -0.692782 2.189002 0.017177 2.358054 0.318366 -0.130427 0.302676 -1.225179 0.555239 0.455883 0.780386 -0.366979 -0.020094 -0.156551 0.121437 -1.131504 0.679631 -0.028223 0.784799 -0.957187 -0.046531 -0.733879 0.250637 -1.070590 -0.718985 -0.767971 0.062815 -1.322450 -0.498285 -0.212381 -1.769964 0.715694 -1.460803 -0.375910 0.087348 0.386796 -0.808292 -1.417025 -0.131111 0.076599 -0.434892 1.275851 1.087380 0.996660 -1.161782 0.396833 0.305661 0.072786 0.529503
its -0.771196 0.526428 -1.439560 -0.024843 -0.164364 1.657680 0.534652 -0.003879 1.231505 1.053141 0.745185 2.017940 -0.362937 -0.905441 -0.901107 -1.181457 0.595557 0.186882 -1.083089 1.642319 -0.536553 -0.312100 -0.649896 0.196957 0.399358 -0.290886 -0.899069 -2.086531 0.379792 -0.232762 -0.793982 1.234812 -2.173822 -0.230482 -0.911320 0.473160 -0.148352 0.061042 -1.608188 -1.668378 -0.167181 -0.582168 0.071784 1.326185 -0.464236 0.611948 -0.671328 0.257153 -0.055596 -0.773651 1.870705 -0.631342 0.909436 -1.164867 1.324600 -0.029795 1.314198 0.985193 -0.173124 -0.851685 -1.074649 0.444804 0.647329 0.429430 0.206390 -0.789935 -0.995648 0.038838 -2.073348 1.848171 0.233891 0.937024 0.919470 0.932115 0.592422 0.047889 -0.734744 -0.302299 -0.200325 -1.251606 0.961090 -0.649853 0.205700 -0.445805 0.375353 0.168344 0.303287 -0.139731 1.651618 1.779698 0.340135 -0.130133 0.043399 -0.091744 -1.188851 1.782670 -1.557823 -0.219203 -0.673544 0.415870 1.191167 1.004839 1.404925 0.111598 0.134709 -1.067599 0.034342 0.934928 1.934235 -0.651175 -0.020802 0.526693 -1.191371 -0.690013 -0.357093 -0.863481 -0.871647 -0.386950 0.155251 0.351894 0.641461 -0.367911 -1.357981 1.518713 1.240551 0.162825 -0.453993 1.534067
than -1.374089 -1.347156 1.036949 -0.598823 0.198998 -0.855291 0.941930 0.098300 -0.397050 -0.537691 1.471256 -0.605426 0.845628 0.221189 0.033897 -0.921213 0.000208 1.685141 1.626282 1.618844 -0.301122 -1.943984 -1.040907 1.630627 0.017576 0.494462 0.685568 1.103876 0.646361 -0.095612 -0.133270 -0.378592 -1.457341 0.903478 0.661365 0.568373 -1.486594 -1.107921 0.994942 0.022590 -1.869835 0.244320 -1.372372 -0.565686 -0.751997 -0.820839 -0.126596 -0.210491 -1.456913 -0.306176 -0.482751 -0.129827 0.272381 -1.206416 0.412348 -0.447515 0.138740 0.848627 -0.258773 -1.272987 0.180918 -0.596273 0.516841 -1.455058 -0.398353 -0.738073 -1.200053 0.082186 -0.826087 -2.319306 -0.711324 0.023644 -0.807336 -1.025598 0.072741 1.364300 0.945737 0.789217 -1.317236 -2.007558 -0.221225 0.874134 0.955930 0.097634 0.343386 -0.479414 -0.725700 1.213380 -0.078065 -0.772688 0.005469 1.279790 -0.401641 0.312267 1.237250 1.920786 0.842776 1.440881 -0.543159 0.753274 0.996102 -0.561906 0.138173 -0.641058 1.243332 2.484885 0.094592 1.442973 1.009529 2.620902 -0.334405 0.526216 -1.324849 -0.296767 1.421048 1.280646 -1.446211 0.009842 -2.836061 0.221170 0.194396 0.727850 -0.942572 -0.281371 0.226070 0.110860 1.249463 -0.589365
man 1.320409 0.462085 -1.313861 -0.373755 -0.063531 -0.629365 0.214162 -0.433367 -3.979649 1.468492 0.980263 0.532800 -0.071719 0.803030 0.261873 0.050001 0.172096 -0.895930 0.531550 -0.654184 -0.213040 -1.075977 1.044067 -0.799832 -0.032748 0.849761 -1.551385 0.254846 -1.563578 0.823484 -0.382922 -0.681736 -2.501492 0.467871 -0.183770 -0.094615 0.290823 0.603155 -0.758487 -0.616108 0.246397 0.262204 -0.554712 -1.670445 -0.751790 2.602488 0.118471 2.372020 0.214717 -0.859046 -0.358581 -0.252404 -0.027986 1.280978 -0.874022 0.799213 0.978753 -0.048234 -0.976865 -0.058374 -0.982487 -1.518175 0.288977 -0.528044 1.025055 -1.310736 -0.049434 0.889346 1.488178 0.960349 -0.524514 -0.131306 0.858258 -0.920637 1.144515 -0.264374 -0.281304 0.162384 0.975097 -0.382757 -1.885524 -0.700143 0.610482 -0.345102 0.006287 0.811186 0.865100 2.364854 -0.872763 -1.013812 0.013970 -0.657162 -0.055176 -1.081848 1.221141 1.074177 1.429596 1.377151 -1.792163 0.399430 0.248618 -0.004739 0.215448 0.863835 -1.621966 -1.635476 1.663816 1.149508 0.706656 -0.716321 -1.145058 -1.335648 0.883564 1.312960 -0.078267 0.363327 0.411506 0.803449 -1.375137 0.588846 0.318161 0.942207 -0.482936 -2.621236 -0.455865 -1.263698 0.328017 0.250275
like 1.019805 -0.848509 -0.227862 -0.548517 0.845394 -1.443768 1.277352 -0.038345 0.258746 -0.524234 -0.656542 0.115228 0.546176 0.288238 0.596304 -0.728287 -1.921195 -0.390164 1.677562 -2.555353 -0.842096 -1.641202 -0.008750 -0.343002 0.691593 0.350462 1.007232 -1.053401 0.617028 -1.701277 -0.837370 0.801572 0.842699 -1.105455 2.120129 0.138497 0.465989 -0.216410 -2.512567 -1.187467 -0.259869 1.033808 0.698515 1.055116 -0.397516 -0.273490 -0.406929 -0.487160 -1.004845 -0.613894 0.627421 0.333480 -0.203369 -1.131770 -0.173029 -0.237378 0.281668 -0.338149 -1.910223 -2.381472 -1.574075 0.616311 0.834657 -0.946389 0.791402 -1.571889 -1.181467 -1.940229 -0.000080 0.830013 -1.428070 -0.928948 1.115063 -1.014482 -0.454800 0.902691 1.213719 -0.701066 0.035502 0.707363 0.569433 0.375956 -0.939413 -0.398201 -0.031372 0.450000 0.412518 -0.378479 1.666601 -0.180695 0.066953 0.664307 0.410772 -1.742126 2.203987 -0.544384 -1.351032 -0.902995 -1.089189 2.632668 0.886497 -0.512942 0.004215 0.082613 -0.027713 1.189310 1.204949 0.311158 -1.509979 1.559377 -0.128163 1.010149 0.266287 -0.196217 0.160469 1.893795 -1.715309 -1.913962 0.455982 -0.890377 -0.832770 -0.371760 -0.944905 -1.106102 -1.373882 -0.645402 1.073013 0.243316
could 2.614623 0.681201 0.543196 0.118515 -1.150253 1.443074 -0.707818 -1.276927 -0.392254 -0.248080 -0.671158 -0.845844 0.022225 -0.175185 0.927485 -0.397364 -0.529883 -0.594411 1.630026 -0.310344 -0.955467 0.474635 -1.563478 0.166270 0.925100 -1.869128 0.984061 0.923098 1.209911 1.229832 0.871097 0.441717 -2.327942 -0.099558 0.097940 0.669723 2.017538 -0.841631 0.379254 1.713839 1.328618 -0.264951 1.443832 0.932482 -1.285983 0.050831 0.009118 -0.104862 -1.683438 0.025957 -0.733934 -1.820856 -2.034828 0.513866 2.109772 0.791222 -1.939380 -0.119785 0.249197 -0.084121 1.300225 0.597627 -1.021305 0.069407 0.552202 -1.296547 -1.472827 0.012058 -0.027402 0.685354 2.271440 0.768944 -0.266740 1.358019 1.569747 -0.575098 -0.824028 0.433748 0.378785 -2.018821 -0.613409 -0.105457 0.751685 0.045213 -1.666947 0.856793 0.218961 -0.974480 -0.638677 0.662335 0.904725 -1.405873 -0.472650 0.616753 -0.294203 -1.426046 1.594572 1.747355 0.724253 -0.229731 1.435565 -0.367605 0.533611 -1.031992 0.010185 0.987058 -0.299409 -0.020552 -0.374109 -0.631815 -0.193023 0.169557 -0.695893 -0.646412 0.032778 1.414025 -1.315465 -1.237392 0.192562 0.046095 -0.150332 -0.054927 -0.721029 -0.870215 0.034248 2.014993 -2.206149 -1.684748
now 0.354903 1.093102 1.260109 -1.008352 1.077262 0.617801 -1.216062 0.909681 -0.444273 2.283815 0.151300 -0.943714 -0.306704 1.586078 -0.348101 1.283566 1.554265 -1.219447 -0.110526 -2.109094 -1.391492 -1.949773 0.673051 -0.566457 -1.671417 2.169854 -0.702682 -1.212194 0.649350 0.411496 -0.151123 0.713974 -1.139292 -1.160448 0.992698 -0.295630 1.475596 0.536197 -0.083533 -0.695704 0.059135 -0.488796 -0.161155 0.339486 1.855031 1.969416 -0.310290 -0.228661 -0.207575 0.449051 -2.293733 -0.503672 -0.168871 -2.124534 -1.153306 -0.752520 0.581876 -0.251178 0.274673 0.393309 0.617799 0.286601 -0.252724 -0.177874 1.267176 -0.087764 1.017117 -1.051103 0.474186 0.862986 0.351146 2.297549 0.542745 0.135419 0.508950 -0.038047 1.913583 -0.375246 -0.808698 -0.557255 -1.974936 -0.655323 -0.226052 0.441918 0.505513 1.540479 -0.512047 -1.021240 -0.534037 1.642783 0.649108 -1.271870 -1.277485 -0.434063 0.815974 0.323268 0.084975 -0.216764 0.008254 1.452162 0.164002 -0.938305 0.759572 -0.864448 -0.329512 1.854769 0.903816 0.440470 -0.765440 0.258663 -0.537274 1.037241 -0.727918 0.089245 -1.180996 0.356237 -0.099135 1.546328 -0.225787 -0.530994 -0.328171 0.065508 0.494278 -0.973023 0.656181 -0.121758 -1.822559 0.205445
time 1.145793 0.507178 0.115284 -1.396065 0.904645 1.114170 0.068504 -0.769346 -1.460564 1.718260 -0.412524 -1.220556 -0.046556 0.730842 -1.231356 1.833174 1.950728 1.922976 0.328589 -0.862437 -0.907065 -1.381633 0.813570 0.619987 0.794160 0.456493 0.098615 0.328205 1.898888 0.797790 -0.693572 -0.094486 0.733921 1.008999 -0.655748 -0.839330 0.568968 1.971034 -0.697148 -0.700952 -0.225007 -1.443220 1.129674 2.384833 -0.923108 -0.140203 -1.737939 -3.157843 -0.743369 0.745406 -0.198818 -0.027783 0.799686 -1.350206 0.985656 -0.007540 -1.598839 0.595011 0.631886 -0.043801 0.171227 -0.113382 0.218870 -3.124345 0.980764 -1.067090 -0.051848 1.036912 0.521872 0.147528 0.087327 0.557999 -0.082452 -0.739968 -0.347858 -1.029728 0.134806 -0.898863 0.788831 0.668039 0.673984 0.314504 -0.434565 -0.272341 1.304557 0.019477 -0.214279 1.228169 -0.458606 0.139213 -0.181131 1.331522 -0.363029 -1.606649 -0.226946 -0.236661 0.226110 -0.374118 -0.303887 -1.863278 1.361848 -1.256674 1.019843 -0.488979 -0.708910 -1.636513 1.080650 -0.254331 0.501633 -0.083868 -3.271073 0.177687 -1.848558 -0.504177 1.475937 0.943363 -0.475446 1.166420 -0.541919 0.391162 -0.233370 0.274413 -1.130659 -0.879436 0.522882 -0.664880 -0.629817 -0.366090
little 0.659173 0.926788 -2.185422 -0.656689 -1.638954 -0.235784 -1.295307 -1.392727 0.122233 -0.659758 1.289486 0.718751 0.596061 -0.382445 -0.092406 0.025047 0.334971 -0.357398 0.794683 2.035191 -1.019591 0.027673 -0.180057 0.989737 1.276393 -0.595778 1.051870 -1.155425 -0.784914 1.243834 0.862650 1.138008 -1.179597 -0.613612 -1.518496 0.064601 -1.107756 0.623627 0.065986 2.010384 -1.274195 0.089610 0.169234 0.163938 2.352162 0.927910 -1.919125 1.306805 -0.038098 -0.834612 0.483069 -0.206147 0.154204 -1.478601 0.525231 1.060636 -0.602977 -0.037784 0.518246 -0.831493 -0.817212 -0.644015 -0.862881 -1.065327 -0.571817 0.678300 -0.177367 -0.565495 0.883092 -0.117616 -0.318420 -1.703526 -0.203384 -0.920882 -0.256373 0.068741 -0.078515 0.743834 -0.046964 -1.732080 1.634864 1.777660 0.519974 -0.101077 0.909658 1.657684 0.436591 0.993394 -1.543002 0.830670 -0.488546 1.150080 -1.147809 -0.564879 0.538937 0.132652 -0.778580 -1.169983 -1.562461 1.428811 0.301201 0.317895 -0.768453 -1.628265 0.248936 2.099888 -2.267156 0.207771 0.124734 0.240654 1.663666 -0.530433 0.396599 1.570065 -0.661095 1.816966 -1.495760 0.965489 1.081122 0.513282 0.720878 1.255402 -0.254885 -1.316860 0.739870 -0.908292 0.082189 0.224132
only -0.736531 -0.268981 1.381297 -1.470009 -0.526953 -0.316508 -0.571788 2.080199 -2.647818 0.541064 0.770619 0.198945 0.807593 1.027219 -0.089766 1.130509 -0.918012 0.530260 -0.003123 1.909045 -2.515270 -0.000670 -0.610853 -0.951824 -0.182690 -1.336290 0.428103 -0.456098 0.973504 -0.133885 0.198183 1.502995 -0.787614 1.339380 0.632113 0.929393 0.393762 0.242736 0.526701 1.493417 1.409950 -1.047534 0.754798 0.716821 -0.318419 -0.007989 -2.693151 -0.453327 -0.271991 0.305462 1.426223 -0.126736 -0.610739 -0.942954 -1.348649 -0.083673 0.393089 -0.530572 0.262939 -0.591034 1.121773 -0.300014 -0.850291 -1.130919 0.365181 1.001434 0.294006 0.571755 0.051640 0.308105 -1.256196 1.495617 1.263082 -0.736008 0.041645 -0.287020 1.017280 1.055173 2.518494 -0.145159 -0.140102 0.984073 1.663840 1.343323 0.047656 0.602113 1.054122 -0.344141 1.229344 -0.766159 -0.993223 -0.756930 -0.888369 0.261451 0.234805 0.031255 1.626094 1.767389 0.511287 0.108106 -0.403328 0.834322 1.153621 1.077869 -1.206847 -0.508520 0.607933 0.404639 1.906281 0.538931 -0.889143 1.331275 -0.898858 0.225125 0.408921 0.289252 0.626329 0.379801 0.673235 -0.959442 0.260493 -0.826677 0.426785 -1.568189 -0.854499 1.504899 -0.917211 0.860727
other -0.180372 -1.961381 0.019408 2.135067 0.835552 -0.126530 0.394222 -0.295701 -0.395004 0.171393 -0.199389 -1.130749 1.006429 2.464035 0.396321 0.784606 -0.564126 -0.191305 -0.541409 0.848570 -1.577211 -1.040464 0.395945 2.843299 -1.583266 0.824341 0.364507 -2.154150 -0.072376 -0.363275 -0.131590 -0.690344 -1.410515 -0.685619 -1.140162 2.207329 0.317642 -1.272818 -0.180101 -0.517347 -0.109941 0.434773 1.995632 0.817025 0.157290 0.022457 -0.199053 -0.378931 -0.787834 1.686498 -0.798002 -1.106159 1.146594 0.071440 -1.299596 0.532292 0.401900 -0.121866 -0.162272 -0.009138 0.733877 -1.652594 -0.818158 -0.249824 0.013392 -1.141356 -1.537975 -0.115785 0.159020 1.407148 0.189094 -0.287155 -0.714374 0.412184 -0.077417 0.429637 0.194360 0.330859 0.118067 0.144982 0.552360 0.429579 -1.076687 -1.340518 -0.447078 0.183437 -1.168472 1.586382 -0.039722 1.684159 0.036585 0.781384 -0.110890 -0.988824 -1.227450 0.447991 0.004511 -1.458811 0.307541 -0.431538 1.428175 1.391080 -1.148854 -0.758647 -0.461154 1.118315 0.263499 -1.483218 1.617480 -0.668304 1.525448 -1.730631 -0.530052 -0.640453 -0.627637 -0.929460 0.529471 1.331271 1.006946 -0.238646 2.145113 -0.068697 1.579047 -0.292399 -0.079171 -0.475425 -0.748723 0.770015
upon 0.118356 -0.904408 3.475110 -1.033523 -1.217434 1.035733 1.028647 0.401443 0.344737 -1.103024 -0.049612 -0.073478 -0.306826 -0.960380 1.214796 0.077427 0.696698 0.034654 1.564948 -0.999909 0.746283 0.711036 0.106610 -2.056148 -0.071468 0.316988 -0.782000 -0.186191 -1.386373 -0.580026 0.304490 0.673499 1.601298 -0.962694 0.232594 0.723306 0.897908 0.754763 -0.234894 -1.299177 0.943985 1.569595 -1.116779 0.467300 0.510790 -0.552822 -0.821041 -0.365571 -0.880550 0.586542 0.237097 -0.388737 1.281448 1.008065 -0.632730 0.650573 0.853447 0.980446 1.188236 -0.872909 -0.019713 1.263740 1.309958 -0.051736 1.229372 -0.572986 -0.199288 1.285045 0.459383 -1.104843 -1.728702 1.549532 1.466568 -1.135651 1.348285 -1.047450 -0.425778 0.892196 0.951325 -0.990151 0.019658 1.574875 0.601445 -1.342876 -0.734564 1.265988 -0.870835 0.201939 -1.003321 0.246112 0.866902 -0.223240 0.227864 -0.803571 -1.223907 0.487435 -0.685565 0.442533 0.583539 0.784585 1.020219 0.472074 1.552988 0.266233 -1.532016 0.280718 -0.125514 0.540789 1.082844 -0.757128 0.339102 -0.845270 0.968534 -0.606373 -1.018290 0.404378 0.483901 0.186717 0.753895 -0.670163 0.100769 0.429385 0.072399 -1.387046 1.369840 -1.084119 1.540122 -0.909653
such 1.079353 -0.339196 0.046405 -0.138781 0.947292 1.636337 0.606877 2.227921 -1.120540 0.368707 1.019073 0.001137 1.005364 0.242163 -0.068088 -0.787902 -1.085223 0.085456 -0.217073 -0.142171 0.664595 0.377586 0.751203 -1.255458 -0.200964 -1.938306 0.964972 -1.309188 -0.586753 -0.477027 -1.968998 0.407585 1.166796 -0.197228 -0.610870 -2.843614 0.840730 1.270573 -0.677838 1.118959 0.376832 -1.804713 1.754920 0.329945 -1.432998 0.352432 -0.458062 1.250633 0.106471 1.671247 0.496446 0.869984 0.091152 -1.094239 0.378386 -0.675725 2.691945 0.560485 0.753284 -0.217484 0.096649 -0.064174 -0.515954 -1.051482 0.443050 -0.465365 -0.575274 0.289719 0.406659 2.191654 0.253660 -0.249439 1.200171 -1.076131 -0.123237 0.941806 -0.646683 1.840091 1.097957 1.180423 0.931815 1.458146 0.281099 -0.432803 0.640326 1.979836 0.565927 -0.191580 0.427469 2.496047 0.903117 0.035068 -1.483142 1.234992 -0.375926 1.075565 0.332832 -1.499918 -2.294952 0.642654 1.268732 -0.084880 -0.639668 -0.159747 -0.425818 0.086350 -0.626558 0.619251 2.011979 0.409583 0.343087 -0.617325 0.875907 1.578594 -0.013700 0.648783 -0.363103 -2.031753 1.687043 1.589813 0.435320 0.945417 -0.829807 -0.462070 1.117655 1.081381 1.039229 -0.362271
