3000 128
<pad> 0.000000 0.000000 0.000000 0.000000 0.000000 0.000000 0.000000 0.000000 0.000000 0.000000 0.000000 0.000000 0.000000 0.000000 0.000000 0.000000 0.000000 0.000000 0.000000 0.000000 0.000000 0.000000 0.000000 0.000000 0.000000 0.000000 0.000000 0.000000 0.000000 0.000000 0.000000 0.000000 0.000000 0.000000 0.000000 0.000000 0.000000 0.000000 0.000000 0.000000 0.000000 0.000000 0.000000 0.000000 0.000000 0.000000 0.000000 0.000000 0.000000 0.000000 0.000000 0.000000 0.000000 0.000000 0.000000 0.000000 0.000000 0.000000 0.000000 0.000000 0.000000 0.000000 0.000000 0.000000 0.000000 0.000000 0.000000 0.000000 0.000000 0.000000 0.000000 0.000000 0.000000 0.000000 0.000000 0.000000 0.000000 0.000000 0.000000 0.000000 0.000000 0.000000 0.000000 0.000000 0.000000 0.000000 0.000000 0.000000 0.000000 0.000000 0.000000 0.000000 0.000000 0.000000 0.000000 0.000000 0.000000 0.000000 0.000000 0.000000 0.000000 0.000000 0.000000 0.000000 0.000000 0.000000 0.000000 0.000000 0.000000 0.000000 0.000000 0.000000 0.000000 0.000000 0.000000 0.000000 0.000000 0.000000 0.000000 0.000000 0.000000 0.000000 0.000000 0.000000 0.000000 0.000000 0.000000 0.000000
<start> -0.520650 -0.279412 -1.508364 -0.770259 0.313920 0.303342 -0.472910 -1.383276 1.304472 1.028939 -0.175684 0.712168 -0.761216 -1.919218 1.623136 1.246690 0.533806 0.793639 -0.562272 -1.130614 -1.402205 -1.004451 -0.629662 1.705148 0.827453 1.784010 0.888357 -0.477145 0.325403 -0.393379 0.168984 2.169652 0.452537 1.329103 -2.947130 0.068349 1.029373 0.710394 -0.601823 1.101482 0.665642 0.522078 1.816895 -0.120158 -0.923067 0.797394 0.106973 0.869271 0.017834 1.642599 -1.368693 1.172940 -0.389964 0.610063 -0.568334 -1.189688 1.400237 -0.731135 -0.681868 1.882489 0.409677 1.034058 -0.624327 0.408840 -0.937390 0.324375 -0.410479 1.602993 -1.402838 -0.135065 0.678006 -0.473205 -1.300884 0.939299 -1.175805 -0.882130 -0.624186 0.408319 0.412919 1.146988 -0.926148 -0.298779 0.971071 -1.017552 -1.706366 1.601880 0.089747 -0.741918 -1.820724 -0.157457 1.246932 -0.455048 -0.416006 -1.448217 -0.639998 -0.910848 -0.526665 -0.218507 -0.078964 1.034242 0.395100 -0.489212 -0.604437 1.559699 0.698904 -1.157542 0.456200 -1.691518 0.319099 0.131167 -0.301494 0.356079 -0.793944 1.215333 2.713298 0.616763 0.528322 -1.453701 -0.363617 0.252963 -0.234538 -1.105621 0.295625 -1.176193 1.225403 0.107766 0.052021 0.646351
<end> 2.392675 0.411045 0.682809 0.321326 1.307637 0.891596 -0.790425 -0.954642 0.494798 0.144228 -1.348529 -0.190966 -0.004827 -0.875656 -0.581088 -1.197234 -0.673519 -2.490763 1.552792 -1.105780 1.002701 0.019919 0.894284 -0.163227 -0.402207 0.839087 0.510353 -1.457148 0.738147 0.334744 1.316007 -0.128643 0.905266 1.593500 1.503408 -0.891417 0.955453 -1.366249 -0.945521 0.445557 -0.144047 0.729760 -0.082202 -0.508843 -0.042954 -1.086710 0.435701 -0.004084 2.754543 1.319764 0.047853 0.206800 -0.211813 -0.421483 0.535931 0.262834 1.695733 -1.314504 0.664814 0.221782 -0.233169 -0.774344 0.003299 -0.543383 -0.280749 -1.832779 0.806899 -0.463292 -0.324311 -0.822070 2.156188 -0.840818 0.665835 -0.894400 -0.665681 1.689538 0.776476 0.288865 -0.437686 0.370755 0.433335 -0.921480 -0.203233 1.035542 -0.481920 -0.706142 -1.377975 -0.092474 -0.026300 0.739560 0.353536 -0.241876 0.279746 1.215297 -1.478143 0.804451 0.126982 -0.853723 -0.925920 0.636090 -0.296410 1.447754 0.166914 0.885594 -0.401262 -0.918355 -0.518135 -1.186363 1.430671 -0.175253 0.021977 -0.818101 1.680636 0.191383 3.119669 -0.026814 0.596895 0.084419 0.139087 0.779167 0.416201 1.143834 -0.337878 -1.523976 -0.099747 1.322395 -0.623638 0.849033
<unk> 0.304614 0.032429 -0.296465 0.380053 -0.733801 -0.219857 -0.465284 0.240416 0.239134 0.256723 0.431969 0.170071 0.015006 -0.222691 0.188198 -0.473677 -0.291721 0.062926 0.033076 -0.334668 -0.952545 -0.301776 0.091112 0.240539 -1.233748 -0.058699 -0.604474 1.364705 -1.642025 0.386210 0.187785 -0.392086 -0.552615 0.320936 0.404204 1.000159 0.198991 0.195467 -0.333789 -0.347483 -0.331398 -0.123251 -0.052482 -0.129026 -0.576795 -0.451178 0.330802 -0.142459 -0.014775 -1.006173 0.426435 -0.742047 0.388983 -0.743882 -0.925355 -0.432223 0.285373 -0.180424 -0.329860 0.428447 0.214327 -0.486393 0.559362 -0.047778 0.388599 -0.751160 -0.078112 -0.566968 0.391646 0.722414 0.192570 -0.067194 -0.454052 -0.396055 -0.733714 -0.090009 0.774813 0.025898 0.039281 0.034790 0.475349 0.338215 -0.428549 -0.062450 -0.091456 -0.365263 -0.807960 0.298339 -0.115176 -0.248941 -0.094622 0.185192 0.329378 -0.650811 -0.129083 0.458889 0.210265 1.057349 0.417018 0.984273 -0.353840 0.018232 -0.017423 -0.070953 0.715885 0.001867 0.378122 0.108669 -0.155074 -0.025135 0.416890 1.018857 -0.528317 0.388805 1.681436 0.210547 0.500592 -0.869749 0.450722 0.056307 -0.477424 0.472042 -0.015177 -0.425497 -0.203532 -0.705012 0.006693 -1.063084
the -1.518767 0.288785 0.432380 0.250653 0.940833 0.098372 0.550658 0.565596 -0.375712 -0.283454 0.137863 0.231734 1.121367 -0.710390 -0.397676 -0.266697 0.806420 -0.046149 0.252117 0.216107 0.872042 -1.821304 0.098012 0.394204 0.327974 0.202568 -1.222380 -0.629316 -0.210840 0.710159 -1.147201 -1.575577 0.149585 -0.516116 0.448115 -0.463484 0.780137 0.236214 0.553813 0.044352 0.360635 0.308204 0.050698 0.869001 0.491509 -0.706315 0.230590 -0.095908 1.333455 0.905200 0.334570 -0.696623 0.423369 0.000436 -0.655221 1.359536 0.358592 0.561305 -0.320220 0.367334 0.974507 0.454440 -1.299227 -0.276118 -1.609979 -1.040284 -0.262826 -0.103182 -0.079601 -0.591286 1.439104 0.926171 0.385948 0.254787 0.555037 0.254865 -0.229229 0.022099 -0.256285 -0.152804 -1.489208 -0.174524 0.367632 -1.338945 0.265014 -0.036844 0.101017 0.944787 -0.067135 1.031681 0.262894 0.187314 0.709973 0.245328 -0.056888 -0.248570 0.972397 -0.392598 0.153415 0.532668 0.811591 -0.039312 -0.194200 0.457110 -0.456800 0.120363 0.140865 1.475348 -0.209176 -0.712892 0.009047 -0.146464 0.086442 0.060280 -0.487119 -0.117682 -1.209633 0.403981 0.682644 0.408336 0.493165 0.763864 -0.263232 1.125531 -0.674205 -0.615936 -0.429970 -0.252067
and -0.752367 -0.230036 -0.278034 0.124652 0.381418 -0.340586 -0.743582 -0.383807 1.904280 0.247241 -0.223597 -0.736156 -0.143846 -0.884961 -0.044231 1.064677 0.772242 0.344133 -0.162518 -0.097902 0.635561 -0.228709 -0.978976 -0.231082 -0.291607 0.101563 0.495618 -1.496032 -0.704377 0.570460 -0.871871 0.790886 -1.544743 -0.300337 -0.374452 -0.418847 0.440659 -0.488856 1.037215 -0.161935 0.033307 -0.390291 0.706404 -0.986161 1.349319 1.551726 0.202280 0.056212 -0.182677 0.663744 1.051869 0.939361 -0.816153 -0.150914 0.141198 0.152601 0.702062 -1.384805 -0.251586 -0.324795 -0.419729 -0.454673 0.300462 0.062889 -0.493006 0.024077 -1.167054 -0.602100 -0.210193 -0.096029 -1.860775 0.483536 -0.079949 0.327418 0.794959 0.253531 0.685685 -0.133702 0.296040 -0.784364 0.533253 0.557675 -0.206310 -1.087347 0.175229 -0.306837 0.820390 -0.706462 0.398026 0.393071 0.019234 -0.830647 0.112628 -0.063503 0.553802 0.765399 -0.484831 -1.250418 -0.817195 0.411523 -0.254014 -0.923781 -0.690939 0.555591 0.417282 1.362128 -0.507279 -0.086656 -0.767763 0.278158 0.108103 0.833001 -0.699576 0.065141 0.382032 -0.333994 0.239031 0.513145 -0.572832 0.817256 0.338425 0.427905 1.130102 0.340498 -1.013376 -0.277297 0.128579 1.075716
of 0.176168 -0.621136 1.228734 -0.729600 0.248438 -1.177006 -0.333090 -0.310255 1.896778 -0.227184 -0.554569 -1.030023 -0.599864 -1.547872 -0.004485 -0.333658 -0.560660 0.300807 0.181805 -0.365861 -1.687693 -0.310048 -0.117016 0.113044 -1.226651 -0.790383 -0.346924 -0.944714 -0.166718 -0.257846 0.603018 0.694757 0.058765 -0.187090 -0.404535 1.188763 -0.673018 -0.518750 -1.000349 -0.623396 -0.328605 -0.175876 0.743511 -0.308117 -0.108670 -0.417583 -1.174263 -0.198864 0.882720 0.343360 -0.588098 -0.428730 0.005882 0.029532 1.156168 0.113798 -0.287663 -0.023474 -0.625548 -1.032256 -0.324400 -0.368130 -1.231257 0.258678 -1.123865 0.305884 0.910100 0.537736 1.458221 0.482139 1.226771 -0.447402 0.034436 -0.426991 2.176616 -0.347669 -0.431262 -0.978200 0.792859 -1.350206 -0.385425 -0.997964 -0.238791 1.997126 -0.862605 0.243357 -1.156865 0.555992 0.745900 -0.218084 0.381108 -0.320228 -0.451989 -0.798356 0.059705 0.950603 -1.145691 0.655176 1.370481 -0.833886 -0.646365 0.067048 0.350822 0.101953 -0.295229 -1.098925 -1.427777 1.383780 -0.900413 0.248071 0.997373 0.394334 -0.361575 -1.766332 -0.187655 0.218794 -0.204982 0.076723 -1.879055 0.068420 -0.586635 -2.836837 0.560708 -1.222172 0.100785 0.312482 0.536037 1.529541
to 0.844842 0.736683 0.646705 -0.744996 0.682224 -1.008401 -1.270308 -0.781905 -0.866943 -0.006642 0.359166 0.380231 0.380779 -1.135466 1.381713 0.025414 -0.117410 -0.030036 0.469019 -0.091128 -0.703557 0.232749 -0.650817 -0.117783 0.097514 0.132497 -0.147329 0.663577 -0.078462 0.052191 0.659757 0.894946 0.580364 -0.266921 -0.480159 -0.193085 0.091686 0.079717 -0.303393 -0.689565 -1.315614 -0.387799 1.025969 1.121224 0.151647 1.214592 0.021090 0.053967 0.432552 -0.590103 0.976002 1.602100 0.268796 0.716053 1.224606 0.044543 -1.505157 -0.707559 -0.312208 -0.983694 0.462265 -0.611075 -0.193212 -0.466311 -2.063753 0.847484 1.496951 0.482664 -0.775377 1.015943 0.043041 -0.108308 -0.783246 -0.144106 1.679917 0.326912 0.187368 -1.230011 1.634730 -0.896740 0.598661 -0.799747 -0.178027 0.257398 -0.090235 -0.688141 0.861498 0.128757 0.867775 0.912143 0.793469 1.217146 2.013692 -0.703360 0.216380 -0.363865 -0.350121 -0.660851 0.044139 0.036926 -0.265055 0.038116 -0.664990 -0.191283 0.651022 0.113670 1.083406 -0.554166 0.398630 -0.520881 0.698722 0.265040 0.422509 -0.412087 -0.078183 0.020088 0.723191 0.740722 0.221205 -1.347585 0.950653 0.920786 -0.044122 0.021340 -0.039283 0.681709 -1.721344 1.069998
a 0.011973 -0.060189 0.942215 -0.758941 0.276356 1.165463 -0.773481 1.064512 0.227826 -0.849303 0.769944 0.649849 -0.361387 0.237849 0.708580 0.860936 0.070429 0.197386 0.605519 0.150710 0.581350 -2.242907 0.826410 -0.834796 -0.194853 0.846891 0.725382 -0.428733 0.535732 -0.375363 0.183112 0.084494 -0.770924 0.006491 1.257765 0.057004 -0.736386 0.461732 0.481046 0.922719 -0.207731 0.397530 -0.840895 0.559057 2.028197 -1.153870 2.043122 -1.063556 0.676894 -0.107861 1.135529 0.318983 0.880445 0.881939 -0.424377 0.012701 1.347361 -0.942061 -0.682615 -0.473341 0.394039 -0.076771 -1.686397 -0.667152 -0.005594 -0.259736 -0.038285 -0.432071 0.361714 -0.093888 0.835857 1.499782 0.626040 0.890673 0.510401 1.318429 0.592565 0.051966 -0.534432 -0.775411 -1.381478 -0.863923 1.486369 0.114784 -0.830989 0.974017 1.004139 -1.194184 -0.625972 0.584209 0.060303 -0.827668 -1.063741 -0.366417 0.579108 0.359468 -0.511475 0.224638 -0.918647 -1.395882 0.625581 -0.520621 0.239743 -0.651614 0.219332 -0.174601 2.005302 1.295570 -1.516533 0.090066 -0.647920 0.946919 0.426409 1.120535 0.316974 -0.252659 -1.914864 2.058807 0.342290 -0.260067 0.188436 1.399538 -0.413992 -1.200170 -0.330273 -0.471286 -0.357669 -1.268909
in 1.888946 -0.657754 0.004745 1.372241 0.148166 -1.345406 -0.350265 0.379179 0.557660 -0.487212 0.112783 -0.090034 0.374712 -1.178822 -0.883014 -0.558166 -0.313721 1.931615 0.860517 -0.445851 -1.351715 -0.817347 -0.031819 0.693201 0.075909 -0.412105 -1.709500 1.568643 -0.461860 -0.208288 0.404135 -0.893061 -0.166448 0.320879 0.705153 -0.394888 -1.028481 0.888315 0.490799 0.812226 -0.995475 -0.293143 1.879942 0.465365 0.523263 -0.395502 -0.040879 0.224542 -0.581945 -0.377448 0.965723 -0.432160 -0.787127 0.067308 1.016715 -0.867921 -0.662423 -1.755207 -0.341465 0.218417 1.416106 0.201334 -1.036721 0.551341 0.084695 -0.002913 -0.169480 0.779109 -0.104380 -1.005278 0.678957 -0.060328 1.285789 -1.131885 0.125518 0.176506 0.703799 0.446875 0.771290 -0.905767 -0.889885 -0.518745 0.349070 0.484986 0.757537 -0.270926 -0.382263 -0.177175 1.089434 -0.005048 -2.126759 0.018782 -0.729285 -0.775731 -0.320753 -0.616101 0.449765 -0.604433 0.479958 -0.911285 -0.256323 0.698017 -0.722964 0.586007 -0.494240 0.361013 0.079254 -0.922982 0.208183 0.375494 -1.964903 -0.111418 0.106020 -1.649440 0.821566 -0.083323 1.338179 0.725552 -1.341176 -0.056930 -0.842449 -0.131062 -0.733362 1.556759 0.017517 0.366774 0.597323 0.794139
i 0.243896 0.623770 0.361531 0.226531 0.497787 -2.590204 -0.370769 -0.442269 -0.187452 -0.027402 0.565007 -0.696380 0.799403 -0.224847 -1.096178 0.105152 -0.077360 1.230457 0.343724 1.765526 0.369247 -0.666415 -0.916977 1.188943 0.645941 0.269501 0.649428 1.856055 -2.094063 -0.248548 -0.634578 -1.076227 -1.748017 0.556056 -0.007763 0.135162 0.538484 1.632863 0.363734 -0.858413 -1.662056 1.021215 -1.437420 -0.347956 -0.429637 -0.199208 -0.084412 0.230874 0.939953 -0.900032 -0.939812 0.592524 0.038033 0.098372 -1.249656 -0.393488 -0.959212 0.694851 0.404605 0.723648 0.427582 -0.505038 -2.395617 0.409639 1.119428 0.598873 -0.284998 0.122024 0.333884 -0.494897 -0.802675 0.950958 0.787497 -0.350748 1.112504 0.102869 -0.768655 -0.385638 -0.539809 0.655983 0.331300 1.028857 -0.319894 -0.911386 1.145331 0.131008 0.807523 1.077506 -0.199065 -0.800446 0.232049 -0.430005 -0.146663 -0.166852 0.218226 1.605513 -0.170562 2.227652 -1.444660 -0.824107 1.945312 -0.313772 -0.395309 1.018387 0.381611 -0.000884 0.962083 -1.305328 1.238742 0.291955 -0.015962 0.398644 0.226930 -0.706989 -0.185745 -1.143130 -0.657008 -0.118794 -0.042013 -0.904233 1.055055 -0.357532 -0.382426 -2.186618 0.946049 0.386155 0.470036 0.862196
he -1.321051 0.034568 0.408858 0.188731 -1.105499 -1.072274 -0.542502 -0.109297 1.991659 -0.925885 0.751566 0.180829 -0.007436 -0.128733 0.137409 -0.404520 0.140065 1.744920 -0.154464 0.835445 0.774572 0.214899 0.875214 1.065618 -1.319335 0.776935 -1.103432 1.266755 0.087134 0.514138 0.282323 -0.476670 -0.876780 0.404049 0.801897 0.550441 0.770074 1.143330 -0.323796 0.921803 0.347781 -0.320282 -0.272729 0.177486 -0.487660 0.592612 -0.416703 -0.648257 -0.177264 -0.314557 -0.253903 0.191364 -0.292413 1.391602 -0.378597 0.628957 0.430750 -0.047274 0.683054 1.120332 -0.316028 -0.088286 -0.961739 0.344307 -0.783660 1.467428 1.008659 0.444507 -0.448999 0.770294 -0.273753 1.418259 -1.084824 1.242195 -1.241074 -1.187409 -0.999921 -1.125858 -0.914389 0.858896 0.110477 -0.896686 -0.128405 -0.103576 1.659634 0.339768 0.321716 0.658307 0.052188 0.540137 0.558263 -0.423106 -0.127804 0.876714 -0.154357 0.169236 0.267409 -0.006162 0.071798 -0.903890 0.767877 -1.620167 0.734616 0.703289 -1.435761 0.368238 0.988782 0.258068 -0.190857 1.348356 -0.543653 1.414382 1.017851 0.756392 -1.153823 -1.481797 0.633986 1.519262 -1.699794 -0.052292 -0.010951 -0.428046 -0.390899 -0.749173 1.043651 0.182828 -0.736500 1.367988
that 1.254976 0.468726 -0.352058 0.331367 0.532889 -0.694057 -0.608325 -0.768289 0.049544 -2.281494 0.326951 0.283764 1.153397 0.044272 0.317992 -1.082132 -0.643460 0.364688 -0.489163 0.990948 -0.581929 -0.313140 -1.492508 -0.301697 0.629620 0.282942 -1.123036 -0.300334 -0.799729 0.629103 0.687172 0.751396 -0.344905 0.160723 1.479396 -0.103570 -0.520528 1.429330 0.527048 1.104911 -0.631470 -0.134822 -0.178286 -0.531786 0.477587 -0.881003 -0.126946 1.218864 0.471861 0.052241 -1.531076 0.767914 0.077459 0.781314 1.777026 -1.110177 0.178667 0.723199 -0.759618 0.741643 0.604307 -0.166635 -0.272234 0.849397 -0.051327 -0.753417 -0.971230 -0.990715 1.136822 0.235962 0.526263 -0.475250 -0.506064 -0.142928 0.494815 -0.610633 -1.124283 0.822248 -0.062588 -0.677772 0.895550 -0.260585 0.268442 0.058845 -1.075308 -0.256565 1.384949 -0.464580 -0.148151 0.669862 1.091194 -0.596175 0.756616 0.349242 -1.796079 0.506103 0.222476 -1.353031 2.369169 -0.055842 0.655201 0.682401 1.325958 1.449210 -2.171060 -0.052611 0.537709 -0.737368 -0.419753 0.568954 0.030717 -0.041645 -0.923501 2.120861 0.763672 0.411719 -0.231226 -0.594784 -0.780647 0.802641 -1.213612 -0.753043 -0.638089 1.141090 -0.076596 -1.481672 -0.298133 -0.187191
his -1.164048 0.597705 0.754663 -0.565559 0.938359 0.907020 0.925716 0.811938 -0.520768 1.171280 -1.611068 0.217416 0.279227 -0.797429 -0.390886 -1.439859 0.218772 -0.713002 0.510823 0.881419 -1.435700 -0.412450 -1.544277 -0.562445 -0.306096 -0.210920 -0.792610 -1.104276 -1.938952 0.273230 -0.774268 0.506004 -0.041428 -0.191714 0.352261 0.955456 -0.993675 -0.563213 -0.041217 1.096035 0.752055 -0.116972 0.069679 0.104374 0.344266 -1.251011 -0.320224 -0.324090 -0.946991 0.180876 -0.394488 1.223459 -1.069899 1.101300 -1.453178 1.034929 0.538622 0.676225 -1.065618 0.846577 0.550736 1.282449 -0.169578 -0.800142 -0.458032 1.223187 1.012311 -0.975237 -1.459076 -0.815756 1.076454 1.127484 -1.472280 0.684762 -0.047469 1.022340 0.296562 -0.111233 0.421444 0.516352 -1.179870 -0.675476 -1.441586 -0.050528 -0.717243 0.235845 0.372924 -0.982792 1.277942 1.238132 -0.676072 0.279263 -0.971050 0.368738 1.567210 -1.403832 1.929523 0.852485 -0.430793 1.826037 0.874734 -0.445982 0.143267 0.238681 -0.192576 -1.319628 2.259984 1.005439 -0.085715 -0.282292 -0.399777 1.160389 -1.297762 -0.599904 0.809520 -1.317279 -0.288575 0.018726 0.446389 -0.674507 0.540216 -0.450303 -0.753342 -0.806614 0.892013 -0.682426 0.926346 -0.125629
was -0.449062 -0.065294 0.974432 -2.246212 -0.207670 0.628416 -0.358851 1.004365 1.646152 0.110432 -0.139988 0.425588 -0.064575 0.874934 0.860095 0.236268 0.361146 -0.554429 0.305872 -1.275326 -0.674702 -0.550227 -1.463690 -0.343300 -0.312414 0.179666 -0.160732 0.344530 -0.872499 -0.186360 0.621955 0.052305 -0.031483 1.247121 0.121993 -0.543111 0.752624 0.077059 1.310536 0.390007 -0.234625 0.170562 -1.218287 0.634017 0.542661 -1.345803 -0.807048 0.634978 -0.103555 -0.051722 0.966333 -0.324680 0.336908 -0.176395 1.077424 0.387290 1.123268 1.164855 -0.102418 0.448286 -0.420546 0.267954 -0.297006 0.068598 -1.482697 1.097449 -1.000282 2.014700 0.283778 -1.143791 -0.071413 -0.365222 -0.259924 0.580146 0.191002 0.096812 -0.106929 0.924333 -1.088467 -1.394184 -0.108167 0.602380 1.887945 -1.296735 -0.466472 0.155926 0.944955 0.068574 0.969482 -1.114646 0.344975 -0.197516 0.068186 0.097050 0.955214 0.636104 0.059784 -0.297519 -1.354681 0.101405 -0.494823 0.723768 0.309292 -0.695286 0.139545 1.423966 -1.111427 -1.243647 0.906886 2.498996 -0.720528 1.096704 -2.158466 -0.840209 -1.963076 1.099353 0.221302 0.668222 -1.305195 0.121636 0.288422 -1.473050 0.365433 -0.554335 -1.233266 2.044606 -0.410817 -1.877855
it -1.370789 0.491470 -0.797003 0.245541 -0.726678 -0.893123 -1.156152 -0.402732 -0.530059 -0.103564 0.242423 -0.024927 0.152617 0.457045 0.506928 -0.526185 -0.557392 0.269214 0.672903 1.540125 0.344137 -0.721595 0.363224 -0.437889 -1.700381 0.424998 -1.600828 1.007246 -0.486294 -0.428642 -1.093338 1.252088 -0.533026 -0.806732 0.404902 -0.244997 1.128396 2.705254 -0.992629 0.407201 -0.509717 0.904106 0.204610 -0.725091 0.232545 1.282380 0.000946 0.483931 0.192037 -0.303893 -0.787052 0.392684 -0.494864 -0.426427 -0.515199 -0.147165 -1.497490 0.558360 -0.715383 -1.067321 1.342515 -0.368030 0.101546 1.022869 0.536086 1.096039 -0.648154 0.700837 -1.332663 -0.365570 0.726349 1.268471 -0.038495 0.956606 -0.803243 1.424878 0.810888 -0.191881 -0.472972 0.279111 -0.798327 1.803920 -0.271401 -1.587915 1.186145 1.478478 -0.289989 -0.222394 -0.820251 -0.860024 -0.805991 0.455678 1.106721 0.657132 1.388229 0.484616 0.330385 -0.318433 0.179803 0.037321 -0.140313 0.036848 1.182439 0.070813 -0.430547 0.060528 -0.274150 0.000679 -0.536013 0.403266 -0.018483 -0.648936 2.386112 -0.109469 0.503277 -0.673400 1.205770 0.510081 -0.637651 -0.201795 -0.962543 0.321336 -1.563179 0.197756 -0.007244 0.222309 0.677008 -0.994902
you 0.383882 0.284038 0.223719 -0.739176 0.144797 -0.631661 -0.073025 -0.704592 -1.755781 -2.160955 -1.138658 -0.551167 0.815888 0.916734 0.179252 0.085443 -0.558746 0.491489 -0.278053 -0.185757 1.904859 -0.071775 0.259192 -0.460024 -0.406080 0.293571 0.652391 0.675695 -1.077545 0.077164 -0.431359 0.120267 0.363744 0.134201 0.358522 0.346763 -0.106227 -1.028394 0.887381 0.257526 -0.393954 0.698405 -0.085125 -0.438356 0.596538 1.272781 1.285582 -0.660146 -1.525586 -0.456787 -1.394756 0.765296 0.457688 0.650684 -2.483483 -1.199404 -1.234616 0.775783 0.719263 0.815273 0.773115 1.184796 -0.896647 0.868394 -1.789603 -0.819375 -0.118768 0.032915 0.294905 -0.880545 -0.715599 0.784474 -2.454574 -2.060952 0.245362 -1.364594 0.590019 0.702834 -1.487038 0.110257 -1.101669 -0.638296 0.534181 -1.013437 -1.489141 -0.716141 0.461631 0.202576 -0.625431 -0.059267 -0.462131 -0.192831 1.195645 -0.755719 0.480625 -0.428115 0.338832 1.748178 0.065602 -1.542181 -0.005460 0.771287 2.239010 -0.089404 -0.187052 1.722213 0.162651 0.167271 0.534851 1.371069 1.094999 0.487596 0.354430 -1.326289 -0.983258 -1.162350 0.228617 0.979858 1.116323 -0.029226 0.298751 -0.605575 1.081409 -1.010568 -0.737768 0.918235 -0.697499 0.220065
with 0.368289 -0.648359 0.799168 -1.839658 1.037754 -0.813451 -0.034590 -0.722394 1.133774 0.077882 -0.162633 -0.929252 -1.359579 0.755928 -0.687674 -0.743115 1.767846 0.855824 -1.064301 -0.399196 -0.965125 -0.679604 0.184413 1.496311 0.878674 -2.496286 -1.289578 -0.168631 0.191240 -0.945590 0.294576 0.083278 -0.853519 1.511990 -0.450666 -0.060275 -1.313095 0.322880 -0.259216 0.922391 0.220428 0.343851 1.366471 1.105292 0.977614 -1.064807 -0.455085 -0.780676 -0.119460 -0.251488 0.016637 0.109086 0.221827 0.539829 -1.127571 0.064713 -2.016391 -0.930373 -0.255661 0.031879 -0.280959 -1.325180 -0.167269 1.390678 -0.713953 -0.482030 1.032173 -0.140697 -0.524077 1.213339 -0.762598 -1.139115 -0.663202 0.356780 0.849801 0.737174 -1.617309 -1.044874 -0.142125 -0.792322 -0.080582 0.160405 1.188451 -0.661496 -1.009490 -0.064400 -0.186603 1.280625 1.228278 0.750899 0.961488 -1.455506 0.267942 -0.129699 -0.342810 -1.184162 -0.486663 0.816950 0.167275 -2.351012 0.430323 0.694854 -0.151311 0.945671 1.427387 0.495530 0.290000 0.045174 0.642636 0.217746 -0.232219 0.113948 -1.456847 0.614034 0.265037 -0.117774 0.848775 -0.586783 0.842223 -0.081852 0.359774 0.396148 0.905488 0.255344 -0.770999 0.207419 0.531173 1.101350
is 0.106897 -1.185388 0.070305 -0.357779 -0.592205 1.511625 -0.637459 -0.864801 0.900965 0.709302 0.367867 0.892096 -0.561686 0.011698 2.013478 1.404430 0.856451 0.848385 0.974070 -0.371425 0.026455 -0.908210 -1.240152 0.674270 0.412563 -1.275222 -0.972957 0.820260 0.114611 1.099019 0.558894 -1.091452 0.411339 1.368381 0.054894 0.322965 1.292086 1.158667 0.616526 -0.011433 -1.043135 0.696361 0.299309 -0.039659 1.237766 0.360071 -1.297222 1.528682 1.475894 -0.957896 1.610713 -1.203274 0.228930 0.955166 1.786569 1.239483 0.740839 1.188182 1.622169 0.582685 -0.398007 1.129176 1.374850 0.209826 -0.526958 0.307803 -0.394336 -1.087632 0.136415 0.006323 0.922268 0.150079 -1.181786 -0.905371 -0.545208 0.187857 -0.364824 0.803430 0.925466 0.314603 -1.052049 1.091305 -0.360814 -1.424104 0.204204 0.856286 0.986538 -0.367534 0.718247 0.324115 -0.665358 -1.382754 0.007171 0.895029 1.944234 0.575854 -1.190548 0.414522 -0.926784 -0.369148 0.720780 1.700339 -0.872696 0.135813 -0.933068 0.437267 -1.362308 -1.473235 -0.287097 1.195481 1.431371 -1.378223 -1.774656 -0.493218 -0.474957 -1.185610 -0.324133 -0.338841 -0.546247 -1.097695 0.324049 -1.128397 0.215579 -0.243519 0.330350 0.219481 -0.368925 -0.735135
as 1.275205 -0.637063 -0.624240 0.180973 -0.323488 0.755477 0.431427 0.249028 1.093393 -1.089844 0.973426 1.538348 -0.709876 -0.247120 -0.643735 -0.199779 -0.204570 -0.566531 0.473394 0.210139 -1.649284 1.177221 -0.264670 -1.111815 -1.679880 -0.361353 -0.748175 -0.907864 0.235252 0.603213 -0.330212 -0.267803 0.087393 -0.956630 1.411485 0.629473 0.173055 0.797256 0.477653 0.646908 -1.673505 -1.814931 0.415507 -1.105301 0.117106 1.994985 0.031094 -0.170461 3.099548 -0.251283 0.024942 -0.013826 -0.884021 1.657866 0.287562 -0.021587 0.029838 -0.695051 0.274366 -0.161639 0.476476 -0.568093 -1.330380 0.557604 1.767131 -0.479336 0.578503 0.273080 -0.503671 0.799104 0.499194 -0.625455 1.145179 0.186234 -1.004744 -0.464070 -0.244013 0.362599 0.148257 -0.283217 -0.735318 0.779400 1.587531 -0.087590 -1.155042 -0.401717 0.330211 1.002534 -0.239537 -0.669462 0.618660 -0.653134 1.104449 0.297190 -0.287519 0.499293 -0.047856 0.533945 -0.808774 -0.343443 -0.101594 -0.555475 0.807618 -0.870845 -0.234503 0.624580 0.142990 0.083651 0.737135 2.357995 0.507904 -0.700039 -2.129152 -0.918089 -0.691147 -0.243659 0.679814 -0.893706 -0.536873 -0.606848 0.977123 0.714101 0.467191 -0.715664 -0.678631 -1.237081 -0.949682 0.509971
not 0.147309 0.773290 0.440291 -0.165576 0.508298 0.683832 -1.120710 0.413261 -0.419751 -2.505577 -0.607788 0.695665 0.760037 -0.863066 1.556259 2.004040 0.978392 1.246909 -0.350527 1.115556 0.337549 1.555396 -1.110520 -0.324870 0.953502 0.241002 2.858168 0.336722 0.013732 -1.690897 0.076951 1.229055 -0.892179 -0.418684 -0.631011 0.662000 -1.551751 0.733661 -0.109304 0.359422 -1.094741 1.001011 0.318696 -0.736379 -0.557760 0.804441 -1.482292 -1.174983 -0.054229 -1.446815 -0.648699 -0.611141 -1.481998 -0.628677 2.048159 -0.442796 -0.041079 -1.343806 -0.990542 0.958611 1.158750 0.882899 -0.060438 -0.780467 -0.755937 -0.918708 0.842452 1.148774 -0.784585 0.858474 0.447440 0.457686 -1.203449 -1.732354 -0.312429 0.020229 -0.471396 0.839580 0.799927 -0.960976 -0.445798 0.972271 -1.160581 -0.763437 -0.618073 0.543779 -0.802544 1.510975 0.282570 0.894856 -0.200440 -1.445768 0.952432 -0.647137 -1.216268 -0.122638 -1.015736 -0.019147 -0.212098 -1.475096 -0.568298 -0.568243 0.254854 -0.345860 -0.534990 -0.568482 1.823266 -0.823057 0.374777 -0.652013 -0.444737 -2.115571 1.118980 0.217410 -0.271963 0.825094 -0.607254 0.195922 -0.266998 0.375790 0.967525 -1.820185 -1.379788 0.424204 -1.063798 0.116145 -0.269539 0.673379
for -0.721101 -0.064553 -0.246755 0.485505 -0.798130 0.712526 0.171789 -0.060488 0.721793 1.842274 0.752871 0.390105 -0.504954 -0.129573 -0.095734 -1.491857 0.036800 0.890550 -1.046191 -0.527908 0.441063 0.576109 -0.045665 1.174585 0.063540 -1.200997 0.810724 -0.563509 -1.217540 0.478073 -0.452447 1.976956 -1.030942 -1.082634 -0.816237 0.541494 -1.144520 -0.256226 0.518371 0.966188 -1.545291 -1.364348 0.049676 -0.110252 0.153626 -0.840617 0.780621 -0.300186 0.119430 -0.221326 -1.417087 1.000211 0.444156 -0.806300 0.253676 -0.275292 0.547416 -1.142335 1.345126 -0.582536 1.198795 0.327294 -0.241533 0.661501 -1.342813 -1.483346 -1.508584 0.956486 0.573792 0.587791 0.872751 -0.058565 -2.102671 0.814238 1.213939 1.869851 -0.080522 -0.299191 1.030132 0.224246 -0.622965 -0.059405 0.395615 0.688029 0.059657 0.402755 -0.248014 1.202723 -1.298912 -0.178453 0.079656 -0.174432 0.476667 -1.088938 1.151060 0.064333 -0.651218 -0.195695 -0.686001 -0.654496 -0.384835 -0.220852 -1.281238 -0.593822 1.118462 0.004119 -2.265063 -0.992491 0.489927 -0.595973 0.711599 0.670655 -0.554221 0.519876 -0.186952 -0.543315 0.785566 0.273438 -0.405083 -0.744372 -1.129834 -2.577077 -1.845906 -0.947610 0.536191 1.406723 -0.722463 -0.227515
had 1.411103 -0.856765 -0.307638 0.542574 0.963269 -0.972989 -1.376884 -0.552976 -0.004054 1.128528 -1.142674 -0.115536 -0.056563 0.367462 1.373597 1.698152 0.176464 1.170812 0.851454 1.060833 -0.339252 -0.615212 -0.580132 -1.071728 -0.672149 -1.602153 -0.255052 0.596028 0.787479 -0.122126 1.394679 -0.553572 1.089391 0.360849 -0.770380 0.077533 -0.319877 -0.743304 1.942943 -0.390817 0.953610 -0.688079 -1.113440 -2.700630 -0.035934 0.871857 0.407489 0.655370 -0.529549 -0.532271 1.435208 -0.195439 0.678473 -0.214620 -0.114124 0.822718 0.541672 -0.520173 -0.791201 1.755171 -0.009112 -0.755855 1.582494 -0.926157 -0.841729 1.110303 0.867259 0.160223 -0.668729 0.495120 -0.318130 -0.433738 -0.598384 -0.591779 0.353834 1.664385 0.767138 -0.803896 -3.158754 -0.920866 -0.690276 0.769458 0.767143 0.654286 -0.766647 0.021545 -0.506073 -0.197963 -1.183072 0.001911 0.555401 0.064536 0.489055 1.594064 -0.695491 -0.933707 -0.170965 1.908173 -1.268667 2.046167 1.082273 0.783230 -0.275552 -0.103033 1.546662 0.997634 -0.422334 1.443858 1.611691 2.054952 0.533663 2.029765 -0.253974 0.799145 -0.871062 0.351682 -0.795434 2.539452 -0.663393 0.487229 -0.129003 -1.702676 -1.069264 0.481484 1.785150 1.127802 -0.514550 1.077879
but 0.468703 -0.506617 -0.684647 -0.478893 -0.454263 -0.245111 -0.428003 0.134990 -0.112458 -1.084551 -0.115349 -0.769612 -0.510715 -0.144346 -0.562995 2.770606 -1.084562 -0.247415 0.410989 -1.358623 2.026154 0.095906 -1.160409 -0.249001 -0.663277 -0.454979 -0.627230 -1.175042 0.306350 -1.247487 0.526843 0.721107 0.119225 -0.161010 0.194426 1.313244 -0.373813 -1.237049 -0.234100 0.512356 0.235784 -0.297452 -0.159034 -0.415001 0.232223 1.520931 0.798702 0.468735 0.773202 1.657966 0.678411 0.079372 -1.331765 -0.849589 0.564694 0.902541 -0.878925 -0.181850 -1.077996 1.292961 -0.391223 -0.737351 0.144730 -0.418730 -0.222366 -0.865624 -1.324071 -0.181893 -0.242138 0.357125 -0.664128 1.463385 0.173760 0.627859 1.648344 0.080596 0.597414 -0.426491 0.878727 -1.358088 0.351330 -0.046590 1.147603 0.899517 -1.282168 -0.242758 -0.428877 0.453340 -0.541940 -0.132631 0.513383 -1.680652 0.709455 1.556103 0.469635 1.190692 -0.140188 -0.760615 -1.671336 0.088181 0.857909 -1.005660 -0.112393 0.586625 0.277040 -0.560021 2.366040 -1.912505 -0.697492 1.441833 -1.498314 1.772074 0.578718 -0.743385 0.205855 -0.599343 -0.043676 -0.938281 -0.213973 0.818064 -0.757301 -1.755171 -0.564899 1.083550 1.123148 0.391553 -0.115230 1.293100
at 0.805971 0.321865 -1.251881 -1.198271 -1.721983 -1.490046 0.137867 1.637160 -0.480301 1.379699 -0.345894 0.394348 -0.212065 -1.328915 0.357091 -1.216951 -1.317664 1.850362 1.285122 0.116605 0.148214 0.492139 0.026591 2.577217 -0.044468 -1.215635 -0.832444 -1.308815 -0.638619 -0.813616 -1.449608 0.636291 -1.169933 1.310218 0.396098 -1.198445 0.943110 -0.912783 -1.125797 -1.909315 1.634309 -0.141951 0.040558 0.196697 -0.940774 -0.515139 0.551115 0.298109 1.328385 -0.172680 0.640818 0.108112 -0.190583 0.217225 1.213056 -0.384127 -1.555671 0.208707 -1.033035 -1.464597 0.596219 -1.829613 -0.358305 0.614030 -0.361203 0.351693 -1.602412 -0.933282 -1.425021 0.535258 1.333062 0.771924 -0.306483 0.303119 0.991897 0.655074 0.108810 1.238294 1.645099 0.488061 -0.315256 0.419550 -0.390571 -0.412930 0.819131 -1.450732 -0.824465 -0.428120 0.327140 0.147449 -1.118335 0.887778 0.033280 -0.171502 -0.601364 0.255608 -1.038768 1.707177 -1.449409 -0.876467 0.052397 0.349125 0.727733 -0.055986 1.663127 -0.622387 0.533156 -0.181778 0.874032 1.252843 -0.566451 -0.458541 -1.293285 -0.673582 0.178747 -0.306113 -0.176606 1.494832 -0.404822 0.128869 -2.465943 1.210262 0.267396 -0.450726 -1.248803 0.801457 -0.010197 2.145147
be -0.426160 -0.631838 0.138255 -1.788630 -0.168707 -1.541259 -0.170794 -0.255342 0.389023 1.954633 1.044773 -1.196606 1.024895 0.465263 1.522115 1.382121 1.609923 -0.230824 0.781594 1.456558 0.504672 -0.429371 -0.153161 -0.398647 0.587161 -0.992153 0.619654 0.479180 -0.467288 -1.032492 1.108185 0.960126 -0.688874 -0.668615 0.152247 -0.930628 0.247367 1.399706 0.005528 1.086336 1.233683 -1.168877 0.187528 -1.285611 -0.098440 0.849206 -1.689384 0.493816 -0.697235 -0.445411 1.343835 -0.967582 0.105981 1.142181 0.019048 0.538290 0.087619 -0.204759 -1.804008 2.098357 -0.622731 -1.693166 0.474702 -0.814799 -0.887774 1.521693 -1.512817 0.874006 -1.200893 -2.299811 0.924211 1.270904 -0.046417 -1.400696 0.080494 -1.378378 -0.322979 1.092744 -1.178649 0.439846 0.429009 -0.843372 -0.922247 -0.981237 -1.422505 -0.556102 -1.101175 -0.235968 -1.706777 -0.212058 -1.496487 0.493817 -0.835736 -0.405119 -0.092998 1.309142 -0.346397 -0.389140 0.539796 0.872869 -1.064576 -2.078180 0.719364 -2.002772 0.891229 -1.139830 0.496998 0.363601 1.270231 -0.251774 1.632150 -0.254548 -0.496246 0.610329 -2.089881 -0.551579 -1.006098 -0.234212 0.463306 -0.262983 0.013642 -1.355608 0.272262 0.070673 -1.331448 1.192047 0.072209 -0.783223
on -0.893524 -1.081291 -0.618575 -0.627905 -0.284628 0.108281 -0.793288 0.787598 -0.174698 1.293867 -0.642381 -1.293460 -0.193327 0.462741 -0.408750 -1.106696 -0.216574 1.321835 0.507111 -0.330425 -0.226484 0.748550 -1.693109 0.887970 -0.076927 -0.924093 -0.239583 0.633464 0.138599 -0.788360 0.470885 -0.862479 0.288045 -0.381345 -1.532388 -2.558228 -1.754628 -0.280125 0.183267 0.350051 -0.038766 0.223928 -0.523332 0.338047 -1.137307 1.781849 0.214822 -1.074905 -0.201862 -1.264144 1.977546 0.630132 -0.543695 -0.289495 -0.824869 1.206601 1.135861 0.676404 0.198610 -0.685818 1.075917 0.633457 -0.074287 -0.417941 -0.015830 1.095031 0.903889 0.265431 0.694905 1.504990 2.063789 -1.846948 0.208061 -0.736157 0.202729 -0.182635 -0.210311 0.850671 1.043851 -1.286716 -1.035248 -0.173041 -1.005629 1.836903 0.606242 1.376439 1.496133 0.138372 -0.770173 0.731876 1.980879 0.079730 -0.060204 -0.129929 -0.546298 0.435719 1.556693 0.429561 -0.971119 -0.620983 -1.580872 0.628066 1.063664 -0.894019 -0.014330 1.675987 0.451959 0.487684 -0.668428 0.665164 0.418367 0.970000 0.000958 -0.008931 0.484514 0.090281 -0.604155 -0.919588 -1.226832 -0.774433 1.026536 -0.758451 0.006344 0.678242 -0.829272 1.556474 -0.514337 1.288301
her -1.526960 -1.478217 -0.503558 0.795964 2.172342 -0.238443 -0.879880 0.051609 -0.140460 -0.935980 0.048417 1.205072 0.600673 -1.102076 -1.021788 -2.374710 1.006812 0.067401 -1.577632 -0.001528 0.403450 -0.879446 -0.256447 -2.608806 0.559106 -0.374695 -0.043315 0.868057 -0.425178 -0.316270 -1.148969 0.002534 -0.930769 -0.389169 0.505964 -0.108333 1.434471 -0.040665 0.483121 0.226911 -0.259362 -1.617608 -0.851511 -1.308006 -0.107555 0.542148 0.175894 0.271629 0.287468 -0.052045 0.983708 0.096355 -0.747065 0.687369 -0.746751 1.193455 -1.416759 1.876829 -1.571720 -0.176496 -1.080927 -0.263507 1.793639 -0.706953 -0.317116 2.089681 -0.861345 0.013742 -1.134661 -0.713956 0.122286 0.921353 0.489403 -0.489961 -0.400206 -0.226523 0.274208 0.054432 -0.133929 -1.071239 -1.443755 1.262363 -1.412496 0.096661 -0.392716 -0.058371 -1.337341 -0.061939 0.344235 -0.378148 -0.954651 0.694985 -0.644102 -0.108193 0.957502 -0.106111 1.538717 1.270330 0.228040 -0.607135 -1.043647 0.831736 0.368453 -0.024733 0.411441 0.466083 1.051344 1.110775 -1.930169 -0.539593 -1.024534 -0.699016 -0.543761 -0.834477 0.999032 -0.374900 -2.294909 1.177821 0.854162 0.420956 -0.436583 0.356096 -1.274345 -0.473477 1.201518 -0.434834 -0.057563 0.778456
my -1.064140 -0.283232 0.459838 -0.378036 2.188179 -0.170920 1.760147 0.754682 -0.436624 -0.336474 0.434618 0.229351 1.973813 -0.929809 -0.179159 -0.936893 1.583167 -1.232083 -1.184251 1.112329 -0.196244 -0.500397 -1.747397 -1.611990 -0.547871 -1.159004 -0.254063 -1.791570 -1.232873 2.035704 -1.232669 -1.441074 -1.022555 0.228839 -0.347640 0.476316 0.359557 0.023519 -0.556095 0.692767 0.271263 -0.815710 -1.349425 -0.997450 0.306720 0.155741 -0.342065 -0.993874 -0.417275 0.342074 -0.983022 1.346707 1.281641 0.889448 -0.392238 -0.176626 0.008161 0.161389 -2.685188 0.560672 -0.993857 -0.274557 -1.684010 -0.845632 -0.008504 0.542709 -0.169022 0.413892 0.325698 -0.024393 -0.573065 0.720988 -0.388597 -0.449253 1.180003 2.097302 0.322549 -0.591376 -1.188918 1.210806 -0.144473 -0.244017 -0.179246 -0.226812 -1.129925 0.442397 0.640136 -1.723167 1.236853 1.706926 0.372505 0.705354 0.526247 -0.028374 0.890546 -0.585744 2.026509 -0.691488 -1.529921 -1.146798 -1.171776 -0.938084 0.686257 0.189804 1.188711 -0.842839 1.049020 0.059869 -1.597720 0.821334 -0.326182 -0.972496 -1.414773 -0.819984 0.738027 0.037309 -1.004611 -0.515569 -0.282794 0.728678 0.044910 -0.289100 -0.481442 -1.049333 0.747870 0.710119 0.272330 -0.624094
him -1.215031 -0.582598 1.439895 0.349608 -0.503159 0.809182 -1.427896 0.612418 0.223430 -1.094810 -0.363388 -0.675609 1.986717 -1.294842 -0.400985 -1.739804 1.085104 0.805199 -1.770234 -0.360213 -0.354696 0.333347 2.126230 -0.469831 -0.197513 2.144977 -0.093295 -0.813935 0.554170 -0.575543 0.377894 -0.548004 0.842314 0.805987 -0.551757 0.082479 -0.681363 1.645861 0.185291 0.285596 -0.826376 0.015164 -0.637001 0.173703 0.878056 1.133617 -1.748475 1.354655 -0.798630 -0.009131 0.497486 0.799579 0.955068 1.421040 0.675228 -1.164144 -0.833310 0.647950 -2.355256 -2.057178 -0.446710 1.376934 1.322480 0.382556 0.685995 -0.443761 -1.698968 -0.654374 0.041612 -0.712514 -0.296621 1.629410 -1.648620 -1.328871 -0.555231 -0.857611 1.070691 0.637694 -1.842111 -0.511267 0.012881 -0.081885 0.948309 -0.248348 -0.937902 0.759700 0.736572 0.975334 -0.644310 -0.400001 -1.654667 1.284774 0.094032 -2.173963 0.790193 0.670149 -0.529996 0.254687 -0.932830 0.029243 -0.948333 0.394207 0.478520 0.909395 -0.031592 -0.078798 -0.214700 -0.129115 0.639358 0.665408 -0.478688 -0.636906 -0.553481 0.931480 -0.100410 -0.066100 0.666976 2.037584 0.581713 0.860256 1.403108 -0.701968 -1.354226 0.697074 1.613563 -0.123258 1.930698 -0.086114
have -0.924968 -2.274863 0.640142 0.990742 -1.331091 -1.050443 -1.019240 0.026777 0.030110 -0.146314 0.167479 -0.545226 0.267967 -1.113096 2.364978 0.137514 0.573596 0.043979 0.206305 2.461114 0.694953 1.097063 0.033026 -0.877562 0.824265 -2.410015 -0.174353 -0.556614 0.320616 -0.787379 2.056948 -2.913289 -0.117027 0.538147 0.077251 -0.430153 -0.467642 0.078395 0.109223 0.593258 -0.816145 0.183851 2.943749 -1.113444 -0.788802 -0.678956 -1.434064 0.186044 0.262070 -0.063370 -0.709237 0.000938 -0.882538 -1.098273 -0.691189 -0.738976 -0.234413 -1.898389 1.072510 -0.263316 -0.721283 -0.545404 -0.478422 0.460972 0.037680 1.409085 -1.445013 0.153282 0.109385 -0.814541 -1.748432 -2.098477 -2.575812 0.587868 -0.729678 -0.844419 -1.811952 -0.187464 -1.169589 -0.855186 -2.580476 0.945019 0.539259 -0.575886 -1.665771 0.657784 1.618199 -0.359400 -0.172381 0.126991 0.921588 0.056813 -0.518070 -0.673492 0.224102 0.411757 0.019251 -0.253672 -2.024059 1.763782 -0.070953 1.275695 -1.725601 -1.987094 -0.217975 0.979543 -0.091482 1.569197 1.270136 -0.057039 2.000896 0.387405 0.295060 1.478817 -2.547746 0.618366 -0.795188 0.611071 -0.698225 0.725605 -0.096653 -1.257456 -1.021178 0.010805 0.037627 -1.421972 0.018770 1.402403
by -0.697138 -0.397658 -0.496571 -0.971158 0.836495 0.096432 -1.042467 -0.588032 1.333873 1.211944 0.635621 -0.206482 0.360038 -0.965875 -2.884647 -1.599914 0.483243 0.341769 1.336195 -0.115846 -0.057061 0.835907 -0.180732 1.650930 0.514526 -0.676830 -0.723032 -0.383654 -0.615567 0.265835 0.055778 0.343931 0.594018 1.056625 1.239993 0.059110 -1.369032 1.337771 -0.723297 -0.538588 0.373026 0.319339 1.313948 -0.312702 -0.770599 -0.075419 0.176318 -0.398645 -0.154609 -1.821955 0.244659 1.148589 -0.635292 1.666580 0.250264 0.232605 0.786741 -0.898139 -0.584307 0.834236 0.618715 -0.460649 -0.096013 -0.634291 -0.150413 0.580942 -2.277822 0.590246 -0.817867 0.045577 0.126605 -1.708608 0.334228 -0.154880 1.040548 1.020214 0.722009 1.048117 0.995953 -1.250153 1.842239 -0.581366 1.060946 -0.477723 -0.159297 -1.134359 0.037038 0.449801 -1.356250 0.337979 -1.543235 -0.142595 1.634689 0.212576 0.808615 0.007708 -0.166099 0.948023 0.077969 0.473993 1.259331 -0.512499 0.565748 -1.634449 -0.463107 -0.354146 -0.306029 -1.342240 -0.591127 -0.438407 1.226906 0.674231 -0.694098 -1.430030 -1.883389 -1.541887 -0.139340 -0.808294 -0.190681 0.796178 -0.188172 0.012732 -1.572203 0.155871 0.235955 0.553716 -0.428127 0.648425
this -1.267158 1.095644 0.071176 -0.304505 0.171994 -0.637468 0.394053 -1.136205 -0.184072 -1.869669 1.296498 -0.680495 1.880447 0.331555 0.354396 -0.961384 0.446745 0.340399 -0.916094 0.034905 0.533803 0.629028 -0.016098 -2.271712 0.396671 -0.195369 -0.856546 -0.315016 1.377017 0.634343 -0.520859 -0.758183 0.271638 0.052789 0.415865 1.378017 0.741709 -0.530785 1.218908 -0.491076 0.210560 0.690667 -0.384153 2.189554 -0.215213 0.952473 1.453883 -0.246190 2.547460 -0.059728 -1.645585 -0.484426 0.653232 0.451928 0.559323 -1.333298 -1.333643 -0.104092 0.626141 0.185651 0.454135 0.675298 -0.981613 -0.215453 1.979240 -0.401937 0.560038 0.721862 -0.523563 -0.807571 1.733104 0.828290 -1.455370 0.436981 1.155067 -0.116151 0.355120 0.433483 1.259703 -1.789103 -1.261587 0.197991 -2.310274 -0.183739 -0.319321 0.619770 0.711735 -0.249063 -0.795405 -0.434341 -1.241853 -0.075075 -1.773822 -0.852657 -0.353308 0.139866 0.519215 -0.488604 -0.399682 -1.500324 -0.727400 1.373171 0.351784 0.710085 0.420113 -1.261141 -0.029649 2.378567 0.067621 -0.269958 -0.144861 -1.333267 -2.036248 0.004414 -0.955489 0.076382 0.256351 2.336900 -1.313063 1.236281 -1.028068 -0.790433 -0.119782 -0.868344 -0.883085 -1.869503 -2.390001 -1.310274
which -1.055834 -0.316784 0.107078 -0.081274 0.783931 0.857657 1.008013 -1.413805 1.203535 0.367618 -1.284811 -0.848939 0.565363 -0.819077 -0.776267 0.779793 -0.191883 -0.297752 -1.065706 0.323655 1.197865 0.540399 0.209758 0.449834 0.484527 0.651906 -1.224393 0.338405 -0.895830 -0.858132 -0.260220 1.087886 -0.418290 -1.485533 0.004020 1.190980 0.218150 -1.002816 0.936437 1.224227 -0.313534 0.257668 0.845215 -1.905048 2.003805 1.414119 2.034059 -1.337812 1.090605 1.399394 -0.547185 -0.570756 -1.494311 -1.515452 -0.535544 0.536115 -0.899821 -1.369129 -2.814953 -0.085269 -0.701215 -0.975393 0.950314 -1.281885 0.063738 0.805653 -0.375806 0.004554 0.862842 -1.213576 0.722328 0.080096 0.011334 -1.323360 -0.234916 0.203849 0.287153 -0.291392 -0.960608 -0.485151 0.940087 -0.106808 -0.369268 -1.679463 0.650232 0.024809 2.943704 -1.416912 0.443642 -0.965824 0.298137 -1.121700 1.986992 1.124747 -0.957114 -1.129545 0.081020 -0.379312 0.205491 1.441496 1.008183 0.576777 0.123615 1.616882 -2.665770 0.357879 0.148410 1.023958 -0.164038 -1.545256 -1.034189 -0.791232 -0.839400 -0.596203 -0.255577 -0.340275 -0.335131 -0.012811 -2.188501 -1.596412 -2.272035 -0.028915 -0.318672 -0.355244 -0.207898 -0.060828 -0.071259 1.133489
me -0.946326 -0.180446 0.613393 0.541686 0.067343 0.233796 -1.200626 -1.043281 0.390502 -2.886817 -1.016788 -0.700743 -0.346675 -0.227730 -0.524562 0.193505 -0.935974 -1.080488 -1.239948 0.295918 0.740932 -2.077779 -0.376171 -0.925682 -0.424941 0.996053 -0.898615 -0.668042 -1.825206 0.157138 -0.547982 0.109294 -1.095275 0.070624 -1.726698 -0.682028 0.909993 0.504839 -0.198577 1.458197 -0.222683 1.000814 -0.129067 0.114592 -0.566378 -0.277283 0.791278 0.130819 0.553979 -0.536129 2.046618 -0.382019 0.023456 1.412028 -0.228225 -0.035878 -0.169646 0.358331 -0.397525 -2.790448 0.231200 -0.289893 2.192851 1.543588 -0.567077 -0.297082 -0.214161 -0.531011 -1.698933 -0.498498 -1.421858 0.440571 -0.139947 0.542997 -0.505598 0.075335 0.269513 0.366918 -0.895382 -0.060902 -0.394039 0.399818 -0.185447 0.134419 -1.399611 0.431153 -0.249487 1.626463 -0.527534 -0.289752 -1.632945 1.516702 -0.155323 -1.379263 -0.570229 -0.589483 -0.035389 -0.295143 -0.253259 0.165400 -0.878486 0.893470 1.371784 0.157409 -0.078829 -0.742651 0.753728 -0.435206 1.966589 0.686105 -0.207113 -0.160354 0.442214 -0.703824 -1.230418 -0.454181 0.583820 0.642392 1.968626 -1.213493 -0.222756 -1.851505 -0.998680 -0.859082 -1.514588 -0.038396 1.522138 -0.078788
all -0.646447 1.395497 -3.891537 -0.997810 -0.520545 -0.066392 0.061141 1.352214 -0.587549 0.628363 -0.162150 1.145081 0.272552 0.473736 -0.185819 0.793222 -0.627081 -0.045877 -0.826608 1.423403 -0.503014 0.013448 0.271898 0.471433 -0.918227 0.478927 0.949580 0.559620 0.169155 0.709215 -0.545074 -0.652833 -0.172935 -0.790728 1.339116 1.599108 1.068824 -0.235092 -0.980123 0.503289 0.099378 0.537619 1.005385 -1.121643 1.013098 -0.969625 0.905943 -0.624594 -1.013614 -0.463082 0.436996 -0.400247 -0.078545 1.282228 -1.393529 -0.330657 -1.736994 0.253623 0.421017 -0.459610 0.207331 0.799894 0.907598 0.772408 -1.258796 -0.697786 -0.752738 -0.972270 1.486630 0.400635 1.828998 -0.750534 -0.697693 -1.621332 0.351962 -0.667290 1.071731 -0.521405 1.182592 -1.682131 -2.296346 1.734597 0.950295 0.295407 -0.057030 -0.114497 -0.589614 0.807576 -0.069837 0.115264 1.269756 -0.349986 0.338900 -0.328387 -0.945024 -0.904476 0.562219 -1.693365 -0.728227 -1.232887 -0.434154 0.020048 0.098140 0.691462 -0.809902 -0.473342 -0.840992 -0.556268 -0.143676 -0.064752 -1.174478 0.741135 -1.667324 1.642191 -0.176591 0.699345 2.121007 0.609022 -0.486182 -1.164099 1.778838 0.161035 0.229256 -1.057380 -0.261149 0.542146 1.167421 1.180248
said -0.341826 1.244759 -0.516379 -0.992029 1.060948 1.234747 0.069784 -1.828515 -0.170016 0.835470 1.255993 -0.322502 -0.143773 -1.678070 0.501343 0.671116 -0.088354 -0.598348 0.217185 0.000520 -1.328408 1.331092 -1.604392 0.160948 0.226889 0.167762 0.130744 1.441517 -0.120226 0.334761 -0.550530 -0.337922 0.268737 -1.284954 0.291069 0.534170 -0.378505 0.443243 0.169898 -1.005361 0.110260 -0.718805 0.846024 -0.550386 -0.287769 1.323872 0.344692 -0.116017 1.105193 1.137129 1.038479 -0.887260 -0.604063 0.222528 1.185598 1.430531 -0.820027 0.338511 1.315375 0.060700 -3.092940 0.277314 -1.347148 -0.229219 -0.510087 1.643161 -0.372704 0.243824 0.632583 0.500823 -0.435615 -0.930456 0.689253 0.355230 -0.079658 -0.478933 -0.222258 0.277145 0.304356 -0.248331 -0.442891 -0.146101 -1.442690 -0.169967 -0.526427 -0.080348 -0.001581 0.575008 -1.623565 -0.849520 0.500331 -1.687177 1.292916 0.283169 -1.570334 0.836755 -0.610038 -0.186432 -1.177069 -0.159731 1.758404 0.004538 0.088358 0.686907 0.653745 1.333018 0.588200 0.112191 0.427258 0.334803 -1.661342 -0.777245 1.349974 -2.062745 0.616761 1.484823 0.236702 0.011277 1.096070 0.192820 -3.398294 -1.862818 -0.281257 0.746410 -0.513143 0.937121 -2.348954 -0.574101
she -2.388929 0.380304 0.057834 -1.543787 -2.680159 -2.132000 -1.005365 -0.120924 2.626874 0.204990 -1.074006 -0.134061 2.099694 0.821048 -0.268902 -0.508754 0.887061 1.094701 -0.085829 0.915691 0.847718 -0.096298 -0.594897 -0.932039 2.292904 -1.135363 1.166826 1.087934 -2.099229 0.270839 0.378646 -0.757322 -1.488710 -0.052471 1.812237 0.487783 2.445710 -0.449262 0.798006 0.833542 -0.268745 -0.163483 -1.118250 0.609023 -0.974958 -0.166953 2.823298 0.092988 0.579226 -0.718187 -2.143700 1.381342 0.640271 -1.344073 -0.012090 0.032690 -1.024041 -0.248372 -0.340219 0.509309 -0.354316 0.151622 -1.050358 0.369567 0.075313 2.217522 0.740259 1.180508 0.264525 0.610414 -1.025390 0.760305 0.222818 0.750151 -1.166201 0.078364 0.640052 0.612423 0.909102 0.232600 -0.675315 -0.250250 -1.674134 -1.239559 0.377416 -0.209052 2.228402 1.143604 0.561152 0.453420 -0.068653 -1.107220 -0.428277 -0.371223 -0.247558 -0.107429 0.174019 0.713742 -0.460775 -3.869227 1.132608 -1.783766 0.749681 0.240593 0.368465 0.842269 0.762462 -1.105995 0.348094 -0.847155 0.140900 -0.394770 -0.020054 0.644796 -0.996097 -0.632730 0.248391 1.507600 -1.618131 -0.696688 -0.393682 -0.357547 -1.004941 -0.269564 1.672629 -1.689758 -0.474771 -0.161494
from 0.835108 -0.037955 -0.779457 -0.484611 1.074192 0.341042 -0.766345 0.155112 0.539007 -0.114210 -0.026276 0.485880 0.610082 0.746090 -1.059989 -1.341842 0.681844 1.540952 -0.603905 0.435932 -0.830473 0.347581 -0.021471 1.870691 -0.272251 -1.645932 0.205274 0.216902 0.876770 0.161513 0.275031 1.160077 0.209288 -0.309424 1.564692 -0.287247 0.657405 -0.431568 -3.202815 2.106495 0.869053 0.254916 -0.323041 1.683419 0.406109 1.567984 -1.237753 -0.335599 -1.206302 0.274486 -0.231150 1.063033 0.878403 -0.041014 0.785936 0.836812 1.320682 -0.925334 -1.075985 -0.087037 0.542214 -2.100810 -1.907897 0.829509 -1.562240 0.499458 -0.245895 0.071816 0.068648 1.123944 0.261267 -1.473083 -0.756229 -1.277162 1.054120 0.664464 0.622254 1.355217 0.983828 0.146359 0.482736 -0.637483 1.142835 0.098765 0.170580 -0.030187 0.386335 0.063186 -0.835055 0.602161 -1.283153 -0.046494 0.409322 -0.255026 1.600758 -1.150500 0.564857 -0.123630 -0.394297 1.973193 1.219941 0.261388 1.144525 1.302908 0.731573 1.712596 -1.260929 -0.879224 0.308026 1.149327 -0.189547 -0.924197 -1.059975 -0.256205 0.378137 0.130904 0.031598 0.113216 -0.242873 0.588940 1.069733 0.015797 0.919392 -0.394116 -0.178472 -0.845010 -0.093419 1.851156
or -0.617724 -0.744482 0.059651 -0.192397 0.067520 -1.059683 1.384452 -0.463189 1.305897 -0.275186 -0.052229 -0.227540 0.803365 0.537373 -0.017757 0.652018 -0.430116 0.370067 -1.916159 2.328349 0.216258 0.875381 -1.448961 0.301887 1.141921 -0.036998 -0.867734 1.060652 -0.987268 -0.161531 0.048456 0.521803 -0.579955 0.240851 0.294085 0.340221 0.411133 0.079154 0.371074 -1.580685 0.425709 0.908756 0.778022 0.038094 1.044271 -0.612443 -0.925628 -0.828551 1.548628 -0.074106 0.663038 1.212859 0.500758 -0.405538 -0.882050 2.098535 0.076195 -1.331320 0.522659 0.214256 -0.155173 -0.576824 0.103401 0.869820 -2.295731 -0.192641 -0.252663 0.163157 -1.064044 -0.604663 0.472577 0.324718 0.688439 -0.453297 0.066597 0.003563 0.202031 -0.169208 1.768991 0.458754 -0.650245 -1.178918 0.729426 -0.083903 -0.814246 -0.524185 0.163651 0.209733 -0.089890 -0.352435 -1.398139 0.192774 0.331676 0.274276 -1.195781 0.287457 1.152972 -0.595319 -0.055373 1.512721 -0.562741 1.509811 -0.423022 -1.368870 -0.371146 1.197212 2.316176 -1.713127 -0.151649 -1.090984 0.473602 0.084638 -2.090686 0.124905 0.647847 -1.161599 -0.016144 -0.165016 -0.605881 0.333137 -1.199749 0.389912 1.019279 0.084025 -0.551277 -0.861057 0.972183 0.280147
they -2.102471 -1.662988 -0.028636 -0.761078 -0.084242 -2.140163 -0.751823 0.589977 -0.901219 -1.321992 -0.413978 -1.453192 -1.221722 -0.078528 2.318899 0.029953 1.366944 3.383818 0.051240 0.802893 1.839310 0.297654 0.088808 0.451820 -0.759737 0.749253 0.178871 2.454587 -1.465095 -0.512789 -1.064129 0.276628 -0.638788 -0.360671 0.611941 -0.282717 2.031405 1.470380 -0.346871 -0.336011 -2.207461 1.166660 0.615439 -0.477998 0.782616 1.342396 0.932972 -0.297027 1.417052 0.655027 0.614050 0.491420 0.231219 0.200052 -0.678901 -0.994152 0.187228 0.773187 0.209961 1.109157 1.183976 -0.286620 -0.914037 -0.960695 0.264471 1.794158 0.018380 -0.942725 0.802181 -1.256501 0.119519 -0.198530 -0.080648 -0.041702 0.251901 -1.423762 -0.245168 -0.705926 -0.627505 1.235364 -0.805683 -1.018479 0.070445 3.002696 1.449275 0.368845 -0.773356 1.805788 0.504472 0.165746 1.197817 -0.856731 0.950217 -0.391253 0.531768 0.324757 -0.850400 1.902576 -0.653700 -0.832785 0.260550 -0.047092 0.737879 -0.482792 0.627817 2.311162 -0.339343 -0.409015 -0.586686 0.672987 1.151218 0.227187 1.437378 1.155067 -1.221047 -0.705457 -0.046317 -0.297582 1.530831 -0.428718 0.158141 -1.840916 0.368653 -1.129711 0.871758 0.227602 0.283651 0.657393
so -0.311620 0.595242 1.671204 0.501523 -1.057977 1.348115 -0.541558 1.817772 0.461763 0.692915 0.716263 -1.277118 0.034392 -1.771260 0.731825 0.603904 -1.835732 -0.126171 1.091328 0.807355 -1.076222 -0.681219 -0.311170 -0.960160 -1.789452 0.770437 -0.237963 0.386468 0.372448 -0.680036 -0.350758 0.124140 0.906196 -0.625035 -0.258952 -0.311669 0.385078 0.488030 0.314973 0.444632 0.746088 0.324700 -1.940440 -1.257288 0.432963 0.292532 0.254583 -0.563662 0.176180 0.608226 -0.333632 -0.525454 -0.206269 0.536298 -1.542418 0.094569 0.020019 -0.552191 -0.472058 0.673889 -1.357783 -1.389842 -0.007200 2.490977 1.195486 -1.510530 -1.528816 -1.200419 -2.178733 2.268263 0.063501 -0.773678 0.494180 0.278302 1.664192 2.108426 -0.999369 -0.303426 -0.679381 1.121644 -0.303413 0.562005 0.454077 0.174318 0.200686 1.791108 -0.521184 -0.356765 1.283260 -1.752900 0.721816 -0.410167 -0.376634 0.447050 1.095955 0.731644 -0.481680 0.149608 0.362195 0.629302 1.964281 -0.143199 0.547240 -0.975644 0.533995 0.199954 -1.102323 -0.819181 0.176804 0.154932 -0.403125 -0.843924 0.500702 -0.595556 1.552531 -1.075359 -0.702947 -0.171078 0.372829 -0.735597 0.306012 -2.776128 0.124844 -2.002028 -0.589404 -0.633094 -1.536139 0.551315
are -1.455031 -1.216558 -0.505943 2.081466 -1.490879 1.559709 -0.672683 1.086277 1.359455 -0.132454 0.789805 -1.317108 1.599226 0.935120 1.174577 0.904415 -0.804319 -1.017387 0.178835 -0.136312 0.390480 -0.976710 0.226622 0.089752 0.066369 -0.165920 -1.165283 2.205834 1.025223 0.279584 1.036411 -0.172412 -0.221367 -0.808231 -0.132493 1.302761 -0.359636 1.295918 0.230126 0.216642 -2.394296 0.056526 1.144328 0.463340 -1.625378 0.040375 -0.454912 2.183791 -0.920490 0.283032 0.698652 -1.770786 0.641320 0.141770 -0.862911 0.018100 -1.024579 -1.350461 1.325535 1.022900 -0.439311 1.157768 -1.710916 -0.232277 -1.023328 2.070906 -0.600118 -0.842457 -1.275636 2.312740 0.754469 -0.770056 -2.018545 1.255856 -0.535329 -0.440233 -0.720565 -0.004776 0.052635 -1.006619 -2.075861 -1.123439 0.822577 0.453683 0.117386 -1.513958 -0.892261 0.679684 -0.373327 0.180813 -1.121431 0.513381 1.428217 0.833517 -0.595889 0.057344 -0.691217 -0.643795 -1.567169 0.669872 -0.660519 0.955970 0.233779 -0.277097 -0.131606 -0.446829 -0.681555 0.245180 -1.199251 -0.826848 1.937371 1.557111 -2.051813 1.118224 0.057523 1.158095 -0.309384 -1.584157 0.392047 -1.494947 0.025114 -0.524118 0.690389 0.143316 0.240991 -0.392885 1.798180 -0.213700
one 1.494708 1.503043 -1.020098 -0.635182 1.360281 -0.276019 -1.375195 1.636929 -0.662819 -0.867240 1.191148 0.231980 1.167775 0.079936 -1.310754 0.499143 1.338603 -1.452029 -0.858655 -0.612343 -0.261775 1.050297 -1.529870 0.284587 1.182252 1.292310 0.946995 0.141430 0.180833 -0.301741 0.446480 -1.501756 -2.147538 0.172441 -0.709633 -0.495283 0.537296 -0.518364 -2.292349 0.054295 -0.169570 0.210996 -0.300485 0.924329 0.736650 -0.146927 -0.447724 -1.619141 -1.200198 -0.929811 -0.140442 0.334419 -0.903132 0.477206 -2.222788 0.455349 -0.775551 -0.593203 -0.645849 0.327540 0.236801 1.207776 0.535575 0.079128 -1.086621 -0.260555 -0.663818 1.110111 -1.061827 -1.209054 3.806737 2.476894 -1.684834 -0.747784 -0.872846 -0.124210 -0.945004 -1.098645 0.747700 -0.085416 0.615326 -0.714500 -0.491808 -0.165036 0.807046 0.914979 0.199548 -0.714562 0.191022 -0.531407 0.135173 -0.735882 -1.989788 -0.194517 -0.417097 0.613012 0.584097 0.703085 0.854904 -0.047611 -0.759357 0.523448 -0.968676 -1.484794 -1.437548 -0.008841 -0.099303 1.590131 -1.012563 1.330777 -1.134390 1.482257 0.947169 -0.024686 -2.536645 -0.134008 0.862357 -0.664054 0.363741 -1.065768 -1.497333 -0.454592 -0.505439 1.143624 0.070346 -1.046829 0.570585 1.706770
were 0.747593 -0.692223 -0.276499 -0.514999 -0.363253 -0.333235 0.325175 1.211364 1.184011 -0.368362 -0.116511 -2.154369 1.144787 -0.161967 -0.471167 0.931273 1.905761 -0.429613 -1.676914 -0.633132 -0.391749 -0.537448 -1.668210 -0.786687 0.828730 -0.860992 -0.333530 -0.368797 -1.287685 -1.700753 1.248127 -0.948448 2.086844 -1.717959 -0.211154 1.026155 -0.021027 1.541942 1.708482 1.121816 0.114247 -0.043476 -0.281017 0.710472 -0.099820 0.219051 -0.811994 2.047303 -0.406934 0.883550 0.195534 -0.831705 0.171592 -0.167503 0.134603 0.197106 -0.934289 -0.800597 0.663660 0.789333 -0.156847 -0.210990 -0.064225 1.300031 0.095352 1.700085 -1.772721 0.126097 -1.748265 0.596301 1.006289 -0.627204 -0.370316 0.490111 -0.232921 1.111056 -0.671064 -0.133284 -1.035445 -0.539348 -0.011381 -0.175943 -0.592739 1.196673 -0.495941 -0.350040 -0.596617 0.766097 -0.985059 -0.392479 -0.717001 0.674615 -1.063079 -0.147158 -0.738020 -1.032127 -0.356524 -0.077860 -0.826356 0.731444 -0.794865 -0.863800 0.645606 -0.542928 0.784138 0.173582 -1.141067 1.734963 0.412671 0.886528 1.132827 0.491612 -3.164702 0.433709 0.249931 1.222383 -1.163097 -1.344051 -0.082994 0.069045 1.379194 0.137865 0.618805 -0.138796 -0.268421 0.932159 -0.547919 1.494062
what 1.361802 0.677361 -0.371298 -1.531759 0.715296 -0.264934 0.837892 -0.716689 1.033115 -0.307316 -0.637566 0.939494 1.191811 -0.236728 0.222268 0.462240 0.289324 -0.419882 -0.731976 1.656011 -0.341785 -0.222188 -0.965904 0.427172 -1.237044 0.276237 -0.664647 -0.392462 0.609683 0.481589 -0.221087 1.041284 1.508556 -0.569359 -0.530181 1.012669 -1.323648 0.276744 -0.416297 1.175097 -0.871711 -2.003404 0.581700 -1.340263 0.488281 -1.367685 -0.522568 -1.169586 -0.798466 1.118292 0.093520 1.671605 -0.973991 0.407763 -1.904461 0.235738 -1.338562 -0.063063 -0.161073 -0.452642 1.162960 0.943915 0.333126 -0.255580 1.053110 -1.110373 0.564898 -0.929045 0.272342 1.987489 0.211944 1.110824 0.276344 -0.259122 0.029082 -0.264157 -2.741509 -1.317482 -0.799540 -0.769072 -1.185334 0.644437 -2.120193 -0.454368 0.212703 -0.643622 0.420796 -0.321153 1.319003 -0.208264 0.246395 -1.055936 1.328809 0.147551 0.564028 0.956888 -0.123092 0.545482 1.265595 -0.876015 1.284133 0.525593 1.474545 0.768255 -0.845440 -0.662167 0.400100 -1.061820 0.922638 -0.059250 0.144897 1.445070 1.390563 -0.166469 0.270131 -0.579511 0.402613 -1.495293 0.725229 0.390532 -2.016198 -2.969671 0.561026 -0.004442 -2.126638 -0.772089 0.437302 -0.517444
when 1.035709 2.186608 -1.035721 0.056424 -1.623173 1.426957 -1.341805 -1.869714 0.389949 -0.201895 0.943154 -0.196571 0.761845 -0.649599 -1.876763 -0.268016 -2.290845 1.141930 -0.769349 -1.260251 0.192748 0.670215 1.517834 1.323979 -1.464162 -2.535515 -1.036674 -0.793500 -0.236266 0.212325 -1.269185 1.170916 -0.083788 0.036213 0.039540 0.673888 -0.194904 1.179868 0.871502 1.116231 -0.584746 -1.794415 -0.416198 -0.362512 0.399023 0.412118 -1.302413 1.977761 0.348628 0.362662 -1.422190 0.197279 -0.749871 -0.162952 -0.611775 -0.437882 1.473254 -0.380479 -0.709580 -0.424800 0.499178 -0.148778 -0.578516 -0.738579 0.350953 0.856950 -2.092245 -0.169387 -0.828657 -0.009050 0.685918 -0.101260 0.316839 -1.464953 -0.304297 -1.754889 0.497154 -0.238613 1.111145 -1.630604 0.909583 -1.524025 -0.011386 0.271343 -0.640050 -1.410054 0.808169 -0.811481 -1.443199 -0.071063 0.275801 -1.214348 0.298584 -0.679643 0.038861 -0.482693 0.082823 0.324945 -0.754635 0.333372 1.121198 -1.307370 -0.603820 0.967775 1.139788 1.100374 -0.967981 0.833534 0.010126 -0.870970 -0.656479 0.014652 -0.638826 1.241670 -0.736749 0.116840 -0.104780 1.130106 0.267747 -0.048383 -0.427356 -0.647819 -1.247244 1.271758 -0.165076 0.384831 -0.346291 -0.579849
no -0.656277 1.637818 1.027825 -0.818081 1.890552 -1.648399 1.441374 -0.491308 -0.904990 -1.177067 1.436095 0.750175 1.436140 -0.917030 -0.919922 0.288740 -0.638544 1.939734 -0.372335 -1.017414 -0.364886 -0.530742 -0.254320 -1.559298 -3.176071 0.908779 0.392920 -0.691169 1.024864 0.001406 1.460797 -0.803028 -0.753749 -0.522481 -1.546299 0.161165 -0.482581 0.372645 -0.182490 -0.063162 0.280169 -0.902237 1.459212 -0.598571 1.392069 -1.361205 -0.169035 -1.314508 0.613013 -1.398546 -0.337086 0.216415 -0.875087 0.161439 -0.139445 1.033983 -0.175274 1.553047 0.589280 2.018845 -1.151938 -0.952812 1.847469 -0.438422 0.231630 1.678835 -0.908962 -0.182186 0.988275 0.365564 1.256613 1.043683 -0.383112 0.216773 -0.091354 1.277470 0.147067 0.541608 1.433775 -1.164927 0.338173 1.129115 1.361774 0.339374 0.658812 -1.290663 0.358364 0.069908 -1.023139 -1.186039 0.938334 1.681265 -1.223971 0.408594 0.751786 -1.431499 -0.196588 -0.302499 -0.680515 -1.308307 -1.466787 -0.709287 -0.019947 1.286463 -0.450012 0.956068 0.155989 0.715591 0.279890 -0.512318 1.359502 0.335603 0.648113 -0.283238 -0.575493 0.026973 -0.843262 -0.588021 -1.424312 0.272720 0.319405 -0.435057 -1.372010 -0.684401 -0.211340 -1.341324 1.460817 -0.948741
if 1.362753 -0.422099 -0.067322 -0.498810 -0.190114 1.498142 -1.545583 1.118229 0.811686 0.211763 0.765603 0.513700 -0.579307 1.534844 -0.673441 0.227377 -1.144823 0.784142 -0.471838 -0.588849 -1.034073 -0.993406 -1.272608 2.362805 -1.858759 -0.747875 -0.586296 0.307902 -0.756047 -0.924902 0.699409 1.059980 -1.932572 0.525596 -0.130773 1.734238 0.981066 0.185383 1.758687 -0.319614 -2.297238 0.425346 2.397047 0.552471 0.148749 -0.624801 0.782015 -0.158456 0.384288 2.483464 1.951030 1.233772 -2.220139 0.942471 1.049274 -2.327047 1.001702 1.321607 1.572996 1.103638 -0.979744 1.429951 -0.636972 -0.259940 0.580108 -0.993087 -0.684421 0.233959 1.336846 0.004773 0.480896 0.898912 -0.514551 0.781549 0.062767 1.319565 0.878692 -0.278144 -0.553131 -1.172714 -1.013879 -1.255219 -0.501865 0.120830 0.809411 -1.196216 1.226704 0.729895 -1.111965 -2.811089 -0.704388 0.456208 -0.029247 0.006156 -0.028622 -1.193637 -0.178155 0.578525 1.297333 -1.557612 -2.254323 -0.751986 -1.090304 1.790169 -0.061754 -0.441611 -0.345197 -0.375920 0.456722 -1.466345 0.596135 0.694074 -0.289031 1.469068 -0.947336 0.380150 0.649911 -2.234661 1.536530 0.468516 0.211008 -1.439888 -3.071661 0.647891 -0.224480 1.900543 0.029730 0.578516
there 1.053290 -0.053988 0.412270 0.169411 -1.638267 0.351521 1.273581 0.298424 -0.973452 0.199614 0.572099 -1.451022 -1.298629 -1.200540 0.542167 0.105860 -2.502220 0.046179 0.336509 0.843635 -0.725487 0.086082 -0.317301 1.022823 -1.495982 -0.463505 -0.680559 2.451585 -0.386039 -0.894372 -1.831787 -0.782976 -1.496159 0.977882 -0.516500 0.183518 0.028356 -0.034435 0.100874 -0.503335 0.357711 0.861524 0.070746 -1.321613 0.455731 1.403032 0.307494 -1.192368 -0.621524 -0.054118 0.084389 -0.074581 0.235507 -0.339707 -1.859977 1.505652 -0.262898 0.524243 0.047713 0.005245 1.107076 1.272007 -0.942853 1.025021 2.307678 0.419573 -0.218840 1.903457 0.105558 0.558527 0.094642 0.454738 -0.351412 -1.393838 -0.721377 0.738522 -1.418762 -0.841650 -0.688403 -0.246326 -1.335191 -0.346160 -0.020606 1.801096 1.225024 -0.649625 0.423804 -0.156838 0.142926 1.604840 -0.524904 0.811449 1.341471 0.567859 0.186938 -0.008239 0.184273 1.144369 0.043703 -0.611798 0.672645 -0.276741 0.449235 1.954726 -2.505726 1.029703 0.876969 -0.590334 -0.426679 0.554029 -0.441905 -1.641991 -1.039527 1.030501 0.323135 -0.057809 1.214408 0.388106 -1.248881 -0.233352 -0.905864 -1.626104 -0.796450 -0.017560 -0.681532 -0.081617 -0.276815 1.113808
who -0.882072 0.075410 -0.496497 -0.267830 -0.924287 -2.374637 1.167682 -0.978974 1.768965 -0.024398 -0.644577 -0.937621 -0.655108 -1.035726 0.690168 0.445673 -0.318911 1.474033 -0.826998 1.634060 1.296885 2.057636 0.831419 2.088740 -0.136536 0.224539 1.834523 -1.868412 0.292888 0.440596 1.208938 -0.615741 1.031222 1.895568 -1.262980 -0.011896 -0.935816 -0.047319 0.412380 -1.012565 -1.626772 -0.617896 -0.475841 -0.227625 0.476829 -0.777503 0.389104 -1.553705 -0.251613 1.976504 0.482870 2.199652 1.385419 -0.805566 2.151548 -0.400627 -1.373127 -1.687629 -0.429573 1.098288 0.342619 0.365954 -0.465005 0.235196 0.935763 0.005902 -0.656472 0.250678 0.199977 0.217922 0.925925 -0.760355 -0.686356 -0.827153 -1.794858 0.937169 -0.807351 -0.715655 -0.220135 -1.607361 -0.599240 0.030647 -1.096815 -1.673478 0.007459 -0.582415 1.532321 1.243412 0.333027 -0.397785 -0.599609 -0.570890 0.191858 0.802093 -1.728837 1.060029 2.583408 0.790525 1.634866 0.666521 2.084064 0.393709 1.813104 0.048330 -0.112497 1.543709 2.365120 0.545557 -0.657391 0.791114 0.371542 0.169635 1.210366 0.405501 0.445858 1.942631 -0.686993 0.100452 -0.991604 0.114528 1.471496 -0.751144 -1.048555 -1.009911 0.104707 0.517175 -0.899871 -0.160276
we -0.683752 0.238529 -0.978756 -0.160147 0.944145 -2.932821 -0.609547 -0.166403 -0.322756 -0.272350 -0.574469 -0.998626 -2.467308 -0.846495 -0.380365 -0.715238 -0.087363 0.063103 0.898085 0.453624 1.106919 -0.248521 -0.061778 1.232278 -0.300391 -0.870410 0.905109 1.354363 -1.436157 -0.715916 -1.685240 -0.250043 0.913652 -0.412378 0.546875 1.382215 0.568083 1.778244 0.690446 1.220890 -1.109281 1.929726 -1.099456 -0.160935 0.476029 0.575182 -0.262308 0.734419 -1.508078 0.870464 0.288132 -0.784066 -0.503550 0.229367 -1.692353 -0.855427 0.779087 -0.823426 0.139571 1.775448 1.488321 0.896606 -0.364842 -1.363208 0.696157 -0.276514 -3.154446 -1.298190 -0.059868 -0.437226 -0.731526 1.141582 -1.122190 0.153440 0.095139 -1.249521 -0.801209 -2.197983 -0.500693 0.687644 -0.443565 -0.037330 0.471723 0.840032 -0.393887 0.119257 -0.462621 1.078559 0.370421 1.126344 2.173821 -2.396489 0.997606 0.103533 -0.282641 -1.050905 -0.436558 0.445828 0.559079 -2.486146 -0.506733 -1.756106 2.304479 0.538124 -1.496131 2.164000 1.551248 0.148624 0.385760 -1.485246 0.797194 -0.954874 0.069723 0.417279 -0.718524 -1.671071 -1.543446 -0.462767 -0.808065 0.700783 0.250168 -0.515064 -2.702669 -1.041313 0.727274 1.130469 -1.317202 1.427858
will -0.182116 0.738765 0.267338 -0.900738 0.387216 0.193771 -0.979706 0.845183 -0.277765 -1.403515 0.306544 0.221250 1.253592 -0.717612 -0.789545 1.242742 -0.714952 0.208286 -1.275709 -0.636701 0.317054 0.734638 -0.963848 -0.126936 0.422770 -0.780424 1.098884 1.678009 0.606176 2.079680 -0.690350 -0.264974 0.728417 -1.035964 -0.917869 0.561743 0.182723 1.812305 -1.183108 -0.754441 1.037078 0.557234 0.525881 1.713797 -0.458397 0.824780 0.635305 0.974937 0.271471 0.644008 -0.938878 -2.822534 0.617531 0.094993 0.263013 0.082567 0.173831 -1.301929 -0.973075 -0.760490 0.868352 0.757808 0.803552 1.097808 0.075978 -1.020615 -0.405044 0.588724 -0.712281 1.435232 -0.301534 -0.274882 -1.048035 -0.200559 1.087666 0.590679 0.549413 -2.063972 0.724007 -0.435429 -0.463647 -0.487854 2.980171 0.500236 -1.445798 -0.897171 0.430460 -1.946852 0.560977 -0.764427 0.772415 1.040039 -1.520850 -1.154418 0.338801 -0.611176 -1.310395 -0.157257 -1.621411 -0.248456 -1.219296 2.059245 1.314181 1.072884 -0.527828 -0.024403 0.072172 -0.462963 0.161089 -2.814761 0.565442 0.786497 -0.799526 0.385067 -1.172269 0.797782 -0.893969 0.730421 -0.248440 -0.013844 -0.051932 -0.119967 -0.607493 -0.303797 0.756765 0.767085 -0.428868 -0.055933
an -0.572729 -2.359718 -1.161926 -0.987064 0.833082 0.441387 -1.368150 -0.807887 -1.339943 0.939127 0.113092 -0.593162 0.916871 -0.168627 1.268364 1.729056 1.254459 0.591809 -0.509941 -0.067697 0.230805 -0.470921 -1.167035 -0.157090 -2.419704 -1.063316 -1.152042 -0.726674 -0.348538 1.431675 1.399283 0.530116 0.142198 -1.560463 0.561213 2.691740 -0.310781 0.078365 0.182383 -1.018127 -1.819742 -0.343209 0.341638 0.731024 0.749521 0.188632 -1.938405 1.783872 -0.082173 -0.588282 -0.456906 -1.498039 2.381046 1.633463 -2.378126 0.650873 -1.280737 0.703184 -0.904788 -0.921286 1.412885 1.390367 -0.219278 0.310823 0.517432 -2.120183 -0.206542 0.188335 -0.632504 1.076443 1.562611 0.920919 1.970681 -1.216570 -0.531889 1.030248 0.347792 0.893580 -0.200599 0.679948 -0.688285 1.113764 0.040231 0.000992 2.069260 -0.612342 1.572590 1.268660 -0.534915 -0.196384 0.653666 1.147317 -1.693945 0.338496 0.024700 0.363801 -0.302267 -0.916843 -2.325866 -1.276156 1.560727 -0.619424 -1.078244 -0.834123 -0.069207 -0.826236 1.824313 0.549585 -1.703152 -0.139407 -0.037670 0.054943 0.099229 -0.575079 -0.484165 1.342736 -0.326073 0.723902 0.186392 -1.857615 0.210411 0.474757 -0.939550 -1.147350 -1.794292 -3.082165 0.375079 0.396663
then 0.364091 0.269019 -1.006625 -0.049966 -0.992840 -0.129260 -0.294603 -0.518996 -0.643840 -0.476953 0.250135 -0.969284 0.762223 0.218067 1.252436 -0.836542 0.785588 0.199515 -0.949617 -1.699085 -1.148872 2.115539 -0.175591 2.133972 0.458983 -0.100990 0.830033 0.027208 -0.809855 -0.121300 -2.024514 -0.075175 1.157727 0.475295 -0.181013 1.392026 0.540234 1.024147 1.525314 0.767340 -0.944643 0.891718 -1.076975 -1.230316 -0.460289 -1.076678 0.701142 0.794678 -1.387370 1.184616 -1.130830 1.195915 -0.423747 -0.184781 0.794220 1.664009 1.341406 0.099273 -0.809966 0.486273 -0.458548 -0.366429 0.442970 0.305555 -0.541050 -1.165494 -2.560322 -0.768296 0.856363 0.963988 -1.026898 -0.262927 -0.128459 0.280270 -0.394535 -0.656470 -0.971670 0.435003 0.480224 -0.983397 0.091334 -1.378846 -0.074237 -1.336874 -0.252452 -0.081806 0.432904 -0.243534 0.634482 -1.739118 -0.081230 0.007342 0.708800 1.095094 -0.531445 0.337682 1.596044 -0.625741 -1.473508 -1.316539 0.641882 -0.149629 -0.819832 -0.893540 1.603678 -0.813386 0.249125 -0.441446 -0.279794 -0.220315 1.667872 0.437933 2.056959 0.346104 0.601213 -0.749481 1.321161 1.252874 -1.412700 -0.198294 -0.187400 -1.609247 0.250096 -0.866984 -0.805370 -1.385395 -0.563858 1.190681
their -1.636800 -0.359200 -0.347401 -1.038195 1.435146 0.757294 0.844204 -0.292348 -0.665293 -0.203544 -0.946835 -0.331023 -0.635590 -0.900789 -1.557499 -1.889313 0.415456 -0.890602 -0.254470 1.724105 -0.903598 -1.355776 -0.662217 0.440077 -0.122480 0.055421 -1.710552 1.127280 0.372713 0.350603 0.409816 1.210394 -1.558445 -0.579966 0.217837 0.048488 -1.675202 0.040947 -0.409402 -0.842887 -1.255406 0.661259 -1.021460 1.237847 1.251518 -0.286298 0.287609 -0.574805 0.384670 0.253486 0.376685 0.187029 -0.888385 0.311355 -1.692331 1.390233 0.547519 1.263502 -1.222043 0.331064 -0.498077 1.287825 0.016704 -1.435627 -0.635701 -1.834268 -1.163532 -0.568997 0.731585 -1.325965 -0.034317 1.479139 -1.058419 -0.141233 0.711979 -0.135155 -0.888627 -2.537650 0.073429 -0.471928 -1.448324 -1.052082 -0.016027 -0.270475 0.077688 0.731091 -0.009146 -0.702963 1.048190 -0.864891 -1.079054 1.150494 -1.160175 0.258674 0.588134 0.940983 2.077084 0.498207 -0.972988 0.333736 0.323437 -1.158291 0.760248 0.396270 -0.142182 1.864638 0.749026 0.314551 -1.123927 -0.315523 0.070264 -1.152837 -1.458498 -0.458430 0.203218 1.124025 -0.463081 0.885846 -0.127447 -0.118808 1.456942 0.052086 0.416832 1.467996 0.815667 -0.226450 -0.106681 0.341455
would -0.600153 1.524622 -2.568466 -0.520840 0.898367 0.291862 -0.729824 1.380302 1.186446 -1.134777 0.239054 -0.126917 0.650060 -0.872000 -1.282924 0.206528 -1.430047 -0.101000 0.090470 -0.723965 -0.448343 0.079762 -1.731978 -0.403471 -0.162173 -1.613083 0.339435 -0.522629 -0.886001 1.808867 0.441731 0.328410 1.379892 0.653069 -0.394944 -0.161621 -0.024909 0.860420 1.519020 -0.769711 -1.320357 1.071353 -0.653530 0.800938 1.819941 2.256447 -0.448883 -0.457006 -0.457018 0.593228 -0.088071 -0.431746 0.154031 -0.729394 1.119195 -0.013686 -0.528965 0.307494 -0.073038 -0.432103 -0.101893 -0.072891 0.832013 0.304432 -1.012533 0.590817 -1.335617 0.708182 1.597153 -0.516358 0.356485 -0.279769 -0.895157 -2.279307 -0.730915 2.099954 0.569833 -0.386197 -0.117407 -0.779983 0.158325 -2.125183 3.629313 0.341788 -0.081235 -0.422493 -0.061512 1.023027 1.440949 -0.632078 -0.231414 0.969262 -0.678398 0.952659 -1.454895 -0.209625 0.040696 1.610686 0.533683 -1.169870 -0.668314 0.781888 1.266763 1.449659 0.408665 0.729551 0.591300 -3.321218 0.152863 0.242916 -0.749006 1.400942 0.402188 -0.201473 0.075270 1.502233 -2.266803 -0.572731 0.484435 -2.070919 0.291649 1.509703 -0.617593 -0.550237 0.478030 -0.018503 -0.229905 0.567243
them -1.545509 -0.787954 -1.341750 -0.012924 -0.157056 -0.550897 -0.448739 -0.079015 0.436778 -0.955360 0.631834 -0.047965 0.825690 -0.906607 0.547206 -1.073478 1.101310 -0.625280 0.118240 -0.045978 0.000307 -0.803103 -0.181157 1.079074 -0.151161 1.134792 2.315503 -0.372718 -0.252054 -0.099273 -0.021515 0.391178 0.644457 0.368832 0.522692 -0.959021 -0.171948 1.048180 -1.127428 0.847197 0.628655 0.719586 -0.040135 0.243623 -0.858469 0.510911 -0.758020 0.228775 0.207960 1.416581 1.482424 0.285089 0.001506 -0.205790 -0.354529 -0.093632 -1.910207 1.278682 1.213273 -0.534663 0.108705 2.459918 1.943500 -0.760650 1.456790 -0.932130 0.637752 -1.979359 -1.821404 0.570678 0.294642 0.383302 0.569064 -1.011974 1.231307 -0.950947 -0.416219 1.768014 -1.557971 -0.230887 -0.624402 -1.424026 -0.406178 -0.095944 0.290510 0.981739 -0.395018 0.566989 -2.120184 -2.026182 -1.893236 1.133338 0.695262 -1.393334 0.269337 -1.601985 0.226886 0.216405 -1.752997 0.422624 0.189922 -1.335317 0.577552 0.928137 -0.330059 0.223620 1.140617 1.072595 -1.150910 0.610867 0.850941 0.889397 -0.281503 0.324007 -0.729557 -1.690399 0.603429 0.489129 0.242126 -1.322670 -0.719870 -0.353373 -1.407356 -0.600507 -0.850012 1.036010 1.845519 -0.380863
been -0.535070 0.960710 2.148667 -2.395076 -0.082235 1.020210 -1.031178 0.337824 2.429220 -0.135280 0.758719 -0.939641 3.573091 1.356431 -0.267347 -0.846296 0.138189 0.820459 0.680181 2.358747 2.186139 -0.743086 0.335790 -0.053212 0.539603 -0.568855 1.719807 0.805778 0.990384 0.094101 1.898796 1.244774 0.720724 -0.156422 -0.151058 0.160443 -1.246024 0.451569 0.306814 1.092932 0.454095 -0.314286 0.404658 0.534343 0.673828 -0.122245 0.694712 0.840610 1.729109 -1.832030 -0.297885 -0.748635 -0.714171 0.011744 0.160981 -0.518756 0.503376 -0.385279 -0.745721 1.141717 0.178598 -0.290077 0.724895 -0.883133 -1.244937 -0.597725 -3.108146 -0.357769 -0.507783 0.501979 -0.034580 -0.293197 -0.646138 0.599670 -0.011780 1.264198 -1.595924 -0.145500 -0.680849 1.009030 0.233999 0.412607 -1.360811 -0.749707 -1.489349 0.529965 -1.121088 2.045240 -0.364430 -0.840113 -0.374400 -0.425182 -0.428407 -0.934029 -1.094065 -0.794611 -0.950516 -0.573752 -3.495036 0.298082 0.104459 0.084678 0.654952 -2.089164 -1.057995 1.991701 0.486046 0.567515 1.286803 -0.111794 1.671145 0.140061 -0.602938 -0.639495 -0.104267 2.301738 2.029474 0.504276 -1.219394 1.377635 1.408298 1.368776 0.742468 0.180187 -0.040113 1.612959 0.538402 -1.047415
do -1.469476 0.493546 -0.732807 0.960339 -0.250480 -0.175302 -0.703685 0.228711 -0.102931 -1.587845 1.177953 -1.309485 0.433845 1.551919 1.299914 0.332878 0.546484 -1.760716 -1.008050 -0.574717 -0.517645 0.737452 -0.382179 0.793097 0.172021 -1.085946 -1.351764 0.933967 0.494006 -0.240086 1.489540 -0.917799 0.549186 0.420996 -1.408914 -1.187194 -0.591365 -0.198171 1.249407 -0.127994 0.125175 -0.055483 0.129343 0.997784 1.978107 1.274894 -0.925702 0.719480 0.406903 -0.033583 -0.602352 -0.447767 0.229885 0.576204 -0.941099 -0.271577 -0.549128 -1.739013 0.329101 -0.997260 -0.349452 1.192210 0.207506 1.460322 0.789527 3.812368 -2.083122 1.880139 1.084367 -0.976067 1.023592 1.458351 -0.852870 -1.054604 0.160329 -0.855202 -0.601602 -0.210235 0.084486 -0.291913 0.687426 -0.845164 -1.064069 -0.193253 -1.502445 0.741569 -0.083644 -0.708821 -0.255410 -1.137780 0.574455 -0.321103 1.601736 1.010491 -0.120424 0.314811 -0.475161 0.393096 -0.676183 -0.215109 -1.197930 -0.091368 1.010980 -0.144488 -0.603436 -0.654347 -1.311613 0.379172 0.565452 -0.283733 -0.232089 1.178093 1.072546 0.306644 1.709305 -0.424504 -1.776702 1.264323 -0.418979 -0.250694 1.149238 0.362011 -0.097954 0.544688 0.169342 -1.935170 -1.276870 1.484540
your -2.313428 0.356002 -0.912605 -0.842543 0.984744 0.257878 0.486931 1.564217 -1.514705 0.725204 -0.214993 -0.876083 1.375547 -1.706621 -0.016536 -0.698455 0.115764 -0.355572 -0.220851 -0.143084 -0.792700 -0.995583 -1.741945 -0.382931 0.647357 0.854197 0.600798 0.300367 -0.808272 1.981051 0.178189 -0.009051 1.220409 0.402207 0.037087 -2.031175 -0.022042 -0.362898 0.505953 0.789062 -0.315908 -0.591740 1.415373 -0.909046 -1.084033 -0.579973 -0.710740 -1.217507 0.145300 -0.427473 -1.125633 0.228797 -0.972605 0.560513 -0.651792 1.575487 -1.013557 0.664317 -1.479168 0.488259 1.663328 0.222661 -0.983112 -0.560395 -0.126469 0.997973 0.265191 0.037319 0.675081 -0.406355 -0.995011 2.369636 0.253734 -0.151544 -0.071074 0.323999 2.247555 -0.153082 1.411056 0.532696 -2.256317 -0.424571 -0.142908 1.911486 -0.666427 1.282523 -0.337251 0.597016 0.424842 0.590878 0.042287 0.362449 0.532721 0.524599 1.077570 -0.464363 0.760078 -0.069569 0.513886 -0.754057 0.028982 0.431957 2.085734 1.256027 -0.210124 -0.051588 1.704333 1.285485 -1.285640 -0.714587 2.723954 0.393623 -1.404788 -0.259923 0.233808 0.233098 -0.113458 -1.559418 -0.107740 -0.098039 -0.177415 -0.518489 -0.650941 0.171737 0.156153 -0.077167 1.136621 -3.100021
now 1.308847 1.460611 0.079181 -0.149208 0.164583 -1.613704 1.020389 -1.345321 -0.582911 -1.045208 0.623165 0.569021 0.910991 0.511386 0.277620 0.909959 -0.821108 1.592588 -1.560506 0.415838 0.466603 0.076417 0.792506 0.039408 0.148558 -1.125225 -0.330325 1.778613 -0.186354 0.626439 -0.950530 -0.452273 0.377321 -1.103047 0.742368 -0.485002 -0.041809 0.874421 -0.460864 0.477336 -0.524159 0.640040 -0.239374 -0.997698 -0.128477 1.299975 1.018578 -0.034894 -0.177127 0.013215 0.359515 1.154233 -1.930668 0.038676 -0.332709 0.488025 -0.394472 0.386746 -1.766665 -0.030318 -0.150941 1.727674 -0.646190 1.380340 -1.938954 -0.227339 0.348832 1.422824 -0.006789 1.376205 1.332597 -0.962700 1.187309 0.549824 -1.277135 -0.330977 -2.453321 -0.275948 -1.131730 -0.036107 0.182144 0.083761 -1.136886 0.338951 -0.833427 0.566071 0.464749 -0.212591 1.567194 -1.098611 -0.568132 -0.500845 0.426435 0.660200 -0.586984 -1.125287 0.716383 -0.131541 -0.653057 -0.419411 -0.278996 0.698753 -0.586755 -0.463707 1.207898 0.726702 0.789330 -0.630772 -0.281766 0.590752 0.060029 0.940442 -0.413491 0.326259 -0.722921 0.840568 0.122350 -0.016659 0.345825 -0.747586 0.220936 -1.563654 -0.476398 -1.126662 -1.231597 -0.651196 0.933715 -0.687189
out 0.081682 -1.121754 -0.359892 0.119083 -0.789675 -0.032215 -0.386546 0.177636 0.426303 -0.531769 -0.449803 -1.768565 -0.715897 -0.562363 -0.306081 -0.448650 1.073482 0.173992 -0.591726 1.364235 -0.932084 -1.307825 -1.365352 -0.432374 -1.696964 -0.042036 0.682689 2.443494 0.381997 -0.625644 -0.358642 0.328605 1.882406 0.087311 0.113677 -1.252686 0.733742 -1.952878 -1.296777 1.047116 0.327018 0.245126 -0.759828 2.020106 -0.144598 1.585689 0.913459 -0.860807 0.780305 0.141246 -1.034274 -0.322422 1.798977 0.290617 -0.468785 0.809561 0.705378 0.929545 -0.885475 -0.670921 0.456489 1.218125 0.722813 -1.937982 0.647969 0.251415 -0.663710 -1.040259 -0.281422 0.905639 0.755617 -0.580534 -0.611561 -1.634529 0.844569 0.653957 -0.474745 -1.537422 -0.190771 -0.587804 0.073962 1.287537 -1.230450 0.258569 0.880540 0.731149 0.680782 -0.937314 -2.663794 -0.672255 -2.094581 -0.201384 1.381256 -0.498229 0.413662 1.921947 -0.257486 -0.552880 1.664342 0.488339 -0.405294 -0.552896 -1.906201 -1.091061 1.015232 1.664171 0.456776 -0.402860 1.522589 0.337758 -0.375868 1.271292 -0.635432 0.368297 0.337657 1.230214 -0.720254 -0.606987 -0.592411 -0.507626 -0.148473 0.792544 -0.743443 0.216098 0.346578 0.885635 1.045722 1.534200
more -0.342972 0.328885 2.129992 0.367445 -1.334116 2.104933 -0.447839 1.045585 -1.172726 -0.881443 2.492135 -0.703326 0.917080 -1.287765 0.662137 -1.410546 1.091751 0.038760 -0.579059 -0.080307 0.025644 0.369574 -1.568828 0.952513 -2.011850 -0.379602 0.777893 1.760249 0.951127 -0.564233 1.222907 0.275614 1.179153 -1.058599 -0.189223 -0.498992 -0.504917 0.529863 -0.013403 1.112504 -1.226529 -0.270407 1.397214 -0.351993 1.978632 -0.714188 -1.568787 -1.076993 1.135402 0.074010 1.416868 0.749812 0.522360 0.638598 0.368842 -1.576593 -0.832666 -0.160150 0.034051 -0.356430 -0.324679 -0.878897 1.230009 0.875167 0.576880 0.075172 0.387062 0.750609 0.495679 -0.135209 -1.773989 1.987997 0.721361 1.264434 0.830085 -0.871845 0.469056 -0.837451 0.003651 -0.126598 -0.007949 -0.951110 0.178262 -0.836223 0.900654 -0.711366 0.038099 -0.870979 -1.304666 -0.788032 -0.418236 0.592239 -1.733287 0.022835 0.177096 -0.883618 0.381180 0.247443 0.440290 -0.207424 -0.727705 -0.121036 1.959905 -0.347233 0.781194 1.364900 0.366265 0.175471 -0.183024 0.916534 0.320469 -1.042744 -0.448530 0.026526 -0.407825 1.002349 -1.030775 -0.622180 0.316611 -0.237135 -1.775035 -1.087914 0.001866 -0.822101 2.033955 -0.127645 -0.165329 1.281459
up 0.519537 0.649124 -0.948482 1.709544 -1.131210 1.286434 1.070874 -2.566622 0.894051 -0.539643 1.044221 -1.438373 -1.685036 -0.956844 0.422308 -0.582039 0.331941 -1.040647 -0.645111 1.845409 -0.614432 -0.685388 0.406994 -0.036706 -0.200843 1.059425 0.143238 0.306771 -1.024031 -1.243598 -0.301712 1.928464 0.393420 -0.375218 -0.857975 -0.124619 0.543298 0.135290 0.727346 0.413456 0.434565 1.791672 -0.767072 0.805267 0.327789 0.919237 0.114676 -0.207968 0.655244 -0.792037 2.189227 -2.193191 -0.250398 0.941804 0.296175 -0.166556 0.675910 -0.115341 -0.149330 -0.471057 0.846367 0.509572 -0.739643 -0.344178 0.348825 1.910651 0.472878 -2.257006 -0.471042 2.129570 1.712694 -0.495520 -0.729075 1.200634 -0.070634 0.685149 -0.868583 -0.526194 -1.616938 -2.147189 -1.268964 0.571028 -1.236298 -1.266266 -0.943442 1.042601 0.774408 0.692153 0.226477 0.539312 -0.585924 1.525834 -0.510731 -1.002321 0.003745 1.737048 1.271058 -0.452532 -0.035572 0.494795 0.066881 0.145064 -1.572095 -1.079348 2.203836 1.853061 -1.153244 -1.281691 0.041570 0.703848 -1.397066 0.567986 -0.598220 -1.123819 0.165363 0.095190 -0.335440 -1.008132 -0.969634 -0.285413 -0.402386 1.218075 -1.558449 0.643676 0.999114 -0.227819 -0.827709 0.652876
man -1.920776 -0.758474 -0.986421 0.333866 -0.594906 -1.107887 0.484786 0.944135 0.491821 -1.383421 2.755829 1.726425 -0.412692 0.527440 -0.099578 -0.713377 0.821173 -0.385305 1.573684 0.033118 -0.916447 0.976053 0.820548 0.625850 0.313071 -0.867796 0.594916 0.654485 1.336697 -0.352469 1.869134 -0.667611 -1.908909 -2.147063 -0.389265 1.192782 1.421101 -1.767933 0.492778 0.044303 -1.411450 0.589493 0.826997 -0.803453 -0.088916 1.931138 -0.053490 0.243362 0.520168 -1.705504 0.384593 -1.611442 0.349074 0.039734 -1.708099 -0.493809 -0.645090 -0.481735 1.368691 -0.474945 0.322347 -0.973429 0.832253 -0.933700 0.919958 -0.161162 0.514533 -0.592152 -0.655140 -1.084233 0.192843 0.987582 -1.814512 -1.438339 0.123531 -0.313611 -0.332840 -0.671698 -0.926150 0.687988 1.272778 0.590143 -1.368135 -1.713258 -0.063362 0.852192 1.335623 -0.542562 0.940682 0.464956 -0.500687 -0.833298 -1.022805 -0.928882 -0.584139 -1.352396 1.287587 0.653474 -0.781559 0.529435 0.489721 0.172845 -0.719791 -0.595306 -0.484101 0.606566 -0.064763 -1.680639 -1.287629 -0.228873 0.354360 2.472679 -0.716389 1.751040 -1.150672 0.859269 -0.163413 -0.570624 0.170012 1.220264 -2.015122 0.297312 -1.594001 -0.918406 -0.804461 1.924927 -0.414756 -0.626085
into -0.757955 -0.386949 0.174300 -1.150059 -0.748116 -1.197054 0.338961 -0.815648 -1.465654 2.358673 0.338482 -2.136300 -0.704617 -0.003923 -1.142073 0.345687 0.282866 0.182989 1.056693 -2.179429 -1.069138 -1.464839 0.917856 0.569570 1.469525 -3.046170 -0.024947 -0.606535 -0.784232 0.502002 -0.849091 1.709000 1.220812 -1.079862 0.539525 0.640725 -0.989967 -0.366836 -0.777593 0.232929 0.697391 0.082726 -0.118178 1.567023 -0.477560 0.642877 -0.911400 0.343597 0.555935 -1.134621 2.269462 0.855456 -0.909495 0.231762 -0.072691 -0.592511 0.237837 -1.905315 -0.448374 -0.677389 0.886432 -1.782388 0.044342 0.006474 -0.096627 -1.410173 0.486739 0.824240 -0.779191 0.855973 0.853110 -0.303600 -1.623863 0.352032 -0.380983 1.069262 1.879520 -0.084482 0.153922 -0.414764 0.579796 0.219345 -1.479109 0.502908 1.363067 1.111920 0.143122 1.945560 0.112673 -1.355158 -0.424689 1.414845 -0.213670 -0.139116 -2.024403 1.555332 -1.792812 0.689630 0.528752 1.242984 -1.759664 1.293426 -0.804592 0.437676 -0.231260 2.059450 2.433008 -0.022469 -0.471616 1.457764 0.989513 0.781630 -0.174641 -0.950097 -0.410633 -0.405755 -1.105250 0.404171 -1.180939 -0.411928 0.618329 -1.529234 0.063489 -2.328681 0.723659 0.364586 0.420092 0.853905
some -1.609982 -0.233356 0.138288 -1.717755 1.062008 0.611064 -1.864340 -0.445323 0.006585 -0.430093 -0.284021 0.014742 -0.160376 0.503056 -0.807298 -0.141986 0.014193 -0.256839 1.187580 0.751884 0.439312 1.276475 1.128426 -0.163590 -1.590113 -0.989367 0.020341 -1.777864 -0.510791 -0.234904 0.219424 -1.158759 0.609977 -1.185276 0.912587 0.552356 -0.274461 0.157229 0.340049 0.340960 1.245294 1.152562 0.517781 -1.303691 1.260499 0.769850 -1.038062 -0.687137 -1.747392 0.997318 -0.641792 -0.840906 0.352943 1.737602 -2.296695 0.323994 -0.374143 0.260034 0.065648 1.167633 1.064817 -0.132587 -0.064345 -0.319379 -0.857077 -1.272090 -0.735930 -0.972203 -0.426396 -1.245304 1.694327 0.525203 -0.742346 1.450491 1.924507 0.956979 0.224457 0.442415 3.603301 0.047897 0.717050 -1.211510 0.161603 -1.377981 1.754233 0.508877 0.141913 -2.145459 -0.447885 -0.740474 -0.759461 -0.492523 -1.267848 -0.849245 0.340499 0.944676 0.095613 -0.437274 -1.735881 0.178073 -0.302111 -1.649685 0.208109 0.457160 -0.575736 -0.006419 1.428701 0.302618 -0.158044 -1.567774 -0.825540 1.401087 0.140191 1.353012 0.149665 1.106516 -1.780872 0.574661 -0.231380 1.527282 2.058952 0.784848 -1.432279 -0.863654 -1.176397 -0.681897 -0.745636 -1.200449
could 1.339556 -0.787190 -0.542408 -0.657045 0.930411 -0.008790 -2.235075 -1.654171 -0.791170 -3.396082 -1.489105 1.215416 1.985893 0.644272 -2.190610 0.687150 -0.417327 0.012571 0.527619 -0.915842 0.480692 -0.597314 -1.119503 0.074225 -0.620885 -0.244780 -0.139313 1.114839 -0.180974 -0.972520 1.286756 1.695538 1.688053 -0.584890 0.183844 -0.550407 1.952258 1.112051 -0.079054 -1.622274 -0.133383 0.205959 -0.518468 -0.108402 0.443529 -0.998750 0.324139 -0.304406 0.146477 0.498507 -1.479034 -0.860482 1.617503 -2.184819 0.160838 0.513406 0.258823 1.506452 0.279791 0.029681 -0.241765 0.216385 0.180646 -1.054421 -2.323448 0.011972 -0.798388 -0.991258 1.042311 0.678963 -1.407634 -0.687493 0.275639 -0.356443 0.114028 1.426539 -0.514403 -2.158937 0.533535 -0.206859 -1.581086 -1.204307 1.340667 -2.421972 0.193496 -1.467495 0.844293 -0.928389 1.579736 -1.677853 0.475229 0.538299 -0.668855 -1.115705 0.195622 -1.372291 -0.574184 -0.045734 0.563399 0.990295 0.292986 -0.846307 -0.354071 0.779359 -0.020476 -1.070753 -0.175771 -0.039668 0.227430 -0.963418 -0.836010 1.828688 -1.109916 1.625406 0.000167 0.052962 -0.999362 1.487378 1.065921 -0.127578 0.232447 -3.066092 -0.327324 -2.953840 -0.616313 1.060173 -1.855567 1.465493
has 0.226984 1.213716 0.739070 0.064385 -0.285410 0.532118 -0.614417 -2.220638 -0.155736 1.488254 0.159725 -0.102634 0.111391 -0.104722 -0.012261 -0.362432 0.160940 1.537987 1.426937 -0.557683 0.386512 0.203338 -2.029024 0.847199 0.619498 -1.115980 0.032489 -0.881839 1.475788 0.104551 1.566786 -0.000646 0.752060 0.486457 0.249789 -0.167978 2.031712 0.715495 -0.748155 -0.282689 -0.098143 0.412490 -1.033329 -1.876652 0.619624 1.186991 0.387366 1.618071 -0.853582 1.144874 1.003456 -0.339624 1.003130 -1.504180 0.194372 -0.534715 1.534765 -0.790659 0.807113 1.580690 -0.070170 1.148832 0.861150 -1.419074 -1.271060 0.443011 -1.495417 0.975922 1.710755 1.089524 0.393054 -0.373342 -0.082254 -0.597268 -0.252604 1.832297 -0.510605 -0.713580 -1.306819 -0.297272 -0.692675 0.191029 0.476140 0.115047 -1.594902 0.344112 -1.365014 0.791420 -0.130193 0.627321 -1.118798 -0.988526 0.135112 1.722841 0.037017 0.924961 -0.413223 0.110932 -2.509215 1.428523 0.425643 1.118940 -0.106122 -0.328770 1.392527 1.914897 -0.516845 1.391313 -0.756069 2.275045 -1.030988 0.621785 -0.774784 -0.141943 -1.868400 -1.493997 -1.009124 -0.146338 -1.255545 -2.632654 -1.221482 -0.946332 -0.540990 -0.410604 1.444951 -0.078947 0.798977 1.609302
only 0.635638 -0.131733 1.141675 1.730480 1.418811 -1.289234 -1.238390 -0.070091 0.788748 -0.767266 -0.499791 1.124899 0.750984 -2.509257 0.751610 -0.520085 -2.086070 1.566722 1.359773 0.768014 1.451892 0.653525 -0.960487 -0.136723 -1.834931 -0.166912 -1.304787 -1.454217 0.613146 -0.437442 1.909417 0.151799 1.585271 -1.378050 -0.199868 -1.518565 -0.233515 -1.588209 1.578194 -1.387018 0.139055 -0.065962 1.142968 0.025286 0.656700 -1.125792 0.644573 0.221469 -1.504710 0.628726 -0.196634 0.379179 0.893275 0.117557 -0.836755 0.061938 0.151044 0.946070 -1.560880 0.709166 0.808361 -1.440994 -0.372881 -0.862239 0.094390 0.940039 -1.466661 0.040443 -1.480316 -0.713869 0.733108 -1.153446 0.480686 -0.559589 -0.614404 -0.180580 -0.924199 0.043442 0.070089 -1.368552 -0.925321 0.798196 -0.616622 -0.462169 -0.825462 -0.412241 0.481607 0.050388 -1.012274 -2.101063 1.719336 0.646139 0.587932 0.317338 -0.625027 0.587760 -0.071724 -0.551398 -1.368757 -0.563389 -1.019464 1.260384 0.525878 0.178420 -0.864097 -0.467081 1.014909 -1.567076 0.263665 0.669551 0.066102 -0.468173 -0.202917 0.232518 0.699543 -0.654943 0.619100 -0.282768 0.041639 1.117693 -1.476881 0.271316 0.330441 -1.287097 -0.074121 -0.703172 -0.328804 1.246859
any 0.486925 0.104024 1.105551 -2.044671 -0.030214 -0.323480 1.053416 -1.299979 -0.222735 -2.711816 -1.004424 0.916354 0.693750 0.010694 -0.381430 -0.061037 -0.147860 0.573917 0.639481 1.597872 -0.030267 -1.318838 0.447096 -1.573626 -0.817088 1.174022 -0.270120 -2.041856 -0.840083 0.929132 -0.931227 -1.525312 -0.396529 -1.984850 -0.411640 -0.335889 0.109308 -0.825994 -0.427978 0.819751 -0.775649 0.715076 2.401886 2.081872 0.156362 -0.294134 -0.302459 0.285524 0.917676 -0.253646 -1.542748 0.423899 0.001089 -0.064748 -0.331029 1.019614 0.430010 0.304630 -0.726922 1.358170 -0.805017 -1.140514 1.642397 -0.746345 0.166053 -1.632244 -1.309474 -0.119368 0.706223 0.325684 1.337663 1.640532 -0.993665 0.432005 -1.114769 0.488621 -0.077292 0.498697 1.709363 0.239385 -1.695610 -0.990795 1.517841 0.185172 -0.351023 -0.608045 0.894928 -0.285624 -1.183028 0.346668 0.895990 0.457918 -2.082917 -0.519827 1.200138 0.006993 -2.020714 -0.765952 0.896892 -0.079684 1.584089 -0.919098 0.143989 0.503209 1.447550 0.482321 0.154146 0.456455 0.874727 0.108420 -0.481215 -0.175883 0.838736 -0.778068 0.992370 1.708849 -2.444698 0.788106 -0.790188 -0.781362 -0.402316 0.871794 -0.715700 -0.334289 -0.247138 -1.980419 -0.079950 -0.220691
very -0.338233 1.703405 2.938513 -0.200259 1.179955 0.927248 1.765703 2.055574 1.529195 -0.098739 1.135389 2.390488 0.190670 -0.138593 -0.151578 -0.085892 -0.136540 -0.529995 -0.624357 -0.848674 -1.386072 -0.469026 0.580763 0.608633 0.544964 -1.761707 0.164094 -0.479071 0.835996 -0.283778 0.287639 -0.941916 1.783256 -0.480346 0.345502 -2.687023 -0.299944 0.801252 0.385434 0.159051 -1.895588 0.503840 -0.101656 -0.506384 1.021678 0.037204 -0.104451 0.525199 0.111853 -0.382834 0.885706 -0.137431 -1.285279 -0.111603 -1.017152 0.316114 -0.847086 -1.582285 1.154898 2.049341 0.075055 0.314224 -1.768854 1.310561 1.558917 -0.274085 -0.274350 1.791345 -1.165269 -0.498890 0.399070 0.979881 -0.478024 0.731563 0.852674 -0.010467 0.034374 -0.587054 0.918695 -0.724965 0.981095 2.384588 -0.251936 -0.587229 0.170194 -0.378520 -1.728209 -1.202948 1.397918 -1.718570 1.729154 0.859932 -0.241112 -0.745190 0.276831 1.897289 0.407332 -1.193948 -0.544799 -0.535213 -0.122925 0.424676 1.155172 -0.720091 1.863573 0.605369 0.451214 0.286436 -0.140391 0.051984 1.179758 0.142646 -0.267218 0.927535 1.562015 0.553271 0.549591 -0.071851 -2.232326 0.013842 -2.429555 1.200918 -0.875491 -0.134707 -1.779856 -0.138073 -0.477714 1.498073
like 0.247357 -0.030104 -0.082850 -1.021794 0.167710 -2.068370 0.686945 0.817805 1.428264 -0.811729 -0.476053 -0.155805 0.007368 0.105720 -1.476413 0.813208 0.815649 -1.120360 -1.376163 0.325363 -1.206332 0.587972 -0.654598 0.709085 -1.307956 0.392313 -2.506229 1.824563 0.265923 0.382117 1.842194 -0.109823 -0.457320 1.767459 1.424340 -0.445777 -1.305539 -0.558493 0.904582 -0.538522 -2.018816 0.364327 0.021940 0.805031 0.104463 -0.243117 -0.747922 -0.352465 0.206724 -2.117022 0.694188 0.131822 -1.170227 -0.103227 0.773328 0.570945 -0.202401 -0.523609 -1.587493 0.544886 1.616614 -0.203740 -1.125299 1.198576 -0.740550 0.252115 0.093505 -1.526194 0.642294 0.170807 -0.989614 -0.570355 0.144405 -0.943753 0.163310 1.110972 0.745677 1.499800 1.543324 2.022503 -0.396344 -0.224225 -0.270486 -0.357114 -0.616432 -0.714347 -1.560001 0.573790 -1.505528 -1.344413 0.592548 -0.001824 2.353820 1.843002 -0.240384 0.451304 0.825444 2.308809 0.626445 1.552896 0.115917 -0.798235 -0.159185 0.762946 -0.879680 0.438333 -2.430282 -0.539264 -0.442978 0.665427 0.590878 0.471871 -0.361947 -1.271340 -0.937639 0.626508 0.773929 1.002983 0.761098 1.557758 -1.004269 1.130731 1.385205 -1.247465 -0.921760 0.423945 -0.272798 1.158517
did 0.479247 0.016751 -0.655033 -0.761728 1.731836 1.413344 -1.973607 -0.129616 0.632926 1.115864 -0.734648 -0.525989 0.448868 -0.137369 0.470983 2.309340 0.156643 0.052747 -1.326982 0.322856 0.486125 0.758446 -0.341845 0.335307 -0.471792 -0.942974 0.765221 0.831511 1.103785 1.356941 -0.866960 0.984352 0.067141 1.475487 -1.380370 0.387492 0.488894 -0.015611 1.284081 -0.018397 1.899579 -0.954154 -1.190254 0.467772 0.692005 0.384995 0.783279 0.266064 0.364054 -0.931689 -0.098471 -0.054028 1.342259 -2.234951 1.704426 1.926498 -0.182243 -0.521759 -0.481615 -0.747581 0.276767 0.354398 -1.377720 1.208344 0.093036 1.606068 -0.087324 1.689021 -0.822204 -0.275457 -0.960350 0.485728 -1.583169 -0.716002 -1.433360 -0.061328 -0.386697 -2.951609 1.026630 -0.756735 0.089762 0.907823 0.358035 0.205831 -0.618667 -0.116237 -2.437841 0.072761 -0.573113 0.001437 -0.786690 0.188853 -0.397154 0.477553 -0.478921 -0.097693 -0.440148 -0.708109 -1.123405 -0.017211 1.288097 0.256939 0.680898 -0.019401 2.068749 0.061555 -2.458791 -0.972383 0.885493 -1.261990 -0.408268 1.075080 -2.180032 1.343302 0.376172 1.032045 -1.526873 0.587282 -1.380846 -1.397988 -0.008194 -2.361225 -0.973063 0.370172 -0.285180 0.155056 -0.851632 1.398459
time 0.703164 -0.239511 0.169290 -0.375504 1.337203 -0.019493 -1.952440 -0.474574 1.271953 -1.188579 -0.578527 -0.090480 0.546628 -0.919954 -0.036619 -0.422043 -0.687843 0.975765 1.625054 1.801064 0.585343 -0.547229 -0.639198 1.565477 0.779726 1.615266 -0.054217 -0.578408 1.146811 0.043015 -0.116587 -1.030704 -0.417744 -0.606043 -0.818275 1.244078 0.818078 -0.428331 -0.046119 -0.800850 0.207068 -1.388801 1.084005 -0.445616 -1.361824 -1.501466 0.135005 0.732568 -0.150661 -1.152919 1.586867 -1.405233 -0.827157 -0.714248 0.177423 1.079396 1.691377 1.481392 0.172185 -0.450004 0.545837 0.441010 -0.971540 1.740153 -0.596853 -1.053629 -0.364170 1.840219 -0.658435 0.509943 0.093376 -0.547593 -0.406157 -2.954804 0.862948 -0.852229 -1.522561 0.048620 0.321726 0.393688 1.038033 1.838665 -0.383424 0.678471 -0.337336 -0.155419 0.867662 -0.319514 0.336231 -0.936218 0.685358 1.732855 -0.915209 -0.808529 -0.728912 2.325278 1.044342 -0.064539 -1.586452 0.111280 -0.084910 -0.185325 0.922413 0.001713 0.797207 0.004202 -0.465082 -1.418859 0.446326 -0.744932 -1.752541 1.062486 -0.941074 0.420432 0.854580 -0.399373 0.482565 -0.031609 -0.556000 2.321698 -1.116910 0.085453 -0.996630 1.446684 2.793224 -2.001953 1.892417 -0.928449
its -0.167232 0.870856 0.296566 0.597176 1.422243 0.916010 -0.358317 1.177737 0.799084 -0.552613 -0.335069 0.613547 1.403618 0.053705 -0.643878 -0.789345 1.306689 -1.336147 0.028928 0.057131 0.970570 -1.104419 1.824804 -0.688040 0.495253 -1.852044 -1.504239 -1.648792 -1.214711 0.299391 -2.108625 0.259800 0.698112 -1.525061 0.711280 -0.101251 -0.165783 0.500049 0.249184 -2.064189 0.171636 -0.002277 -0.207637 0.481920 1.733050 0.713980 -0.729799 0.445530 0.061127 -0.069734 0.155057 -0.749014 -1.102303 1.255445 -1.076957 0.144657 0.239332 0.311019 0.498020 1.091160 1.171733 -0.467993 -0.501770 -1.324670 -1.575652 1.385170 0.021241 0.568742 0.326265 -0.734737 -0.519292 1.264411 0.233728 0.377324 -0.400242 1.196584 0.408982 -2.382210 -0.203943 -2.020662 -0.427841 1.014263 -0.456681 0.060361 -0.350287 -0.729496 0.894694 0.019105 0.220628 -0.764614 -1.678717 0.876676 1.068747 0.778340 1.058901 1.203724 0.934376 0.752404 -0.579756 0.665150 0.083877 -2.723816 1.247131 -1.617910 -0.672845 -0.469878 -0.097781 0.718835 0.099015 0.639218 1.015473 1.077057 -0.958100 -0.170228 -0.230667 0.543664 0.626301 -0.407089 0.538299 0.227852 -0.635466 -0.284410 -0.407220 -0.955123 -0.938389 -1.158511 0.332970 -0.968956
than -0.740960 -0.588043 -0.919639 2.111856 0.366705 -1.286466 -0.357009 -0.750779 1.735640 -1.425418 -1.013300 -2.185083 -0.805357 1.585411 0.324783 1.641810 1.547036 0.689185 -1.073612 0.876600 -1.422248 -0.886447 -1.606579 1.411188 -1.051040 -0.624180 0.493118 -0.632711 0.297580 1.294383 0.969244 1.813666 -0.712051 0.633367 1.753695 0.156860 0.710720 0.236090 -0.509714 0.304407 0.314033 -1.673107 2.305331 0.511611 0.376813 -0.407660 -1.546806 -0.102783 0.497525 0.048568 -1.132583 -0.394691 0.083356 0.651518 -0.830268 0.290152 1.379065 0.260722 0.116597 -0.299591 -1.445951 0.582182 -0.549145 0.722732 0.409479 -1.229703 -0.475471 -0.023328 -0.604458 1.004014 0.624394 0.544214 1.646594 -0.518605 1.255144 0.740607 1.401313 -0.146690 0.753510 -0.918663 0.531742 -1.111815 -0.871935 0.354214 -0.728978 -2.257943 -0.158463 0.614984 0.642334 0.019689 -0.876305 0.351546 0.919081 -1.914184 -0.631589 0.057922 0.902350 0.576307 -1.544702 1.259078 -0.079724 -0.031837 0.361099 -0.417460 -1.006581 -0.166186 -0.278540 0.260729 2.851324 2.166404 -1.295820 -0.831498 -1.175446 -0.608195 1.477634 0.758235 0.196039 -1.623149 0.453488 1.294272 -1.754239 1.014570 -1.463238 -1.105852 1.403215 -0.403903 -0.283156 -1.507589
other -0.661318 2.467356 -0.650042 0.274131 -0.573471 0.236147 -0.798901 -0.292821 0.947255 -1.256755 0.774996 0.194855 -0.963633 0.858407 0.020110 -2.667064 1.138579 -1.531206 0.700960 -1.407159 0.572403 1.498748 -0.706006 0.222641 0.062614 -0.164139 -0.217258 -0.142413 0.099097 1.338303 0.741453 -0.771387 0.886010 1.672314 -1.045174 1.589003 0.272263 -0.718426 -0.044585 2.150130 -0.856427 0.747638 0.145018 -0.192650 0.431482 -0.811733 0.972352 0.250707 1.662299 -0.820291 0.993698 -0.227948 -0.396784 0.403419 -2.044422 -0.016618 -0.630147 -0.838805 0.056830 -0.660714 0.265254 -2.276133 0.855097 2.274123 0.010489 -0.645531 1.304714 -0.715407 -0.751205 0.431798 0.969227 0.527365 -0.311162 0.052834 0.613018 0.187506 1.178377 0.788495 -0.151978 -1.003638 -0.700462 -0.940407 -0.071841 0.267290 1.754943 0.925726 1.508866 -1.804696 -0.863703 0.177479 1.816972 -0.118607 -1.100171 0.551532 -1.409328 1.238469 0.159307 1.349497 0.038103 1.986415 -0.812058 -0.704703 -0.607723 -1.014734 0.923572 2.733155 -0.112645 -0.007448 -1.863572 -1.130104 -0.101564 -1.586548 -1.769485 -2.176261 -0.756655 0.728870 -1.121938 0.631393 -0.108133 -0.651918 0.248028 -0.287795 -0.609631 1.213643 0.898337 -0.704675 1.276041 -0.611405
before 0.485516 -0.382563 0.584196 -1.636989 -0.125903 0.517735 -0.415122 -0.418372 1.552906 2.446630 0.251486 0.023934 0.375421 0.833258 -1.571324 -0.006540 -0.292564 -0.605807 -0.731060 -1.153949 0.290738 1.837863 -0.487872 1.521413 0.654772 0.016111 -0.059207 -0.364209 -0.576804 -0.116609 1.131895 -0.116105 -1.244439 -0.687462 1.331677 -1.541101 -0.988775 0.587624 1.335445 0.301240 0.813199 -0.371266 -0.639377 -0.945789 -0.404064 0.129892 0.156388 -1.220370 1.431797 -0.045837 0.285410 0.750820 0.093077 0.022093 -0.506252 0.112237 -1.887190 0.739150 1.235223 0.683967 1.450196 -0.510446 -0.153383 -0.273862 -2.287843 0.196071 -1.164702 1.189758 0.187588 3.254056 0.186081 0.088389 -0.882942 0.916408 0.606187 0.750403 0.308824 0.467171 -1.120154 -0.753526 0.174026 0.121035 -0.197885 -0.607867 0.738678 -0.251313 0.580040 0.168444 -0.885249 0.603818 0.420096 0.793917 -0.610883 -0.678135 1.062572 -1.258124 -0.201898 0.132810 -0.155329 0.330541 -0.588763 1.743199 0.166124 0.463220 -0.461231 1.360432 -1.645785 -0.663482 0.224001 -1.275681 -0.650013 -1.050035 0.727619 1.648773 -0.071330 -0.692018 -1.455497 0.606893 0.000257 1.251503 -0.189264 -1.024420 0.251737 -0.880862 0.184926 -0.339324 1.383312 1.967645
about -1.288707 1.169278 0.513192 0.066959 -1.191934 0.586133 0.018795 1.009983 0.062261 0.060548 0.540278 -0.974942 -0.443630 -0.972925 -1.544583 1.452749 -0.981438 -0.747642 -1.471357 0.785862 -0.740932 -0.843501 -0.703272 0.949824 -0.764767 -1.882416 -1.383701 -0.746138 0.559291 0.296204 -0.649852 0.385007 1.364887 -0.346325 1.435908 -0.959535 0.479824 -0.739101 -0.825845 1.478409 -0.763979 0.129100 -0.410621 0.417995 -1.237330 1.485974 1.491898 0.055898 1.551397 -0.901518 -0.185295 -2.596307 -0.083055 1.120956 1.029413 -0.192450 -1.295472 0.192071 0.567021 -0.114072 -1.031311 0.970555 0.412230 -0.384140 -1.183538 -0.493658 1.652470 -1.505027 -0.112837 1.232262 0.852434 -1.923961 0.527301 0.496358 1.413435 -1.560635 -0.112375 -0.212816 0.896023 -0.239413 -0.835978 -0.173568 -0.562342 -1.021664 0.174148 1.709427 0.284927 0.048172 -0.887533 1.184803 -1.677224 -0.554725 0.353501 0.307045 -0.354557 -0.607435 0.654376 -0.144927 0.542949 -0.551652 -0.641812 0.049451 0.783757 0.664330 -0.098155 0.081922 0.934990 -0.940432 -0.145503 0.552570 -0.116786 -0.803410 -0.091702 0.911882 1.797722 -1.059740 0.637224 -0.101441 -1.205724 -1.064049 -1.477551 -1.114300 0.421571 -2.685419 -0.834973 0.143339 -1.427858 1.269673
