3000 128
<pad> 0.000000 0.000000 0.000000 0.000000 0.000000 0.000000 0.000000 0.000000 0.000000 0.000000 0.000000 0.000000 0.000000 0.000000 0.000000 0.000000 0.000000 0.000000 0.000000 0.000000 0.000000 0.000000 0.000000 0.000000 0.000000 0.000000 0.000000 0.000000 0.000000 0.000000 0.000000 0.000000 0.000000 0.000000 0.000000 0.000000 0.000000 0.000000 0.000000 0.000000 0.000000 0.000000 0.000000 0.000000 0.000000 0.000000 0.000000 0.000000 0.000000 0.000000 0.000000 0.000000 0.000000 0.000000 0.000000 0.000000 0.000000 0.000000 0.000000 0.000000 0.000000 0.000000 0.000000 0.000000 0.000000 0.000000 0.000000 0.000000 0.000000 0.000000 0.000000 0.000000 0.000000 0.000000 0.000000 0.000000 0.000000 0.000000 0.000000 0.000000 0.000000 0.000000 0.000000 0.000000 0.000000 0.000000 0.000000 0.000000 0.000000 0.000000 0.000000 0.000000 0.000000 0.000000 0.000000 0.000000 0.000000 0.000000 0.000000 0.000000 0.000000 0.000000 0.000000 0.000000 0.000000 0.000000 0.000000 0.000000 0.000000 0.000000 0.000000 0.000000 0.000000 0.000000 0.000000 0.000000 0.000000 0.000000 0.000000 0.000000 0.000000 0.000000 0.000000 0.000000 0.000000 0.000000 0.000000 0.000000
<start> 0.168964 -0.232451 0.596583 -1.234030 -0.434032 2.281712 0.249260 -1.842000 -1.336269 1.082712 -0.199177 0.379505 1.547214 1.679811 1.245138 -1.406085 -0.475031 1.141580 0.600271 -0.398448 -1.935995 -0.204744 1.240620 0.180940 1.059810 -0.270123 -1.875020 0.363881 -0.543713 1.033205 1.298720 0.741115 -1.082980 -0.568388 0.199082 0.252614 -0.564250 -0.041680 -0.597817 0.175701 -0.284999 1.346883 -0.480294 1.624046 0.855342 0.137596 -0.039247 -0.838080 -0.533726 0.620668 0.312753 -1.438814 1.378937 -0.380002 0.081648 -0.315138 1.478464 0.705093 -2.078324 0.136281 0.140933 -0.664582 1.036696 0.989758 0.504493 -0.651332 -2.041731 -0.815713 -1.245698 -0.228281 -1.418354 0.712767 0.287869 -1.081569 -0.941072 -0.857860 -0.919060 1.008996 -0.463858 1.044820 0.175231 -2.098703 1.264088 0.531363 0.165590 -2.103157 -1.141456 -0.222294 -0.383957 1.255525 -0.096922 0.857055 1.035161 -0.092141 -0.203240 0.042717 0.189107 0.597832 -0.132742 -0.123901 -0.144005 0.389740 -1.052228 -0.912600 2.380602 0.803292 -0.221767 0.290286 -1.070350 -0.229569 -1.305820 0.886481 -0.888348 0.421369 -0.144821 0.452676 0.222354 0.041198 0.235566 -0.151825 -1.158043 -0.179056 -1.141026 -0.242425 -0.724755 0.608760 -1.156420 -1.128023
<end> 1.178840 -0.421955 -1.570782 0.621063 0.554908 1.289641 -0.211170 -1.047991 0.098414 -0.546657 0.663968 0.121847 0.303159 -0.839009 -1.102772 0.231812 0.838825 -1.263653 0.105633 0.080311 0.319596 -0.048838 -1.991449 -0.714485 0.337550 0.827263 0.382999 0.084116 -0.129283 1.854945 0.856884 0.201192 0.366789 -1.145586 0.188127 0.913862 -1.041242 -0.704899 -0.511358 -1.443061 0.927447 -0.490874 -0.044093 0.203923 0.294846 0.637480 -1.258874 -0.265372 -0.227120 -0.850540 -0.743237 -1.674951 0.187760 -0.716579 0.206489 0.977721 2.670046 0.120851 -1.337936 0.324270 1.289278 -0.414159 3.082499 1.652308 0.061870 -0.542711 -0.196645 2.839972 1.037087 -0.614514 -0.953095 0.675004 0.563516 1.505533 -3.179942 -0.816698 -0.869305 0.865086 -1.309753 -1.141609 -0.050059 0.445000 0.167999 -1.234497 -0.739120 -0.264898 -0.002360 1.058617 0.363562 -1.286796 -0.514842 1.887429 2.865417 -1.038379 0.121951 0.509305 0.892590 -2.093633 -1.444159 0.707271 -1.110716 0.814062 -1.610263 -0.052290 -0.218508 0.430847 1.571354 2.054171 -1.173677 0.898367 1.449423 -1.294051 -0.695271 -2.834882 -2.908950 0.708162 0.065558 2.065715 -0.224587 0.815627 -1.184250 0.479496 0.346908 -0.820849 -0.862808 -0.836597 -0.165392 0.477741
<unk> 0.095343 0.005484 -0.424985 -0.045234 -0.826590 0.580731 0.413629 -0.155699 0.058710 0.312730 0.442514 -0.044725 0.513790 0.022851 -0.165956 -0.118438 0.590424 0.866813 -0.631710 -0.118755 0.033155 0.113563 0.823451 -0.400082 -0.049953 -0.334721 0.070969 -0.093586 0.295514 0.402085 -0.163582 -0.498706 -0.016401 -0.325712 -0.406701 0.834374 -0.065150 -0.081667 0.456609 -0.042092 -0.189491 0.241161 -0.352516 -0.346349 -0.061495 0.767424 -0.223103 -0.123243 0.379453 0.570067 0.189341 0.501114 0.353563 0.061924 -0.259207 -0.451571 0.136627 -0.239862 -0.549118 -0.229278 -0.000476 -0.604493 0.973455 0.676241 -0.114950 -1.191690 -0.607481 0.346114 -0.003068 -0.163676 0.039832 -0.565779 0.169428 0.796207 -0.179220 -0.015674 0.373347 -0.384251 1.231254 0.079369 0.586129 0.046935 0.143598 -0.326254 -0.158172 0.479379 0.807838 -0.018866 -0.165202 -0.146205 -0.128664 0.143664 -0.469743 -0.099262 1.256590 -0.568666 0.009925 -0.378793 -0.299107 -0.018941 0.213647 0.228913 -0.333277 0.015249 -0.589852 0.830686 0.591362 0.050875 0.282449 -0.738570 0.300043 -0.396553 0.747212 -0.019467 0.452850 -0.607386 -0.004040 -0.694931 -0.136655 0.341091 -0.155189 0.732078 0.630703 0.155531 0.010323 0.741778 -0.443859 -0.566520
the 0.193173 0.062492 -0.318873 1.414637 -0.447141 -0.093632 0.078218 -0.396242 0.705006 -0.092838 0.101368 0.699586 -0.220071 -0.018238 0.550639 1.170392 1.383936 0.391390 -0.332370 1.017137 0.506008 0.574846 1.497723 -0.034173 -1.020164 -0.208957 -0.181537 1.231706 0.112634 -0.554557 -0.891246 0.811343 -0.587998 0.382891 -0.241729 0.426202 0.197036 0.178411 -0.593191 -0.058564 -0.211020 -0.329324 0.848095 0.535730 -1.423474 0.624404 0.758849 0.281599 -1.305002 -0.781439 -0.318937 0.140975 -0.315259 -0.134267 -0.008282 -0.150672 0.222885 0.366707 0.893286 0.358983 -0.181813 -0.278081 0.224968 0.238053 -0.080804 0.849578 -0.147227 -0.496672 -1.252626 0.557927 -0.588884 -0.739870 -0.908472 -0.804653 -0.971393 -0.235919 0.797726 1.014872 -0.571023 -0.157081 0.099767 0.136675 1.140520 0.440612 0.070935 0.238974 -0.107308 0.429638 1.685784 0.894229 0.324500 0.096295 0.187448 0.003940 -0.434455 0.137857 -0.469355 1.043129 0.067558 -0.235463 0.143561 0.008260 -0.413337 -0.450665 -1.698818 0.575603 -0.288326 0.481205 -0.312071 -0.174202 0.199722 0.439167 -0.916308 -0.002754 -0.721996 0.127285 -0.138730 -1.677986 0.011166 0.455256 0.425828 0.508125 0.792215 0.550296 0.505540 -0.342007 -0.634324 0.099439
and -0.335720 0.252015 0.894178 0.006811 -0.543150 0.062433 0.331245 0.320286 0.003229 -0.190327 -0.672192 0.992175 0.612767 -0.763269 -0.463040 -1.222493 -0.211633 -0.662534 0.179404 0.087843 -0.150666 0.460569 0.669293 0.378683 -0.042194 0.245770 -0.141945 -0.291560 -0.282070 -0.306290 -0.406099 -0.245043 -1.833645 0.944561 -0.240889 0.004102 0.402375 -0.012115 1.320167 -0.191735 -0.140574 -0.048480 -1.053843 -0.366143 -0.097419 -0.486701 -0.644108 -0.061108 0.000280 0.259207 -1.108170 -0.081686 0.117121 -0.583104 -0.184316 0.635806 -0.063154 -0.384841 -0.095044 -1.043640 0.307663 0.415610 -1.043584 -0.893558 0.293051 -0.441641 0.021468 -0.434902 -0.666561 -0.884634 -0.421733 0.219642 -0.108624 -0.471761 -0.433039 0.050875 0.521616 0.989127 -0.101735 0.883629 0.590455 0.025116 0.964393 -0.086345 0.354429 -0.786962 -0.434679 -0.309473 0.409570 1.704888 -0.342579 -0.405154 0.320455 -1.366667 0.409415 -0.333731 0.096412 0.590859 -0.004753 0.794073 0.107745 0.206048 1.004217 0.120571 -0.007547 0.796061 -0.390493 -1.797162 0.648339 -0.449432 -1.030327 -1.582655 1.175492 0.214777 -0.543853 -0.045279 -0.300058 -0.345919 -0.235166 -0.284738 -0.129783 0.162937 -0.765522 -0.229031 0.223896 -0.475003 0.365393 -0.788380
of 1.086266 -1.102311 0.056566 -1.260154 -1.287529 0.588858 -0.315940 1.151565 -0.419686 0.077992 -0.695176 -0.879941 -0.555243 -1.000784 0.294882 -0.559324 0.233555 -1.514594 -0.581846 0.561593 -1.334566 -0.358926 -0.982897 0.021038 0.487127 0.023597 -0.815878 -1.046072 0.265066 -0.008408 0.210318 1.414465 0.363485 -0.212215 0.832470 0.816940 -0.314449 -0.566497 -0.725376 0.215764 1.140928 -0.516021 0.214806 -0.092026 -0.013682 -1.334048 -1.099122 0.036466 -0.468038 -0.040489 0.278262 0.152666 0.078832 -0.685624 0.630131 0.554024 1.235780 -0.174740 -0.559720 -1.047045 -0.119691 -1.378506 0.500790 1.300299 -0.770462 -0.861065 -0.476062 0.241020 0.223475 -1.102887 0.464345 -0.083806 0.708591 -0.437627 -1.420347 0.060515 -0.253593 -0.190582 0.345652 1.105882 -1.204793 1.021745 -0.294655 -0.292911 1.012593 0.259727 -2.308814 0.359485 -0.052975 0.135836 0.371961 0.622958 -0.285908 -0.155484 0.581976 0.021176 -0.215413 -0.107977 -0.238168 -0.298185 0.548563 -0.569988 -0.708496 1.351230 0.767984 -0.613128 0.088616 -1.380132 -0.635515 0.347284 0.916208 -0.576726 -0.407884 -0.944382 -0.034514 0.871894 -1.212197 0.819595 -0.192367 -0.057407 0.439054 0.958315 -0.473805 0.339034 -0.503456 0.091613 1.352554 0.221658
to 1.665172 0.299613 1.337512 -1.403154 0.179881 -0.260490 1.017900 0.389837 -0.372527 -0.006904 0.309713 -1.240148 0.127597 -0.389505 -0.436276 -0.655323 -0.912152 -0.371353 -0.346033 1.219826 0.840982 0.062970 -1.090803 -0.297819 0.271832 -0.501567 -0.288711 0.963759 0.496082 -1.144408 1.455811 1.035251 -0.715296 0.317302 -0.004145 0.206488 -0.557169 0.071299 -0.267547 -0.720898 0.912017 -0.013713 0.034382 0.724434 0.338332 1.820040 0.943091 -0.402080 0.765298 0.657441 0.621577 -0.509490 -0.048008 1.088536 0.666934 1.292835 0.272643 0.053577 -0.010537 -0.930542 0.463240 -0.017886 -0.925876 0.232762 -0.856722 -1.859312 0.158332 0.332814 -0.360846 0.409954 -0.444449 0.237667 0.148604 -0.384366 -0.045467 0.508089 0.317916 -0.009660 -0.441514 -0.033807 -0.394404 0.347308 0.320734 -0.462634 -0.641359 0.019440 -2.011280 -0.106557 -0.653147 0.103834 -0.255349 -0.993720 -0.596490 -0.933959 1.149161 0.140888 1.567919 -1.362933 -0.132731 0.189576 0.638896 -0.146471 0.299743 -1.191205 -0.182578 0.011247 -0.386064 0.582388 -0.898045 0.118471 0.066593 0.674043 0.079725 -2.265610 -0.510792 0.091611 0.554767 -0.442493 -0.324906 -0.163556 -0.137099 -0.494247 -0.084275 0.207129 -0.580795 0.603806 0.202979 -1.069137
a -0.141435 -0.354909 0.243145 0.089006 0.427844 0.056790 -0.976817 -1.361744 0.612196 -1.383021 1.224370 0.050794 0.321048 -0.879929 -0.352026 1.745535 0.825051 0.201684 -0.076991 -0.210463 -0.148372 -0.059560 -0.838813 0.002954 1.192902 -0.778436 -1.218857 -1.579165 0.120216 -1.557447 0.050380 -0.138130 -0.862669 0.227030 0.244106 -0.048833 0.088030 0.832347 1.037426 -0.746727 0.276287 0.331100 -0.286400 0.911786 -1.225165 0.678224 1.452230 0.066341 -1.808983 -1.616430 -0.592525 1.272333 0.570736 -0.170249 0.354821 0.232141 -0.651823 -0.382074 2.086464 -1.055306 -0.437746 -0.838819 -0.002134 -1.177710 0.872905 -0.216560 1.563807 -1.438112 0.113798 0.693147 0.257016 0.300307 0.814900 -0.619209 -0.828189 0.399085 0.040131 0.533000 -0.322026 0.106666 1.226066 0.019131 1.275573 0.139269 0.849668 0.330377 0.701997 0.292828 -1.119214 0.625659 -0.191377 1.579955 -1.225088 0.724430 0.003386 1.049060 -0.441960 -0.040792 0.358490 -0.021757 0.182989 0.842863 0.110940 -0.756559 -0.293662 -0.476165 -0.739432 -1.451625 -0.455806 0.222170 0.361222 0.849440 -0.801676 0.367608 0.257667 0.772372 -0.635105 -0.840584 0.941618 -0.107710 -0.071870 0.382978 1.298275 0.057446 0.006662 -0.802379 -1.499727 -0.995878
in 0.082381 -0.933915 -0.456324 1.373752 -0.924124 1.039322 0.086817 -0.145855 -1.211547 0.824471 -0.733198 -0.704863 -0.644233 -2.063221 -0.596266 -0.253565 -1.261319 -0.269986 1.023858 -0.022429 -0.026800 1.495907 0.807311 0.322533 0.467942 0.585657 0.050486 1.290478 0.096546 1.274288 -1.311213 1.034260 0.468200 1.407323 0.355738 0.933303 -0.492008 -0.387266 0.034243 -1.114851 0.383114 0.383458 0.007504 -0.751844 1.377688 -0.042100 0.341078 0.035523 -1.034208 0.801413 1.682006 -0.013861 0.629657 -0.257728 -0.447943 -0.222203 -0.600174 -0.824110 0.297102 -0.553415 -0.141179 1.519151 -0.294775 -0.406981 -0.517273 0.357051 1.134446 -0.287923 -0.214410 0.080957 -0.167851 2.503438 1.625054 -1.746481 0.154551 -0.393632 -0.318241 -0.024713 -0.453958 0.709125 -0.003102 -0.196946 -0.227663 0.745196 0.267659 1.365451 -0.848561 0.419596 0.238686 0.090918 0.818858 -0.162748 -0.362004 -1.438127 1.754551 1.415008 -0.373587 -0.518338 -0.196365 -0.534340 1.389564 -0.038883 0.263544 -0.158925 1.137486 0.558979 -0.474251 0.148269 1.460530 0.363309 0.120538 0.267376 -0.307073 -0.341165 -0.475795 0.627656 -0.086012 0.206548 -0.424754 -0.257227 1.115411 -0.124696 1.030188 -0.299796 0.395503 -0.009036 -0.499167 -0.425072
i 0.200135 0.701413 0.166683 -0.654120 1.778076 -0.054053 0.322968 -1.706164 0.477571 -0.859929 1.176940 -0.383291 1.110330 0.426686 1.170279 -0.479431 -0.652435 -0.307653 0.247399 0.064116 -2.044826 1.233542 0.276458 -0.640191 1.365775 1.632649 1.253454 0.320802 0.470331 0.955361 0.711631 0.605938 0.396952 0.402790 0.255571 -0.045991 0.993390 0.191236 -0.668137 -0.189913 0.662975 -1.959834 -0.582083 0.362862 -0.263878 0.628487 1.877447 1.384533 0.153950 -0.789157 2.921820 -0.210556 1.106454 0.652065 0.056091 -0.271799 -0.497256 0.437418 0.807042 -1.229753 -0.442341 0.830898 0.012831 1.218694 -0.411811 -0.422155 0.664085 1.389235 0.477486 -0.307010 -0.755220 0.973531 1.826891 0.888232 0.385918 1.223492 0.954444 0.364507 -0.009699 0.997668 -1.651216 -0.080967 -1.440090 0.420074 1.164909 0.298144 0.590451 1.066165 -0.724202 1.022878 -1.317039 -0.537013 0.925194 0.293547 -1.432776 0.157908 -0.001194 0.442233 0.606718 -1.107963 -0.919902 0.185167 0.431166 -1.096911 -0.339353 2.246078 -0.696538 -0.926163 0.793335 0.426842 -0.886674 -1.332879 0.109271 0.163383 -1.826682 0.549617 0.440282 -0.525359 0.435695 0.120154 -0.274083 -1.114629 -0.495370 0.321620 -2.108338 -0.799612 -0.456606 0.529466
it 0.311091 0.156590 0.915393 1.553688 -1.046184 -0.106707 0.594437 -0.579553 -0.321456 1.060145 0.321485 1.130003 -0.543819 -0.386982 1.158025 1.231325 -0.048781 0.473525 0.182098 -0.425101 0.120664 -0.971774 0.530948 0.598347 1.088873 0.172862 1.857540 0.341031 -0.174994 -1.809610 0.068205 -0.304204 0.936897 -0.785805 0.788462 -1.448189 -0.465786 -0.409328 -1.010241 -1.697762 0.269204 -1.995218 -0.438846 -0.490789 0.657188 -0.010813 1.328808 1.313834 0.850289 -0.582900 -0.333247 -0.355587 -1.820613 -0.565337 0.311583 -0.300712 0.757480 0.565127 -1.476225 -1.055029 1.429015 1.190014 0.089281 0.224555 -0.386329 -0.369265 -0.916397 -0.122469 -0.486785 0.325687 -0.694890 1.118126 1.551066 1.279035 -0.388338 -0.163376 2.117305 0.486786 0.159215 -0.378959 -1.286941 0.198740 1.408692 0.361261 0.454689 -1.166563 0.979420 1.489409 -1.263448 1.217040 0.765264 -0.929172 -1.590980 -1.082772 -0.847013 -0.241576 0.155946 0.604510 1.566186 -0.683943 1.191646 -0.201083 0.760253 -0.502298 0.055914 -1.475264 0.831271 0.357987 -0.258886 0.666060 -0.958466 -1.249384 -0.442487 0.263548 -0.348898 -0.025652 0.778191 0.489750 0.877863 0.545068 0.249786 -0.856876 0.523121 -0.587030 -0.139171 1.295783 -1.116649 -0.304687
that 1.379944 -1.445322 -0.730312 -1.294100 -1.393807 -0.073782 -0.157432 -0.325243 0.970175 -1.591491 1.587797 -0.060572 1.728580 1.804364 -0.635252 -1.020998 -1.137772 -0.549307 -0.160448 -0.081745 -0.081759 0.455008 -0.857229 -0.420662 -0.244834 1.136543 -0.948220 -0.375947 0.138994 -0.456480 0.714740 0.173314 0.074999 -0.272321 0.242982 -0.603534 -0.735935 0.757150 -0.159220 -0.459302 -1.237993 1.064903 1.677125 0.502427 1.812154 0.639274 0.338682 -0.726752 1.257646 -1.475105 -1.972631 0.685283 -0.981646 0.424929 -0.951862 0.320758 -0.533672 0.550046 0.467734 -1.832810 -0.801859 0.327191 -0.442849 0.384174 -0.485223 0.349979 -0.948828 0.999544 0.323762 0.110568 -0.230201 -1.191397 0.206378 -0.469837 0.122274 -0.654144 0.282412 0.911731 1.074856 1.204822 0.729291 0.584315 0.870416 0.332164 0.602328 -0.883677 -0.988113 -0.356127 0.857674 0.377649 -0.141604 0.626385 1.382796 2.445848 0.077488 0.625452 -0.614290 -0.796745 0.286973 -1.276211 0.541862 -0.629549 0.773652 1.147935 0.367466 0.851134 -0.267368 -0.223216 1.640667 0.719506 -2.960106 -2.394268 0.413578 -0.468963 -0.644742 -0.379882 1.909037 -0.395108 -0.397889 0.587337 1.076432 -0.789828 0.589206 -0.490186 -0.004900 -1.214870 -0.902802 -0.280466
was 0.224947 1.446056 -0.812397 1.111864 -1.510994 0.823808 -1.119919 0.503356 -0.053875 0.236581 1.836380 -0.399550 1.034484 -1.194161 -0.161826 -0.793517 1.178329 -0.962986 -0.224869 -1.519252 0.120154 -0.666440 0.506322 0.591543 -0.161706 -0.126764 0.518569 -0.433511 1.844588 1.150308 0.882964 0.753247 -0.032694 -1.548366 0.269995 -0.035833 -0.798043 -0.424623 -1.451058 0.449692 0.041777 0.089471 -1.056243 -0.626021 0.476446 -0.049237 -0.798468 -2.032576 -2.045435 0.636659 0.718621 -0.497632 0.189093 -1.888511 -1.144542 -0.033649 -0.690170 -0.570680 -0.262384 -0.610700 0.664081 1.272989 -0.910822 0.549584 2.186154 0.502363 0.270906 0.939716 0.612794 0.535307 1.216473 -1.922623 0.549627 -0.508430 -0.070895 0.369872 -0.104830 -0.772452 -0.339429 0.559841 -0.060588 0.569166 0.738193 0.990035 -1.430678 -1.354559 0.209520 -0.133119 0.540375 0.060264 -1.864038 -0.232001 -1.762256 1.298999 -0.490011 -0.076848 -0.646229 -1.481413 -0.835127 -0.646168 0.515146 -0.847120 0.361391 -0.522488 -1.468057 0.314262 -0.585813 -0.631237 -0.108124 -0.558151 -0.313797 0.889266 -0.928057 0.831441 0.057452 0.014119 -0.774572 -1.780600 -0.882120 -1.163651 -1.478087 0.161770 0.807516 0.352049 0.834621 0.990294 1.016028 -1.046754
he -0.393190 -0.000772 -0.004356 1.167568 0.891235 -0.914292 1.653929 0.038033 1.032076 0.483337 -0.171004 -0.820477 -0.494578 0.239189 -0.426621 0.654992 -0.118253 0.244282 0.490068 -0.428848 -2.449992 0.642880 -1.466863 -1.598100 -0.220080 1.557767 -0.156617 0.358718 1.662604 0.596370 1.268007 1.145463 0.258214 0.039709 0.506041 -0.673361 0.432977 0.829765 -0.074827 -0.616218 -1.106384 -0.553233 -0.152374 -0.911137 0.583507 0.718107 1.730455 1.864461 -0.178384 -0.373280 -0.049640 0.372793 -1.344323 -0.024241 -0.390303 -0.945030 0.115584 1.243389 -1.226148 0.141646 -0.285938 0.520211 1.976485 1.182565 0.400988 -1.310893 1.208024 0.695063 1.520045 0.076423 -0.361851 -0.501925 2.260300 0.746132 -2.348729 1.032348 -0.814832 0.615013 0.306208 -0.070286 -0.517292 0.480116 0.070152 0.205719 0.894463 -2.204937 0.940338 1.506952 0.446300 -0.139179 0.007798 -1.202089 0.623983 -1.345375 -0.454513 -0.374069 1.148310 0.333661 -0.710530 -0.202145 0.539528 0.069275 0.318754 -0.720581 -1.185487 -0.368442 -0.848358 -0.165893 0.377592 -0.119157 -0.133898 -0.319876 0.081617 -0.896202 -1.358564 -0.054171 1.709477 -0.144267 0.592498 -0.158949 -0.734925 2.286036 -0.234179 -0.232558 -0.981647 -1.320709 -1.350323 1.748191
is 0.616028 2.004939 0.133414 0.816590 -0.406143 0.301289 0.521041 0.619031 -0.601797 -0.435520 -0.088072 -0.697082 0.599892 0.460417 -1.443929 1.530457 1.123295 -1.306939 -0.180630 -0.490529 1.637151 -1.028979 1.966951 0.184582 -0.334396 -0.648504 1.372132 -0.085848 0.791215 -0.874359 0.155735 0.608781 -0.753493 -0.795307 -0.717027 0.447979 -0.607127 -0.001927 -0.300757 0.559425 0.168635 1.697475 0.132360 -1.436296 -0.859369 0.391179 0.549884 0.199721 -0.755336 0.629257 1.405001 1.063005 0.120619 -0.596843 0.136565 -0.550166 -0.465088 -0.370616 -1.993808 -0.536941 1.419214 0.960365 0.113424 0.737669 1.136696 0.505507 -0.640082 0.173693 0.357858 0.100357 0.969680 -0.614909 2.300244 0.205410 -0.397582 0.126493 -0.625055 2.362052 0.263049 -0.994587 -0.287406 1.096914 0.028695 0.561384 -0.388208 -0.419423 -0.402771 -0.074610 -1.156202 -1.296499 0.108143 0.954310 2.274756 -0.091262 -0.506538 0.691431 0.175940 1.312608 1.770081 -0.526975 -1.726564 -1.250245 -0.612285 0.638366 -0.577863 0.383526 -1.296672 -0.854250 0.995589 1.397610 -0.945604 -0.209649 0.703371 -0.617026 0.002106 1.170376 0.501046 0.166079 -2.620021 -1.501818 0.065465 1.077529 -0.801697 1.917009 0.678000 -0.461790 1.819755 -1.013149
his -0.448497 0.801933 0.294669 0.499348 0.156966 0.284079 1.247219 0.493115 0.422695 -0.734929 -0.487697 1.850107 -0.460045 1.304304 1.181278 0.165197 -0.212090 0.464996 -1.603525 0.625471 -0.436698 0.601779 -0.124922 -1.164273 0.131438 -0.114220 0.050862 -2.130256 -1.129235 -0.668355 -1.511772 -0.390619 0.454809 -0.389203 -0.895844 0.497334 -0.782765 0.479799 -0.741972 -0.484763 -1.196024 -1.640364 0.459899 0.820091 0.356084 0.544279 1.444544 0.401007 -0.219183 -1.232758 -1.617369 -0.000506 -0.921271 -1.148359 0.659856 0.802418 0.057548 -0.698715 0.781959 -0.490255 -1.458805 1.069698 0.650741 1.915913 0.669272 0.103081 -0.313198 -0.530333 1.372531 0.226633 0.287165 0.905269 1.402874 0.360751 0.229911 0.884602 0.418667 0.006617 -0.074768 0.900645 1.945158 0.039227 0.756677 1.137429 -0.077699 0.309902 -0.675562 1.652223 1.637762 1.341470 0.934974 -1.195019 1.322454 1.279327 -0.635985 0.489772 -0.729019 0.923054 -0.013438 -0.653573 -0.944017 -0.460463 0.648412 0.839353 -0.406505 0.987000 0.120781 -0.697840 1.334345 -0.412098 1.941678 0.734148 -0.215202 -0.414900 0.257827 0.062913 -2.010352 0.352001 -1.213843 0.584524 1.276907 1.110506 0.681666 -0.167582 0.059467 1.019931 0.188695 -0.697043
as -0.722511 -2.199449 0.788504 -0.319478 -0.211023 2.406610 0.763777 0.414133 -1.751842 -0.585263 1.179606 0.677914 0.262782 -1.471553 0.183150 0.028866 0.313931 0.612704 0.975753 0.850286 -0.779889 -0.201062 -0.184884 -0.154719 0.159727 0.780578 1.117885 0.632264 0.676118 0.104039 -0.841447 -0.891623 0.327843 -0.304006 1.010775 -1.316194 -0.804475 0.548409 -1.349227 -0.533905 -0.115374 -0.898703 -1.760964 -1.592351 1.277150 0.463919 -0.158467 -0.523024 -0.584319 -1.187810 -0.272531 0.417805 -0.621260 1.586789 1.114166 -0.482955 -1.473347 -0.124358 0.333490 -0.758304 0.197364 -2.077668 -0.102663 0.625308 1.398945 -0.233072 -0.037530 -1.019648 -1.027757 2.223247 -0.657759 -0.549304 -0.424432 0.421150 -0.438366 0.746928 0.087196 1.339360 -0.231465 0.438166 1.255434 0.469663 -1.806903 0.327186 -1.374956 -0.773795 -1.762496 -0.016138 -0.217435 -1.031869 -0.538360 1.201411 -0.520165 -0.458276 -0.522141 -1.419397 0.002885 1.660414 -0.301231 0.146999 -0.459217 -0.267777 0.387999 0.816226 1.024933 1.710842 -0.369664 -0.823973 0.217162 0.393860 -1.822048 -0.912910 -0.369429 -1.502647 0.016432 -0.963588 0.792027 0.377596 -1.160619 0.688260 -0.548285 0.575808 -0.430653 -0.078547 1.477614 -0.329917 -0.333895 -0.162745
with 0.898025 0.947535 2.371042 0.162668 -0.308588 0.125653 -0.981675 0.788836 0.773331 0.350033 -0.106709 0.214611 -1.592159 -0.945111 -0.413498 -0.430279 -1.048821 0.291460 -0.079234 -0.591397 -0.611041 -0.859831 -1.085755 0.205646 0.386518 0.266201 0.061501 0.160855 0.054612 0.969535 -0.616385 0.240506 -0.214976 -0.490032 0.674742 -0.874305 -0.701581 1.251089 0.162534 -0.397573 -0.430228 2.697500 0.339843 -0.859936 0.093377 -0.687776 0.452519 1.223112 0.011488 1.685825 -0.641336 0.107388 2.035373 -1.315181 -0.444408 0.107006 -1.684844 0.217258 1.652292 -1.961232 0.070230 0.366624 0.821108 2.144445 -1.155264 -0.213878 -0.594716 -0.662557 0.243050 -0.253700 -0.937949 -1.131625 -0.124986 -1.820228 -0.419348 -0.279814 0.158350 0.638398 -2.337942 1.295254 0.086218 -0.424632 -0.966603 -0.232816 -0.745969 0.463540 -0.363320 1.420215 -1.764904 -0.104576 0.329514 -0.837071 -0.165449 -0.906344 0.195036 0.369097 0.033745 0.099105 -0.707460 0.943703 1.552992 -1.438633 -0.878528 0.715288 -0.427567 -0.138449 -0.571437 1.739346 -0.143099 -0.421893 -0.422009 -0.439420 0.779759 -0.701906 0.029870 -0.185101 -0.117775 -0.792847 -1.056300 -0.744972 -0.866711 0.730232 -0.506766 0.799667 0.006602 0.961767 -1.490301 -0.793939
you -0.540830 2.129205 0.654354 -0.010580 0.203847 1.218980 -1.512041 -0.194856 0.428424 0.119165 2.147815 -1.362954 0.961845 0.519305 0.407807 -1.226239 0.932954 -2.297639 0.783181 -0.290173 -1.066461 -2.377662 -0.597523 0.086750 -1.364787 -0.667033 -0.228481 -1.458198 0.575504 1.909178 -0.466766 -0.286968 0.466449 0.276331 -0.216450 0.381664 -0.973944 -1.090581 -0.378409 -1.307931 -0.823173 -1.619520 -0.079209 0.468592 -0.641990 1.135629 -0.328197 1.244732 -0.501593 1.253272 2.454264 0.791244 0.746341 0.979855 0.916410 1.520415 0.793634 1.095944 0.196696 1.612787 -1.193812 2.703830 -0.298478 1.078476 -0.483827 -0.702577 -0.106356 -0.187759 0.577304 0.065223 -1.008128 0.863779 -0.138590 1.334618 0.271825 -0.660776 0.659410 0.534617 0.120933 -1.296385 -2.022414 0.298291 2.004888 0.012585 -0.323124 0.202631 0.315061 0.211037 -0.756268 0.639325 1.005997 0.221561 0.167727 0.061935 1.102893 1.088847 0.633150 0.994987 0.786903 1.695348 -1.186528 -1.464459 -1.564602 -0.137359 0.645094 0.027253 -2.002410 -1.734946 1.149816 0.705745 -0.336137 1.534390 0.052163 0.738180 0.813928 0.095413 1.116332 -0.629065 0.689741 -1.024717 0.935500 -1.029561 -1.390724 -1.148553 -0.240195 0.220871 -1.480246 -0.503498
for 0.477437 0.489062 1.433423 0.668899 0.726428 0.061863 -0.542351 1.519111 -1.295427 0.717742 -1.377196 -0.478338 0.209668 -0.624812 -0.622787 -1.013260 0.094413 -0.254524 0.852989 0.155826 -0.902255 0.091679 -1.267832 1.300214 1.742299 -0.000271 0.107077 0.737101 1.524938 -0.496328 -0.172816 1.226942 0.647867 0.669753 -0.625786 0.714860 -0.491922 -0.281042 0.215454 -0.412111 0.760049 -0.052334 0.060897 1.506198 1.475915 -0.594397 -0.618153 0.050401 -0.066270 -2.065216 -0.124589 -0.988089 1.933890 0.136834 -0.781678 1.334568 -0.556709 0.371398 -0.100198 0.125026 0.927824 -1.096311 -0.402057 -0.523837 0.357642 -0.790923 -1.732835 0.350352 -0.631618 -1.526313 0.003318 0.309504 -0.614182 -1.770772 -0.141962 0.833187 0.342296 0.717844 -0.143214 1.266416 -0.457331 0.876425 -0.824416 1.272723 0.145303 -0.033650 -2.624977 -0.045571 -1.896962 -0.358341 -1.444547 0.537019 0.757992 0.679485 -0.981977 -1.359073 -0.985991 -0.242882 -0.199493 0.321659 1.296679 0.421992 1.483165 -0.221164 0.631993 0.639717 -0.236119 0.602604 -0.192276 1.083298 0.762044 -0.941882 0.813441 -0.058037 0.353882 1.352191 0.290163 -0.276567 0.887644 1.320000 0.303326 -0.013656 0.110989 0.024855 1.103518 0.704471 -2.055547 0.540773
not -0.420777 -0.567137 -0.157533 -1.032528 1.273806 0.252925 2.130872 2.088473 -0.573706 -0.997149 2.382251 0.161142 -0.361490 0.864454 -2.512439 0.899765 1.518939 -1.239198 0.416868 -0.313650 -0.380406 0.469747 -0.250672 0.746334 1.049683 -0.613468 0.324362 1.542198 -0.174659 0.951437 0.531852 -0.581772 0.868686 -1.032870 1.732653 -0.505701 -0.436863 -0.848644 -1.379675 0.018997 -1.979111 -0.871918 -0.953549 0.372802 -0.135665 0.084217 1.260660 -0.352136 0.263954 0.084662 1.214049 0.141892 -1.736375 -0.757963 0.604882 1.960796 -1.098315 1.209820 0.589354 -0.193867 0.836087 -0.926880 -0.149233 -0.331311 -0.169499 1.269277 0.650580 -0.589874 0.972519 -0.502842 0.684105 -0.376967 1.299465 0.544481 -0.109339 -1.330457 0.554235 2.125497 0.838925 -0.464346 -0.708171 -2.649567 0.628754 0.631528 0.332061 1.935462 -2.183199 -0.593806 -0.864980 -0.783006 -0.593737 -1.343917 -0.904026 -0.025036 1.334054 -0.079323 0.819888 0.219414 -1.390046 0.883962 1.171057 -0.159092 -0.672659 0.116376 -1.398296 1.301149 -1.342829 -0.092967 1.147526 0.322837 0.390291 0.605325 -1.953203 1.332724 0.289088 -0.957705 1.755625 -0.245331 0.386889 -0.052889 1.113893 -0.607527 -1.555335 0.256434 -0.569379 0.700969 0.242864 -1.034749
be 0.119095 -0.918507 -1.270567 1.237269 -0.219241 -1.390877 -1.081506 1.285793 -2.531221 0.274974 1.459647 -0.311705 0.847868 -1.374493 -1.250649 0.864327 0.580335 1.209664 -0.325358 -1.139625 0.405363 -0.784635 -0.995588 -0.097006 0.677151 -1.162767 0.689573 -1.465025 -0.479049 1.539841 1.392094 0.271976 -0.539901 0.362543 -1.222966 1.124438 -0.972670 0.053638 2.025725 -1.741336 -1.447947 -1.287925 -0.888743 -0.161479 0.808785 0.646022 0.450041 -0.009890 0.463713 1.040340 0.446857 -0.454793 -1.236775 -0.942817 -0.571025 0.216715 0.118056 0.899239 -0.268049 -0.927101 -0.069535 0.053906 1.105822 1.001844 0.802480 1.285246 -0.522686 -0.762837 -0.823775 0.162447 0.715501 -1.132923 1.716913 -0.216283 -0.665332 0.592521 -0.451180 -0.510592 1.627309 -0.627900 -1.133224 -0.979488 -0.028749 1.215669 -1.319753 -1.508234 -0.634353 1.027434 -0.082892 0.880683 -0.369124 0.130656 1.128792 -0.340269 -1.828285 -0.495977 -0.268076 2.239265 0.473259 1.716034 -0.115466 -0.392339 0.183151 -1.245762 -0.365411 0.590781 -1.164238 -0.243278 0.272041 0.662284 0.159328 1.260989 1.048678 1.582160 -0.365645 0.185012 -0.499695 -1.475072 0.424153 -2.516074 0.387908 0.046007 0.156136 1.291752 0.458360 0.308930 1.453588 0.200867
but -0.402741 0.240524 0.226002 -1.014960 -0.513538 1.315209 -1.558970 0.208473 -1.097431 0.247696 -0.285892 -0.153365 1.772814 -0.143665 0.082219 -0.477364 0.278633 -0.059923 1.648900 0.962001 1.113451 0.542960 -0.854688 0.039685 -1.715465 0.973797 -1.500355 0.764143 1.054554 -1.097189 0.243528 -0.364279 0.147882 1.522938 0.708558 0.310928 0.522514 0.317385 -0.460123 1.529250 -1.214887 0.793904 -0.203107 -0.354666 -0.332408 -0.653657 -0.000058 -1.611324 1.222361 -0.090459 0.485995 -0.489558 1.560704 -2.893103 1.260644 -0.524726 -0.627535 -0.285249 -0.461843 -0.016364 0.711155 0.077889 -1.063882 -0.788269 0.673813 -1.435837 -2.310933 -0.253690 1.024755 -0.301112 -0.037102 0.820564 0.874615 0.010748 -0.117497 0.288200 0.467905 2.752841 1.355618 0.081423 -0.580825 0.207783 1.476870 0.640866 0.958569 0.296751 0.947348 0.773442 2.130227 -1.505963 -1.236835 0.059226 -1.452291 0.130205 0.189191 1.599498 -0.121496 0.836983 -0.214741 0.459244 -0.456018 0.010606 0.187964 0.280409 -0.308844 0.408709 0.591280 0.325269 -0.528494 -0.040928 -0.317315 -0.024756 0.235179 -0.658934 -1.738083 0.605511 0.169492 0.056576 -1.100854 -0.363550 -0.898790 0.354993 -0.482128 -0.227699 -1.071595 -0.607605 -0.146284 1.108515
at 1.108109 1.017110 1.242728 0.274377 -0.837908 0.235045 -0.329458 2.581675 -1.315949 -1.861059 1.884218 0.647084 -2.025599 -0.421093 0.234731 -0.161147 -1.206211 -0.039223 0.652578 1.738648 -1.558222 -1.871522 0.934731 0.626633 0.135073 0.347902 -0.934737 1.712636 0.687224 0.699032 0.299288 -0.629318 0.777462 -0.937426 -0.116334 1.660863 -0.193290 0.123060 -1.449318 -1.365533 0.997310 -0.316425 0.236993 -0.412484 0.909525 -0.216616 0.908835 -0.896577 0.473906 -0.221727 -0.129526 -0.585065 0.986991 0.810140 -0.808642 -1.402707 -0.445712 0.246870 -0.763589 -1.032211 -1.365837 0.793113 0.762248 -0.652264 -0.486033 -0.493766 1.175114 0.216955 -0.032233 -2.014582 0.045846 0.878805 -0.391180 -1.403240 -0.780007 -0.162110 0.014096 1.630799 0.566679 0.138507 -0.869213 0.387833 -0.188842 0.101631 -0.558558 0.702055 -0.612568 -0.606234 1.232460 0.237209 0.910320 2.021997 0.189936 0.393096 0.688554 -0.511273 1.325500 -0.433190 0.424341 0.988026 -0.903238 0.503140 -0.699841 -1.847196 -0.976178 2.336241 -0.167338 -0.155302 0.581630 0.096589 -0.403907 0.031651 0.833172 -1.353462 -1.507508 0.901991 0.047340 0.868132 0.427911 0.364587 0.229506 -0.378709 -0.557234 0.295785 1.850893 -0.760002 1.297241 -0.628931
my -0.419562 0.291832 -0.299018 0.459067 -0.537634 -0.402399 0.053605 -0.815785 0.470114 -1.051023 -1.198175 1.492384 0.343940 1.394345 0.544903 1.701006 0.191749 -1.247969 0.636203 0.321184 -1.308023 -0.916050 0.371184 -0.199317 -0.714319 -0.209605 -0.673927 -0.763797 1.625891 -1.169967 -0.220572 -0.646825 0.567335 0.080917 -0.506706 0.718562 -2.883205 0.760139 -1.662538 0.064174 -1.278432 -0.035314 -0.800086 0.700703 -0.900625 -0.438155 0.635494 -0.376129 0.544003 1.111490 0.261923 0.524104 -2.132486 1.041157 1.272360 0.780648 -0.731005 0.242032 1.031574 -0.747035 -1.002381 0.282136 0.894648 1.923950 1.561827 -0.050775 -0.036899 -0.147218 -1.584789 -1.056977 1.762512 -0.389036 0.403756 -1.001426 0.190188 0.891399 0.391207 -0.400434 -0.519431 1.182626 2.253671 0.995359 1.394175 0.296373 0.608270 2.205839 0.160773 2.307637 1.307550 1.793245 0.342662 -0.327099 -0.248247 1.369133 1.088109 -0.608831 -0.172429 1.632191 -0.539004 1.040611 -1.107413 -0.400410 -1.288412 -1.212972 -1.487588 -0.494772 -1.262344 -0.061890 1.268191 -0.337146 -0.729762 -0.015811 0.090712 -0.859848 0.966226 -0.247489 -0.724645 0.343193 -0.763566 0.154696 0.076517 -0.408825 0.784818 -0.404596 0.186862 0.109726 -0.324290 1.062839
had 1.177857 0.193764 1.604541 1.017621 -0.962614 0.799987 0.710765 0.064119 -0.209276 0.598092 0.774452 -1.469179 1.029638 -0.794065 -1.338345 0.406060 -0.668275 -1.385112 0.700877 -0.156076 0.093823 -0.682719 -0.407338 -0.708909 0.536398 0.197865 -0.340599 -0.631876 1.083873 0.108889 -0.732649 -0.217640 -1.352767 -0.474250 0.862276 0.495301 0.824179 -0.825387 0.208597 1.499882 0.342812 0.756216 1.277752 -2.215077 -0.392444 -0.922480 -0.678645 -1.015218 -0.661501 0.301583 0.748242 -0.942634 -1.383900 0.453341 -2.994280 0.126357 -1.018124 -0.604764 1.394729 1.403178 -0.521125 0.451788 0.747253 1.767430 -0.005812 -1.219933 -0.252225 1.524947 -0.561312 -0.256845 0.404941 0.277564 3.002344 -0.431450 -1.108543 0.691289 -0.288036 0.620150 0.537803 -1.001795 -1.066944 -1.006731 -1.037313 0.041932 -0.430373 -0.249243 -1.311105 1.033824 1.091617 0.934671 1.870943 0.229902 2.116864 -0.575033 -0.351757 -0.262562 0.191135 0.814887 0.098195 0.131143 -0.270971 -0.268400 1.449940 -2.182940 -0.975636 -0.353395 0.175783 1.538157 -0.256028 0.176780 -0.785613 0.447506 -0.276722 2.205233 0.533131 -1.369216 -0.043049 0.464245 0.377637 1.048219 -1.917332 0.589760 -0.850499 0.371712 -2.502012 -0.470072 1.124310 0.570027
on 0.377909 -1.051270 0.968857 -1.554843 -0.315464 -0.802524 0.038403 0.657433 0.190051 0.515609 -0.202341 -0.046337 1.338693 -1.873844 -0.888135 -0.500934 0.337326 -1.987561 0.630264 -1.290718 -0.963161 -0.114302 0.992254 0.658986 0.481586 -0.136264 -0.848348 0.121852 -1.287689 -0.719889 -0.927179 -0.735118 1.191413 -2.343917 0.466850 1.413178 0.377896 -0.860292 0.378244 -0.272879 -0.481605 0.529233 0.376950 -0.423124 1.645986 0.035191 0.254445 0.101423 -0.340264 1.526959 2.814534 0.142990 -0.167402 1.173082 0.174803 -1.636866 0.834332 -0.140370 2.001365 -0.586956 -0.439419 -1.047869 -0.968701 1.338769 -0.412769 -0.347580 -0.055818 0.912934 -1.048750 -0.746595 -1.105500 0.585997 0.081253 0.842091 0.647488 0.494825 0.457412 -0.191814 0.343547 -1.129057 0.753031 -0.834219 0.249068 -0.659138 0.894826 0.152129 -0.774892 0.166557 0.364926 -0.329150 -0.142567 -0.120639 -0.492113 -0.797650 -0.562969 0.794414 -0.297722 -1.007581 1.739082 0.393862 1.462000 0.916437 1.040709 -0.038566 -1.226431 1.689833 0.202754 -0.363045 1.285664 1.104922 -0.129866 0.914383 1.167666 -1.113811 -1.376748 1.235438 0.606481 -0.551964 -1.027556 -0.952085 -1.706041 0.106830 0.658289 -0.142252 0.906920 -0.078583 -0.352640 0.209617
have 0.139191 -1.176452 0.147277 0.144635 -2.382426 0.173571 0.812815 0.695011 0.480908 1.002384 0.285656 -0.075219 -0.334557 -0.858212 -1.070382 0.548044 0.673205 -1.255975 -0.071500 -0.170229 -0.270407 -0.206024 -1.341667 1.164525 0.241669 0.687804 1.210030 -0.346879 1.120105 -0.657335 2.076218 -0.872002 0.187983 0.978043 2.013276 1.083077 1.635116 1.436889 1.798763 -0.856566 0.586162 -2.352225 1.267396 -1.227986 -0.072983 1.406119 -0.438536 -0.236157 0.094086 1.972572 -0.139830 -0.267848 -0.821346 -1.134041 -1.065505 0.150200 -1.322162 1.281434 1.018759 1.037865 0.136229 1.547805 -1.196581 0.429744 0.458879 0.095768 0.298111 0.207943 -0.352196 -1.539410 -0.260653 0.017912 1.526095 -0.383066 0.301157 0.891848 0.057288 -0.168021 2.537766 0.043022 0.382685 0.496561 -1.773882 -0.394008 0.713192 -2.633770 -0.984178 1.732712 -1.472343 -0.060910 0.069706 0.406684 1.705065 1.305121 0.138659 -1.519289 -0.648518 1.832251 -1.729089 0.965180 -0.188159 0.636162 -0.801387 -0.218170 0.639117 1.542902 -0.183374 1.713086 -0.868430 0.776689 -2.026474 -0.001602 1.518211 1.263806 0.424475 0.335711 -0.372097 0.359143 1.269265 -0.371490 -0.378264 0.058327 0.352407 2.215346 0.633580 0.808033 -0.181809 -1.189568
by 0.649590 -1.424150 -0.874694 0.737013 -0.333206 -0.372061 -0.624131 0.828535 0.618669 0.276863 1.398437 1.738381 0.437058 -2.975058 1.192854 -0.072223 -1.177616 0.478893 1.653864 -0.419305 -1.289267 -1.671408 0.895914 0.949960 0.386923 -0.688202 -0.484664 0.823190 -0.514266 -0.403751 0.802505 0.666910 -0.864528 0.303892 1.310811 0.442554 2.036635 -0.057628 1.043396 -0.185290 0.627687 1.252596 0.516886 -0.316815 0.135996 -0.793996 0.677730 -0.454012 0.441829 1.014074 -0.500786 2.096876 0.671696 -1.082991 -1.106991 1.950601 -0.030457 -0.267324 1.075678 -0.289406 -1.418543 -0.518268 -0.590210 -0.054589 0.225233 -0.435579 -1.740129 0.325193 1.070586 -0.927627 -0.171822 1.370588 1.716527 -1.425907 -0.233669 1.567534 0.728259 0.844567 -0.571351 -0.368120 -0.448418 0.663007 -1.514664 0.920993 -0.675717 1.035629 -0.542633 -1.464836 0.002798 0.381368 -1.265305 0.077175 2.077746 0.328705 -0.359156 0.104065 -0.641067 0.196082 -0.028780 -0.692960 1.190665 -1.141783 0.962906 -0.982096 0.108355 0.196352 -1.359057 1.521250 0.999727 -0.689666 0.748664 0.880848 0.125037 -1.905737 0.480653 0.791359 0.297123 0.095536 0.380680 -0.762594 -0.339280 0.823283 1.195738 -0.149021 -0.145872 0.462083 0.680171 0.911861
this -0.380274 0.825438 -0.687136 -0.105815 -0.530137 -0.351531 -1.950596 -1.278548 -0.283318 0.045609 0.845064 -0.681972 -0.472722 1.631349 -1.055727 -0.645885 0.271340 0.531419 0.739515 1.406373 0.600930 -0.317071 -0.458441 -0.835220 0.394590 -0.544378 -0.199338 -1.128987 -0.956449 -1.055596 0.665952 -0.660090 -0.575428 -1.662952 0.300951 1.113312 0.480007 -0.578031 -0.450932 -1.118777 0.588161 0.493228 -0.357188 0.756411 -0.416409 0.754558 1.400920 1.275792 0.826121 -0.383237 -0.241162 1.264900 -0.325667 -0.583085 -0.939494 -1.230754 -1.976710 -0.576324 -0.999084 -0.180265 -0.346238 -1.238702 -0.387092 0.728514 0.836229 -0.983477 -0.276670 -0.114496 -0.568248 0.899207 0.349949 0.716820 0.770735 -1.148361 -1.087108 1.078269 0.249161 0.978135 -0.170251 -0.375837 -0.712798 -1.246348 0.098106 2.574488 0.974937 1.189885 0.275216 -0.618111 2.450645 0.756002 0.411673 0.550266 0.384067 0.148920 0.599915 -0.073359 -1.620002 1.168107 1.008659 0.679252 -1.535318 -1.381396 0.237012 2.204704 -0.590248 -0.977432 -0.970068 -0.456019 0.798849 0.173144 0.085441 -2.085703 -0.121962 0.516137 -0.906177 0.088657 1.012093 -1.285381 -0.419692 2.628166 0.959535 0.262140 1.683235 -0.179525 0.210083 0.176176 -0.394441 -0.303757
or -0.986587 -1.253597 -0.644196 -0.365133 -0.830052 -0.598745 0.505344 0.737873 -1.806356 -1.799027 1.591758 -1.237833 1.003524 -0.771354 -0.404283 -1.454224 0.066822 -0.169624 -0.238322 -0.497838 -1.473639 -1.737654 0.566243 0.224578 -0.680456 0.723743 -0.638106 -0.312320 0.983132 0.203901 -1.351354 -0.559281 0.155443 0.486056 0.183761 1.543263 0.653210 0.443478 1.012121 0.336906 0.637831 -0.051224 1.784656 -0.019409 -0.938870 -1.476234 -1.198025 0.243290 -1.325632 0.059240 0.945124 -0.636100 -1.153699 0.041895 1.774301 1.757151 -0.421692 0.615469 0.563019 -1.186811 -0.317490 -1.370330 -0.131074 -0.971087 0.079438 -1.388922 0.508424 -1.253116 0.739468 -0.213874 -0.880492 -0.539096 0.705510 -0.844334 -0.019448 0.091745 0.851570 1.218765 -1.464986 0.192215 0.106541 -0.815608 0.603469 1.214388 0.635658 0.877811 0.030226 -1.031233 -1.039529 1.590493 0.524951 -0.695784 0.552273 -0.350227 -0.110058 1.176610 0.193976 1.792012 1.658998 0.726778 -0.441966 1.072543 0.214905 0.685946 -0.124205 0.798978 1.401255 0.615484 1.517874 0.128946 0.435998 0.748878 2.395067 -0.752868 0.819389 -1.290556 1.574025 -1.175899 -0.984640 0.841332 0.219986 1.836070 0.031053 -0.446632 0.414360 -0.393824 0.843470 0.925400
which -0.438163 -0.709623 -0.142494 1.429945 0.270985 -0.877905 -0.209940 -0.307134 0.840478 -0.713498 -1.648978 -0.652209 2.254698 -0.078342 -0.416188 0.729652 0.070271 -0.447653 0.248464 0.837549 -1.140234 -1.876455 -0.631415 -1.362490 -0.569545 -0.270740 1.601043 1.394688 -0.945475 0.708384 0.392777 -0.043370 0.225563 1.334023 1.391881 -2.281947 1.780633 -0.747332 0.971672 -1.058892 -1.037740 -0.035437 -0.284375 0.223887 0.359857 0.621087 -0.807183 -0.479658 1.261948 1.009091 -1.152648 0.155132 -0.682729 -1.141986 -0.117293 1.334204 -1.140374 -0.146107 1.319523 0.068002 0.941774 -0.056878 -0.302989 -1.019702 -0.015587 -1.714604 -1.624157 -0.758082 1.857313 1.053595 -0.063392 1.691726 -0.443936 -0.525592 -0.366938 -0.728629 0.340719 -0.411154 0.911178 -0.271232 0.578708 0.191071 2.710353 -0.513345 0.817282 0.160310 0.184443 0.066388 2.088503 -0.455886 0.855245 0.624730 -0.166899 0.851678 0.844817 0.388950 -1.276405 -0.092355 -0.259828 -1.516466 -0.700746 -1.539032 -1.532885 -0.030651 -1.520535 1.513620 -0.220123 -1.928891 0.911207 1.640892 0.192483 -2.506962 0.427084 0.297005 -1.976908 0.742973 -0.608056 0.299565 0.564615 1.452754 -1.628050 0.822654 0.217994 -0.259010 0.571811 1.290405 0.711210 -0.290425
me 0.400619 2.466413 -0.395734 0.124734 -1.548330 0.459344 0.619412 0.534241 -1.855318 1.661902 0.169978 0.051965 0.156308 1.493460 0.562172 -0.173093 -1.075279 0.013170 0.527107 -0.608606 -0.535120 -2.403304 2.184452 0.017917 -2.038692 1.546837 0.903220 -0.937820 -0.482628 -1.171248 0.609467 0.719073 -1.004698 -1.376065 -0.895739 -1.253453 -0.194219 0.287519 0.827088 -1.999836 -1.382540 -1.274685 2.135739 -0.057313 2.045881 1.512210 -0.223562 -0.074426 0.350045 -0.824109 2.053891 -0.011352 -0.206023 -0.335794 0.443060 1.336121 -1.083431 1.459359 -0.356504 0.677653 -0.137981 0.634622 -0.047479 -1.266666 0.877629 -0.486770 -0.672185 -0.974827 -0.551315 -0.861217 0.334381 1.149077 0.929643 -0.090668 0.572872 -0.699322 1.893047 -0.121228 0.045035 -1.440257 0.028425 1.147090 0.814784 -0.159638 0.004982 0.273569 -1.270917 0.631643 -0.701407 -0.192485 -1.063572 -0.652329 0.894305 -0.555406 -0.590173 -0.441229 0.844600 -1.709782 1.667117 -0.241765 0.303313 1.349594 -1.765301 0.132814 0.006729 -1.096168 0.290152 -0.614437 1.021824 0.417708 -1.813524 1.089556 -0.832243 0.594254 0.078672 1.299956 -1.972576 -1.417262 0.050639 0.822329 -0.089944 0.063216 0.528040 -1.208499 0.308067 -1.511902 0.429304 -0.723938
all 0.193224 -1.192657 -1.505546 0.180757 0.133672 0.169150 -0.335121 -0.105679 -0.236289 -1.422763 1.122506 1.710813 -0.346235 -0.012613 -1.443486 0.953810 -0.363931 1.132714 -0.460313 -0.942292 0.673023 -2.573636 -0.124576 -1.852846 1.783171 1.117407 -0.677379 1.041893 -1.399582 0.379251 -1.168031 0.926270 0.362114 0.310016 -1.685048 0.257143 0.213875 0.563179 0.213168 -0.179896 1.313756 -0.711228 2.133372 1.926263 0.101113 -1.085467 -0.600332 1.233256 0.795009 1.511771 0.924365 0.065525 -1.310510 -0.696706 -0.416200 -0.773449 -1.062625 1.824637 -0.518172 0.022077 2.850659 -1.011282 -0.640876 -0.395398 0.949668 0.270989 -1.786792 -0.251478 0.254865 -0.238706 -0.405466 0.700854 -0.840689 -2.351650 -0.659512 -0.059194 1.813346 -1.019860 0.101346 -0.780951 -0.745068 -0.038067 0.885311 -0.128197 0.252607 0.325638 -0.908227 1.648220 0.163448 -1.095248 0.306623 -0.568698 -0.003233 0.924541 1.303180 -1.628239 1.391391 -0.580321 -0.543084 1.596392 -0.792426 -1.509269 1.524110 0.488077 -0.866682 -0.802912 0.769501 -1.696609 0.164565 0.129738 1.235195 -1.482467 -0.779637 -0.515862 -0.073860 -2.218914 -0.906325 0.112927 -0.756293 -0.936630 -0.002199 1.809864 1.253668 -0.042990 -0.937708 -0.331188 -3.573389 -0.306550
they 0.421715 0.528351 -0.725617 0.116941 0.820200 1.619564 -0.064719 -0.636586 2.245966 0.310703 -0.419644 -0.322335 -1.099306 0.410589 1.024378 1.889843 0.013613 -0.226468 0.517082 0.413870 -1.656929 -1.214742 0.391392 -1.821804 -0.544748 -0.572518 1.253438 0.713715 2.565797 3.139986 -1.000718 -0.564958 0.035589 -0.480212 1.589049 -1.172991 -0.967350 0.293287 -0.042126 -0.416584 -0.593662 -1.248560 0.025482 0.159128 0.786554 0.196596 1.103470 0.363297 -0.215369 -0.276177 0.432595 0.157733 1.078248 -0.382807 1.553389 0.443097 1.267660 1.472822 0.163855 0.528999 -0.355999 0.245325 -1.393372 0.472132 0.417474 0.216544 1.134743 0.544203 1.355599 0.104492 0.400242 1.104172 1.426931 -1.963834 -0.844420 1.398154 0.537659 -1.231294 -0.269918 1.006444 0.656967 -0.166886 1.241911 1.634353 -0.250508 -1.236703 -0.938920 -0.291249 -2.133289 0.270090 -2.405413 -0.813024 0.254033 -0.890356 0.050682 0.800860 2.658236 1.388480 -1.333991 0.382903 -0.469141 -0.557214 2.378448 0.003424 -0.410535 0.303977 -0.946418 -0.304776 -0.994949 0.021883 -0.361438 -1.866965 0.679265 0.362458 -2.387733 -1.101991 0.110809 -1.637378 2.792516 -0.608254 0.508916 -1.286292 1.540557 -0.052041 0.115676 1.023017 -0.077745 1.796480
her 1.065521 0.316236 -1.507486 0.228029 0.316579 0.903685 -0.300975 0.365478 -0.083536 -1.010386 -0.798029 1.276161 1.676075 0.548639 -0.945777 1.092824 -0.036933 1.592254 -1.075835 0.044104 0.122451 -1.862449 2.462774 -0.745628 -0.138304 0.845430 0.829552 -1.029172 -0.551183 -1.452039 -0.744580 -1.532856 0.641228 -1.439726 0.452998 -0.727103 0.814356 -0.406258 -0.091634 -0.099248 -0.794145 -0.623771 0.954887 -0.787510 0.627145 1.839292 -0.102619 0.014523 0.118675 -1.041708 -0.311555 -1.307165 0.024737 0.848699 1.559614 0.382556 -0.470260 0.934937 1.864720 -1.627965 -0.426450 0.734401 -0.542913 -1.233148 0.451487 -0.848086 0.230963 0.770014 -1.312005 -0.408763 -0.951150 1.217961 -0.383581 0.047106 0.105714 0.798615 0.236778 -0.523114 -0.444479 -0.756894 0.131634 0.449855 1.891105 2.154440 0.696386 0.474703 -0.306538 1.117748 0.855583 0.828801 0.040682 -1.249352 1.316568 -1.042078 -2.069717 0.160701 -0.141953 0.897057 -0.486121 -1.687335 0.050003 -1.124421 -0.717418 0.015564 -0.007438 -1.864611 -0.882277 -1.926451 1.403045 -0.887548 -0.577439 1.749655 -1.359739 -0.683221 1.290175 0.694266 -2.321034 -0.240010 -1.284581 0.615688 -0.730515 0.046513 0.018879 0.593349 -0.374410 0.145762 -0.733339 -0.218146
him 1.142168 -1.442216 -0.202794 -0.698751 -1.272866 -0.058359 1.088761 -1.392071 -0.695988 0.691962 -0.889003 0.501778 -0.034229 0.712945 -1.478786 -1.206683 1.011900 0.264812 -0.765928 0.596348 0.200494 -0.929195 1.856272 -0.880935 -0.173308 2.138995 0.530927 -0.406789 -0.636096 -0.907515 -0.196105 0.238087 1.318674 0.167144 0.456590 0.523564 0.416558 -0.776875 0.123848 0.363112 -0.484223 -0.817024 1.544374 1.851954 1.189550 1.509450 1.121428 -0.561355 1.598484 -0.126335 0.010393 -0.857498 -0.141252 -1.280662 -0.639512 0.865283 -1.355999 1.814886 -0.375869 1.599278 -1.161516 1.240245 0.020404 -0.192882 0.377716 -0.456402 0.060308 -0.938519 -0.061018 -1.165161 -0.163358 0.273640 1.615243 -1.517399 1.418692 -0.719218 1.688705 0.150183 -0.159172 -0.726599 0.419686 1.129459 -0.589674 -1.510450 -1.870544 -0.055188 -0.610219 0.495650 0.155024 -0.430077 -1.404584 0.359694 1.214900 -0.370575 -1.325024 1.234702 0.525732 -0.322373 -0.605842 0.517165 0.692536 -0.619741 -1.372389 0.273734 -1.270426 -0.758024 0.046087 -1.704172 0.603399 1.691707 -0.805383 1.027884 -1.513801 0.630185 2.277432 1.987454 -1.198659 -2.622380 0.964370 0.637789 0.578933 -0.491646 -0.633725 -1.916933 -0.181292 0.603891 -1.123491 -1.215487
she -0.876162 0.324744 -0.771345 0.452194 0.120667 0.049956 -0.238420 0.133435 1.151127 1.503759 0.815403 -0.526604 -0.136175 -0.070706 -0.392066 1.873252 -0.013270 -0.729847 1.053841 0.186027 -2.536554 0.218801 -1.465057 -0.176239 2.341312 -0.846997 0.485557 1.799477 0.294400 -0.126858 1.346461 1.335934 1.336763 1.053077 -0.143187 -0.549346 0.535761 0.206534 -0.000971 0.181859 -0.315992 -2.700234 0.522945 0.013093 -0.296734 0.183319 0.359509 0.053116 0.088383 0.620329 -1.267283 -0.690191 1.258111 -0.850075 -0.402212 -0.276318 0.692996 -0.517712 -0.218620 -0.997943 -0.309689 -0.624430 0.753261 2.555298 1.284510 -0.343806 1.467903 0.256570 1.551744 1.171519 -0.320986 -0.083936 0.645812 1.316697 0.515976 2.124542 -1.135244 1.105209 0.195969 -0.379322 -1.435510 -0.344697 0.018840 1.905831 0.176857 -1.337970 1.009734 1.574271 0.559475 -0.160917 -0.715559 -1.035620 -0.247723 -3.079655 -0.287964 -0.432494 -0.653763 1.537463 -0.936004 0.226505 -0.561015 -1.817810 0.325425 -0.918520 -1.405764 0.566684 -1.369339 -2.532873 -0.266637 1.065972 -0.569347 -0.947163 -0.049863 -0.814161 -0.961547 -1.142282 1.030245 0.295193 -0.432995 1.855892 0.511939 -0.125222 -1.208906 0.459642 0.188849 -1.422500 -1.137524 0.613116
so 0.380195 -0.050458 0.620835 0.079002 0.682431 0.710068 -0.465266 1.470304 -0.137545 -0.921979 -0.858739 -0.670017 2.053825 -0.424399 -1.633840 1.091675 -0.241082 -0.064580 0.321504 0.275588 0.803548 -1.606191 0.769341 -1.402688 -0.407634 -2.421528 -2.114696 0.731038 1.839433 0.180358 -2.843274 -1.037745 -2.190877 0.490355 -0.310891 0.788309 0.169714 -1.681450 1.657871 -0.639214 -1.101081 0.370296 -0.130661 1.543226 0.801113 -0.730638 1.559051 2.187537 -1.718849 0.387373 -1.373994 -0.187917 0.489970 -0.131048 2.020761 0.334133 -0.543611 0.429006 -0.623752 0.569864 -1.986621 -0.912731 1.578930 0.941417 1.027789 -0.937504 0.136523 -0.127530 0.613453 -0.978150 0.865494 0.399436 0.995669 -1.132453 0.685219 -0.119373 -0.476202 0.212497 -0.812356 -1.201935 -1.636842 -0.035662 -1.698902 0.296927 0.534378 -1.569086 1.721568 -0.197385 -0.646729 -1.087117 -1.841281 0.847419 -0.230374 0.956100 -0.297339 -1.848285 -0.167386 -0.132900 0.633068 0.188699 1.081575 -2.026821 -0.043396 0.369532 -0.250163 0.801985 -1.446165 -0.058220 -0.292039 -0.002883 -2.042899 0.710908 -0.393585 1.230894 -0.421169 -1.077950 -0.538428 0.267880 -1.128973 0.741700 2.177215 -1.214840 0.537513 -1.560585 -1.029742 0.824701 -0.565676 0.607663
are 0.227461 0.976239 -2.375324 0.178204 -2.647623 1.520857 0.391681 0.375228 -0.174420 1.726501 -0.772108 0.580515 0.603937 0.422557 -0.708701 -1.172088 0.188960 -1.264403 0.285174 0.693550 2.316341 -1.287768 -0.884225 -0.651218 0.441300 0.077314 0.747144 -0.127911 -1.434925 -1.579733 -0.701126 -1.415349 -1.953006 0.673810 1.426060 -0.684603 -0.478534 0.557476 0.771486 0.369496 0.803932 0.200747 1.014797 -0.583760 1.662846 0.561467 1.282710 -0.296211 -2.457266 0.793960 1.561523 -0.200177 -0.618371 -0.809438 -0.520057 -2.316367 0.744330 -0.166845 -0.234431 -1.656346 -0.258422 -0.658567 0.367982 -0.326778 0.407867 -0.310657 -2.107460 1.253648 2.320786 0.895906 -0.070187 -1.082969 1.164696 -1.756988 0.036618 -0.198714 0.704272 -1.059827 1.238383 -0.921779 1.041241 -0.372723 -1.725023 -0.683669 0.899566 1.352875 -0.785473 -0.903778 -1.712000 0.771646 0.891776 -1.560948 -0.141956 1.802006 -0.649797 1.511566 1.378533 0.802545 0.721753 -1.892850 0.381264 -0.808063 0.734250 -1.116828 -1.462117 0.327214 -1.287892 -0.582769 -0.728169 0.668616 -1.566886 1.156655 1.464576 0.870892 -0.305848 -0.445501 -0.005170 0.420123 -0.156192 -2.472156 -1.468352 0.003355 1.439446 -0.559860 0.705698 1.027318 -0.654133 1.154727
said 1.482687 -0.775092 1.462268 1.691486 -0.220216 -0.748211 0.877963 -1.588403 -0.018918 -1.349971 -0.540495 0.911945 1.134497 0.261992 -0.467716 -0.147144 -0.327863 -1.317842 0.670991 -0.329559 -2.159842 0.885847 0.953538 1.337313 -0.675577 1.087591 -0.971521 -0.118916 -0.875556 0.164439 -1.177131 -0.096990 0.118874 0.279701 -1.183590 -0.719077 -2.355419 -1.102236 -0.855595 -0.819300 1.492501 0.171774 0.091485 0.238947 0.802624 0.376440 -0.354465 -0.214281 1.426483 -1.459497 1.143750 -1.586188 2.262865 -0.876983 -0.587607 -0.304980 -1.068480 -0.687573 1.024528 -1.317270 1.095340 0.586191 -0.057600 0.394820 1.661508 0.428890 -0.332553 2.363851 -1.258446 -0.269941 0.767703 0.520383 -1.320182 0.488877 0.750542 -0.666593 0.975498 0.661077 0.796003 -0.559205 1.122595 -0.523024 -0.664459 1.237597 1.729318 0.077748 0.457675 -2.171397 0.099103 -0.257606 -0.153683 0.421154 -1.311492 -0.863496 1.191411 0.173791 0.223257 1.546769 0.005773 0.069866 0.416621 1.020749 -1.979777 -0.006255 -0.094669 0.864389 0.207776 -0.376035 0.555035 1.944369 -1.784002 0.860606 0.685499 0.081109 -2.767603 -1.970807 -0.014422 -0.714899 -0.264252 -0.479940 -0.703688 0.097946 -2.951615 -1.776488 -1.148839 0.651421 0.396825 -0.192054
from -0.608540 -0.837345 0.327605 -1.778704 1.322300 -1.283476 -0.755019 -0.198021 -0.601998 0.187398 -0.126861 -0.689560 -0.136506 -1.504977 0.663321 -0.035005 0.229170 -0.499684 1.991550 0.588719 0.808725 -0.811308 0.308171 -0.125314 -0.091232 0.193824 -0.891705 0.431570 0.465662 0.090045 -0.680704 1.201231 -1.481618 -0.787916 -0.322148 0.766906 -0.374401 -0.987711 -0.987415 -0.529186 -1.626433 0.610085 0.224006 -0.420244 0.346974 -0.558487 -0.226581 -0.262068 0.188480 0.280985 0.034614 1.785575 0.385101 -0.924867 0.090349 0.605487 -1.622739 0.169483 -1.498601 0.247937 -0.678776 -0.973741 0.277055 -0.280209 0.280842 1.494634 -1.310198 1.405504 1.376820 0.877547 -0.797998 0.633453 0.843986 0.344021 -0.443472 1.406817 -0.959243 2.998246 -1.828623 0.951793 -1.277632 1.293568 0.179112 0.256130 0.451493 1.457714 -0.828212 -1.138138 0.428834 0.907806 -0.425871 0.577649 0.482897 -0.407057 -1.355986 1.301731 1.304280 -1.318892 0.417015 -0.666098 1.590455 1.034056 0.124517 -1.731608 -0.032324 0.682065 0.022785 -1.353859 0.658979 -0.298046 -0.915385 -0.284563 1.740393 -0.853407 -0.747671 -0.553596 -0.953436 1.954347 0.997500 -1.003356 -0.029318 1.296975 0.702970 0.010077 -1.432689 0.842723 -0.810674 -1.263821
one -0.286852 -0.326697 -0.594760 1.738515 -0.174934 -0.507174 -1.049689 0.575661 -0.574715 -0.004571 0.398841 1.319376 -1.203017 1.709116 0.638240 -0.394973 0.236954 -1.079903 0.266622 -0.167809 -1.262558 -1.099983 -1.338067 -0.902587 2.150216 -1.578155 -1.761305 -1.654678 1.350608 -0.135877 -0.324382 -0.995066 -0.983124 0.840710 -1.455668 0.554295 0.508244 1.145216 0.033087 0.510538 1.372164 0.108473 -0.495012 -0.287007 -0.502010 2.017829 0.332560 0.414695 0.436699 -0.459460 0.802655 0.147420 -1.585741 -1.011168 -0.467464 0.808934 -0.135045 0.655148 -0.532701 1.379839 -0.501298 -0.662584 -0.126207 0.848657 -0.710785 -1.725834 0.589579 0.710777 1.436297 -0.971332 -0.989194 0.621971 0.682464 0.345141 -0.858033 -0.678683 1.771822 3.046818 -0.336046 -2.338183 1.356677 -2.039372 0.552302 -1.179218 0.616030 0.779165 0.244519 1.554413 -1.829489 0.173113 0.121969 0.640920 1.076386 1.324802 -1.335100 0.505491 -0.823802 -1.469035 -1.850464 0.297731 1.376741 -0.072850 -0.248547 0.798167 -0.308702 -0.852823 -0.007819 -0.340275 0.781198 -1.998974 -0.790850 -1.768939 -1.204780 0.197331 0.745071 0.083143 -0.309410 0.543421 0.417512 -1.710979 0.332282 0.953844 0.885714 1.422139 -0.002493 -1.875739 0.021766 0.083795
were -0.416805 0.743246 -0.375511 -0.015018 -2.308992 1.565509 1.102186 -0.335702 -0.406520 2.394283 0.332987 -0.344376 0.198562 -0.595223 -0.025924 0.183141 -0.934422 -0.531525 0.250049 0.884458 2.405880 -0.888756 -0.729108 2.573453 0.577472 -0.084391 0.163495 -0.576503 -1.321691 -0.087996 -0.606833 0.001478 0.352514 -0.419757 0.697663 0.681559 -1.078044 -1.768994 -0.770687 -0.112596 -0.926034 0.153731 0.275784 -0.264674 -0.533283 0.244939 0.373720 -2.806459 -2.034612 0.496624 0.345205 -0.912247 1.637056 -1.058096 -0.942523 0.828907 0.543969 1.273966 1.124114 -0.935747 1.444983 -0.531848 1.016855 0.167735 -0.439270 0.068868 -0.247675 0.127659 0.553227 1.297205 0.033603 -0.654509 1.672771 0.785259 0.240226 0.853879 -1.225099 -0.561431 0.144821 -0.258939 -0.997212 0.520907 -0.451372 -0.250389 -0.544208 -0.227802 -0.198776 -0.500602 -0.004657 1.364202 -0.113015 2.009372 0.710896 1.286897 -0.791134 -0.718695 1.941896 1.201033 0.839418 0.624126 0.013594 0.287563 1.362347 1.092408 -1.170467 0.342913 -1.074544 -0.074808 0.742187 0.134035 0.135411 0.646560 2.022595 1.268797 -0.049880 -0.066237 -0.813097 0.605247 0.183583 -0.028444 -0.323884 2.614730 -0.579395 0.157870 0.843764 0.003014 -0.880286 1.212804
if 0.101860 -0.961098 1.095107 -1.390820 0.130971 1.111376 -0.030713 0.436269 -0.112668 1.405702 -0.365747 0.539386 1.654110 0.667384 -0.487138 0.753691 0.270412 0.874720 0.004233 -0.401737 0.656313 0.510991 -1.047475 -0.018793 0.342952 1.657595 -1.794570 2.297740 2.166535 2.265688 -0.730251 0.229825 -0.846576 -0.518233 -1.022513 -2.904032 1.081949 -2.563706 -0.930502 -1.970930 1.813691 -0.158007 1.451414 -0.004020 0.316506 -1.099363 -0.896878 -0.607959 0.172920 -1.005550 0.951883 -0.913946 -0.597183 0.009036 -1.573443 0.799490 -0.430530 -1.765124 -0.447926 0.121920 -0.605889 0.757231 0.662292 -2.066623 1.834118 -1.293841 1.152905 -0.216352 2.347131 -1.381473 -0.938573 -0.259549 -0.251007 0.407940 -0.406850 0.592726 -0.717840 1.169603 -0.538941 -1.187632 -0.110568 -0.076577 0.561349 1.438646 0.482238 -0.421251 -0.892704 1.211200 -0.964028 1.764089 0.376213 -0.052294 -0.777986 0.934996 -0.920298 -1.825785 -0.465047 -0.291967 -2.377261 -1.143337 1.871895 1.714478 -0.462491 -0.655389 1.268280 0.166399 -0.944198 -0.099613 -0.656965 2.777163 1.585627 -0.372776 0.158134 -1.393413 0.101565 1.007151 -1.042915 -0.421795 -0.471779 -1.129825 1.502193 1.236331 -0.479976 0.734946 0.365317 0.046485 -0.627277 0.054002
there -0.264432 -0.322134 -0.545371 -0.312034 0.490753 1.903004 0.834796 0.121696 0.907776 2.394979 0.644098 -0.794359 -0.159321 0.347413 0.398033 1.081576 -0.209857 -0.065279 0.785760 -1.745566 1.690839 -1.942433 0.851820 -0.321352 0.732641 -1.765217 -0.628008 0.452969 -0.272651 1.547155 0.537092 -0.885838 -0.149089 -0.621851 0.050018 1.347374 1.667871 1.495959 -1.735955 -1.794508 -0.569927 -1.289616 1.622865 -2.372850 0.586571 -1.063631 0.409576 0.811362 1.713276 -1.698255 -0.615944 -0.798560 0.638462 0.376572 -0.354164 -2.161587 -1.272530 2.389618 1.401263 -0.041472 -1.098967 1.000157 0.506933 0.509560 1.411654 -0.557345 0.546543 1.248329 0.114749 0.787766 -0.520177 0.602122 -1.329974 -0.382772 -1.154563 -0.311546 1.535493 -0.921269 -0.280904 -1.149008 0.465094 -0.686111 2.603948 0.629563 0.071336 -1.004810 -0.741302 -0.642149 -1.019154 -2.223373 -0.071692 -0.759375 -0.733079 -0.289618 1.230997 -0.375598 -0.735443 -0.214505 0.433639 1.171163 2.244588 -1.249061 0.644067 -0.291067 0.874723 1.150171 -0.876569 -0.184603 1.488971 0.944580 -0.281686 -0.242096 -1.021877 -0.669827 0.741702 0.421183 1.370455 -0.436569 0.446097 -0.723568 2.266105 0.317550 -0.112395 1.056565 -0.621986 -0.405407 -0.934834 0.275692
when 0.035063 0.320378 -1.317175 -0.135919 0.558146 0.180042 -0.088167 0.457313 -0.660860 -0.143543 0.312933 0.033155 -0.199706 0.275544 0.888567 -0.155458 -0.279291 -1.256242 0.120579 0.669426 -1.235364 0.283413 2.395041 -0.708361 -0.734145 -0.434756 -0.816034 0.597093 -0.040040 1.876010 1.003219 0.575815 -0.395605 0.103995 0.468957 -1.634288 -0.392274 -0.731664 -0.964690 -0.900195 0.529528 -0.827031 0.837319 0.848709 0.421593 0.326240 -1.117399 -0.087647 0.484927 1.069473 1.237142 0.886159 0.554445 -1.305130 0.805933 -0.854892 -1.086276 -0.926472 -0.447335 -1.966658 -0.158781 -1.584020 -2.030720 1.136818 1.402556 -0.567230 0.552947 0.803360 0.802394 0.055495 0.078674 -0.039722 -1.405051 0.255979 0.969662 1.108125 -1.007345 1.913506 1.125695 -0.783423 -0.198944 0.666380 0.181189 -0.437797 0.553206 -0.806553 -0.903430 0.609087 -1.550917 1.843472 2.780731 1.487066 0.938599 1.866354 -0.518893 -1.294857 0.383583 -1.430619 0.478962 -0.543104 0.025658 -1.198096 0.735345 -0.451319 1.416255 1.206998 -0.796065 0.536118 0.986191 1.062764 0.061923 0.258156 0.543138 0.327914 -0.117131 0.036951 0.862940 0.104084 -0.844646 0.770451 -0.832123 0.004014 0.553347 -0.543085 2.238166 0.564793 -0.901931 0.033155
an -0.649643 1.126482 -0.383729 1.211315 1.467350 0.599180 0.080273 -0.123789 -0.535826 2.088909 -0.210188 -0.206682 -1.657802 0.779319 -0.310776 -2.026764 -0.421097 -0.564249 -1.028790 1.313387 -1.048463 0.917922 1.965928 0.809075 -0.152906 -0.497152 -0.536801 0.326890 -0.175151 -1.385231 -0.903100 -0.161578 -2.360935 0.866005 -0.462862 -0.537069 1.178101 -0.153894 0.314480 -0.380741 0.749424 -1.201445 -0.429615 0.381446 -0.719652 0.807317 -1.424574 0.337778 -0.206954 -1.026371 -0.563918 1.006941 -0.672586 0.517858 0.612892 -0.091362 1.382942 0.870474 0.179269 -2.109365 -1.947827 0.872506 -1.216266 2.522990 -0.203017 -0.678217 -0.031604 -1.663387 -0.516120 -0.771971 0.840293 0.583800 -0.626061 0.017154 -1.140626 -0.296740 -1.808781 0.083971 -0.169965 -0.768560 -0.968670 -0.247665 1.373611 -0.824449 -1.099194 1.087956 1.412385 -0.528904 0.166184 0.285906 -0.127057 -0.347320 -1.120334 3.172994 -0.137002 -0.213744 0.172901 0.308611 -0.196579 0.698452 -0.931374 0.756688 0.741946 0.830351 -1.664863 0.924151 -0.665227 -0.417499 -0.601475 1.001624 -1.002434 0.203876 0.460153 -0.169922 1.786211 -0.988426 0.606826 -2.422627 -0.276363 -0.548493 2.033669 2.847106 -0.345150 0.273918 -0.966475 -0.365969 -1.073445 -1.875953
no -0.420625 0.746924 0.801014 0.385950 -0.321827 0.446506 -1.483383 0.203196 -0.955291 -1.733023 1.028955 0.474728 -0.018853 1.265369 -0.138186 0.209153 1.719873 -1.186339 0.927950 0.347879 -0.833908 -1.026560 1.450007 1.521804 1.233617 0.289723 0.440582 0.756393 0.692952 -0.990509 -0.042289 -0.986216 -0.147138 0.356487 0.453728 -0.662010 -0.020158 1.601926 1.048516 0.703815 -2.121127 0.073579 0.170961 1.834978 -2.029493 0.140272 -1.013946 0.354464 -0.524243 -0.665768 0.001569 -0.115945 -0.249624 0.780859 0.165171 0.748111 1.732252 -1.014132 -0.763081 0.572571 -0.688046 0.092235 0.482960 0.643597 -1.624941 2.196367 -0.058807 0.903115 0.137881 0.209787 -0.933693 2.221737 -0.462961 2.503605 -0.867885 2.276427 -1.206735 -1.090572 1.317898 -0.191566 -0.913326 0.521504 -0.425741 -1.049911 0.794079 -0.975402 -2.089787 -1.030989 -0.580606 2.406536 3.084661 -0.242299 -1.769899 -0.366002 3.542373 0.000515 -0.153996 0.806226 -0.967871 -0.114398 1.194139 0.253554 -0.546639 1.166782 -1.247337 0.257818 -2.038025 0.035722 -0.820621 -0.383779 -0.295786 -0.408689 -2.473151 -1.174036 -0.468002 0.412838 0.436458 -1.827436 -1.808028 -0.339495 0.758566 1.950298 -1.116087 0.939322 1.536064 0.006052 -0.975757 1.234226
who 0.514766 0.599393 -0.870085 -0.022283 0.143331 -0.505885 -1.427574 0.002021 -0.672981 0.531365 0.555821 -2.110565 -0.110185 0.207147 -0.238400 -0.501942 -2.137938 -0.869234 1.126058 -0.385515 -1.666956 1.273349 -0.672461 0.325571 -0.372831 0.736878 -1.229151 1.548863 -2.310910 1.398062 1.091128 0.326016 -0.720177 2.082928 -0.398458 -1.384464 -0.319508 0.877025 -0.220904 -1.359561 -0.274345 0.336285 2.292810 0.024610 -1.928417 -0.374415 -1.222588 -0.419595 0.513385 -2.377635 0.787470 -1.894112 -1.417214 -0.289728 1.140622 0.194699 -0.937554 0.532636 1.163901 -1.213991 0.851779 -0.087586 0.096409 0.504302 0.562348 0.438571 -0.508330 -0.532941 0.959517 -0.187558 -2.764254 0.609008 2.910129 0.475357 -1.404278 1.986260 0.375347 -0.560343 0.093795 -0.491342 0.138023 1.675861 0.784338 -0.195159 0.352864 -2.131326 1.551015 0.149223 -0.964331 0.684036 -0.561815 -0.882862 -0.797397 -0.445709 0.339461 -2.274108 0.128578 0.269862 -0.516378 0.868625 -0.635058 0.573802 -0.347999 0.128132 -0.432179 1.026562 2.179776 -0.442601 2.379140 1.168485 -0.109326 -0.195863 -0.991777 -0.911843 1.191386 0.263927 1.600432 -0.702678 1.905334 -0.742399 -1.761774 0.308601 -1.014639 0.035223 0.150678 1.241715 -0.609613 -0.380920
their -0.490929 -0.964720 0.027399 -0.051940 -0.797640 -0.998082 -0.602039 -2.370988 0.445187 0.306055 -1.260777 1.054761 0.388690 0.308737 -1.457510 1.116821 2.129675 1.542836 -0.866900 1.501549 -0.003287 1.279840 0.926231 0.076033 0.476057 1.109950 0.011408 -1.683894 -1.222974 -0.080372 -1.038398 0.665461 1.169828 1.233277 -1.045757 -1.431959 1.064171 0.233823 -1.801819 -0.504916 0.705261 -2.527624 0.518804 -0.150389 -0.421331 0.628638 0.403219 0.436005 -0.780548 -0.108373 -0.925183 -0.309713 0.290886 -1.389611 1.731368 0.608600 0.448878 1.907723 1.612091 -1.094140 -1.486689 -0.116325 -0.595445 0.045489 -0.070243 -2.528899 -0.312361 -0.633387 -1.720964 1.778772 0.864312 1.804394 0.019929 0.064811 -1.362567 -0.595322 -0.800955 -0.012232 0.058739 0.327630 1.769508 0.922950 0.282609 -0.681060 -0.879562 0.790829 -1.379374 0.132961 0.559124 1.244416 0.353818 -0.879074 0.520036 1.745804 -1.024221 0.247624 0.184733 0.517925 -0.456590 0.356689 -0.034892 -0.751755 0.650485 0.305244 -0.449740 0.629059 0.435759 -0.772531 0.838372 -0.891770 1.155846 -0.883365 -1.739887 -0.626127 -0.311072 -0.070607 -1.369795 -0.515362 -0.001014 0.804774 -0.077325 -0.352690 -0.712729 0.986169 0.758856 0.143623 0.495748 -0.548363
what -0.209988 -0.565686 -0.089979 0.754833 0.005896 0.252828 1.084816 -1.062083 1.282336 0.985046 0.634353 -0.068866 1.556327 1.069251 -0.706419 1.210647 -1.611309 -2.081109 -1.555830 -0.513657 0.886354 -0.629115 0.237272 0.196342 2.486060 -0.936329 -1.211829 -1.208257 -1.535159 0.411324 2.373251 0.941671 -0.715561 0.058878 1.872930 -0.083355 0.398078 2.440131 -0.080597 0.469899 -0.478415 0.172307 -0.989645 1.368827 -1.221625 -0.222833 -0.310098 1.613016 0.310876 -0.760449 0.916659 -1.533288 -0.286885 0.498144 1.206571 -0.262471 -1.078898 0.735871 -0.185879 0.220368 -0.705197 -1.537264 -1.663730 0.616515 0.840488 0.358591 -0.279234 -0.492079 -0.649009 -1.249922 -2.234963 -0.510901 1.179262 1.693227 0.429294 0.471274 0.573479 -0.266830 0.248938 0.662529 -0.622801 2.085831 1.656633 0.536444 -0.062977 0.342302 1.281142 0.654592 0.620117 0.247426 0.330892 1.415113 -1.811609 1.818501 -1.072186 -2.578578 -0.479032 -1.616685 0.667206 -0.194529 -0.567957 -0.035193 -0.703989 -0.370636 1.553996 0.497076 -0.178147 -0.182283 0.597711 0.663033 -0.210074 -0.639755 -0.472236 0.633034 -1.420937 -0.001804 0.745642 -0.808987 -2.961649 0.803969 2.048755 0.125059 -1.102177 -0.917247 0.630776 1.475034 0.778355 -0.301715
will 0.747134 1.261304 1.278560 -0.211329 -0.809020 -1.316127 0.973932 -0.675499 -1.094262 -0.817752 0.179317 -0.073184 0.331142 1.493197 1.146416 -0.290897 -1.120957 -0.540971 0.497678 0.386857 0.719959 0.390618 -0.261388 1.007651 -0.426578 -0.178792 1.133331 1.221521 0.508991 0.172762 2.115039 2.291529 1.151277 0.264243 1.029235 1.348813 -0.128482 0.134637 -0.410334 -1.256362 0.252497 0.206782 -0.340749 -0.269430 1.998949 -0.129027 -0.011316 -0.467674 -2.484406 -0.349169 1.190152 -1.871076 0.000367 0.076678 0.459582 -0.683105 -0.748875 -0.608520 1.767193 -0.581495 0.499813 0.883342 -0.368322 -2.054003 0.323909 -0.016061 0.111458 0.320342 0.634689 -0.003507 1.650633 -0.763415 -0.241901 0.810041 0.285173 0.123043 1.165551 1.864659 0.886946 -1.302233 -0.397350 0.914256 -0.489477 0.051204 1.057319 0.435375 -0.524452 1.405444 -0.055141 0.696915 2.071363 -0.822646 0.091102 1.711012 1.281289 0.487442 4.121166 1.715249 -1.275160 -0.350617 -0.536846 0.049813 0.307384 -0.570182 1.465445 -0.367849 -1.280410 -0.386540 0.022645 -1.696804 -0.146382 -0.919551 -1.051329 -2.785953 1.305787 0.593370 0.153972 -1.628078 -0.031467 0.295177 -0.452044 0.428240 -1.287726 0.621349 -1.609427 1.311131 -2.121041 -0.791001
them -1.292309 0.042513 0.765602 -0.372856 -0.832940 1.430739 1.170798 0.290321 -1.038771 1.060421 -0.539781 -0.001158 1.071136 0.986294 -0.383133 0.679684 -0.257978 0.343979 1.478107 0.640273 1.056517 -1.740173 1.843375 -0.201109 0.241569 0.300478 1.746655 0.712824 -0.455667 -0.637109 -0.084927 1.219505 1.265723 0.779704 -0.522523 0.868361 1.497883 -1.244575 0.365827 -0.747741 -0.746695 0.678836 0.124635 -0.188323 1.124257 0.967481 1.141845 -1.994300 0.573165 -0.414874 0.930737 -0.065720 -1.083946 0.054540 0.639446 -0.339732 1.183550 0.202507 0.626341 0.729040 -0.560487 -0.900631 -0.552340 0.824391 0.436513 -0.419367 -0.213353 -0.715415 0.131008 -1.148094 1.132145 -1.076348 1.953999 2.421811 -0.368313 1.197527 -0.970224 -0.364324 -0.917316 -0.623630 0.249437 -0.872427 2.573197 -1.709580 -0.596731 1.353456 -0.416951 0.470129 -1.884605 0.006100 -0.625830 -1.245414 0.921725 0.325503 -0.838363 0.471730 -0.358726 -0.628568 0.991827 -0.226281 0.616876 -0.724271 -0.362649 -0.472584 -2.645670 -0.608429 -0.122210 -0.260988 -0.558882 1.189186 0.176393 0.188724 -0.323463 1.875963 1.349011 1.510462 -0.877186 0.430089 -0.612983 0.540859 1.279813 -1.069023 1.007243 -1.859574 -0.341905 1.054801 -2.351544 -0.657892
we 1.195344 0.140915 -0.451424 2.012910 1.442001 -0.877761 0.598922 -0.026590 -0.284694 0.427475 1.733524 0.449808 0.343799 0.222135 0.915158 -0.677292 -0.223834 -0.310463 0.760749 1.295208 0.142056 0.003917 -0.359317 -1.819648 -1.845755 -0.682083 1.687128 -0.999687 0.353173 1.324262 -0.371850 -0.091112 -0.416296 -1.614282 1.998785 -0.751805 0.847651 1.696243 0.216024 -1.411242 -1.940777 -0.319773 0.659014 1.039986 0.351118 0.314705 0.827162 0.034449 0.859603 -0.220408 1.150949 -2.234415 3.665528 -0.441115 0.065110 -0.006458 1.827792 0.202775 -0.300227 2.087465 -0.329763 1.660348 0.358433 1.519257 -1.336597 -3.253328 0.376489 -0.356500 0.178079 0.135396 -0.415698 1.225003 0.465853 1.005155 -0.572423 0.942718 0.540661 0.029982 -0.103350 0.782456 -1.375053 -1.945104 -0.375512 -1.148882 1.792951 -0.749139 0.296104 1.107128 0.601587 1.085162 -1.015326 -1.571629 0.370552 0.107936 -0.119769 -0.319320 0.523417 0.601298 -0.330169 -0.405377 0.513668 -1.387782 3.628142 0.172639 -0.192254 -0.717321 0.169744 -1.511836 0.646150 0.751630 -1.215836 -0.486606 0.150094 -0.706700 -2.042061 0.253313 0.403522 -2.741725 1.407772 -1.636270 0.230605 0.218080 -0.360276 0.938723 -0.620527 0.323150 -1.620539 -0.123305
been -0.091757 1.287248 -2.030326 -1.071053 1.028682 0.897524 1.806930 0.866768 -2.180041 -1.219076 -1.202181 -0.271969 3.534157 0.570428 0.340611 1.616708 -1.780017 -1.116279 -0.905327 -1.122414 0.722792 -0.759674 0.796723 0.698284 1.355871 2.111719 -0.503688 -0.594964 0.776224 0.285953 0.810861 0.185828 0.157618 0.779629 0.827369 1.203016 0.944295 -0.931284 0.890233 -0.595930 2.178893 -1.419919 1.216666 -0.019555 0.872554 0.946515 1.251043 -1.798983 -0.677752 -0.111847 0.950293 1.302511 -0.694700 -2.400787 -0.470272 -0.228639 2.414346 2.190062 0.775758 -0.074190 0.378323 -0.060570 1.765303 0.230429 -0.173990 1.544915 -0.049151 0.204584 0.803890 1.496563 0.073889 0.353444 1.258150 0.566299 0.138828 0.686630 -1.131098 -0.168382 -1.265471 1.083040 0.249212 0.987414 -0.365819 -0.520772 -0.441188 -1.242556 -0.565679 0.452608 -0.347869 -0.257019 1.213999 0.316996 -0.959054 -0.877032 -1.020828 -0.270796 -0.700119 0.174591 -0.033837 0.225918 0.752432 0.934504 0.864384 -0.067927 -2.145705 -1.052578 -0.595349 0.114502 0.474493 0.961652 -1.912588 1.526249 1.095318 1.640421 -0.354032 -2.015376 -1.589210 -0.589855 -1.301519 -1.192477 -2.294123 -1.166023 -1.812691 -0.387311 -2.332226 0.403216 0.682934 -0.309811
would -1.293483 2.235977 1.647749 -1.368336 -2.905089 0.097417 2.761042 -0.474422 -1.121289 -1.468954 0.550901 -1.228911 0.083590 -0.271721 -0.579300 -0.005767 -0.670193 -0.557051 1.450272 -0.761859 -0.839437 -0.144028 -1.741783 0.821615 0.189942 -1.564083 0.047389 0.837481 -0.811071 -2.585350 -0.418704 -0.082161 -2.591369 0.173483 -0.549603 -0.175182 -0.704441 -0.692624 -2.393673 0.248757 2.034360 2.269277 0.071992 1.655901 -0.729549 -0.599437 -2.004730 -0.290559 0.203849 -0.496733 1.751824 0.491085 -0.101473 0.132161 -0.477811 -0.049274 0.474493 -1.560410 0.517408 2.667764 -0.520417 0.241781 -1.497277 1.022200 -0.155545 0.460535 -0.499906 1.184872 -0.055065 0.127524 2.352737 0.783513 1.897330 -1.381233 -0.004590 0.869204 0.753306 0.804765 -0.412599 -0.203737 -1.471902 -0.201858 0.308544 0.326168 1.038422 -0.306987 0.135212 1.957762 -0.271192 1.250314 -0.675771 -0.391687 0.578085 1.493151 0.600201 -0.448163 1.142166 1.270521 -1.575845 -1.581218 -0.079204 0.203248 -0.064124 -0.232937 -0.616660 -0.343842 -1.099606 0.229855 -0.614987 -0.427634 -0.065217 -1.294591 -1.172779 -0.565288 -0.271328 -0.869186 0.678358 -1.760949 -0.043142 0.069472 0.391734 -0.514145 -1.565879 -0.637680 -0.316005 0.133323 0.092401 -1.272871
chapter -0.208450 1.818345 -0.605593 0.651555 -0.495307 -0.674210 1.552350 -0.579684 -2.064144 -0.724844 -0.129992 -1.614271 -0.763128 -0.484487 -0.953076 0.154195 -0.162785 0.771550 0.165327 -0.605689 -1.028236 -0.089797 -0.152063 0.296469 -2.115910 0.412984 -0.013895 -1.233551 -0.935406 0.653052 1.082602 0.002638 1.520831 0.811540 1.321095 -0.273910 1.708786 -0.552686 -2.017264 0.882833 -1.867143 1.277273 0.611163 0.034677 0.695973 0.232725 -0.009191 -0.060453 -0.966632 0.629836 0.206040 0.064767 -0.101027 2.032671 -0.884537 0.461393 0.193266 1.091992 -0.242603 1.490358 0.283266 -1.030598 -0.093513 1.708547 1.582875 0.996101 -1.474903 0.945345 0.281315 -0.071434 0.884478 -0.374675 -0.739986 0.624266 -0.274977 0.093046 -0.211593 0.669591 -0.173983 0.088139 -0.062527 2.099207 1.888118 0.040755 1.805332 0.766666 0.130372 0.339456 -1.089117 0.301667 3.124894 -0.201526 -1.792938 -0.242373 0.993714 0.024000 -1.000589 -0.254281 0.507634 1.162154 -0.633088 1.137881 -0.058212 1.097774 0.400164 0.273996 -1.361822 -0.836273 -0.227053 -1.240532 -1.091569 -0.070586 -0.045549 -0.464496 1.674788 -1.441643 -0.704468 -0.624209 -2.214621 0.710799 0.561739 0.878297 -0.682463 0.382089 -1.555338 -0.280288 0.205202 -0.270086
out -0.041417 2.661252 -0.024013 -0.766802 0.403034 0.594358 1.245903 -0.943192 1.162527 0.597399 1.995175 0.575568 0.179063 0.238513 0.100659 2.568743 -1.716105 -0.536114 0.852489 1.108364 -0.573168 0.391248 -1.962701 0.119880 0.175514 1.404756 -0.054319 0.477442 0.567924 -1.538725 -1.994015 -0.251559 0.900823 -1.063167 1.368680 -1.204046 -1.610521 -0.666363 1.411433 -0.125029 -0.524761 -0.015826 -0.037815 -0.229603 2.070852 -0.023942 -0.719774 -0.034489 -1.294753 1.893492 -1.109734 0.324492 0.464597 0.296838 0.876197 0.053276 -0.320990 2.214725 -0.784746 0.338184 -1.464841 -1.530218 0.762930 1.129221 1.625711 -0.460524 0.675660 -0.975055 0.938058 -1.190879 -0.271179 -0.124600 0.642683 -1.030028 0.586288 -0.118950 1.255751 0.773036 1.986570 -0.810644 -1.466858 0.013203 0.656471 -0.034287 -0.722791 0.648652 -1.415162 -0.998468 0.907699 0.528696 -0.728687 -0.693789 -0.517960 -0.844938 -0.902310 0.675086 -0.717411 0.461563 1.159218 1.259291 0.744265 0.474861 -0.125044 0.065017 -1.706967 -0.611284 1.868461 2.053748 0.346780 -1.527259 1.569428 -1.888870 1.776977 -0.098676 0.578429 1.916461 -2.214132 -1.032511 -0.836482 0.900386 -1.302069 -1.074939 -0.189578 -1.157954 -0.352675 -0.264876 -0.014124 -0.897157
more 0.779735 -0.314258 0.572978 0.332782 0.381863 1.190457 -0.290801 1.067954 -1.649572 -0.407608 0.643114 -1.067853 -2.946969 0.553329 -0.472094 1.459704 0.275698 -0.329033 -0.031348 -0.459431 0.606608 1.209457 0.816377 -1.133470 0.263158 0.064999 -0.229338 -0.784878 -0.050581 0.024248 0.099439 -1.873682 -1.760313 1.447326 0.885336 -0.029186 0.890594 -0.539168 0.483359 0.226891 -0.311220 -1.421927 -0.701207 0.579009 1.505355 1.323596 -0.213083 -0.770094 -0.750898 0.096477 -1.953764 -0.995978 1.221210 -0.657881 1.687894 2.670468 1.256004 -0.312290 0.855756 -2.329552 0.681946 1.422706 0.028664 -0.431313 2.066313 -0.462180 -1.518448 1.287403 -0.590800 0.826822 1.081632 0.829623 1.330251 -0.049873 -0.358504 2.002301 -0.578465 0.433837 -0.897033 -0.322429 0.189916 -0.071045 -1.204205 0.274224 0.320738 -0.026535 -0.676969 1.271442 1.005431 -1.250830 -1.228083 1.910089 -1.246052 2.099219 0.296368 -0.973889 0.108094 -1.537205 0.987223 0.007713 0.643548 -0.478911 -0.319533 0.271438 -1.068639 -1.810113 -0.776264 0.778963 2.161542 -1.125468 1.847723 -0.025941 2.398065 0.726957 -1.852433 -2.498264 2.503538 1.071687 0.167105 -0.404001 0.895053 -0.543993 -1.067642 -2.321527 -0.461916 0.596709 0.992374 -0.947796
then -0.291273 0.235084 0.268878 -1.027646 -1.687022 0.129060 0.970900 0.316423 1.020514 1.034624 0.086354 -1.140343 -0.428028 1.442286 -0.974820 2.271448 -0.268795 0.272026 -1.450796 -0.985975 0.060015 1.439659 0.127328 -0.641959 1.594045 1.834616 -0.525818 0.805912 0.261159 1.101146 -0.498205 -0.337919 -0.643501 0.877887 -0.196379 -0.818181 0.248652 -0.084295 0.515383 -1.451672 -0.771608 -0.934582 -0.537375 -0.139757 0.272549 -0.901538 0.832461 -0.686890 1.147134 1.218704 0.524673 -0.969898 -0.927835 -0.854748 1.717534 0.102055 -1.599558 -1.022047 -1.113402 0.950607 -0.040310 -2.007966 -2.850847 1.371995 1.281490 -1.026544 -0.268723 1.084032 0.782357 0.808029 1.239190 0.482072 -0.004229 1.858046 -1.928092 1.632337 1.552155 1.084121 -0.479715 -0.849765 0.439992 -0.727132 0.977751 0.933860 0.382090 0.366242 0.143323 -0.250379 -1.398795 0.434757 0.813996 0.280968 0.716903 0.349608 1.367311 -0.234719 -1.370645 -0.503526 0.256444 -0.943537 0.551658 -0.408346 1.489766 0.398255 2.444263 -0.543935 -0.855794 -0.721995 -0.770913 -0.747070 -2.090456 1.231491 1.443786 0.501778 -0.641623 1.025911 -0.023319 -0.278699 0.991797 -0.005155 1.037894 0.197182 0.193467 -0.473414 -0.248240 -1.190952 -0.160672 -0.542124
up 0.316954 0.067522 -0.407073 0.737112 -0.161873 0.881783 -1.546649 0.025210 1.438961 -0.019015 0.099967 1.852793 -0.185000 0.684363 0.001066 -0.204006 0.570447 0.206964 -1.043541 -1.219516 0.094171 -0.267579 -0.460503 0.070198 0.721690 0.921208 -0.510500 0.963336 -1.879490 -0.113453 -0.531870 0.124863 -0.164814 0.698577 0.254465 0.175604 0.589415 -0.423829 0.858499 -2.468450 -1.556984 0.328328 0.267883 1.955052 2.700851 -0.040740 -0.810162 -2.256387 0.677543 0.705324 1.419512 -1.061862 1.780131 0.432568 0.874167 2.264277 0.283287 -0.042634 -1.953173 -0.563968 -1.394962 -1.219588 0.646689 0.823062 -0.189972 0.897084 1.205683 -0.755432 0.597036 -1.493068 -1.699384 1.970261 -0.477595 1.161429 -0.482862 0.479093 -0.870486 -0.031377 2.200742 0.895494 -1.782949 1.263985 0.581999 -0.296409 -2.670075 -0.194288 0.157681 0.312256 -0.792808 1.089063 0.247971 -1.034995 0.577242 0.815392 -0.235848 2.055554 -0.192304 1.776390 0.218098 0.515462 1.358626 -0.014806 1.848885 -0.635749 0.185251 0.566770 -1.256658 0.895713 1.188604 -1.194768 -2.689613 0.757685 -0.055194 -0.187697 1.289615 0.163888 -1.502290 0.491856 0.299486 0.971413 0.015334 0.950363 0.032349 -0.494257 1.707380 0.585341 -0.030608 -0.529088
has 2.110333 -0.389583 1.857916 0.643441 -0.742979 0.064929 0.743421 -0.838190 0.099155 1.626627 0.961705 -0.831817 1.984881 -1.846525 -2.260559 0.555989 -0.282524 -0.097784 -1.300881 -1.904538 1.747485 -0.392534 -0.312859 -1.129600 -0.769582 -0.406661 1.125278 -0.164407 0.608847 -0.255682 -0.235735 0.317101 -0.813308 -2.313646 2.575515 1.076282 0.576446 -0.068258 1.353178 -0.134829 0.023462 0.112337 1.686336 -1.774483 -0.043102 -0.817572 -0.869782 -1.370804 0.188599 -0.205199 1.191163 -0.575815 0.513812 -1.272931 0.092739 -0.466591 -0.754341 -1.690036 0.120547 -0.709206 1.488707 0.633390 0.116705 1.788196 -1.682463 0.727708 0.023931 1.759003 -0.559813 -0.603825 0.145983 0.834560 1.630934 1.678779 0.621702 0.452025 -1.422363 0.963839 -0.620944 -0.708578 -0.715689 0.615897 -0.046389 0.436622 1.083637 -1.606194 -1.619692 -0.302936 -0.463249 -0.605744 -0.493352 0.336584 0.441850 2.072181 0.445028 -0.450615 -0.170188 2.281957 -2.204886 -0.321130 -1.025919 0.692711 -0.004517 -2.027655 -0.731325 0.138912 0.374363 -0.229721 0.925297 0.930423 0.367098 -0.722579 0.320724 -0.218280 0.593187 2.737836 -1.279330 -1.685060 -0.959718 -0.294020 -0.266330 -0.092265 0.291624 2.341049 -1.871680 -0.072088 0.241522 1.181619
do -0.186796 -0.851505 -0.717105 2.868139 1.879821 0.741441 -0.025163 0.489918 -0.003178 1.307700 -0.265796 0.455369 0.691583 -0.815247 0.211063 0.385028 0.326204 -0.665001 -0.275882 0.796438 0.275867 -0.093687 1.141269 -0.404306 1.563903 -0.447989 0.310952 -0.880758 1.602391 -0.743865 -0.316694 0.661002 -0.865467 1.483791 1.342074 0.361313 0.862500 -1.527106 -0.082999 1.769724 0.678214 1.166793 0.749042 0.152838 2.398491 -0.118470 -0.972070 -0.849422 0.513361 0.879840 0.672840 -2.504531 1.768244 -0.042731 -1.159721 -0.755606 0.639504 -0.051842 -0.526002 0.259271 -0.621213 -1.390542 0.781527 -2.214108 0.251724 -0.614928 -1.456091 -0.233861 0.545132 -1.502316 -0.591450 0.521776 1.537220 1.103201 1.043170 0.616111 -1.621878 -0.169592 0.280811 -0.603334 0.463917 -0.765989 1.268719 1.579992 1.006528 -0.607946 1.533495 -0.081456 0.519327 0.960425 1.502302 -0.387857 2.306237 -0.320233 -0.196306 -0.673678 0.808457 1.002452 -1.883792 -0.189097 0.267321 1.057053 -2.158490 0.307834 0.104516 -0.025245 -1.000240 -1.046902 -2.008749 0.429638 -1.008246 0.878957 0.822949 -0.367005 -0.956316 -0.217476 0.739695 -1.996867 -1.293220 0.029785 0.865330 -1.063859 0.239639 -0.202940 -0.842243 -0.242817 -0.357715 1.398811
into -0.657544 1.552817 -0.005784 -0.185898 1.883565 -0.137219 1.300175 -0.953091 -0.623048 -2.204887 -1.372385 -0.873837 -0.174667 -1.418813 1.428797 1.666354 -2.322647 -1.773132 0.988014 1.236704 0.211530 0.251096 0.365955 -1.589833 0.305272 -0.382691 -1.302714 0.637663 0.607523 -2.385936 -0.383090 -0.910889 -1.568975 -0.104787 0.190065 -0.366950 0.557063 0.957656 -0.961835 -0.707420 0.478744 0.318877 -1.198882 0.000742 0.964478 -0.223184 -0.098264 0.079856 0.141313 1.874323 2.913572 -1.953450 2.341751 -1.895896 -1.916000 0.515195 1.068980 -0.302117 1.491299 -1.430543 -1.531306 -0.805738 0.129515 2.013513 -0.687871 0.094590 -0.661294 0.130999 0.276651 -0.812397 0.517250 0.132382 0.819236 -0.254383 -1.460415 -0.850382 1.060414 1.344895 -0.629696 -1.032109 -0.470641 1.647282 -0.798638 0.280501 0.186644 -1.707644 -1.091171 -0.177584 0.542914 -0.611467 1.498038 -1.107158 0.747959 0.215522 -0.124230 1.081655 -0.098008 -2.262729 -0.721110 0.453353 2.076638 0.621029 -0.116435 1.583025 -0.261727 1.073616 0.992328 0.794031 1.715270 1.633836 0.059859 -0.504503 2.470667 -0.396716 0.642141 1.503422 -2.081082 1.880137 -0.640774 -1.398080 0.312499 -1.386794 0.755618 -0.119504 1.896328 0.015717 0.445078 -1.253648
very 1.511127 -1.230229 -0.130679 1.095719 1.440959 -0.374196 -0.838037 0.460721 -0.969988 -0.262995 -0.678309 -0.637640 1.546261 -1.380549 -1.244522 1.064697 -0.157947 -0.526537 0.299421 0.681522 1.433323 -0.579225 -0.885576 -1.566999 1.512338 -0.632087 0.217081 1.244150 -0.076097 -0.815026 -0.479047 -1.597060 -1.547338 -1.469138 0.972216 -1.028568 -0.122138 1.639787 -2.146028 -2.877148 0.600871 0.000995 1.111089 0.764205 1.395733 0.796009 -0.695652 -0.422274 -0.647526 -0.971927 0.247444 0.516531 1.258393 -1.140295 0.458481 -0.309427 -0.050665 1.692370 0.232619 -2.709746 0.780385 0.371465 1.657981 -0.547097 -0.885078 1.284129 1.139222 1.641367 -1.852862 1.577056 1.191485 -0.461930 -0.944120 0.582029 -0.823971 -0.763333 1.629732 0.939315 0.528361 1.638096 -1.806673 1.494706 -0.501651 -0.197171 -1.229569 -0.145824 1.206912 0.721605 -0.205294 -0.523642 -0.430786 0.231521 -1.141958 0.023243 0.688444 -0.735284 -0.669057 0.764031 -0.130599 -0.130051 -0.266249 -0.478306 -0.340190 -0.101824 1.141050 1.524037 -0.174871 -1.211745 -0.001479 -0.758612 0.012643 0.717686 -1.378560 2.490357 1.247586 0.238167 -0.060943 0.221630 -3.077363 -1.084962 1.214188 0.191404 -0.505732 -1.000395 -1.294676 -0.607211 0.858086 -1.415040
some 1.840243 1.806984 -0.344801 0.934106 -0.357991 1.083355 -1.522250 0.952472 1.613956 -0.068220 3.205052 1.272469 -0.631858 -0.461023 0.965428 2.821308 -0.106127 -0.382726 1.404491 0.239938 -1.013129 -1.576173 1.801706 0.396243 0.003419 1.005573 -0.365573 -0.903930 0.431025 -1.816557 0.685345 -0.675424 -1.887504 1.826811 0.016920 0.606477 0.826802 -1.166708 0.196591 -0.243185 0.072966 -0.235771 1.150945 0.767214 1.385690 -0.694904 -0.369400 -0.353425 -1.809030 -1.228256 0.213656 0.560297 -0.550433 0.918443 0.549878 0.518448 0.359022 1.501124 -0.097503 0.053602 -0.968388 0.573384 -1.605450 0.462224 -1.076554 0.537642 1.153816 -0.575289 0.038093 1.210746 0.496934 1.002869 -1.851005 0.570017 0.696162 3.079610 -0.682259 1.134557 -0.378435 0.527915 0.056683 1.931239 0.829985 -0.090296 1.629052 1.161716 1.034870 0.962771 1.767747 1.648484 0.833933 1.272830 -0.346213 0.440310 -0.312366 2.209502 0.754849 0.558142 0.116075 0.910003 -0.173467 -0.138929 0.958295 0.570748 -0.258072 1.686070 0.719018 -1.145624 -0.655977 0.237293 0.720790 -0.706222 -0.199908 -0.047473 1.178398 -2.653433 0.444159 0.255448 -2.237934 0.366282 -0.487815 -0.241489 0.288803 -1.064047 0.257802 -0.703786 -0.945156 -1.335858
any -0.384774 0.215477 0.719906 -1.317389 -0.296864 -0.543148 -1.122398 -0.248437 1.378490 -0.069312 0.849887 0.066686 -0.487347 0.351970 0.970395 1.909425 1.004856 0.870153 0.974468 0.883467 0.029253 -0.718697 -1.662126 2.489391 1.166103 0.580514 0.209433 -0.511211 -0.195925 0.269853 -0.752070 -0.494459 -1.315398 2.557289 0.335255 0.123526 0.777859 1.711019 1.187294 -0.790514 0.609214 -1.285663 -0.737337 -0.793027 -0.869135 0.363093 0.977921 0.203144 1.110001 0.061308 -0.871767 0.263857 0.305781 0.112680 1.433841 -1.059678 1.486184 0.273699 -1.418585 -0.408863 0.180188 -2.683642 0.220523 3.208472 0.057108 -0.325947 0.290748 0.105552 -0.279123 0.594953 -1.402483 1.663679 -0.498404 -1.820510 1.573903 0.189476 -1.052433 0.302072 -0.440323 -1.010808 0.929577 0.536411 0.058649 0.330942 -0.270723 2.393749 -1.532391 0.246482 0.038755 0.469167 -0.058981 -0.543355 0.130055 2.005696 -0.952001 1.389236 -1.119247 0.769121 -1.024864 -0.748368 0.455120 0.397710 0.366551 1.789641 -1.413315 -0.351336 -0.151564 -1.731419 -0.089562 1.746646 0.335290 -0.778446 -1.486225 -0.367444 0.910355 -0.491201 1.253005 -2.821241 -0.235931 0.239429 -0.209821 1.199846 0.650414 -1.192163 0.877427 1.328393 0.814236 -0.365725
your -0.720284 1.237798 0.532780 -0.121870 0.079877 -0.427597 -1.425240 -0.201336 -0.237164 -0.834551 0.534651 -0.219745 -0.535081 0.060868 1.921832 -1.534966 -0.816895 -1.119272 -0.053789 1.264282 -0.664102 0.848085 1.233501 1.182356 0.039688 -0.234933 -0.550904 -0.690690 0.839925 -0.820370 -1.795416 -1.383716 0.197057 0.134829 0.353168 1.169504 -0.545065 -0.698102 -2.176257 0.815421 -0.483258 -0.961935 -0.100857 -1.168919 -2.207288 -0.043930 1.583298 0.568161 0.585880 -0.980836 -0.299301 -0.503615 -0.731639 0.055155 2.151985 -0.384687 -0.462945 0.304610 0.186825 -0.770724 0.608533 -0.639915 0.951963 1.126052 1.038168 -1.343917 0.119805 -2.420984 -0.785043 1.162559 0.806920 1.726012 0.773801 -0.453632 1.016126 2.056606 1.424526 -1.147897 0.478100 -0.577498 2.132974 -0.068106 2.406065 0.143447 -0.309753 0.171137 -1.210888 0.827444 0.207089 1.054050 -0.395053 0.192261 -0.323187 0.191863 -1.099470 0.708774 -0.097265 0.816217 -0.888235 0.220435 -0.945291 0.296390 -1.078614 -0.743293 -0.950006 0.079042 -1.349602 -0.591300 -0.319119 -1.983361 0.643468 -1.598448 -0.066770 0.007301 0.615745 -0.998852 -1.613546 -0.080902 0.166139 -0.447163 1.341382 1.256683 1.072289 -1.144764 0.388019 0.397570 0.081937 0.663000
its -0.939725 0.746407 -1.477031 0.028123 -0.098571 1.507814 0.696210 -0.429194 1.408238 0.797808 0.917564 2.024495 -0.283318 -0.934352 -0.939388 -1.207209 0.588570 0.111487 -1.173299 1.692100 -0.413518 -0.060932 -0.827894 0.398189 0.308485 -0.209840 -1.006448 -2.092849 0.560259 -0.021074 -0.869255 1.295873 -2.230619 -0.206507 -0.967355 0.566092 -0.050884 -0.073813 -1.587916 -1.645508 -0.309680 -0.242971 0.114621 1.244497 -0.457406 0.695738 -0.651461 0.345507 -0.291299 -0.830358 2.245175 -0.709006 1.321947 -1.262560 1.206465 0.027977 1.382226 1.053029 0.134212 -0.684371 -1.128296 0.523921 0.416193 0.874349 0.454326 -0.818076 -0.613841 -0.099842 -1.884889 2.020086 0.165483 1.111996 0.919059 1.011796 0.504443 0.127706 -0.915652 -0.368079 0.018863 -1.441627 0.898627 -0.771774 0.212675 -0.545726 0.377788 0.253262 0.011138 -0.022848 1.845088 2.093107 0.434723 0.178454 0.242566 0.250154 -1.432000 2.011291 -1.469307 -0.380304 -0.841510 0.196798 0.947498 0.963822 1.716437 0.218506 0.376756 -0.902380 0.214652 0.716904 1.859334 -0.679531 0.134966 0.848473 -1.060363 -0.820540 -0.427900 -0.766096 -0.909409 -0.546193 0.484625 0.170366 0.644317 -0.121464 -1.147594 1.396281 1.176915 -0.101336 -0.696842 1.572326
than -1.147354 -1.405215 1.390801 -0.512487 0.050023 -0.823836 0.708804 0.006488 -0.386219 -0.441240 1.420929 -0.812709 0.881264 0.255650 0.140463 -0.837335 0.008343 1.979822 1.902267 1.718635 -0.295339 -2.217239 -0.989524 1.563228 0.071387 0.671358 0.436393 1.138610 0.657606 -0.326226 -0.113387 -0.277819 -1.580184 0.945033 1.023719 0.334297 -1.644372 -1.489982 0.927662 0.048330 -1.921269 0.400804 -1.634449 -0.571347 -0.743951 -1.036517 -0.051914 -0.284615 -1.404041 -0.293970 -0.655742 -0.084130 0.519139 -1.231661 0.751927 -0.744778 0.017816 0.896012 -0.295250 -1.292800 0.286821 -0.570363 0.471536 -1.687235 -0.601467 -0.582183 -1.215451 0.016239 -0.740133 -2.521960 -0.739902 0.112889 -0.832081 -0.841655 0.210057 1.741205 1.257905 0.928514 -1.265890 -2.274052 -0.167430 0.756893 0.861620 -0.124967 0.230775 -0.424849 -0.739270 1.037738 0.050790 -0.720091 -0.162696 1.492313 -0.500069 0.034387 1.444472 2.166336 0.743094 1.503183 -0.993165 0.799550 0.875202 -0.389502 0.162786 -0.572783 1.182457 2.291929 0.111131 1.328718 1.124371 2.641231 -0.529461 0.620340 -1.402809 -0.435929 1.418065 1.270537 -1.686384 0.090544 -2.900207 0.483108 -0.025339 0.618160 -0.844370 -0.401976 0.404059 0.065522 1.150755 -0.747144
man 1.236383 0.626494 -1.676425 -0.571158 -0.314368 -0.795040 0.583695 -0.320383 -4.075610 0.995779 0.968032 0.322172 -0.248509 0.959747 0.285156 0.167536 0.129976 -0.946274 0.779943 -0.652668 -0.156417 -1.053579 1.091617 -0.879077 0.006383 1.143702 -1.367188 0.396828 -2.034708 0.945001 -0.106554 -0.677285 -2.493444 0.526985 -0.017650 0.114146 0.427956 0.565995 -0.467536 -0.528305 0.202214 0.251463 -0.523000 -1.648800 -0.929391 3.019743 -0.063437 2.657775 0.241559 -1.023476 -0.431583 -0.479817 -0.242652 1.116791 -0.835487 1.140610 0.864850 0.178264 -1.092256 -0.320143 -1.265424 -1.443288 0.149764 -0.660342 0.871940 -1.192126 0.171859 1.023077 1.853756 0.990121 -0.711009 -0.079955 1.095699 -1.115804 1.038180 -0.499671 -0.381626 0.319633 1.157474 -0.538601 -2.120536 -0.831628 0.588881 -0.352188 0.088679 0.853108 0.953163 2.480676 -0.910999 -0.973195 0.255699 -0.779350 0.210449 -0.975692 0.979503 0.956416 1.661616 1.401127 -1.681115 0.341014 0.134238 -0.307578 0.359061 1.121119 -1.686844 -1.712835 1.549541 1.181526 0.655073 -0.760104 -1.176831 -1.675417 0.841183 1.472176 0.291969 0.265833 0.149663 0.803459 -1.423221 0.911918 0.421777 0.913843 -0.535205 -2.427242 -0.693692 -1.493386 0.357304 0.279759
like 1.114061 -0.782375 -0.056317 -0.698990 0.862339 -1.394296 1.345767 0.151943 0.170711 -0.661789 -0.682889 0.041035 0.881326 0.254546 0.523318 -0.466420 -1.819927 -0.487756 1.634144 -2.738834 -0.890475 -1.403414 -0.178460 -0.318451 0.689368 0.474828 0.885547 -0.995903 0.486068 -1.820854 -0.845607 1.237110 1.100872 -1.101132 2.517516 0.065060 0.635701 -0.283882 -2.770785 -1.153093 -0.121660 0.834524 0.654334 1.253523 -0.485627 -0.436316 -0.248827 -0.515219 -0.963203 -0.645594 0.967152 0.547465 -0.177773 -1.282399 0.150508 -0.068922 0.525059 -0.014000 -1.922021 -2.559831 -1.601381 0.516241 1.006523 -0.746218 0.923092 -1.360540 -1.107893 -2.330072 0.173821 0.797514 -1.432945 -0.793624 0.997035 -1.148185 -0.310452 0.895079 1.175090 -0.625579 -0.132331 0.917607 0.385675 0.515144 -0.968481 -0.232513 0.429419 0.717263 0.359646 -0.456751 1.346007 -0.180293 0.183053 0.740739 0.570583 -1.149722 2.280479 -0.585849 -1.375314 -0.774696 -1.035337 2.816051 0.617099 -0.635893 -0.277083 -0.100736 0.203706 1.120826 1.286420 0.411232 -1.571994 1.473404 0.100134 1.234464 0.231502 -0.246159 0.063552 1.941905 -1.577505 -1.945995 0.502877 -0.911053 -0.901719 -0.393056 -0.997197 -1.044754 -1.461186 -0.626622 1.189768 0.384599
could 2.851499 0.922263 0.680337 0.294677 -0.875913 1.536255 -0.777505 -0.799943 -0.555641 -0.121699 -0.950658 -1.006877 -0.136792 -0.478724 0.828359 -0.434793 -0.283144 -1.176078 1.650016 -0.599251 -0.634181 0.503387 -1.576735 0.199672 1.100148 -1.757216 0.743240 0.929650 1.204813 1.239606 1.141834 0.360854 -2.775852 -0.264025 -0.307995 0.291223 2.100186 -0.913334 0.323584 1.808797 1.351095 -0.070808 1.384623 1.305552 -1.122498 -0.067726 0.118029 -0.036483 -1.819838 -0.182651 -0.950194 -1.906192 -2.287343 0.551518 1.908863 1.081790 -1.873967 0.032422 0.110231 -0.090660 1.322100 0.417556 -0.862445 0.040455 0.545815 -1.171281 -1.597135 -0.090054 -0.102913 0.393908 2.253504 0.998017 -0.120581 1.489084 1.553647 -0.744953 -1.149929 0.627604 0.148834 -2.278981 -0.675337 0.292737 0.862434 -0.097877 -1.768748 0.695489 0.407791 -1.150732 -0.778731 0.521490 1.059812 -1.367882 -0.784730 0.556710 -0.557634 -1.557231 1.670189 1.791267 0.590351 -0.038250 1.444253 -0.354571 0.652906 -0.939893 -0.237949 0.722442 -0.292616 0.139455 -0.545924 -0.724009 -0.159863 0.241966 -0.800149 -0.739792 0.061869 1.729512 -1.414117 -1.379487 0.085459 -0.008017 -0.170291 -0.185636 -0.614490 -0.669058 -0.186446 2.284645 -1.970162 -1.712678
now 0.619045 1.221158 1.127321 -0.825573 1.132989 0.380375 -1.229754 0.658034 -0.354309 2.348608 -0.009912 -1.124367 -0.712580 1.638274 -0.220621 1.140846 1.822048 -1.547510 0.278298 -2.014276 -1.208767 -2.049688 0.492863 -0.621168 -2.194481 2.245100 -0.316512 -1.256650 0.372919 0.340767 -0.162896 0.804285 -1.014370 -1.251023 0.939251 -0.630978 1.659809 -0.056952 0.038848 -0.803365 0.490193 -0.834684 0.203871 0.072759 2.104426 1.814211 -0.070157 -0.142119 -0.292591 0.543578 -2.393921 -0.506957 -0.065893 -2.299477 -1.192064 -1.060742 0.692192 -0.194212 0.513370 0.636959 0.537131 0.233634 -0.176216 -0.317876 1.016921 -0.239770 1.042194 -0.979237 0.382152 0.978247 0.328243 2.329679 0.303346 0.263245 0.411604 -0.107272 1.763269 -0.596585 -0.889401 -0.790656 -1.913858 -0.484264 -0.129158 0.608822 0.581356 1.587129 -0.555213 -1.233464 -0.566221 1.498871 0.865942 -1.366396 -1.370954 -0.522074 1.072750 0.509434 -0.205265 -0.307863 -0.017919 1.763562 0.217607 -0.759014 0.722884 -0.725242 -0.159285 1.716422 1.092706 0.677988 -0.694971 0.526833 -0.834163 1.153842 -0.756509 -0.264855 -1.334004 0.363001 -0.451301 1.674229 -0.244744 -0.913323 -0.320004 0.042546 0.321723 -1.246533 0.032335 -0.114318 -1.754748 0.308281
time 1.304146 0.348993 0.069779 -1.368240 0.807033 1.170682 -0.271195 -0.597984 -1.414342 1.592129 -0.714295 -1.360933 -0.178960 0.860821 -1.034249 2.121370 2.081009 1.862301 0.408715 -0.842979 -1.235693 -1.512207 0.632379 0.747645 0.816197 0.322559 -0.050572 0.138651 1.840083 1.229020 -0.313821 0.079300 0.955082 0.756665 -0.275781 -0.732749 0.641221 1.821530 -0.702644 -1.176989 0.272615 -1.620655 1.114668 2.381597 -1.213582 -0.284300 -2.051296 -3.225966 -1.416927 0.706305 -0.500401 -0.170487 0.929123 -1.189851 0.882554 -0.176392 -1.772915 0.890837 0.715463 -0.333840 0.010313 -0.236707 0.288649 -3.504837 1.277184 -0.956323 0.174809 0.834046 0.532907 0.167900 0.310463 0.700139 -0.145847 -0.921930 -0.616214 -0.886735 -0.083312 -1.008956 0.642766 0.794208 0.454411 0.272651 -0.425957 -0.341517 1.552511 -0.099581 -0.205534 1.238780 -0.665724 0.062303 0.410131 1.685038 -0.716080 -1.275079 -0.352163 -0.395521 0.265544 -0.322790 -0.413238 -1.932468 1.599025 -1.364663 1.225904 -0.743608 -0.734186 -1.526203 1.037024 -0.209493 0.238279 0.044184 -3.093800 0.238913 -2.213582 -0.418574 1.796775 1.058992 -0.446677 1.270044 -0.339757 0.361652 -0.003013 0.142288 -1.098356 -0.933096 0.725407 -0.883093 -0.516495 -0.302612
little 0.589934 1.070783 -2.310308 -0.393829 -1.795410 0.019934 -1.237780 -1.096808 0.266999 -0.766548 1.160979 1.073319 0.475541 -0.523027 -0.235781 -0.265407 0.491691 -0.621331 0.607017 1.568761 -0.988801 0.256134 -0.161790 0.842353 1.344901 -0.678021 1.108285 -1.401816 -0.856322 1.336677 0.736551 1.329484 -1.169740 -0.799397 -1.688831 0.128637 -1.251075 0.456178 -0.152683 1.947939 -1.413107 0.048680 -0.104579 -0.001947 2.320791 0.947844 -1.668759 1.436737 0.090650 -0.910067 0.534676 0.056199 0.153316 -1.627210 0.582277 1.328958 -0.708986 0.010527 0.543503 -1.019211 -0.817022 -0.730706 -1.109675 -1.174731 -0.754692 0.413896 -0.169629 -0.520691 0.790665 -0.135215 -0.208737 -1.858916 -0.562070 -0.997334 -0.354224 0.334808 0.181910 0.783138 0.164610 -1.699647 1.655927 1.949164 0.722020 -0.323817 0.791280 1.538967 0.744422 1.043939 -1.369515 0.872301 -1.015686 1.162086 -1.157846 -0.430182 0.736050 0.012431 -0.824060 -1.213196 -1.335939 1.726251 0.379109 0.673994 -0.531683 -1.873681 -0.085102 2.150825 -2.111955 0.090535 0.325675 0.313135 1.499807 -0.643092 0.377528 1.344698 -0.789991 2.233957 -1.818709 0.953648 1.263250 0.647722 0.741372 1.139236 -0.121931 -1.268117 0.768821 -1.130352 0.026878 0.166773
only -0.640552 -0.243192 1.167850 -1.699295 -0.372462 -0.225476 -0.356401 2.192109 -2.645926 0.552859 0.697023 0.125884 0.679206 0.805844 -0.357515 0.948316 -0.903403 0.286641 0.435190 1.846300 -2.479400 -0.259807 -0.862391 -0.745912 -0.403937 -1.422218 0.446332 -0.472213 0.742946 -0.461983 0.063387 1.395665 -1.010430 1.644507 0.617307 0.949471 0.552946 0.419042 0.286708 1.214617 1.680013 -0.933516 0.843646 0.886299 -0.430847 0.074447 -2.614309 -0.346296 0.038872 0.295079 1.498598 0.070446 -0.580862 -1.263680 -1.333592 -0.226219 0.667271 -0.583046 0.074666 -0.683486 1.194596 -0.324074 -0.735156 -1.505820 0.603879 1.235524 0.520670 0.686787 -0.081527 0.161273 -1.103707 1.378619 1.307231 -0.641968 -0.026030 -0.421417 0.964817 1.058510 2.371522 -0.048986 -0.092493 0.916349 1.548655 1.439605 -0.077084 0.564775 1.102638 -0.419029 1.191598 -0.821085 -1.088647 -0.782789 -0.883203 0.127080 0.504056 0.068970 1.589853 1.625142 0.547918 0.055885 -0.664218 1.182646 0.993688 0.962499 -1.187493 -0.589135 0.559214 0.713448 1.796800 0.380435 -0.955607 1.192894 -0.880446 0.206644 -0.047613 0.365409 0.467297 0.180217 0.705538 -1.042213 0.197349 -0.782519 0.371846 -1.667262 -0.901034 1.511849 -0.888679 1.133733
other -0.140837 -1.758977 0.028616 1.991462 0.638115 -0.137401 0.741435 -0.525818 -0.347799 0.376276 -0.117392 -1.271922 0.841018 2.624516 0.750881 0.579225 -0.525494 -0.213539 -0.503776 0.652881 -1.716752 -1.250378 0.427408 2.808460 -1.834330 0.886463 0.078946 -2.365891 0.136354 -0.072285 -0.323316 -0.784705 -1.118377 -0.969739 -0.911944 2.234584 0.247570 -1.141926 -0.172201 -0.653636 0.098940 0.517892 1.799195 0.960638 0.229654 -0.136825 -0.237742 -0.173770 -1.008717 1.678208 -0.875688 -1.456969 1.489389 0.065682 -1.191312 0.813464 0.614901 -0.355087 -0.167156 0.083577 0.736921 -1.861795 -0.726081 -0.358105 -0.048009 -1.178408 -1.325180 0.294942 0.040496 1.533673 0.355116 -0.269975 -0.831631 0.665654 0.017506 0.711828 0.443241 0.366725 0.305705 0.228134 0.366964 0.496171 -0.947153 -1.245210 -0.612591 0.342496 -1.265348 1.352254 0.083493 1.690781 -0.154721 0.825914 0.047795 -0.757944 -1.288272 0.542335 0.038155 -1.713884 0.581255 -0.528798 1.421787 1.466056 -1.174968 -0.997311 -0.328290 1.133330 0.381719 -1.451322 1.804906 -0.756165 1.427091 -1.610746 -0.749570 -0.617173 -0.543576 -0.930912 0.376342 1.305517 1.007030 -0.276568 2.216482 -0.313254 1.479604 -0.475713 -0.390805 -0.423991 -0.688494 1.001166
upon 0.273943 -0.975429 3.452081 -1.108661 -1.092171 1.320749 0.999371 0.101383 0.325571 -1.145590 -0.248097 -0.107355 -0.132648 -0.845035 1.410168 0.053480 0.599018 0.094495 1.552085 -0.880394 0.626250 0.509855 -0.160589 -1.861723 -0.310473 0.440395 -0.921474 -0.009371 -1.344367 -0.561198 0.459879 0.719297 1.616277 -0.761461 0.291797 0.995300 1.032504 0.778826 -0.456420 -1.068959 1.070928 1.809117 -0.830666 0.404837 0.744958 -0.327601 -0.948718 -0.210906 -0.689953 0.574116 0.133655 -0.415388 1.349954 1.000078 -0.545020 0.857550 0.834671 1.051278 1.111356 -0.848335 0.027090 1.347714 1.279822 0.027637 1.197578 -0.426803 -0.455503 1.168965 0.626113 -1.153183 -1.784623 1.473064 1.594058 -0.769011 1.345661 -1.288862 -0.277555 0.897735 1.013595 -0.866374 -0.100370 1.992015 0.836338 -1.273630 -1.100257 1.296305 -0.881268 0.209038 -0.949494 0.331977 1.001950 -0.240336 0.151925 -0.477748 -0.767978 0.610081 -0.658341 0.367880 0.542596 0.628634 0.830386 0.248659 1.869695 0.404812 -1.132095 0.266090 -0.255472 0.498705 1.244183 -1.005453 0.470428 -0.900751 1.008591 -0.607814 -1.203851 0.525465 0.475488 0.240725 1.010859 -0.555075 -0.081881 0.265053 0.122961 -1.288543 1.074810 -1.241142 1.761606 -0.878248
such 1.125398 -0.420277 0.125929 -0.013354 0.819774 1.791047 0.465613 2.250069 -1.557624 0.389494 1.201941 0.307593 1.008741 0.327210 0.011259 -1.128394 -0.903101 0.240877 -0.137850 -0.118408 0.373627 0.359720 0.716346 -1.573551 -0.051581 -2.426110 1.059595 -1.506443 -0.549105 -0.447855 -1.862013 0.408466 1.458695 -0.433512 -0.666146 -3.106844 0.712095 1.510485 -0.693749 1.314969 0.119472 -1.621669 1.761812 0.374759 -1.460766 0.363569 -0.635656 0.968531 0.342468 1.453003 0.662456 0.639200 -0.067069 -1.216745 0.129702 -0.545340 2.724567 0.492566 0.785945 -0.714489 -0.081473 -0.104061 -0.581677 -1.158458 0.515130 -0.453116 -0.854404 0.567539 0.635852 2.139416 0.524120 -0.460806 1.281095 -1.274639 -0.252703 1.059619 -0.816746 1.764299 0.912964 1.132068 0.887107 1.406075 0.223085 -0.438964 0.708202 2.241750 0.632969 -0.104940 0.530355 2.599157 1.065456 0.063486 -1.694675 1.254298 -0.464590 1.000719 0.376403 -1.647251 -2.165891 0.687158 1.330995 -0.027284 -0.622667 -0.010850 -0.623369 0.201482 -0.659696 0.579267 2.051296 0.662329 0.410668 -0.576068 0.502683 1.347082 0.066082 0.503018 -0.081247 -1.899408 1.521594 1.362111 0.145468 1.086050 -0.934014 -0.491848 1.456806 1.123463 0.975756 -0.311067
